{"learner":{"attributes":{"scikit_learn":"{\"_estimator_type\": \"regressor\"}"},"feature_names":["promedio_consumo","consumo_90d","tendencia","stock_actual","stock_minimo","lead_time_base_dias"],"feature_types":["float","float","float","float","float","float"],"gradient_booster":{"model":{"cats":{"enc":[],"feature_segments":[],"sorted_idx":[]},"gbtree_model_param":{"num_parallel_tree":"1","num_trees":"250"},"iteration_indptr":[0,1,2,3,4,5,6,7,8,9,10,11,12,13,14,15,16,17,18,19,20,21,22,23,24,25,26,27,28,29,30,31,32,33,34,35,36,37,38,39,40,41,42,43,44,45,46,47,48,49,50,51,52,53,54,55,56,57,58,59,60,61,62,63,64,65,66,67,68,69,70,71,72,73,74,75,76,77,78,79,80,81,82,83,84,85,86,87,88,89,90,91,92,93,94,95,96,97,98,99,100,101,102,103,104,105,106,107,108,109,110,111,112,113,114,115,116,117,118,119,120,121,122,123,124,125,126,127,128,129,130,131,132,133,134,135,136,137,138,139,140,141,142,143,144,145,146,147,148,149,150,151,152,153,154,155,156,157,158,159,160,161,162,163,164,165,166,167,168,169,170,171,172,173,174,175,176,177,178,179,180,181,182,183,184,185,186,187,188,189,190,191,192,193,194,195,196,197,198,199,200,201,202,203,204,205,206,207,208,209,210,211,212,213,214,215,216,217,218,219,220,221,222,223,224,225,226,227,228,229,230,231,232,233,234,235,236,237,238,239,240,241,242,243,244,245,246,247,248,249,250],"tree_info":[0,0,0,0,0,0,0,0,0,0,0,0,0,0,0,0,0,0,0,0,0,0,0,0,0,0,0,0,0,0,0,0,0,0,0,0,0,0,0,0,0,0,0,0,0,0,0,0,0,0,0,0,0,0,0,0,0,0,0,0,0,0,0,0,0,0,0,0,0,0,0,0,0,0,0,0,0,0,0,0,0,0,0,0,0,0,0,0,0,0,0,0,0,0,0,0,0,0,0,0,0,0,0,0,0,0,0,0,0,0,0,0,0,0,0,0,0,0,0,0,0,0,0,0,0,0,0,0,0,0,0,0,0,0,0,0,0,0,0,0,0,0,0,0,0,0,0,0,0,0,0,0,0,0,0,0,0,0,0,0,0,0,0,0,0,0,0,0,0,0,0,0,0,0,0,0,0,0,0,0,0,0,0,0,0,0,0,0,0,0,0,0,0,0,0,0,0,0,0,0,0,0,0,0,0,0,0,0,0,0,0,0,0,0,0,0,0,0,0,0,0,0,0,0,0,0,0,0,0,0,0,0,0,0,0,0,0,0,0,0,0,0,0,0,0,0,0,0,0,0],"trees":[{"base_weights":[5.946153E-4,-3.4628233E-1,5.770462E-1,-5.9263116E-1,-1.2796521E-1,3.6113608E-1,1.0460255E0,-7.3899156E-1,-4.7337395E-1,-2.4298404E-1,-1.9003833E-2,2.3834202E-1,5.033342E-1,9.371902E-1,1.6351238E0,-8.4796375E-1,-6.7612875E-1,-5.2438563E-1,-4.0745878E-1,-2.9643732E-1,-1.8067646E-1,-7.431486E-2,4.330405E-2,1.7674935E-1,3.0493277E-1,4.4007108E-1,5.798996E-1,7.976776E-1,1.0689268E0,1.4131192E0,1.9768459E0,-3.0577207E-2,-2.7535427E-2,-2.393732E-2,-2.1354197E-2,-1.8899933E-2,-1.6662294E-2,-1.4595222E-2,-1.2570166E-2,-1.0812792E-2,-8.863292E-3,-6.9665597E-3,-5.007867E-3,-3.5343433E-3,-1.4966998E-3,5.791298E-5,2.5985953E-3,4.324351E-3,6.7761443E-3,9.327831E-3,1.1519022E-2,1.2665476E-2,1.543966E-2,1.8640615E-2,2.1943823E-2,2.5251744E-2,2.8653497E-2,3.4597643E-2,4.0963814E-2,4.6676815E-2,5.4760214E-2,5.8927532E-2,7.712645E-2],"categories":[],"categories_nodes":[],"categories_segments":[],"categories_sizes":[],"default_left":[0,0,0,0,0,0,0,0,0,0,0,0,0,0,0,0,0,0,0,0,0,0,0,0,0,0,0,0,0,0,0,0,0,0,0,0,0,0,0,0,0,0,0,0,0,0,0,0,0,0,0,0,0,0,0,0,0,0,0,0,0,0,0],"id":0,"left_children":[1,3,5,7,9,11,13,15,17,19,21,23,25,27,29,31,33,35,37,39,41,43,45,47,49,51,53,55,57,59,61,-1,-1,-1,-1,-1,-1,-1,-1,-1,-1,-1,-1,-1,-1,-1,-1,-1,-1,-1,-1,-1,-1,-1,-1,-1,-1,-1,-1,-1,-1,-1,-1],"loss_changes":[1.8593432E4,3.121766E3,3.5362266E3,4.751084E2,3.8561853E2,4.1724365E2,7.031846E2,8.253467E1,4.9878174E1,4.9577454E1,5.4502174E1,5.2380432E1,5.2928223E1,1.6910059E2,1.2560254E2,6.684326E0,1.0111084E1,8.456543E0,5.2148438E0,6.1746826E0,5.5616302E0,7.568001E0,1.0388332E1,7.6420135E0,6.005615E0,6.3587646E0,8.693237E0,1.0062744E1,2.7662598E1,2.663086E0,4.177832E1,0E0,0E0,0E0,0E0,0E0,0E0,0E0,0E0,0E0,0E0,0E0,0E0,0E0,0E0,0E0,0E0,0E0,0E0,0E0,0E0,0E0,0E0,0E0,0E0,0E0,0E0,0E0,0E0,0E0,0E0,0E0,0E0],"parents":[2147483647,0,0,1,1,2,2,3,3,4,4,5,5,6,6,7,7,8,8,9,9,10,10,11,11,12,12,13,13,14,14,15,15,16,16,17,17,18,18,19,19,20,20,21,21,22,22,23,23,24,24,25,25,26,26,27,27,28,28,29,29,30,30],"right_children":[2,4,6,8,10,12,14,16,18,20,22,24,26,28,30,32,34,36,38,40,42,44,46,48,50,52,54,56,58,60,62,-1,-1,-1,-1,-1,-1,-1,-1,-1,-1,-1,-1,-1,-1,-1,-1,-1,-1,-1,-1,-1,-1,-1,-1,-1,-1,-1,-1,-1,-1,-1,-1],"split_conditions":[2.8322E1,1.7072E1,4.5433E1,1.2029E1,2.2299E1,3.5725E1,7.1082E1,8.952E0,1.5017E1,1.9768E1,2.5147E1,3.1662E1,4.005E1,5.429E1,2.9463E1,7.11E0,1.077E1,1.3479E1,1.6161E1,1.8611E1,2.1183E1,2.3651E1,2.6503E1,8.3E0,3.3974E1,5.2E0,4.3602E1,4.9775E1,6.5356E1,8.9299E1,1.22E1,-3.0577207E-2,-2.7535427E-2,-2.393732E-2,-2.1354197E-2,-1.8899933E-2,-1.6662294E-2,-1.4595222E-2,-1.2570166E-2,-1.0812792E-2,-8.863292E-3,-6.9665597E-3,-5.007867E-3,-3.5343433E-3,-1.4966998E-3,5.791298E-5,2.5985953E-3,4.324351E-3,6.7761443E-3,9.327831E-3,1.1519022E-2,1.2665476E-2,1.543966E-2,1.8640615E-2,2.1943823E-2,2.5251744E-2,2.8653497E-2,3.4597643E-2,4.0963814E-2,4.6676815E-2,5.4760214E-2,5.8927532E-2,7.712645E-2],"split_indices":[1,1,1,1,1,1,1,1,1,1,1,1,1,1,0,1,1,1,1,1,1,1,1,5,1,5,1,1,1,1,5,0,0,0,0,0,0,0,0,0,0,0,0,0,0,0,0,0,0,0,0,0,0,0,0,0,0,0,0,0,0,0,0],"split_type":[0,0,0,0,0,0,0,0,0,0,0,0,0,0,0,0,0,0,0,0,0,0,0,0,0,0,0,0,0,0,0,0,0,0,0,0,0,0,0,0,0,0,0,0,0,0,0,0,0,0,0,0,0,0,0,0,0,0,0,0,0,0,0],"sum_hessian":[9.2984195E4,5.8051535E4,3.4932656E4,2.7272877E4,3.077866E4,2.3922154E4,1.1010503E4,1.224078E4,1.5032096E4,1.497036E4,1.58083E4,1.2840228E4,1.1081928E4,9.296471E3,1.7140321E3,4.470568E3,7.7702124E3,8.465883E3,6.566214E3,8.0514565E3,6.918904E3,8.378349E3,7.4299517E3,6.676163E3,6.1640645E3,6.075339E3,5.006589E3,4.5202856E3,4.776185E3,1.0430747E3,6.7095734E2,1.5507957E3,2.9197722E3,4.349418E3,3.420795E3,3.8615112E3,4.6043716E3,3.7886936E3,2.77752E3,4.675176E3,3.3762803E3,3.8254316E3,3.093472E3,4.143102E3,4.235246E3,3.3348245E3,4.0951272E3,2.226808E3,4.449355E3,3.483562E3,2.6805022E3,1.3170422E3,4.758297E3,3.6253787E3,1.3812101E3,2.3364822E3,2.1838037E3,3.6925762E3,1.083609E3,9.246478E2,1.1842687E2,3.9005786E2,2.808995E2],"tree_param":{"num_deleted":"0","num_feature":"6","num_nodes":"63","size_leaf_vector":"1"}},{"base_weights":[-4.0449323E-3,-3.4227657E-1,5.2658415E-1,-5.855753E-1,-1.374684E-1,3.3522987E-1,9.975732E-1,-7.459377E-1,-4.8893586E-1,-2.5153524E-1,-3.208136E-2,2.2160849E-1,4.7716704E-1,9.0383446E-1,1.512754E0,-8.4765524E-1,-6.8574756E-1,-5.5820745E-1,-4.2945907E-1,-3.0588412E-1,-1.9649374E-1,-9.113675E-2,1.8512426E-2,1.5543257E-1,2.8998736E-1,4.0525055E-1,5.4117644E-1,8.036241E-1,1.0580274E0,1.3150321E0,1.8254758E0,-3.0060975E-2,-2.7526084E-2,-2.3805851E-2,-2.1452788E-2,-1.9757269E-2,-1.7101659E-2,-1.5624657E-2,-1.24454275E-2,-1.15316035E-2,-8.868483E-3,-7.765335E-3,-4.1398196E-3,-5.3364937E-3,-1.6074772E-3,-6.460888E-4,3.337518E-3,2.7715445E-3,7.1233027E-3,8.084556E-3,1.2677064E-2,1.23994155E-2,1.8531501E-2,1.54071E-2,2.008196E-2,2.3674058E-2,2.9126601E-2,3.3434168E-2,3.8919657E-2,4.1779343E-2,4.749697E-2,5.6736402E-2,7.292599E-2],"categories":[],"categories_nodes":[],"categories_segments":[],"categories_sizes":[],"default_left":[0,0,0,0,0,0,0,0,0,0,0,0,0,0,0,0,0,0,0,0,0,0,0,0,0,0,0,0,0,0,0,0,0,0,0,0,0,0,0,0,0,0,0,0,0,0,0,0,0,0,0,0,0,0,0,0,0,0,0,0,0,0,0],"id":1,"left_children":[1,3,5,7,9,11,13,15,17,19,21,23,25,27,29,31,33,35,37,39,41,43,45,47,49,51,53,55,57,59,61,-1,-1,-1,-1,-1,-1,-1,-1,-1,-1,-1,-1,-1,-1,-1,-1,-1,-1,-1,-1,-1,-1,-1,-1,-1,-1,-1,-1,-1,-1,-1,-1],"loss_changes":[1.6771072E4,2.8433086E3,3.2774307E3,4.0323438E2,3.7236792E2,4.1674707E2,5.048828E2,5.868457E1,6.634912E1,4.4204956E1,4.8171585E1,6.47702E1,5.224951E1,1.356499E2,9.5893555E1,3.4326172E0,5.03833E0,9.762695E0,1.733374E1,1.1183533E1,1.8210999E1,2.158609E1,2.6319614E1,2.9698761E1,3.0113525E1,2.8769531E1,2.7014893E1,3.1519775E1,2.01792E1,4.001343E0,2.4427002E1,0E0,0E0,0E0,0E0,0E0,0E0,0E0,0E0,0E0,0E0,0E0,0E0,0E0,0E0,0E0,0E0,0E0,0E0,0E0,0E0,0E0,0E0,0E0,0E0,0E0,0E0,0E0,0E0,0E0,0E0,0E0,0E0],"parents":[2147483647,0,0,1,1,2,2,3,3,4,4,5,5,6,6,7,7,8,8,9,9,10,10,11,11,12,12,13,13,14,14,15,15,16,16,17,17,18,18,19,19,20,20,21,21,22,22,23,23,24,24,25,25,26,26,27,27,28,28,29,29,30,30],"right_children":[2,4,6,8,10,12,14,16,18,20,22,24,26,28,30,32,34,36,38,40,42,44,46,48,50,52,54,56,58,60,62,-1,-1,-1,-1,-1,-1,-1,-1,-1,-1,-1,-1,-1,-1,-1,-1,-1,-1,-1,-1,-1,-1,-1,-1,-1,-1,-1,-1,-1,-1,-1,-1],"split_conditions":[9.267E0,5.571E0,1.5094E1,3.748E0,7.284E0,1.1772E1,2.4031E1,2.922E0,4.676E0,6.349E0,-3.8E-2,8.1E-2,1.3036E1,1.8859E1,2.9463E1,2.438E0,3.501E0,1.34E-1,2.05E-1,6.7E-2,3.18E-1,7.963E0,8.532E0,1.0177E1,1.0774E1,1.082E0,-4.02E-1,-2.26E-1,5.73E-1,1.4E-1,1.22E1,-3.0060975E-2,-2.7526084E-2,-2.3805851E-2,-2.1452788E-2,-1.9757269E-2,-1.7101659E-2,-1.5624657E-2,-1.24454275E-2,-1.15316035E-2,-8.868483E-3,-7.765335E-3,-4.1398196E-3,-5.3364937E-3,-1.6074772E-3,-6.460888E-4,3.337518E-3,2.7715445E-3,7.1233027E-3,8.084556E-3,1.2677064E-2,1.23994155E-2,1.8531501E-2,1.54071E-2,2.008196E-2,2.3674058E-2,2.9126601E-2,3.3434168E-2,3.8919657E-2,4.1779343E-2,4.749697E-2,5.6736402E-2,7.292599E-2],"split_indices":[0,0,0,0,0,0,0,0,0,0,2,2,0,0,0,0,0,2,2,2,2,0,0,0,0,2,2,2,2,2,5,0,0,0,0,0,0,0,0,0,0,0,0,0,0,0,0,0,0,0,0,0,0,0,0,0,0,0,0,0,0,0,0],"split_type":[0,0,0,0,0,0,0,0,0,0,0,0,0,0,0,0,0,0,0,0,0,0,0,0,0,0,0,0,0,0,0,0,0,0,0,0,0,0,0,0,0,0,0,0,0,0,0,0,0,0,0,0,0,0,0,0,0,0,0,0,0,0,0],"sum_hessian":[9.344332E4,5.7068316E4,3.6375004E4,2.6081244E4,3.0987074E4,2.5868062E4,1.0506939E4,9.802753E3,1.627849E4,1.4877854E4,1.6109221E4,1.4370469E4,1.1497594E4,8.892661E3,1.6142784E3,3.6362498E3,6.1665034E3,7.5123037E3,8.766187E3,7.479257E3,7.398597E3,7.4370615E3,8.672159E3,7.3081685E3,7.0623003E3,5.4214766E3,6.076117E3,5.3955776E3,3.4970833E3,9.9320667E2,6.2107184E2,1.5088617E3,2.127388E3,4.377767E3,1.7887358E3,4.869902E3,2.6424019E3,5.6149478E3,3.1512388E3,4.0586028E3,3.420654E3,5.0707256E3,2.3278718E3,2.919278E3,4.5177837E3,5.9027847E3,2.769375E3,3.163228E3,4.1449404E3,4.4595347E3,2.602766E3,4.304814E3,1.1166627E3,2.3839707E3,3.6921465E3,2.0078323E3,3.3877456E3,2.0711753E3,1.425908E3,5.5674976E2,4.364569E2,4.4091165E2,1.8016016E2],"tree_param":{"num_deleted":"0","num_feature":"6","num_nodes":"63","size_leaf_vector":"1"}},{"base_weights":[1.6887679E-3,-3.2018587E-1,5.2440786E-1,-5.531838E-1,-1.07415155E-1,3.3784232E-1,9.505531E-1,-7.119786E-1,-4.4661123E-1,-2.080151E-1,-2.7768058E-3,2.3571992E-1,4.770929E-1,8.418795E-1,1.3498824E0,-8.3548325E-1,-6.5550995E-1,-5.137973E-1,-3.8230217E-1,-2.761348E-1,-1.691846E-1,-4.0314324E-2,7.873882E-2,1.7334907E-1,3.0822033E-1,4.2779917E-1,5.655071E-1,7.5197095E-1,9.669902E-1,1.1950278E0,1.7692314E0,-2.9654685E-2,-2.708768E-2,-2.3342505E-2,-2.0550366E-2,-1.8207865E-2,-1.5363551E-2,-1.402731E-2,-1.097523E-2,-1.0926746E-2,-8.304687E-3,-7.612389E-3,-4.2962357E-3,-2.6145077E-3,5.444685E-4,5.8575894E-4,4.2109545E-3,3.9259186E-3,7.996523E-3,8.8163875E-3,1.2951602E-2,1.2923716E-2,1.6754052E-2,1.7396512E-2,2.1491306E-2,2.2223953E-2,2.731805E-2,3.040892E-2,3.5588477E-2,5.008758E-2,3.950309E-2,5.4324362E-2,6.968493E-2],"categories":[],"categories_nodes":[],"categories_segments":[],"categories_sizes":[],"default_left":[0,0,0,0,0,0,0,0,0,0,0,0,0,0,0,0,0,0,0,0,0,0,0,0,0,0,0,0,0,0,0,0,0,0,0,0,0,0,0,0,0,0,0,0,0,0,0,0,0,0,0,0,0,0,0,0,0,0,0,0,0,0,0],"id":2,"left_children":[1,3,5,7,9,11,13,15,17,19,21,23,25,27,29,31,33,35,37,39,41,43,45,47,49,51,53,55,57,59,61,-1,-1,-1,-1,-1,-1,-1,-1,-1,-1,-1,-1,-1,-1,-1,-1,-1,-1,-1,-1,-1,-1,-1,-1,-1,-1,-1,-1,-1,-1,-1,-1],"loss_changes":[1.5598981E4,2.8442007E3,2.8081875E3,4.6258008E2,3.1563058E2,3.4903955E2,4.6460645E2,7.539746E1,7.019214E1,4.017981E1,4.4981056E1,6.3845703E1,4.457715E1,9.358301E1,1.4566162E2,3.3376465E0,1.1700439E1,1.1422363E1,1.5523193E1,7.5760193E0,2.2824554E1,2.1187307E1,1.3038818E1,2.7495636E1,2.2841064E1,1.9937012E1,1.2344849E1,2.5331299E1,1.8442139E1,8.561768E0,2.3847412E1,0E0,0E0,0E0,0E0,0E0,0E0,0E0,0E0,0E0,0E0,0E0,0E0,0E0,0E0,0E0,0E0,0E0,0E0,0E0,0E0,0E0,0E0,0E0,0E0,0E0,0E0,0E0,0E0,0E0,0E0,0E0,0E0],"parents":[2147483647,0,0,1,1,2,2,3,3,4,4,5,5,6,6,7,7,8,8,9,9,10,10,11,11,12,12,13,13,14,14,15,15,16,16,17,17,18,18,19,19,20,20,21,21,22,22,23,23,24,24,25,25,26,26,27,27,28,28,29,29,30,30],"right_children":[2,4,6,8,10,12,14,16,18,20,22,24,26,28,30,32,34,36,38,40,42,44,46,48,50,52,54,56,58,60,62,-1,-1,-1,-1,-1,-1,-1,-1,-1,-1,-1,-1,-1,-1,-1,-1,-1,-1,-1,-1,-1,-1,-1,-1,-1,-1,-1,-1,-1,-1,-1,-1],"split_conditions":[9.452E0,5.824E0,1.5094E1,3.939E0,7.573E0,1.1994E1,2.2326E1,2.922E0,4.919E0,6.387E0,3.96E-1,1.34E-1,4.51E-1,1.8432E1,2.9463E1,2.438E0,3.501E0,2.12E-1,1.99E-1,-9.5E-2,-8.5E-2,8.596E0,8.385E0,1.068E1,1.0976E1,1.3581E1,1.3581E1,-2.2E-1,4.06E-1,2.8E0,1.22E1,-2.9654685E-2,-2.708768E-2,-2.3342505E-2,-2.0550366E-2,-1.8207865E-2,-1.5363551E-2,-1.402731E-2,-1.097523E-2,-1.0926746E-2,-8.304687E-3,-7.612389E-3,-4.2962357E-3,-2.6145077E-3,5.444685E-4,5.8575894E-4,4.2109545E-3,3.9259186E-3,7.996523E-3,8.8163875E-3,1.2951602E-2,1.2923716E-2,1.6754052E-2,1.7396512E-2,2.1491306E-2,2.2223953E-2,2.731805E-2,3.040892E-2,3.5588477E-2,5.008758E-2,3.950309E-2,5.4324362E-2,6.968493E-2],"split_indices":[0,0,0,0,0,0,0,0,0,0,2,2,2,0,0,0,0,2,2,2,2,0,0,0,0,0,0,2,2,5,5,0,0,0,0,0,0,0,0,0,0,0,0,0,0,0,0,0,0,0,0,0,0,0,0,0,0,0,0,0,0,0,0],"split_type":[0,0,0,0,0,0,0,0,0,0,0,0,0,0,0,0,0,0,0,0,0,0,0,0,0,0,0,0,0,0,0,0,0,0,0,0,0,0,0,0,0,0,0,0,0,0,0,0,0,0,0,0,0,0,0,0,0,0,0,0,0,0,0],"sum_hessian":[9.271047E4,5.7378184E4,3.533228E4,2.738543E4,2.9992756E4,2.4575955E4,1.0756327E4,1.0993928E4,1.6391502E4,1.5288587E4,1.4704169E4,1.4181721E4,1.0394233E4,8.45876E3,2.2975674E3,3.442336E3,7.5515923E3,8.0092485E3,8.382253E3,5.5440464E3,9.74454E3,1.0072349E4,4.631821E3,7.628875E3,6.552846E3,6.6808896E3,3.7133435E3,4.928237E3,3.5305225E3,1.6816768E3,6.158907E2,1.4470983E3,1.9952375E3,4.2036006E3,3.3479912E3,5.525401E3,2.483848E3,5.2622104E3,3.1200422E3,2.123484E3,3.4205623E3,4.1370522E3,5.6074883E3,6.076542E3,3.9958064E3,1.9920986E3,2.639722E3,4.0342236E3,3.5946511E3,4.0565166E3,2.4963296E3,4.0632512E3,2.6176384E3,2.2010518E3,1.5122919E3,1.8992081E3,3.0290288E3,2.0361136E3,1.4944088E3,1.2142723E2,1.5602495E3,4.0673868E2,2.0915201E2],"tree_param":{"num_deleted":"0","num_feature":"6","num_nodes":"63","size_leaf_vector":"1"}},{"base_weights":[-3.050939E-3,-3.31353E-1,4.90173E-1,-5.818055E-1,-1.467508E-1,3.0526796E-1,9.0465236E-1,-7.222141E-1,-4.778614E-1,-2.645824E-1,-4.9490627E-2,1.9951086E-1,4.42929E-1,7.923617E-1,1.2680008E0,-8.1877756E-1,-6.6128933E-1,-5.378574E-1,-4.2407268E-1,-3.1012467E-1,-2.0605542E-1,-9.847658E-2,1.5552325E-2,1.4077462E-1,2.6145712E-1,3.9231163E-1,5.089065E-1,6.77222E-1,8.7601745E-1,1.1419749E0,1.653753E0,-2.9781558E-2,-2.664493E-2,-2.3586275E-2,-2.160782E-2,-1.8960336E-2,-1.6770452E-2,-1.5555091E-2,-1.3537321E-2,-1.1825288E-2,-9.5852185E-3,-8.184083E-3,-5.632999E-3,-4.2804945E-3,-1.5774092E-3,-5.710734E-4,2.2164262E-3,2.9011378E-3,6.0472265E-3,6.1154137E-3,9.848806E-3,1.1711645E-2,1.4610053E-2,1.6440438E-2,2.0238804E-2,2.127028E-2,2.590612E-2,2.8147629E-2,3.177274E-2,3.5896443E-2,4.1115332E-2,5.178591E-2,6.758056E-2],"categories":[],"categories_nodes":[],"categories_segments":[],"categories_sizes":[],"default_left":[0,0,0,0,0,0,0,0,0,0,0,0,0,0,0,0,0,0,0,0,0,0,0,0,0,0,0,0,0,0,0,0,0,0,0,0,0,0,0,0,0,0,0,0,0,0,0,0,0,0,0,0,0,0,0,0,0,0,0,0,0,0,0],"id":3,"left_children":[1,3,5,7,9,11,13,15,17,19,21,23,25,27,29,31,33,35,37,39,41,43,45,47,49,51,53,55,57,59,61,-1,-1,-1,-1,-1,-1,-1,-1,-1,-1,-1,-1,-1,-1,-1,-1,-1,-1,-1,-1,-1,-1,-1,-1,-1,-1,-1,-1,-1,-1,-1,-1],"loss_changes":[1.5024918E4,2.575207E3,2.8409326E3,3.440371E2,3.674013E2,3.7293506E2,4.646338E2,5.7858887E1,4.314795E1,3.83349E1,5.603485E1,5.2548462E1,3.6557617E1,8.283545E1,1.2784766E2,5.651123E0,3.7370605E0,5.5318604E0,5.4400635E0,8.145813E0,8.837006E0,1.46538925E1,1.2320344E1,1.5573364E1,1.6985779E1,1.1091919E1,8.625366E0,1.44279785E1,1.21796875E1,9.758789E0,2.2513184E1,0E0,0E0,0E0,0E0,0E0,0E0,0E0,0E0,0E0,0E0,0E0,0E0,0E0,0E0,0E0,0E0,0E0,0E0,0E0,0E0,0E0,0E0,0E0,0E0,0E0,0E0,0E0,0E0,0E0,0E0,0E0,0E0],"parents":[2147483647,0,0,1,1,2,2,3,3,4,4,5,5,6,6,7,7,8,8,9,9,10,10,11,11,12,12,13,13,14,14,15,15,16,16,17,17,18,18,19,19,20,20,21,21,22,22,23,23,24,24,25,25,26,26,27,27,28,28,29,29,30,30],"right_children":[2,4,6,8,10,12,14,16,18,20,22,24,26,28,30,32,34,36,38,40,42,44,46,48,50,52,54,56,58,60,62,-1,-1,-1,-1,-1,-1,-1,-1,-1,-1,-1,-1,-1,-1,-1,-1,-1,-1,-1,-1,-1,-1,-1,-1,-1,-1,-1,-1,-1,-1,-1,-1],"split_conditions":[2.762E1,1.6161E1,4.5433E1,1.1327E1,2.1183E1,3.5725E1,6.5356E1,8.767E0,1.3771E1,1.8815E1,2.4544E1,3.1281E1,4.0291E1,5.2459E1,8.9299E1,6.929E0,9.88E0,1.2914E1,-9.5E-2,-1.2E-1,5.8E-2,2.32E-1,2.05E-1,-1.26E-1,-5.24E-1,1E-1,1.111E0,7.9E-1,5.9E-1,7.1082E1,1.22E1,-2.9781558E-2,-2.664493E-2,-2.3586275E-2,-2.160782E-2,-1.8960336E-2,-1.6770452E-2,-1.5555091E-2,-1.3537321E-2,-1.1825288E-2,-9.5852185E-3,-8.184083E-3,-5.632999E-3,-4.2804945E-3,-1.5774092E-3,-5.710734E-4,2.2164262E-3,2.9011378E-3,6.0472265E-3,6.1154137E-3,9.848806E-3,1.1711645E-2,1.4610053E-2,1.6440438E-2,2.0238804E-2,2.127028E-2,2.590612E-2,2.8147629E-2,3.177274E-2,3.5896443E-2,4.1115332E-2,5.178591E-2,6.758056E-2],"split_indices":[1,1,1,1,1,1,1,1,1,1,1,1,1,1,1,1,1,1,2,2,2,2,2,2,2,2,2,2,2,1,5,0,0,0,0,0,0,0,0,0,0,0,0,0,0,0,0,0,0,0,0,0,0,0,0,0,0,0,0,0,0,0,0],"split_type":[0,0,0,0,0,0,0,0,0,0,0,0,0,0,0,0,0,0,0,0,0,0,0,0,0,0,0,0,0,0,0,0,0,0,0,0,0,0,0,0,0,0,0,0,0,0,0,0,0,0,0,0,0,0,0,0,0,0,0,0,0,0,0],"sum_hessian":[9.278695E4,5.5707785E4,3.7079164E4,2.3635854E4,3.2071932E4,2.5642594E4,1.1436571E4,1.0049774E4,1.3586078E4,1.4499237E4,1.7572693E4,1.4505145E4,1.1137449E4,8.740095E3,2.6964763E3,3.879773E3,6.170002E3,6.4138423E3,7.1722363E3,8.147027E3,6.3522104E3,1.0027531E4,7.545163E3,7.4512104E3,7.053934E3,6.3105264E3,4.826923E3,3.6843123E3,5.0557827E3,2.0364779E3,6.599983E2,1.1872424E3,2.6925305E3,2.1530605E3,4.0169414E3,3.99968E3,2.4141624E3,2.7080588E3,4.4641777E3,3.170016E3,4.9770107E3,3.2703254E3,3.0818853E3,6.463079E3,3.5644517E3,4.574075E3,2.9710881E3,3.08318E3,4.3680303E3,1.9526265E3,5.1013076E3,3.009953E3,3.3005735E3,3.9158057E3,9.111171E2,2.4440562E3,1.2402561E3,3.1169062E3,1.9388765E3,1.0243163E3,1.0121616E3,4.9828894E2,1.6170937E2],"tree_param":{"num_deleted":"0","num_feature":"6","num_nodes":"63","size_leaf_vector":"1"}},{"base_weights":[7.990462E-4,-3.2210085E-1,4.629974E-1,-5.6808496E-1,-1.448419E-1,2.9095924E-1,8.634575E-1,-7.07432E-1,-4.6713662E-1,-2.545351E-1,-4.674427E-2,1.881429E-1,4.2397466E-1,7.7809656E-1,1.3436111E0,-8.1315506E-1,-6.513335E-1,-5.304233E-1,-4.22252E-1,-3.009003E-1,-2.017196E-1,-1.058068E-1,-4.1669486E-3,1.16672814E-1,2.3675577E-1,3.72633E-1,4.861982E-1,6.6512245E-1,8.781715E-1,1.1495023E0,1.6083674E0,-2.9434377E-2,-2.6410207E-2,-2.336054E-2,-2.1126239E-2,-1.8925412E-2,-1.7087515E-2,-1.51885105E-2,-1.3081012E-2,-1.1110914E-2,-9.188219E-3,-7.6086083E-3,-5.57664E-3,-4.187708E-3,-2.8706433E-3,-7.9391914E-4,1.721421E-3,2.4319603E-3,4.563771E-3,6.8738447E-3,9.3503045E-3,1.15561E-2,1.3653498E-2,1.5300612E-2,1.7825382E-2,2.116445E-2,2.4159843E-2,2.8582467E-2,3.355428E-2,3.6902577E-2,4.0465023E-2,4.9622573E-2,6.3199624E-2],"categories":[],"categories_nodes":[],"categories_segments":[],"categories_sizes":[],"default_left":[0,0,0,0,0,0,0,0,0,0,0,0,0,0,0,0,0,0,0,0,0,0,0,0,0,0,0,0,0,0,0,0,0,0,0,0,0,0,0,0,0,0,0,0,0,0,0,0,0,0,0,0,0,0,0,0,0,0,0,0,0,0,0],"id":4,"left_children":[1,3,5,7,9,11,13,15,17,19,21,23,25,27,29,31,33,35,37,39,41,43,45,47,49,51,53,55,57,59,61,-1,-1,-1,-1,-1,-1,-1,-1,-1,-1,-1,-1,-1,-1,-1,-1,-1,-1,-1,-1,-1,-1,-1,-1,-1,-1,-1,-1,-1,-1,-1,-1],"loss_changes":[1.3882548E4,2.3873022E3,2.6349424E3,3.21688E2,3.4234186E2,3.6564697E2,4.6905176E2,5.586377E1,3.710083E1,3.648523E1,4.2209232E1,5.2261536E1,3.666577E1,1.0903906E2,8.582324E1,4.4748535E0,5.411377E0,3.218628E0,6.943115E0,6.110779E0,5.8769836E0,2.560234E0,1.0437538E1,4.971489E0,1.1687927E1,5.6763916E0,6.5318604E0,7.734375E0,1.679956E1,3.380127E-1,2.2100708E1,0E0,0E0,0E0,0E0,0E0,0E0,0E0,0E0,0E0,0E0,0E0,0E0,0E0,0E0,0E0,0E0,0E0,0E0,0E0,0E0,0E0,0E0,0E0,0E0,0E0,0E0,0E0,0E0,0E0,0E0,0E0,0E0],"parents":[2147483647,0,0,1,1,2,2,3,3,4,4,5,5,6,6,7,7,8,8,9,9,10,10,11,11,12,12,13,13,14,14,15,15,16,16,17,17,18,18,19,19,20,20,21,21,22,22,23,23,24,24,25,25,26,26,27,27,28,28,29,29,30,30],"right_children":[2,4,6,8,10,12,14,16,18,20,22,24,26,28,30,32,34,36,38,40,42,44,46,48,50,52,54,56,58,60,62,-1,-1,-1,-1,-1,-1,-1,-1,-1,-1,-1,-1,-1,-1,-1,-1,-1,-1,-1,-1,-1,-1,-1,-1,-1,-1,-1,-1,-1,-1,-1,-1],"split_conditions":[2.7423E1,1.6161E1,4.5433E1,1.1327E1,2.131E1,3.5725E1,7.1082E1,8.586E0,1.3479E1,1.8815E1,2.3651E1,3.0307E1,4.005E1,5.429E1,8.9299E1,6.929E0,9.88E0,1.2265E1,1.5017E1,1.7568E1,2.0315E1,9.7E0,2.6378E1,7E0,3.3156E1,9E0,1.06E1,5.0735E1,6.5356E1,7.5392E1,1.22E1,-2.9434377E-2,-2.6410207E-2,-2.336054E-2,-2.1126239E-2,-1.8925412E-2,-1.7087515E-2,-1.51885105E-2,-1.3081012E-2,-1.1110914E-2,-9.188219E-3,-7.6086083E-3,-5.57664E-3,-4.187708E-3,-2.8706433E-3,-7.9391914E-4,1.721421E-3,2.4319603E-3,4.563771E-3,6.8738447E-3,9.3503045E-3,1.15561E-2,1.3653498E-2,1.5300612E-2,1.7825382E-2,2.116445E-2,2.4159843E-2,2.8582467E-2,3.355428E-2,3.6902577E-2,4.0465023E-2,4.9622573E-2,6.3199624E-2],"split_indices":[1,1,1,1,1,1,1,1,1,1,1,1,1,1,1,1,1,1,1,1,1,5,1,5,1,5,5,1,1,1,5,0,0,0,0,0,0,0,0,0,0,0,0,0,0,0,0,0,0,0,0,0,0,0,0,0,0,0,0,0,0,0,0],"split_type":[0,0,0,0,0,0,0,0,0,0,0,0,0,0,0,0,0,0,0,0,0,0,0,0,0,0,0,0,0,0,0,0,0,0,0,0,0,0,0,0,0,0,0,0,0,0,0,0,0,0,0,0,0,0,0,0,0,0,0,0,0,0,0],"sum_hessian":[9.301674E4,5.475983E4,3.8256914E4,2.2931943E4,3.1827885E4,2.6762633E4,1.149428E4,9.629131E3,1.3302812E4,1.502278E4,1.6805104E4,1.509829E4,1.1664343E4,9.762431E3,1.7318499E3,3.3303254E3,6.2988057E3,5.5107964E3,7.7920156E3,7.99246E3,7.030321E3,7.034332E3,9.770772E3,6.117638E3,8.980651E3,6.3991987E3,5.265144E3,4.591637E3,5.170794E3,1.0034642E3,7.283857E2,1.1046343E3,2.2256912E3,2.3578354E3,3.94097E3,2.389231E3,3.1215652E3,4.278529E3,3.5134868E3,3.980328E3,4.0121318E3,4.234598E3,2.795723E3,3.7135154E3,3.3208164E3,7.2396772E3,2.5310947E3,1.8127358E3,4.3049023E3,4.9591533E3,4.0214985E3,3.3241257E3,3.0750728E3,2.9878164E3,2.2773274E3,2.6589077E3,1.9327292E3,4.1018394E3,1.0689542E3,4.9269998E2,5.1076422E2,4.8583456E2,2.4255109E2],"tree_param":{"num_deleted":"0","num_feature":"6","num_nodes":"63","size_leaf_vector":"1"}},{"base_weights":[-3.047507E-3,-3.0855724E-1,4.5116213E-1,-5.5741936E-1,-1.3451222E-1,2.87009E-1,8.207154E-1,-6.929519E-1,-4.538835E-1,-2.4691927E-1,-4.0751252E-2,1.8923026E-1,4.065658E-1,7.428469E-1,1.2567047E0,-7.888769E-1,-6.306251E-1,-5.0845695E-1,-4.0604314E-1,-2.9895172E-1,-2.006903E-1,-8.798486E-2,1.4706005E-2,1.4484431E-1,2.582144E-1,3.5828066E-1,4.6210572E-1,6.620319E-1,8.573758E-1,1.0963559E0,1.5230118E0,-2.9070236E-2,-2.5663633E-2,-2.2027781E-2,-2.01485E-2,-1.7951077E-2,-1.5971519E-2,-1.4402748E-2,-1.2258285E-2,-1.1439268E-2,-9.24992E-3,-7.525385E-3,-5.2894563E-3,-3.9352286E-3,-1.339162E-3,-5.7341624E-4,2.1132678E-3,3.2251654E-3,6.2485524E-3,7.101607E-3,1.01299975E-2,1.0216028E-2,1.3143895E-2,1.3923911E-2,1.722404E-2,2.0791966E-2,2.434599E-2,2.7495556E-2,3.1320248E-2,3.483419E-2,3.886484E-2,4.686322E-2,6.1360892E-2],"categories":[],"categories_nodes":[],"categories_segments":[],"categories_sizes":[],"default_left":[0,0,0,0,0,0,0,0,0,0,0,0,0,0,0,0,0,0,0,0,0,0,0,0,0,0,0,0,0,0,0,0,0,0,0,0,0,0,0,0,0,0,0,0,0,0,0,0,0,0,0,0,0,0,0,0,0,0,0,0,0,0,0],"id":5,"left_children":[1,3,5,7,9,11,13,15,17,19,21,23,25,27,29,31,33,35,37,39,41,43,45,47,49,51,53,55,57,59,61,-1,-1,-1,-1,-1,-1,-1,-1,-1,-1,-1,-1,-1,-1,-1,-1,-1,-1,-1,-1,-1,-1,-1,-1,-1,-1,-1,-1,-1,-1,-1,-1],"loss_changes":[1.2756033E4,2.3800713E3,2.2416953E3,3.1649365E2,3.4073566E2,2.9888477E2,3.8402393E2,5.7340332E1,3.2835205E1,3.5072754E1,4.6238823E1,4.28974E1,3.0310669E1,8.7990234E1,7.0478516E1,6.409912E0,3.434082E0,4.220703E0,5.574951E0,6.474304E0,7.4487915E0,1.31194E1,1.2351061E1,1.6909988E1,1.0749237E1,1.02769165E1,1.2131958E1,1.4333252E1,1.035376E1,1.5563965E0,2.129126E1,0E0,0E0,0E0,0E0,0E0,0E0,0E0,0E0,0E0,0E0,0E0,0E0,0E0,0E0,0E0,0E0,0E0,0E0,0E0,0E0,0E0,0E0,0E0,0E0,0E0,0E0,0E0,0E0,0E0,0E0,0E0,0E0],"parents":[2147483647,0,0,1,1,2,2,3,3,4,4,5,5,6,6,7,7,8,8,9,9,10,10,11,11,12,12,13,13,14,14,15,15,16,16,17,17,18,18,19,19,20,20,21,21,22,22,23,23,24,24,25,25,26,26,27,27,28,28,29,29,30,30],"right_children":[2,4,6,8,10,12,14,16,18,20,22,24,26,28,30,32,34,36,38,40,42,44,46,48,50,52,54,56,58,60,62,-1,-1,-1,-1,-1,-1,-1,-1,-1,-1,-1,-1,-1,-1,-1,-1,-1,-1,-1,-1,-1,-1,-1,-1,-1,-1,-1,-1,-1,-1,-1,-1],"split_conditions":[2.7777E1,1.6161E1,4.5433E1,1.1425E1,2.131E1,3.5725E1,7.1082E1,8.952E0,1.3771E1,1.852E1,2.4544E1,3.2143E1,4.005E1,5.6715E1,8.9299E1,6.929E0,1.0572E1,1.2914E1,2.05E-1,-1.2E-1,2.0315E1,2.12E-1,2.17E-1,-8.5E-2,1.12E-1,-2.75E-1,1E-1,5.31E-1,6.3529E1,7.5392E1,1.22E1,-2.9070236E-2,-2.5663633E-2,-2.2027781E-2,-2.01485E-2,-1.7951077E-2,-1.5971519E-2,-1.4402748E-2,-1.2258285E-2,-1.1439268E-2,-9.24992E-3,-7.525385E-3,-5.2894563E-3,-3.9352286E-3,-1.339162E-3,-5.7341624E-4,2.1132678E-3,3.2251654E-3,6.2485524E-3,7.101607E-3,1.01299975E-2,1.0216028E-2,1.3143895E-2,1.3923911E-2,1.722404E-2,2.0791966E-2,2.434599E-2,2.7495556E-2,3.1320248E-2,3.483419E-2,3.886484E-2,4.686322E-2,6.1360892E-2],"split_indices":[1,1,1,1,1,1,1,1,1,1,1,1,1,1,1,1,1,1,2,2,1,2,2,2,2,2,2,2,1,1,5,0,0,0,0,0,0,0,0,0,0,0,0,0,0,0,0,0,0,0,0,0,0,0,0,0,0,0,0,0,0,0,0],"split_type":[0,0,0,0,0,0,0,0,0,0,0,0,0,0,0,0,0,0,0,0,0,0,0,0,0,0,0,0,0,0,0,0,0,0,0,0,0,0,0,0,0,0,0,0,0,0,0,0,0,0,0,0,0,0,0,0,0,0,0,0,0,0,0],"sum_hessian":[9.1923555E4,5.495871E4,3.6964844E4,2.2615871E4,3.234284E4,2.5597664E4,1.1367181E4,9.789935E3,1.2825937E4,1.4705751E4,1.7637088E4,1.4085018E4,1.15126455E4,9.647929E3,1.719252E3,3.8479534E3,5.941981E3,5.982019E3,6.843918E3,6.911047E3,7.794704E3,9.529124E3,8.107965E3,8.576737E3,5.50828E3,6.1672944E3,5.3453516E3,5.6630776E3,3.9848508E3,1.0775253E3,6.417267E2,1.0535354E3,2.794418E3,3.5271396E3,2.4148413E3,3.5436313E3,2.438388E3,4.572819E3,2.2710989E3,2.6184775E3,4.2925693E3,5.148127E3,2.646577E3,5.97033E3,3.5587937E3,4.874923E3,3.2330422E3,3.8737573E3,4.70298E3,2.5922954E3,2.9159844E3,2.2411086E3,3.9261858E3,2.6623496E3,2.6830022E3,3.2239714E3,2.4391062E3,2.514636E3,1.4702147E3,5.175379E2,5.599873E2,4.4740317E2,1.9432352E2],"tree_param":{"num_deleted":"0","num_feature":"6","num_nodes":"63","size_leaf_vector":"1"}},{"base_weights":[-4.6594514E-4,-3.2040152E-1,3.9971867E-1,-5.4929405E-1,-1.5440886E-1,2.4980164E-1,7.937541E-1,-7.054436E-1,-4.6197417E-1,-2.4814446E-1,-6.448625E-2,1.3720883E-1,3.6542895E-1,7.155147E-1,1.2157687E0,-7.957807E-1,-6.4528203E-1,-5.237017E-1,-4.0780234E-1,-2.986534E-1,-1.9588801E-1,-9.7959906E-2,-4.1671474E-3,8.085113E-2,1.8780293E-1,3.062289E-1,4.390256E-1,6.3760066E-1,8.3308303E-1,1.0385154E0,1.4754788E0,-3.0475011E-2,-2.640355E-2,-2.2506231E-2,-2.0213988E-2,-1.854494E-2,-1.594379E-2,-1.466766E-2,-1.1947382E-2,-1.184148E-2,-8.934234E-3,-7.929864E-3,-4.9494132E-3,-5.148804E-3,-2.2447032E-3,-1.7769787E-3,1.1378042E-3,5.7162874E-4,4.349969E-3,5.114172E-3,8.784528E-3,8.4749805E-3,1.219776E-2,1.2638351E-2,1.651223E-2,2.0198518E-2,2.5143072E-2,2.5357252E-2,2.9880268E-2,3.3402383E-2,4.0507343E-2,3.9611444E-2,5.34883E-2],"categories":[],"categories_nodes":[],"categories_segments":[],"categories_sizes":[],"default_left":[0,0,0,0,0,0,0,0,0,0,0,0,0,0,0,0,0,0,0,0,0,0,0,0,0,0,0,0,0,0,0,0,0,0,0,0,0,0,0,0,0,0,0,0,0,0,0,0,0,0,0,0,0,0,0,0,0,0,0,0,0,0,0],"id":6,"left_children":[1,3,5,7,9,11,13,15,17,19,21,23,25,27,29,31,33,35,37,39,41,43,45,47,49,51,53,55,57,59,61,-1,-1,-1,-1,-1,-1,-1,-1,-1,-1,-1,-1,-1,-1,-1,-1,-1,-1,-1,-1,-1,-1,-1,-1,-1,-1,-1,-1,-1,-1,-1,-1],"loss_changes":[1.1806784E4,1.9466885E3,2.4194683E3,2.9280615E2,2.502384E2,3.86109E2,3.7095215E2,4.0741455E1,4.5543213E1,3.80849E1,3.0572594E1,4.274286E1,6.3288086E1,8.6020996E1,7.838501E1,2.7607422E0,3.6707764E0,7.833496E0,1.01484375E1,1.2687012E1,1.3571411E1,1.66297E1,9.975423E0,2.1825272E1,2.0575867E1,2.4342224E1,2.0587158E1,2.2869385E1,1.4801514E1,5.961548E0,2.0398804E1,0E0,0E0,0E0,0E0,0E0,0E0,0E0,0E0,0E0,0E0,0E0,0E0,0E0,0E0,0E0,0E0,0E0,0E0,0E0,0E0,0E0,0E0,0E0,0E0,0E0,0E0,0E0,0E0,0E0,0E0,0E0,0E0],"parents":[2147483647,0,0,1,1,2,2,3,3,4,4,5,5,6,6,7,7,8,8,9,9,10,10,11,11,12,12,13,13,14,14,15,15,16,16,17,17,18,18,19,19,20,20,21,21,22,22,23,23,24,24,25,25,26,26,27,27,28,28,29,29,30,30],"right_children":[2,4,6,8,10,12,14,16,18,20,22,24,26,28,30,32,34,36,38,40,42,44,46,48,50,52,54,56,58,60,62,-1,-1,-1,-1,-1,-1,-1,-1,-1,-1,-1,-1,-1,-1,-1,-1,-1,-1,-1,-1,-1,-1,-1,-1,-1,-1,-1,-1,-1,-1,-1,-1],"split_conditions":[8.815E0,5.25E0,1.5094E1,3.615E0,7.015E0,1.1202E1,2.4031E1,2.807E0,4.478E0,6.104E0,2.32E-1,9.795E0,1.3036E1,1.8859E1,2.9463E1,1.978E0,1.07E-1,1.34E-1,2.05E-1,-1.11E-1,1.4E-1,7.573E0,7.756E0,-1.01E-1,3.96E-1,1.07E-1,-1.16E-1,1.027E0,-4.02E-1,3.8186E1,9.5E0,-3.0475011E-2,-2.640355E-2,-2.2506231E-2,-2.0213988E-2,-1.854494E-2,-1.594379E-2,-1.466766E-2,-1.1947382E-2,-1.184148E-2,-8.934234E-3,-7.929864E-3,-4.9494132E-3,-5.148804E-3,-2.2447032E-3,-1.7769787E-3,1.1378042E-3,5.7162874E-4,4.349969E-3,5.114172E-3,8.784528E-3,8.4749805E-3,1.219776E-2,1.2638351E-2,1.651223E-2,2.0198518E-2,2.5143072E-2,2.5357252E-2,2.9880268E-2,3.3402383E-2,4.0507343E-2,3.9611444E-2,5.34883E-2],"split_indices":[0,0,0,0,0,0,0,0,0,0,2,0,0,0,0,0,2,2,2,2,2,0,0,2,2,2,2,2,2,3,5,0,0,0,0,0,0,0,0,0,0,0,0,0,0,0,0,0,0,0,0,0,0,0,0,0,0,0,0,0,0,0,0],"split_type":[0,0,0,0,0,0,0,0,0,0,0,0,0,0,0,0,0,0,0,0,0,0,0,0,0,0,0,0,0,0,0,0,0,0,0,0,0,0,0,0,0,0,0,0,0,0,0,0,0,0,0,0,0,0,0,0,0,0,0,0,0,0,0],"sum_hessian":[9.2214766E4,5.12463E4,4.0968465E4,2.1539508E4,2.9706791E4,2.9679379E4,1.1289086E4,7.720512E3,1.3818995E4,1.4541503E4,1.5165288E4,1.5040259E4,1.4639119E4,9.526783E3,1.7623021E3,3.0780298E3,4.6424824E3,6.4507246E3,7.3682705E3,7.387227E3,7.1542764E3,9.747394E3,5.4178945E3,7.1206484E3,7.919611E3,8.119655E3,6.519465E3,5.7361006E3,3.7906829E3,1.0515867E3,7.107155E2,3.190807E2,2.758949E3,3.1242659E3,1.5182166E3,4.253043E3,2.1976816E3,4.8847793E3,2.4834912E3,2.8849421E3,4.5022847E3,3.971529E3,3.1827473E3,3.548714E3,6.1986797E3,2.3815781E3,3.0363162E3,3.063488E3,4.0571604E3,5.293219E3,2.6263916E3,4.0835413E3,4.0361133E3,2.8762444E3,3.6432207E3,4.227943E3,1.5081578E3,1.5025388E3,2.288144E3,8.1887866E2,2.3270796E2,1.9499806E2,5.1571747E2],"tree_param":{"num_deleted":"0","num_feature":"6","num_nodes":"63","size_leaf_vector":"1"}},{"base_weights":[-1.6638248E-3,-2.958151E-1,4.1120306E-1,-5.327187E-1,-1.2859227E-1,2.565574E-1,7.522232E-1,-6.726191E-1,-4.3197304E-1,-2.3401958E-1,-4.260152E-2,1.7239143E-1,3.6967853E-1,6.887691E-1,1.2308452E0,-7.7637124E-1,-6.1670613E-1,-4.8722312E-1,-3.8283378E-1,-2.7970117E-1,-1.8901196E-1,-9.59932E-2,-3.7993174E-3,1.0358786E-1,2.1215159E-1,3.3526006E-1,4.240764E-1,5.819532E-1,7.824009E-1,1.0892674E0,1.4168118E0,-2.8181687E-2,-2.514438E-2,-2.2168208E-2,-1.9985074E-2,-1.7374834E-2,-1.544298E-2,-1.3813262E-2,-1.2011205E-2,-1.058733E-2,-8.651584E-3,-7.0845047E-3,-5.0052446E-3,-4.0095206E-3,-2.672883E-3,-7.758221E-4,1.4085692E-3,2.1708675E-3,4.0510832E-3,6.226712E-3,8.529647E-3,9.797553E-3,1.1876145E-2,1.2915555E-2,1.5221822E-2,1.8287908E-2,2.114841E-2,2.4639083E-2,2.9330578E-2,3.7312526E-2,2.867107E-2,4.213201E-2,5.513674E-2],"categories":[],"categories_nodes":[],"categories_segments":[],"categories_sizes":[],"default_left":[0,0,0,0,0,0,0,0,0,0,0,0,0,0,0,0,0,0,0,0,0,0,0,0,0,0,0,0,0,0,0,0,0,0,0,0,0,0,0,0,0,0,0,0,0,0,0,0,0,0,0,0,0,0,0,0,0,0,0,0,0,0,0],"id":7,"left_children":[1,3,5,7,9,11,13,15,17,19,21,23,25,27,29,31,33,35,37,39,41,43,45,47,49,51,53,55,57,59,61,-1,-1,-1,-1,-1,-1,-1,-1,-1,-1,-1,-1,-1,-1,-1,-1,-1,-1,-1,-1,-1,-1,-1,-1,-1,-1,-1,-1,-1,-1,-1,-1],"loss_changes":[1.1207339E4,2.1345034E3,2.0240776E3,3.134375E2,2.8627606E2,2.5119092E2,3.6195215E2,5.2965332E1,3.4594727E1,2.8894287E1,3.6008705E1,4.1274384E1,2.0581787E1,1.046709E2,3.4058838E1,4.5548096E0,4.9492188E0,4.2836914E0,4.38501E0,5.221985E0,5.907379E0,2.699646E0,8.815579E0,3.5027847E0,1.0508057E1,4.7976685E0,4.300476E0,7.947632E0,2.405957E1,1.3403931E0,1.8435669E1,0E0,0E0,0E0,0E0,0E0,0E0,0E0,0E0,0E0,0E0,0E0,0E0,0E0,0E0,0E0,0E0,0E0,0E0,0E0,0E0,0E0,0E0,0E0,0E0,0E0,0E0,0E0,0E0,0E0,0E0,0E0,0E0],"parents":[2147483647,0,0,1,1,2,2,3,3,4,4,5,5,6,6,7,7,8,8,9,9,10,10,11,11,12,12,13,13,14,14,15,15,16,16,17,17,18,18,19,19,20,20,21,21,22,22,23,23,24,24,25,25,26,26,27,27,28,28,29,29,30,30],"right_children":[2,4,6,8,10,12,14,16,18,20,22,24,26,28,30,32,34,36,38,40,42,44,46,48,50,52,54,56,58,60,62,-1,-1,-1,-1,-1,-1,-1,-1,-1,-1,-1,-1,-1,-1,-1,-1,-1,-1,-1,-1,-1,-1,-1,-1,-1,-1,-1,-1,-1,-1,-1,-1],"split_conditions":[2.762E1,1.6161E1,4.487E1,1.1327E1,2.1183E1,3.5725E1,7.5392E1,8.586E0,1.3771E1,1.8611E1,2.3651E1,3.0307E1,4.0291E1,5.429E1,9.225E0,6.929E0,9.88E0,1.2674E1,1.5017E1,1.7221E1,2.0315E1,2.2299E1,2.6378E1,7E0,3.3442E1,6.3E0,8.6E0,4.9775E1,6.3529E1,1.4E1,1.34E1,-2.8181687E-2,-2.514438E-2,-2.2168208E-2,-1.9985074E-2,-1.7374834E-2,-1.544298E-2,-1.3813262E-2,-1.2011205E-2,-1.058733E-2,-8.651584E-3,-7.0845047E-3,-5.0052446E-3,-4.0095206E-3,-2.672883E-3,-7.758221E-4,1.4085692E-3,2.1708675E-3,4.0510832E-3,6.226712E-3,8.529647E-3,9.797553E-3,1.1876145E-2,1.2915555E-2,1.5221822E-2,1.8287908E-2,2.114841E-2,2.4639083E-2,2.9330578E-2,3.7312526E-2,2.867107E-2,4.213201E-2,5.513674E-2],"split_indices":[1,1,1,1,1,1,1,1,1,1,1,1,1,1,4,1,1,1,1,1,1,1,1,5,1,5,5,1,1,5,5,0,0,0,0,0,0,0,0,0,0,0,0,0,0,0,0,0,0,0,0,0,0,0,0,0,0,0,0,0,0,0,0],"split_type":[0,0,0,0,0,0,0,0,0,0,0,0,0,0,0,0,0,0,0,0,0,0,0,0,0,0,0,0,0,0,0,0,0,0,0,0,0,0,0,0,0,0,0,0,0,0,0,0,0,0,0,0,0,0,0,0,0,0,0,0,0,0,0],"sum_hessian":[9.228141E4,5.3889055E4,3.8392355E4,2.2296541E4,3.1592512E4,2.6416314E4,1.1976039E4,9.329926E3,1.2966614E4,1.418899E4,1.7403521E4,1.5150608E4,1.1265707E4,1.0577258E4,1.3987817E3,3.2595762E3,6.070349E3,6.0948433E3,6.8717715E3,7.0337866E3,7.155204E3,7.3188516E3,1.0084671E4,5.554532E3,9.596076E3,6.9099243E3,4.3557827E3,4.9466514E3,5.630606E3,7.9964813E2,5.9913367E2,1.1035883E3,2.155988E3,2.2509915E3,3.819358E3,3.1081035E3,2.98674E3,3.4209705E3,3.4508008E3,2.8295977E3,4.204189E3,4.7036533E3,2.4515505E3,3.0781902E3,4.2406616E3,7.102367E3,2.9823035E3,1.6561218E3,3.8984104E3,5.7356626E3,3.8604133E3,1.9016425E3,5.0082817E3,1.7472626E3,2.60852E3,2.640781E3,2.3058706E3,3.539141E3,2.091465E3,7.413022E2,5.8345966E1,3.4373538E2,2.553983E2],"tree_param":{"num_deleted":"0","num_feature":"6","num_nodes":"63","size_leaf_vector":"1"}},{"base_weights":[-7.4165344E-4,-2.90616E-1,3.9209583E-1,-5.255571E-1,-1.2790488E-1,2.3954353E-1,7.0037955E-1,-6.606748E-1,-4.2779005E-1,-2.2506998E-1,-4.140018E-2,1.442504E-1,3.3275333E-1,6.363972E-1,1.1028473E0,-7.635078E-1,-6.049594E-1,-4.7991723E-1,-3.7603578E-1,-2.6914376E-1,-1.7308456E-1,-9.186035E-2,-5.862539E-3,1.05807595E-1,1.8574366E-1,2.7056816E-1,3.7276965E-1,5.473044E-1,7.290107E-1,9.4021887E-1,1.309922E0,-2.7728524E-2,-2.4738966E-2,-2.1847013E-2,-1.9508192E-2,-1.705535E-2,-1.5004542E-2,-1.3509068E-2,-1.1637351E-2,-1.0301947E-2,-8.239253E-3,-6.558924E-3,-4.3690507E-3,-4.572169E-3,-2.1762769E-3,-1.0945877E-3,1.1668776E-3,2.2251594E-3,4.8236563E-3,4.6959566E-3,7.4071726E-3,8.051814E-3,1.1602346E-2,1.0898544E-2,1.3728077E-2,1.7244099E-2,2.0221123E-2,2.3668122E-2,2.6907895E-2,2.8242204E-2,3.273269E-2,3.9420802E-2,5.2032247E-2],"categories":[],"categories_nodes":[],"categories_segments":[],"categories_sizes":[],"default_left":[0,0,0,0,0,0,0,0,0,0,0,0,0,0,0,0,0,0,0,0,0,0,0,0,0,0,0,0,0,0,0,0,0,0,0,0,0,0,0,0,0,0,0,0,0,0,0,0,0,0,0,0,0,0,0,0,0,0,0,0,0,0,0],"id":8,"left_children":[1,3,5,7,9,11,13,15,17,19,21,23,25,27,29,31,33,35,37,39,41,43,45,47,49,51,53,55,57,59,61,-1,-1,-1,-1,-1,-1,-1,-1,-1,-1,-1,-1,-1,-1,-1,-1,-1,-1,-1,-1,-1,-1,-1,-1,-1,-1,-1,-1,-1,-1,-1,-1],"loss_changes":[1.0469598E4,2.0220137E3,1.8352485E3,2.8512598E2,2.6260522E2,2.3169714E2,3.311631E2,5.0905273E1,3.3295654E1,3.3464355E1,2.961381E1,2.0445557E1,3.2431396E1,9.099121E1,5.7251465E1,4.235718E0,5.7280273E0,4.951294E0,4.291504E0,6.8398438E0,6.111923E0,8.052704E0,1.0448277E1,9.840279E0,9.570602E0,1.1738281E1,1.3153076E1,9.860474E0,8.952393E0,1.3919678E0,2.2288818E1,0E0,0E0,0E0,0E0,0E0,0E0,0E0,0E0,0E0,0E0,0E0,0E0,0E0,0E0,0E0,0E0,0E0,0E0,0E0,0E0,0E0,0E0,0E0,0E0,0E0,0E0,0E0,0E0,0E0,0E0,0E0,0E0],"parents":[2147483647,0,0,1,1,2,2,3,3,4,4,5,5,6,6,7,7,8,8,9,9,10,10,11,11,12,12,13,13,14,14,15,15,16,16,17,17,18,18,19,19,20,20,21,21,22,22,23,23,24,24,25,25,26,26,27,27,28,28,29,29,30,30],"right_children":[2,4,6,8,10,12,14,16,18,20,22,24,26,28,30,32,34,36,38,40,42,44,46,48,50,52,54,56,58,60,62,-1,-1,-1,-1,-1,-1,-1,-1,-1,-1,-1,-1,-1,-1,-1,-1,-1,-1,-1,-1,-1,-1,-1,-1,-1,-1,-1,-1,-1,-1,-1,-1],"split_conditions":[2.7423E1,1.6072E1,4.436E1,1.1327E1,2.131E1,3.415E1,7.1082E1,8.586E0,1.3771E1,1.8815E1,2.3651E1,1.29E-1,3.7669E1,5.429E1,8.9299E1,6.929E0,9.88E0,1.279E1,8.1E-2,-9.5E-2,2.71E-1,-1.55E-1,2.05E-1,3.0307E1,2.9942E1,5.41E-1,-2.26E-1,4.9775E1,6.3529E1,-1.386E0,1.22E1,-2.7728524E-2,-2.4738966E-2,-2.1847013E-2,-1.9508192E-2,-1.705535E-2,-1.5004542E-2,-1.3509068E-2,-1.1637351E-2,-1.0301947E-2,-8.239253E-3,-6.558924E-3,-4.3690507E-3,-4.572169E-3,-2.1762769E-3,-1.0945877E-3,1.1668776E-3,2.2251594E-3,4.8236563E-3,4.6959566E-3,7.4071726E-3,8.051814E-3,1.1602346E-2,1.0898544E-2,1.3728077E-2,1.7244099E-2,2.0221123E-2,2.3668122E-2,2.6907895E-2,2.8242204E-2,3.273269E-2,3.9420802E-2,5.2032247E-2],"split_indices":[1,1,1,1,1,1,1,1,1,1,1,2,1,1,1,1,1,1,2,2,2,2,2,1,1,2,2,1,1,2,5,0,0,0,0,0,0,0,0,0,0,0,0,0,0,0,0,0,0,0,0,0,0,0,0,0,0,0,0,0,0,0,0],"split_type":[0,0,0,0,0,0,0,0,0,0,0,0,0,0,0,0,0,0,0,0,0,0,0,0,0,0,0,0,0,0,0,0,0,0,0,0,0,0,0,0,0,0,0,0,0,0,0,0,0,0,0,0,0,0,0,0,0,0,0,0,0,0,0],"sum_hessian":[9.193896E4,5.2903227E4,3.903574E4,2.1644762E4,3.1258463E4,2.611586E4,1.2919878E4,9.0821E3,1.2562663E4,1.4718689E4,1.6539773E4,1.291747E4,1.3198389E4,1.1150999E4,1.7688792E3,3.1839011E3,5.8981987E3,6.249897E3,6.3127656E3,7.958126E3,6.760564E3,6.8285903E3,9.711184E3,6.713144E3,6.204326E3,5.17559E3,8.022799E3,5.6898096E3,5.4611895E3,9.952639E2,7.7361523E2,1.0646818E3,2.1192195E3,2.2447349E3,3.653464E3,3.5881567E3,2.6617405E3,3.5122537E3,2.8005117E3,3.2232434E3,4.734883E3,4.52504E3,2.2355237E3,2.6196965E3,4.208894E3,5.867256E3,3.843928E3,3.2495542E3,3.4635896E3,2.622054E3,3.5822725E3,3.6173762E3,1.5582137E3,3.2847334E3,4.7380654E3,3.377842E3,2.3119675E3,3.922423E3,1.5387664E3,2.3639508E2,7.5886884E2,4.8666962E2,2.8694565E2],"tree_param":{"num_deleted":"0","num_feature":"6","num_nodes":"63","size_leaf_vector":"1"}},{"base_weights":[2.2543487E-3,-2.9820687E-1,3.6122763E-1,-5.1519567E-1,-1.4203693E-1,2.1811692E-1,6.832338E-1,-6.489522E-1,-4.16968E-1,-2.4032207E-1,-6.903205E-2,1.1903581E-1,3.1906685E-1,5.918045E-1,9.644331E-1,-7.551948E-1,-5.937133E-1,-4.7018605E-1,-3.768749E-1,-2.853325E-1,-2.0996259E-1,-1.0662695E-1,-2.2744164E-2,7.281489E-2,1.67808E-1,2.5440943E-1,3.6582205E-1,5.1015306E-1,6.5912366E-1,8.613662E-1,1.2402658E0,-2.7559431E-2,-2.4376245E-2,-2.1321062E-2,-1.9215666E-2,-1.685822E-2,-1.4782634E-2,-1.3965008E-2,-1.1896721E-2,-1.0541524E-2,-8.511205E-3,-7.929249E-3,-6.1452375E-3,-4.9352995E-3,-2.7373948E-3,-1.6323036E-3,6.3584815E-4,1.1141368E-3,3.706444E-3,4.259073E-3,6.8986635E-3,7.2153667E-3,9.816734E-3,1.027787E-2,1.3220733E-2,1.6003126E-2,1.9862292E-2,2.1512784E-2,2.558082E-2,2.7936485E-2,3.1921886E-2,3.8254064E-2,4.9633346E-2],"categories":[],"categories_nodes":[],"categories_segments":[],"categories_sizes":[],"default_left":[0,0,0,0,0,0,0,0,0,0,0,0,0,0,0,0,0,0,0,0,0,0,0,0,0,0,0,0,0,0,0,0,0,0,0,0,0,0,0,0,0,0,0,0,0,0,0,0,0,0,0,0,0,0,0,0,0,0,0,0,0,0,0],"id":9,"left_children":[1,3,5,7,9,11,13,15,17,19,21,23,25,27,29,31,33,35,37,39,41,43,45,47,49,51,53,55,57,59,61,-1,-1,-1,-1,-1,-1,-1,-1,-1,-1,-1,-1,-1,-1,-1,-1,-1,-1,-1,-1,-1,-1,-1,-1,-1,-1,-1,-1,-1,-1,-1,-1],"loss_changes":[9.896419E3,1.6921714E3,1.9259902E3,2.7382422E2,2.0825116E2,2.8927576E2,3.2934277E2,5.0804443E1,2.51333E1,1.6611877E1,2.8945702E1,3.2811783E1,4.293994E1,5.246338E1,8.7522705E1,4.720337E0,4.4240723E0,4.210327E0,5.6623535E0,4.1121216E0,4.9181824E0,9.17215E0,7.994631E0,1.1002773E1,1.06497345E1,8.627197E0,1.2821167E1,1.1550659E1,1.0077393E1,4.8132324E0,1.7983765E1,0E0,0E0,0E0,0E0,0E0,0E0,0E0,0E0,0E0,0E0,0E0,0E0,0E0,0E0,0E0,0E0,0E0,0E0,0E0,0E0,0E0,0E0,0E0,0E0,0E0,0E0,0E0,0E0,0E0,0E0,0E0,0E0],"parents":[2147483647,0,0,1,1,2,2,3,3,4,4,5,5,6,6,7,7,8,8,9,9,10,10,11,11,12,12,13,13,14,14,15,15,16,16,17,17,18,18,19,19,20,20,21,21,22,22,23,23,24,24,25,25,26,26,27,27,28,28,29,29,30,30],"right_children":[2,4,6,8,10,12,14,16,18,20,22,24,26,28,30,32,34,36,38,40,42,44,46,48,50,52,54,56,58,60,62,-1,-1,-1,-1,-1,-1,-1,-1,-1,-1,-1,-1,-1,-1,-1,-1,-1,-1,-1,-1,-1,-1,-1,-1,-1,-1,-1,-1,-1,-1,-1,-1],"split_conditions":[2.6378E1,1.5988E1,4.487E1,1.1327E1,2.0315E1,3.3687E1,6.5356E1,8.586E0,1.3479E1,1.7786E1,2.3497E1,2.9779E1,3.7669E1,5.2459E1,8.9299E1,6.929E0,9.88E0,2.2E-2,-9.5E-2,1.07E-1,5.8E-2,-1.6E-1,2.05E-1,2.7E-2,-1.7E-2,1.12E-1,-5.24E-1,8.82E-1,1.64E0,7.5392E1,1.22E1,-2.7559431E-2,-2.4376245E-2,-2.1321062E-2,-1.9215666E-2,-1.685822E-2,-1.4782634E-2,-1.3965008E-2,-1.1896721E-2,-1.0541524E-2,-8.511205E-3,-7.929249E-3,-6.1452375E-3,-4.9352995E-3,-2.7373948E-3,-1.6323036E-3,6.3584815E-4,1.1141368E-3,3.706444E-3,4.259073E-3,6.8986635E-3,7.2153667E-3,9.816734E-3,1.027787E-2,1.3220733E-2,1.6003126E-2,1.9862292E-2,2.1512784E-2,2.558082E-2,2.7936485E-2,3.1921886E-2,3.8254064E-2,4.9633346E-2],"split_indices":[1,1,1,1,1,1,1,1,1,1,1,1,1,1,1,1,1,2,2,2,2,2,2,2,2,2,2,2,2,1,5,0,0,0,0,0,0,0,0,0,0,0,0,0,0,0,0,0,0,0,0,0,0,0,0,0,0,0,0,0,0,0,0],"split_type":[0,0,0,0,0,0,0,0,0,0,0,0,0,0,0,0,0,0,0,0,0,0,0,0,0,0,0,0,0,0,0,0,0,0,0,0,0,0,0,0,0,0,0,0,0,0,0,0,0,0,0,0,0,0,0,0,0,0,0,0,0,0,0],"sum_hessian":[9.17522E4,4.994608E4,4.180612E4,2.0900553E4,2.9045527E4,2.8945127E4,1.2860994E4,8.845275E3,1.2055277E4,1.2375563E4,1.6669965E4,1.4611318E4,1.4333808E4,9.709086E3,3.1519087E3,3.0183096E3,5.826966E3,5.169889E3,6.8853877E3,4.975071E3,7.400492E3,9.192262E3,7.4777026E3,7.5082686E3,7.10305E3,6.022412E3,8.3113955E3,4.3947188E3,5.3143667E3,2.2988975E3,8.530111E2,1.0253451E3,1.9929644E3,2.2232732E3,3.6036929E3,2.6651924E3,2.5046968E3,2.698464E3,4.1869233E3,2.7139783E3,2.2610928E3,3.8720894E3,3.5284028E3,3.5833982E3,5.608864E3,4.6324824E3,2.8452202E3,3.6290276E3,3.8792412E3,3.3414978E3,3.7615522E3,2.870462E3,3.1519502E3,2.5001404E3,5.811255E3,3.032991E3,1.3617279E3,4.385585E3,9.287819E2,1.6668486E3,6.320489E2,5.9031885E2,2.626923E2],"tree_param":{"num_deleted":"0","num_feature":"6","num_nodes":"63","size_leaf_vector":"1"}},{"base_weights":[8.7144703E-4,-2.857275E-1,3.522106E-1,-5.047019E-1,-1.340743E-1,2.1036607E-1,6.488825E-1,-6.3514364E-1,-4.0668562E-1,-2.3347493E-1,-5.99813E-2,1.1700296E-1,2.9999265E-1,5.6370765E-1,9.3054426E-1,-7.2857547E-1,-5.7142353E-1,-4.718441E-1,-3.7186077E-1,-2.8103003E-1,-2.024623E-1,-9.662291E-2,-1.7054258E-2,7.3705025E-2,1.6378404E-1,2.4488184E-1,3.447251E-1,4.7741252E-1,6.290584E-1,8.2061064E-1,1.2249272E0,-2.6783211E-2,-2.3441495E-2,-2.046892E-2,-1.8733464E-2,-1.6902E-2,-1.5195452E-2,-1.3245082E-2,-1.1188868E-2,-1.0113573E-2,-8.2644485E-3,-7.6389415E-3,-5.9659714E-3,-3.9241333E-3,-2.4444424E-3,-8.5968396E-4,6.2422873E-4,1.5156118E-3,2.9804038E-3,3.5968318E-3,6.04956E-3,7.4098175E-3,9.079255E-3,1.0851616E-2,1.2766137E-2,1.4371821E-2,1.7121369E-2,2.0228392E-2,2.2861404E-2,2.6577467E-2,3.0260777E-2,3.7406724E-2,4.7224253E-2],"categories":[],"categories_nodes":[],"categories_segments":[],"categories_sizes":[],"default_left":[0,0,0,0,0,0,0,0,0,0,0,0,0,0,0,0,0,0,0,0,0,0,0,0,0,0,0,0,0,0,0,0,0,0,0,0,0,0,0,0,0,0,0,0,0,0,0,0,0,0,0,0,0,0,0,0,0,0,0,0,0,0,0],"id":10,"left_children":[1,3,5,7,9,11,13,15,17,19,21,23,25,27,29,31,33,35,37,39,41,43,45,47,49,51,53,55,57,59,61,-1,-1,-1,-1,-1,-1,-1,-1,-1,-1,-1,-1,-1,-1,-1,-1,-1,-1,-1,-1,-1,-1,-1,-1,-1,-1,-1,-1,-1,-1,-1,-1],"loss_changes":[9.211612E3,1.6727124E3,1.7289668E3,2.6278418E2,2.1909198E2,2.3245422E2,3.1763672E2,5.1572998E1,2.6130493E1,1.8453308E1,2.6777493E1,2.7469421E1,3.4596924E1,5.6736816E1,9.776904E1,6.5822754E0,2.0794678E0,1.8630981E0,5.939087E0,3.054657E0,4.497101E0,4.2803726E0,2.3622353E0,2.9184914E0,5.6647797E0,3.5992126E0,5.6104126E0,6.157898E0,7.260498E0,4.0811768E0,1.4146851E1,0E0,0E0,0E0,0E0,0E0,0E0,0E0,0E0,0E0,0E0,0E0,0E0,0E0,0E0,0E0,0E0,0E0,0E0,0E0,0E0,0E0,0E0,0E0,0E0,0E0,0E0,0E0,0E0,0E0,0E0,0E0,0E0],"parents":[2147483647,0,0,1,1,2,2,3,3,4,4,5,5,6,6,7,7,8,8,9,9,10,10,11,11,12,12,13,13,14,14,15,15,16,16,17,17,18,18,19,19,20,20,21,21,22,22,23,23,24,24,25,25,26,26,27,27,28,28,29,29,30,30],"right_children":[2,4,6,8,10,12,14,16,18,20,22,24,26,28,30,32,34,36,38,40,42,44,46,48,50,52,54,56,58,60,62,-1,-1,-1,-1,-1,-1,-1,-1,-1,-1,-1,-1,-1,-1,-1,-1,-1,-1,-1,-1,-1,-1,-1,-1,-1,-1,-1,-1,-1,-1,-1,-1],"split_conditions":[2.6698E1,1.5988E1,4.436E1,1.1327E1,2.0419E1,3.3687E1,6.5356E1,8.952E0,1.3118E1,1.7786E1,2.3651E1,2.9942E1,3.7669E1,5.1519E1,8.9299E1,7.11E0,9.88E0,1.2029E1,1.5017E1,9.3E0,8E0,2.2299E1,1.3E1,7E0,6E0,8.5E0,4.102E1,7.4E0,5.8854E1,7.5392E1,1.22E1,-2.6783211E-2,-2.3441495E-2,-2.046892E-2,-1.8733464E-2,-1.6902E-2,-1.5195452E-2,-1.3245082E-2,-1.1188868E-2,-1.0113573E-2,-8.2644485E-3,-7.6389415E-3,-5.9659714E-3,-3.9241333E-3,-2.4444424E-3,-8.5968396E-4,6.2422873E-4,1.5156118E-3,2.9804038E-3,3.5968318E-3,6.04956E-3,7.4098175E-3,9.079255E-3,1.0851616E-2,1.2766137E-2,1.4371821E-2,1.7121369E-2,2.0228392E-2,2.2861404E-2,2.6577467E-2,3.0260777E-2,3.7406724E-2,4.7224253E-2],"split_indices":[1,1,1,1,1,1,1,1,1,1,1,1,1,1,1,1,1,1,1,5,5,1,5,5,5,5,1,5,1,1,5,0,0,0,0,0,0,0,0,0,0,0,0,0,0,0,0,0,0,0,0,0,0,0,0,0,0,0,0,0,0,0,0],"split_type":[0,0,0,0,0,0,0,0,0,0,0,0,0,0,0,0,0,0,0,0,0,0,0,0,0,0,0,0,0,0,0,0,0,0,0,0,0,0,0,0,0,0,0,0,0,0,0,0,0,0,0,0,0,0,0,0,0,0,0,0,0,0,0],"sum_hessian":[9.147938E4,5.0380863E4,4.1098516E4,2.0612533E4,2.976833E4,2.7806893E4,1.3291624E4,8.838949E3,1.1773584E4,1.2709275E4,1.7059055E4,1.3623347E4,1.4183547E4,1.0209161E4,3.0824634E3,3.5764897E3,5.2624595E3,4.0914956E3,7.682088E3,5.00725E3,7.702026E3,9.196546E3,7.862509E3,7.081801E3,6.541546E3,6.3624263E3,7.82112E3,4.4064307E3,5.8027305E3,2.2483708E3,8.3409265E2,1.1994817E3,2.377008E3,1.6166104E3,3.6458494E3,1.7055066E3,2.3859893E3,5.043401E3,2.6386873E3,3.2748025E3,1.7324473E3,3.9586829E3,3.743343E3,5.0494546E3,4.1470913E3,6.366509E3,1.496E3,2.4028074E3,4.678993E3,1.4093113E3,5.132235E3,3.138497E3,3.223929E3,4.6674653E3,3.1536548E3,1.6442378E3,2.7621926E3,3.637514E3,2.1652163E3,1.588882E3,6.5948883E2,5.0818652E2,3.259061E2],"tree_param":{"num_deleted":"0","num_feature":"6","num_nodes":"63","size_leaf_vector":"1"}},{"base_weights":[-4.0905375E-4,-2.78003E-1,3.3852872E-1,-4.9086824E-1,-1.2949917E-1,2.0514564E-1,6.182269E-1,-6.1947006E-1,-3.9571884E-1,-2.2483343E-1,-5.924582E-2,1.1352969E-1,2.895627E-1,5.574832E-1,9.5949626E-1,-7.161949E-1,-5.5728126E-1,-4.517832E-1,-3.596013E-1,-2.628156E-1,-1.8937594E-1,-9.713173E-2,-1.5439264E-2,7.3157705E-2,1.5480936E-1,2.4052863E-1,3.3080837E-1,4.8001122E-1,6.4177203E-1,8.2988274E-1,1.1262325E0,-2.6319496E-2,-2.2930793E-2,-1.951956E-2,-1.7716644E-2,-1.6221236E-2,-1.410375E-2,-1.31923035E-2,-1.1385743E-2,-1.0373486E-2,-8.248103E-3,-7.841404E-3,-5.6932145E-3,-4.5329984E-3,-2.2928088E-3,-1.493953E-3,6.031969E-4,1.0402636E-3,3.6000472E-3,4.151522E-3,6.9951885E-3,7.288634E-3,1.0107953E-2,9.647821E-3,1.2077791E-2,1.527699E-2,1.8017735E-2,2.0563798E-2,2.3969842E-2,2.4393888E-2,2.90358E-2,3.209671E-2,4.070469E-2],"categories":[],"categories_nodes":[],"categories_segments":[],"categories_sizes":[],"default_left":[0,0,0,0,0,0,0,0,0,0,0,0,0,0,0,0,0,0,0,0,0,0,0,0,0,0,0,0,0,0,0,0,0,0,0,0,0,0,0,0,0,0,0,0,0,0,0,0,0,0,0,0,0,0,0,0,0,0,0,0,0,0,0],"id":11,"left_children":[1,3,5,7,9,11,13,15,17,19,21,23,25,27,29,31,33,35,37,39,41,43,45,47,49,51,53,55,57,59,61,-1,-1,-1,-1,-1,-1,-1,-1,-1,-1,-1,-1,-1,-1,-1,-1,-1,-1,-1,-1,-1,-1,-1,-1,-1,-1,-1,-1,-1,-1,-1,-1],"loss_changes":[8.666487E3,1.6004023E3,1.5466885E3,2.5387646E2,1.9964917E2,2.1697083E2,2.7628662E2,5.2177734E1,2.366858E1,1.6771362E1,2.845602E1,2.2330124E1,2.9195923E1,7.338916E1,4.1761353E1,6.800537E0,2.854248E0,3.9454956E0,4.574707E0,4.643524E0,5.581482E0,9.894241E0,7.680726E0,9.618515E0,1.0915176E1,9.347046E0,9.264954E0,7.977295E0,1.0943848E1,2.3687134E0,1.0149414E1,0E0,0E0,0E0,0E0,0E0,0E0,0E0,0E0,0E0,0E0,0E0,0E0,0E0,0E0,0E0,0E0,0E0,0E0,0E0,0E0,0E0,0E0,0E0,0E0,0E0,0E0,0E0,0E0,0E0,0E0,0E0,0E0],"parents":[2147483647,0,0,1,1,2,2,3,3,4,4,5,5,6,6,7,7,8,8,9,9,10,10,11,11,12,12,13,13,14,14,15,15,16,16,17,17,18,18,19,19,20,20,21,21,22,22,23,23,24,24,25,25,26,26,27,27,28,28,29,29,30,30],"right_children":[2,4,6,8,10,12,14,16,18,20,22,24,26,28,30,32,34,36,38,40,42,44,46,48,50,52,54,56,58,60,62,-1,-1,-1,-1,-1,-1,-1,-1,-1,-1,-1,-1,-1,-1,-1,-1,-1,-1,-1,-1,-1,-1,-1,-1,-1,-1,-1,-1,-1,-1,-1,-1],"split_conditions":[2.6698E1,1.5988E1,4.436E1,1.1425E1,2.0419E1,3.3442E1,7.1082E1,8.952E0,1.3372E1,1.8067E1,2.3651E1,2.9779E1,3.7669E1,5.429E1,8.9299E1,7.11E0,1.0572E1,2.2E-2,-9.5E-2,-2.6E-1,-2.01E-1,-9.5E-2,8.1E-2,-1.01E-1,3.96E-1,6.55E-1,-2.45E-1,8.82E-1,6.3529E1,-1.386E0,9.225E0,-2.6319496E-2,-2.2930793E-2,-1.951956E-2,-1.7716644E-2,-1.6221236E-2,-1.410375E-2,-1.31923035E-2,-1.1385743E-2,-1.0373486E-2,-8.248103E-3,-7.841404E-3,-5.6932145E-3,-4.5329984E-3,-2.2928088E-3,-1.493953E-3,6.031969E-4,1.0402636E-3,3.6000472E-3,4.151522E-3,6.9951885E-3,7.288634E-3,1.0107953E-2,9.647821E-3,1.2077791E-2,1.527699E-2,1.8017735E-2,2.0563798E-2,2.3969842E-2,2.4393888E-2,2.90358E-2,3.209671E-2,4.070469E-2],"split_indices":[1,1,1,1,1,1,1,1,1,1,1,1,1,1,1,1,1,2,2,2,2,2,2,2,2,2,2,2,1,2,4,0,0,0,0,0,0,0,0,0,0,0,0,0,0,0,0,0,0,0,0,0,0,0,0,0,0,0,0,0,0,0,0],"split_type":[0,0,0,0,0,0,0,0,0,0,0,0,0,0,0,0,0,0,0,0,0,0,0,0,0,0,0,0,0,0,0,0,0,0,0,0,0,0,0,0,0,0,0,0,0,0,0,0,0,0,0,0,0,0,0,0,0,0,0,0,0,0,0],"sum_hessian":[9.21096E4,5.0638055E4,4.1471543E4,2.080729E4,2.9830766E4,2.8082844E4,1.3388699E4,8.843659E3,1.196363E4,1.2652333E4,1.7178434E4,1.3471094E4,1.4611751E4,1.1369183E4,2.0195171E3,3.4535835E3,5.390075E3,4.677567E3,7.286063E3,6.09893E3,6.553403E3,9.205137E3,7.973296E3,6.817777E3,6.6533164E3,6.6841577E3,7.9275933E3,5.9307197E3,5.438463E3,1.1413335E3,8.7818365E2,1.2368381E3,2.2167454E3,3.2090474E3,2.1810278E3,2.4910571E3,2.1865098E3,2.9815923E3,4.3044707E3,1.7564775E3,4.3424526E3,2.106944E3,4.4464585E3,4.0317852E3,5.173352E3,4.280801E3,3.6924949E3,3.0235754E3,3.7942017E3,4.157589E3,2.4957275E3,4.7393433E3,1.9448148E3,3.012393E3,4.9152E3,3.9666982E3,1.9640212E3,3.721605E3,1.7168579E3,2.65992E2,8.7534143E2,2.8333136E2,5.948523E2],"tree_param":{"num_deleted":"0","num_feature":"6","num_nodes":"63","size_leaf_vector":"1"}},{"base_weights":[-1.3509111E-3,-2.6889232E-1,3.1868747E-1,-4.815132E-1,-1.2494713E-1,1.9816713E-1,5.9415954E-1,-6.123434E-1,-3.8990986E-1,-2.1953975E-1,-5.764414E-2,1.2797573E-1,3.026009E-1,5.1859564E-1,8.313351E-1,-7.1343416E-1,-5.569519E-1,-4.6101186E-1,-3.5638177E-1,-2.618839E-1,-1.8871292E-1,-9.688572E-2,-2.1831237E-2,7.198668E-2,1.6863208E-1,2.6940987E-1,3.4636202E-1,4.6045694E-1,5.9033996E-1,7.495592E-1,1.0973364E0,-2.6597792E-2,-2.32719E-2,-1.9993309E-2,-1.8034788E-2,-1.7037362E-2,-1.4760141E-2,-1.3006084E-2,-1.1083047E-2,-1.0565027E-2,-8.195734E-3,-7.2574657E-3,-5.4428945E-3,-4.543318E-3,-2.350408E-3,-1.6234805E-3,7.425971E-4,9.017456E-4,3.4355007E-3,3.8304674E-3,6.4526414E-3,7.871973E-3,1.0079283E-2,1.0918287E-2,1.4354037E-2,1.3283954E-2,1.635302E-2,1.8756274E-2,2.1573355E-2,2.3179803E-2,2.755962E-2,3.2505494E-2,4.2977057E-2],"categories":[],"categories_nodes":[],"categories_segments":[],"categories_sizes":[],"default_left":[0,0,0,0,0,0,0,0,0,0,0,0,0,0,0,0,0,0,0,0,0,0,0,0,0,0,0,0,0,0,0,0,0,0,0,0,0,0,0,0,0,0,0,0,0,0,0,0,0,0,0,0,0,0,0,0,0,0,0,0,0,0,0],"id":12,"left_children":[1,3,5,7,9,11,13,15,17,19,21,23,25,27,29,31,33,35,37,39,41,43,45,47,49,51,53,55,57,59,61,-1,-1,-1,-1,-1,-1,-1,-1,-1,-1,-1,-1,-1,-1,-1,-1,-1,-1,-1,-1,-1,-1,-1,-1,-1,-1,-1,-1,-1,-1,-1,-1],"loss_changes":[7.9012544E3,1.5379756E3,1.3944443E3,2.4242725E2,1.9068195E2,2.1402979E2,2.280542E2,4.5743896E1,2.7897217E1,1.5993042E1,2.4559418E1,3.967566E1,1.6667847E1,3.967749E1,6.539307E1,3.9279785E0,3.4361572E0,3.258667E0,6.121338E0,4.7367554E0,5.004883E0,8.482552E0,1.0585596E1,9.886967E0,1.2472748E1,6.762085E0,8.570801E0,8.094849E0,6.3726807E0,8.650269E0,1.4718933E1,0E0,0E0,0E0,0E0,0E0,0E0,0E0,0E0,0E0,0E0,0E0,0E0,0E0,0E0,0E0,0E0,0E0,0E0,0E0,0E0,0E0,0E0,0E0,0E0,0E0,0E0,0E0,0E0,0E0,0E0,0E0,0E0],"parents":[2147483647,0,0,1,1,2,2,3,3,4,4,5,5,6,6,7,7,8,8,9,9,10,10,11,11,12,12,13,13,14,14,15,15,16,16,17,17,18,18,19,19,20,20,21,21,22,22,23,23,24,24,25,25,26,26,27,27,28,28,29,29,30,30],"right_children":[2,4,6,8,10,12,14,16,18,20,22,24,26,28,30,32,34,36,38,40,42,44,46,48,50,52,54,56,58,60,62,-1,-1,-1,-1,-1,-1,-1,-1,-1,-1,-1,-1,-1,-1,-1,-1,-1,-1,-1,-1,-1,-1,-1,-1,-1,-1,-1,-1,-1,-1,-1,-1],"split_conditions":[2.6698E1,1.5988E1,4.487E1,1.1207E1,2.0419E1,3.5725E1,6.5356E1,8.586E0,1.2914E1,1.7786E1,2.3323E1,2.9942E1,4.005E1,5.429E1,2.9463E1,6.594E0,9.88E0,-1.55E-1,1.4433E1,-2.6E-1,5.8E-2,-1.2E-1,2.05E-1,-1.73E-1,-4.66E-1,-3.2E-2,1.111E0,-8.04E-1,5.5E-1,2.26E-1,1.22E1,-2.6597792E-2,-2.32719E-2,-1.9993309E-2,-1.8034788E-2,-1.7037362E-2,-1.4760141E-2,-1.3006084E-2,-1.1083047E-2,-1.0565027E-2,-8.195734E-3,-7.2574657E-3,-5.4428945E-3,-4.543318E-3,-2.350408E-3,-1.6234805E-3,7.425971E-4,9.017456E-4,3.4355007E-3,3.8304674E-3,6.4526414E-3,7.871973E-3,1.0079283E-2,1.0918287E-2,1.4354037E-2,1.3283954E-2,1.635302E-2,1.8756274E-2,2.1573355E-2,2.3179803E-2,2.755962E-2,3.2505494E-2,4.2977057E-2],"split_indices":[1,1,1,1,1,1,1,1,1,1,1,1,1,1,0,1,1,2,1,2,2,2,2,2,2,2,2,2,2,2,5,0,0,0,0,0,0,0,0,0,0,0,0,0,0,0,0,0,0,0,0,0,0,0,0,0,0,0,0,0,0,0,0],"split_type":[0,0,0,0,0,0,0,0,0,0,0,0,0,0,0,0,0,0,0,0,0,0,0,0,0,0,0,0,0,0,0,0,0,0,0,0,0,0,0,0,0,0,0,0,0,0,0,0,0,0,0,0,0,0,0,0,0,0,0,0,0,0,0],"sum_hessian":[9.227724E4,5.026176E4,4.201548E4,2.028827E4,2.9973492E4,2.9230512E4,1.2784969E4,8.350609E3,1.193766E4,1.2456585E4,1.7516908E4,1.7485307E4,1.1745206E4,9.6999E3,3.0850679E3,2.9485356E3,5.402073E3,3.8165374E3,8.1211226E3,5.2380947E3,7.21849E3,8.351076E3,9.165832E3,7.3618335E3,1.0123473E4,6.689718E3,5.0554883E3,5.3659233E3,4.333977E3,2.3640383E3,7.210294E2,6.8887976E2,2.259656E3,2.052128E3,3.3499453E3,1.3084437E3,2.5080938E3,3.9436802E3,4.1774424E3,1.3979216E3,3.840173E3,3.6560708E3,3.5624192E3,3.4847454E3,4.8663306E3,5.73603E3,3.4298025E3,2.9343733E3,4.4274604E3,2.9608438E3,7.1626294E3,3.0190083E3,3.6707095E3,3.939854E3,1.1156344E3,1.4476296E3,3.918294E3,2.5697664E3,1.7642108E3,1.2390941E3,1.1249443E3,4.160526E2,3.0497678E2],"tree_param":{"num_deleted":"0","num_feature":"6","num_nodes":"63","size_leaf_vector":"1"}},{"base_weights":[-3.1192796E-3,-2.6574507E-1,3.0088443E-1,-4.814768E-1,-1.2885143E-1,1.8312839E-1,5.614188E-1,-6.152104E-1,-3.981861E-1,-2.1999048E-1,-5.8508355E-2,1.0321899E-1,2.685433E-1,5.095948E-1,8.588762E-1,-7.0389295E-1,-5.549305E-1,-4.5619735E-1,-3.5754392E-1,-2.6568204E-1,-1.859576E-1,-9.600312E-2,-1.8820746E-2,6.5544784E-2,1.4497852E-1,2.2074546E-1,3.0292988E-1,4.4649312E-1,5.933639E-1,7.657427E-1,1.017659E0,-2.5921032E-2,-2.26408E-2,-1.918861E-2,-1.7249145E-2,-1.6025903E-2,-1.4055029E-2,-1.31461555E-2,-1.1285628E-2,-1.0537684E-2,-8.343105E-3,-7.521118E-3,-5.6958497E-3,-4.523781E-3,-2.3331214E-3,-1.7762136E-3,3.8860127E-4,8.761511E-4,3.2167032E-3,3.8761997E-3,6.2630572E-3,6.622523E-3,9.3784435E-3,8.799852E-3,1.1138195E-2,1.3342929E-2,1.6014868E-2,1.9111397E-2,2.2337371E-2,2.2259312E-2,2.6692657E-2,3.12408E-2,4.115433E-2],"categories":[],"categories_nodes":[],"categories_segments":[],"categories_sizes":[],"default_left":[0,0,0,0,0,0,0,0,0,0,0,0,0,0,0,0,0,0,0,0,0,0,0,0,0,0,0,0,0,0,0,0,0,0,0,0,0,0,0,0,0,0,0,0,0,0,0,0,0,0,0,0,0,0,0,0,0,0,0,0,0,0,0],"id":13,"left_children":[1,3,5,7,9,11,13,15,17,19,21,23,25,27,29,31,33,35,37,39,41,43,45,47,49,51,53,55,57,59,61,-1,-1,-1,-1,-1,-1,-1,-1,-1,-1,-1,-1,-1,-1,-1,-1,-1,-1,-1,-1,-1,-1,-1,-1,-1,-1,-1,-1,-1,-1,-1,-1],"loss_changes":[7.300671E3,1.4485195E3,1.2997798E3,2.1138867E2,1.9229486E2,1.9903802E2,2.022334E2,3.8040283E1,2.7120117E1,2.0059204E1,2.5159695E1,2.3623474E1,2.2863525E1,5.862793E1,2.723816E1,4.9936523E0,1.8294678E0,2.9771118E0,4.626831E0,4.4227905E0,4.518402E0,8.797485E0,8.481036E0,9.307835E0,8.579483E0,7.9814453E0,9.028381E0,8.63562E0,7.906616E0,2.1205444E0,1.1084778E1,0E0,0E0,0E0,0E0,0E0,0E0,0E0,0E0,0E0,0E0,0E0,0E0,0E0,0E0,0E0,0E0,0E0,0E0,0E0,0E0,0E0,0E0,0E0,0E0,0E0,0E0,0E0,0E0,0E0,0E0,0E0,0E0],"parents":[2147483647,0,0,1,1,2,2,3,3,4,4,5,5,6,6,7,7,8,8,9,9,10,10,11,11,12,12,13,13,14,14,15,15,16,16,17,17,18,18,19,19,20,20,21,21,22,22,23,23,24,24,25,25,26,26,27,27,28,28,29,29,30,30],"right_children":[2,4,6,8,10,12,14,16,18,20,22,24,26,28,30,32,34,36,38,40,42,44,46,48,50,52,54,56,58,60,62,-1,-1,-1,-1,-1,-1,-1,-1,-1,-1,-1,-1,-1,-1,-1,-1,-1,-1,-1,-1,-1,-1,-1,-1,-1,-1,-1,-1,-1,-1,-1,-1],"split_conditions":[2.6378E1,1.5519E1,4.436E1,1.0868E1,2.0315E1,3.3974E1,7.1082E1,8.586E0,1.2914E1,1.7674E1,2.3323E1,2.9942E1,3.7669E1,5.5425E1,8.9299E1,6.929E0,1.63E-1,1.34E-1,-9.5E-2,-2.6E-1,-2.01E-1,-8E-2,-3.2E-2,-9.5E-2,2.39E-1,6.55E-1,-1.95E-1,7.4E0,1.297E0,-1.386E0,1.22E1,-2.5921032E-2,-2.26408E-2,-1.918861E-2,-1.7249145E-2,-1.6025903E-2,-1.4055029E-2,-1.31461555E-2,-1.1285628E-2,-1.0537684E-2,-8.343105E-3,-7.521118E-3,-5.6958497E-3,-4.523781E-3,-2.3331214E-3,-1.7762136E-3,3.8860127E-4,8.761511E-4,3.2167032E-3,3.8761997E-3,6.2630572E-3,6.622523E-3,9.3784435E-3,8.799852E-3,1.1138195E-2,1.3342929E-2,1.6014868E-2,1.9111397E-2,2.2337371E-2,2.2259312E-2,2.6692657E-2,3.12408E-2,4.115433E-2],"split_indices":[1,1,1,1,1,1,1,1,1,1,1,1,1,1,1,1,2,2,2,2,2,2,2,2,2,2,2,5,2,2,5,0,0,0,0,0,0,0,0,0,0,0,0,0,0,0,0,0,0,0,0,0,0,0,0,0,0,0,0,0,0,0,0],"split_type":[0,0,0,0,0,0,0,0,0,0,0,0,0,0,0,0,0,0,0,0,0,0,0,0,0,0,0,0,0,0,0,0,0,0,0,0,0,0,0,0,0,0,0,0,0,0,0,0,0,0,0,0,0,0,0,0,0,0,0,0,0,0,0],"sum_hessian":[9.144033E4,4.905978E4,4.2380543E4,1.9043254E4,3.0016527E4,2.9190607E4,1.3189936E4,7.3037754E3,1.17394795E4,1.3071529E4,1.6944998E4,1.5085441E4,1.4105166E4,1.1236662E4,1.9532733E3,2.9479011E3,4.3558745E3,4.8270786E3,6.912401E3,5.570949E3,7.5005806E3,8.706207E3,8.238791E3,7.9381147E3,7.1473267E3,5.910773E3,8.194393E3,6.4159287E3,4.8207334E3,1.2368367E3,7.164366E2,9.7657446E2,1.9713265E3,3.2795212E3,1.0763531E3,3.24661E3,1.5804683E3,2.8600151E3,4.0523857E3,1.556981E3,4.0139683E3,2.35546E3,5.1451206E3,3.5874502E3,5.1187563E3,3.90202E3,4.336771E3,3.4194846E3,4.5186304E3,4.120669E3,3.0266577E3,4.154711E3,1.7560621E3,3.2375425E3,4.9568506E3,2.3049495E3,4.1109795E3,3.4844E3,1.3363336E3,2.5032176E2,9.8651495E2,4.9915915E2,2.1727747E2],"tree_param":{"num_deleted":"0","num_feature":"6","num_nodes":"63","size_leaf_vector":"1"}},{"base_weights":[-3.940501E-3,-2.7459496E-1,2.7275616E-1,-4.76349E-1,-1.4808612E-1,1.5340377E-1,5.206526E-1,-6.124706E-1,-3.9964837E-1,-2.3838678E-1,-8.29491E-2,7.178545E-2,2.3782764E-1,4.6380636E-1,7.735452E-1,-6.958424E-1,-5.4886246E-1,-4.473828E-1,-3.49517E-1,-2.6589292E-1,-1.9230352E-1,-1.313951E-1,-5.0395392E-2,3.4692127E-2,1.2145047E-1,2.0478292E-1,2.895854E-1,3.9043352E-1,5.420035E-1,6.8086255E-1,9.7085845E-1,-2.7784366E-2,-2.3043312E-2,-1.9240394E-2,-1.6922316E-2,-1.6738236E-2,-1.4156613E-2,-1.3254728E-2,-1.08460225E-2,-1.0101767E-2,-7.412505E-3,-7.990982E-3,-5.8257845E-3,-5.5316533E-3,-2.7648092E-3,-3.0089365E-3,-5.413431E-4,-3.226404E-4,2.5020372E-3,2.8297128E-3,5.8240998E-3,5.6004473E-3,8.517612E-3,7.935123E-3,1.1076543E-2,1.179181E-2,1.5786203E-2,1.7090192E-2,2.0267231E-2,2.8687187E-2,2.2466626E-2,2.6330762E-2,3.5535008E-2],"categories":[],"categories_nodes":[],"categories_segments":[],"categories_sizes":[],"default_left":[0,0,0,0,0,0,0,0,0,0,0,0,0,0,0,0,0,0,0,0,0,0,0,0,0,0,0,0,0,0,0,0,0,0,0,0,0,0,0,0,0,0,0,0,0,0,0,0,0,0,0,0,0,0,0,0,0,0,0,0,0,0,0],"id":14,"left_children":[1,3,5,7,9,11,13,15,17,19,21,23,25,27,29,31,33,35,37,39,41,43,45,47,49,51,53,55,57,59,61,-1,-1,-1,-1,-1,-1,-1,-1,-1,-1,-1,-1,-1,-1,-1,-1,-1,-1,-1,-1,-1,-1,-1,-1,-1,-1,-1,-1,-1,-1,-1,-1],"loss_changes":[6.898265E3,1.1881558E3,1.3471987E3,1.8660571E2,1.6818146E2,2.1170007E2,2.118081E2,3.3279053E1,2.693164E1,1.4925476E1,2.6137184E1,2.8729095E1,2.5544434E1,6.868994E1,4.8141968E1,3.2092285E0,2.9259033E0,7.2851562E0,6.340637E0,1.1306641E1,3.6843414E0,1.0629883E1,1.32195835E1,1.568922E1,1.2711288E1,1.683139E1,1.2046051E1,1.9217712E1,1.1307495E1,3.324646E0,1.1842407E1,0E0,0E0,0E0,0E0,0E0,0E0,0E0,0E0,0E0,0E0,0E0,0E0,0E0,0E0,0E0,0E0,0E0,0E0,0E0,0E0,0E0,0E0,0E0,0E0,0E0,0E0,0E0,0E0,0E0,0E0,0E0,0E0],"parents":[2147483647,0,0,1,1,2,2,3,3,4,4,5,5,6,6,7,7,8,8,9,9,10,10,11,11,12,12,13,13,14,14,15,15,16,16,17,17,18,18,19,19,20,20,21,21,22,22,23,23,24,24,25,25,26,26,27,27,28,28,29,29,30,30],"right_children":[2,4,6,8,10,12,14,16,18,20,22,24,26,28,30,32,34,36,38,40,42,44,46,48,50,52,54,56,58,60,62,-1,-1,-1,-1,-1,-1,-1,-1,-1,-1,-1,-1,-1,-1,-1,-1,-1,-1,-1,-1,-1,-1,-1,-1,-1,-1,-1,-1,-1,-1,-1,-1],"split_conditions":[8.385E0,5.041E0,1.4071E1,3.501E0,6.387E0,1.0774E1,2.2326E1,2.807E0,4.35E0,1.88E-1,7.284E0,1.75E-1,1.2622E1,1.7158E1,2.9463E1,1.978E0,1.12E-1,-1.11E-1,-1.2E-1,5.824E0,5.422E0,1.58E-1,-4.3E-2,9.396E0,9.6E0,2.76E-1,-2.75E-1,7.09E-1,5.73E-1,2.8E0,9.5E0,-2.7784366E-2,-2.3043312E-2,-1.9240394E-2,-1.6922316E-2,-1.6738236E-2,-1.4156613E-2,-1.3254728E-2,-1.08460225E-2,-1.0101767E-2,-7.412505E-3,-7.990982E-3,-5.8257845E-3,-5.5316533E-3,-2.7648092E-3,-3.0089365E-3,-5.413431E-4,-3.226404E-4,2.5020372E-3,2.8297128E-3,5.8240998E-3,5.6004473E-3,8.517612E-3,7.935123E-3,1.1076543E-2,1.179181E-2,1.5786203E-2,1.7090192E-2,2.0267231E-2,2.8687187E-2,2.2466626E-2,2.6330762E-2,3.5535008E-2],"split_indices":[0,0,0,0,0,0,0,0,0,2,0,2,0,0,0,0,2,2,2,0,0,2,2,0,0,2,2,2,2,5,5,0,0,0,0,0,0,0,0,0,0,0,0,0,0,0,0,0,0,0,0,0,0,0,0,0,0,0,0,0,0,0,0],"split_type":[0,0,0,0,0,0,0,0,0,0,0,0,0,0,0,0,0,0,0,0,0,0,0,0,0,0,0,0,0,0,0,0,0,0,0,0,0,0,0,0,0,0,0,0,0,0,0,0,0,0,0,0,0,0,0,0,0,0,0,0,0,0,0],"sum_hessian":[9.211091E4,4.6564746E4,4.5546164E4,1.7942967E4,2.8621777E4,3.0746531E4,1.4799632E4,6.461743E3,1.1481224E4,1.1989862E4,1.6631916E4,1.5636896E4,1.5109635E4,1.2087397E4,2.7122341E3,2.7887283E3,3.673015E3,5.8721074E3,5.6091157E3,7.498677E3,4.4911855E3,6.677137E3,9.954778E3,8.957943E3,6.678953E3,9.230714E3,5.8789204E3,6.242427E3,5.844971E3,1.8501823E3,8.620519E2,2.4167921E2,2.5470488E3,2.5049897E3,1.1680253E3,2.110009E3,3.7620984E3,2.1835999E3,3.425516E3,4.3288696E3,3.1698071E3,1.3589073E3,3.1322783E3,4.015654E3,2.6614834E3,4.6660386E3,5.28874E3,4.2184907E3,4.7394526E3,3.8605996E3,2.8183538E3,5.1041167E3,4.1265977E3,2.4580845E3,3.420836E3,4.0980137E3,2.1444128E3,3.664983E3,2.179988E3,1.4091145E2,1.7092709E3,2.6622095E2,5.9583093E2],"tree_param":{"num_deleted":"0","num_feature":"6","num_nodes":"63","size_leaf_vector":"1"}},{"base_weights":[-1.9286736E-3,-2.4705909E-1,2.8389674E-1,-4.4984797E-1,-1.1509143E-1,1.7386857E-1,5.155833E-1,-5.908396E-1,-3.6952874E-1,-1.9965173E-1,-5.044742E-2,9.020064E-2,2.3856032E-1,4.502432E-1,7.216079E-1,-6.802417E-1,-5.322119E-1,-4.3377665E-1,-3.3190906E-1,-2.5049904E-1,-1.751279E-1,-8.3117425E-2,-1.4442712E-2,6.7494355E-2,1.3901572E-1,1.9489655E-1,2.803012E-1,3.9020306E-1,5.056311E-1,6.479679E-1,9.307196E-1,-2.57768E-2,-2.2082213E-2,-1.9167805E-2,-1.730192E-2,-1.5431335E-2,-1.3287946E-2,-1.2211322E-2,-1.0393911E-2,-1.002023E-2,-7.839452E-3,-6.4995163E-3,-4.706073E-3,-3.505593E-3,-1.365799E-3,-1.4484571E-3,5.353277E-4,1.1389247E-3,3.0266002E-3,3.0714285E-3,5.6859623E-3,4.6250103E-3,7.2485404E-3,8.859081E-3,1.111455E-2,1.2539233E-2,1.5409934E-2,1.5337324E-2,1.7748576E-2,2.0218493E-2,2.3517232E-2,2.8703813E-2,3.741212E-2],"categories":[],"categories_nodes":[],"categories_segments":[],"categories_sizes":[],"default_left":[0,0,0,0,0,0,0,0,0,0,0,0,0,0,0,0,0,0,0,0,0,0,0,0,0,0,0,0,0,0,0,0,0,0,0,0,0,0,0,0,0,0,0,0,0,0,0,0,0,0,0,0,0,0,0,0,0,0,0,0,0,0,0],"id":15,"left_children":[1,3,5,7,9,11,13,15,17,19,21,23,25,27,29,31,33,35,37,39,41,43,45,47,49,51,53,55,57,59,61,-1,-1,-1,-1,-1,-1,-1,-1,-1,-1,-1,-1,-1,-1,-1,-1,-1,-1,-1,-1,-1,-1,-1,-1,-1,-1,-1,-1,-1,-1,-1,-1],"loss_changes":[6.3970938E3,1.3150444E3,1.0741089E3,2.1871729E2,1.626438E2,1.5452454E2,1.8178125E2,3.5877686E1,2.9327393E1,1.5832703E1,1.980825E1,1.3710434E1,2.9085327E1,3.36416E1,4.8880737E1,4.7579346E0,2.130371E0,3.704773E0,5.1416626E0,3.1992493E0,5.2609253E0,7.772278E0,6.9592776E0,6.3265495E0,5.4592667E0,8.914825E0,6.7749023E0,5.5165405E0,4.8894043E0,4.7286377E0,1.01189575E1,0E0,0E0,0E0,0E0,0E0,0E0,0E0,0E0,0E0,0E0,0E0,0E0,0E0,0E0,0E0,0E0,0E0,0E0,0E0,0E0,0E0,0E0,0E0,0E0,0E0,0E0,0E0,0E0,0E0,0E0,0E0,0E0],"parents":[2147483647,0,0,1,1,2,2,3,3,4,4,5,5,6,6,7,7,8,8,9,9,10,10,11,11,12,12,13,13,14,14,15,15,16,16,17,17,18,18,19,19,20,20,21,21,22,22,23,23,24,24,25,25,26,26,27,27,28,28,29,29,30,30],"right_children":[2,4,6,8,10,12,14,16,18,20,22,24,26,28,30,32,34,36,38,40,42,44,46,48,50,52,54,56,58,60,62,-1,-1,-1,-1,-1,-1,-1,-1,-1,-1,-1,-1,-1,-1,-1,-1,-1,-1,-1,-1,-1,-1,-1,-1,-1,-1,-1,-1,-1,-1,-1,-1],"split_conditions":[2.6698E1,1.5871E1,4.436E1,1.0868E1,2.0544E1,3.2641E1,6.5356E1,8.586E0,1.2914E1,1.7464E1,2.3651E1,4.79E-1,3.7669E1,5.2459E1,8.9299E1,6.594E0,9.603E0,1.12E-1,1.4218E1,-2.6E-1,2.59E-1,2.71E-1,5.8E-2,2.8846E1,2.9018E1,-5.11E-1,8.63E-1,1.297E0,-8.04E-1,1.53E-1,1.22E1,-2.57768E-2,-2.2082213E-2,-1.9167805E-2,-1.730192E-2,-1.5431335E-2,-1.3287946E-2,-1.2211322E-2,-1.0393911E-2,-1.002023E-2,-7.839452E-3,-6.4995163E-3,-4.706073E-3,-3.505593E-3,-1.365799E-3,-1.4484571E-3,5.353277E-4,1.1389247E-3,3.0266002E-3,3.0714285E-3,5.6859623E-3,4.6250103E-3,7.2485404E-3,8.859081E-3,1.111455E-2,1.2539233E-2,1.5409934E-2,1.5337324E-2,1.7748576E-2,2.0218493E-2,2.3517232E-2,2.8703813E-2,3.741212E-2],"split_indices":[1,1,1,1,1,1,1,1,1,1,1,2,1,1,1,1,1,2,1,2,2,2,2,1,1,2,2,2,2,2,5,0,0,0,0,0,0,0,0,0,0,0,0,0,0,0,0,0,0,0,0,0,0,0,0,0,0,0,0,0,0,0,0],"split_type":[0,0,0,0,0,0,0,0,0,0,0,0,0,0,0,0,0,0,0,0,0,0,0,0,0,0,0,0,0,0,0,0,0,0,0,0,0,0,0,0,0,0,0,0,0,0,0,0,0,0,0,0,0,0,0,0,0,0,0,0,0,0,0],"sum_hessian":[9.130112E4,4.915042E4,4.21507E4,1.9373652E4,2.9776768E4,2.8581295E4,1.3569403E4,7.026626E3,1.2347026E4,1.2896866E4,1.68799E4,1.2467108E4,1.6114186E4,1.0306385E4,3.2630188E3,2.7753428E3,4.251283E3,4.551018E3,7.7960083E3,4.1868228E3,8.710044E3,8.842041E3,8.0378604E3,8.517528E3,3.94958E3,7.884189E3,8.229997E3,4.953647E3,5.352738E3,2.4180195E3,8.449994E2,6.359614E2,2.1393813E3,1.4599631E3,2.7913203E3,2.837069E3,1.713949E3,3.4208684E3,4.37514E3,1.1585381E3,3.028285E3,5.819817E3,2.890227E3,5.932139E3,2.909902E3,4.1507993E3,3.8870608E3,3.3941472E3,5.123381E3,1.5140624E3,2.4355178E3,2.0363726E3,5.8478164E3,6.070128E3,2.1598694E3,3.891389E3,1.0622578E3,1.554455E3,3.798283E3,1.2299382E3,1.1880813E3,5.900944E2,2.5490497E2],"tree_param":{"num_deleted":"0","num_feature":"6","num_nodes":"63","size_leaf_vector":"1"}},{"base_weights":[-2.2115353E-3,-2.64205E-1,2.558017E-1,-4.6074712E-1,-1.4209282E-1,1.561543E-1,5.147209E-1,-5.877476E-1,-3.8644338E-1,-2.1619341E-1,-7.256835E-2,7.583347E-2,2.4203697E-1,4.607306E-1,7.663534E-1,-6.8172514E-1,-5.3544575E-1,-4.45585E-1,-3.4797522E-1,-2.612554E-1,-1.8148324E-1,-1.0619798E-1,-4.1988384E-2,2.4845663E-2,1.127634E-1,1.9801383E-1,2.826017E-1,4.0316656E-1,5.258293E-1,6.7132443E-1,9.111019E-1,-2.7075518E-2,-2.2425154E-2,-1.9583113E-2,-1.7373482E-2,-1.5874935E-2,-1.3996177E-2,-1.2622738E-2,-1.0673047E-2,-9.477599E-3,-7.411892E-3,-7.3588486E-3,-5.5638887E-3,-4.7700196E-3,-2.6062273E-3,-1.9357757E-3,2.512695E-4,-3.7011542E-4,1.6345877E-3,2.4149935E-3,4.739552E-3,5.001788E-3,7.449804E-3,8.33441E-3,1.0395864E-2,1.107723E-2,1.4421885E-2,1.7073933E-2,2.0460082E-2,2.074305E-2,2.4442054E-2,2.3898194E-2,3.3283174E-2],"categories":[],"categories_nodes":[],"categories_segments":[],"categories_sizes":[],"default_left":[0,0,0,0,0,0,0,0,0,0,0,0,0,0,0,0,0,0,0,0,0,0,0,0,0,0,0,0,0,0,0,0,0,0,0,0,0,0,0,0,0,0,0,0,0,0,0,0,0,0,0,0,0,0,0,0,0,0,0,0,0,0,0],"id":16,"left_children":[1,3,5,7,9,11,13,15,17,19,21,23,25,27,29,31,33,35,37,39,41,43,45,47,49,51,53,55,57,59,61,-1,-1,-1,-1,-1,-1,-1,-1,-1,-1,-1,-1,-1,-1,-1,-1,-1,-1,-1,-1,-1,-1,-1,-1,-1,-1,-1,-1,-1,-1,-1,-1],"loss_changes":[6.1958086E3,1.0911365E3,1.191023E3,1.6373828E2,1.443714E2,2.2986737E2,1.7336792E2,3.0630615E1,2.4481567E1,2.0971802E1,1.4813606E1,3.2386314E1,2.848413E1,3.893872E1,2.9743896E1,3.418335E0,2.9667969E0,2.6939697E0,5.0733643E0,4.52713E0,4.4336243E0,6.9011154E0,5.8063126E0,6.1490016E0,1.1301231E1,8.580322E0,7.272278E0,9.741699E0,6.9957275E0,3.0185547E0,1.2140747E1,0E0,0E0,0E0,0E0,0E0,0E0,0E0,0E0,0E0,0E0,0E0,0E0,0E0,0E0,0E0,0E0,0E0,0E0,0E0,0E0,0E0,0E0,0E0,0E0,0E0,0E0,0E0,0E0,0E0,0E0,0E0,0E0],"parents":[2147483647,0,0,1,1,2,2,3,3,4,4,5,5,6,6,7,7,8,8,9,9,10,10,11,11,12,12,13,13,14,14,15,15,16,16,17,17,18,18,19,19,20,20,21,21,22,22,23,23,24,24,25,25,26,26,27,27,28,28,29,29,30,30],"right_children":[2,4,6,8,10,12,14,16,18,20,22,24,26,28,30,32,34,36,38,40,42,44,46,48,50,52,54,56,58,60,62,-1,-1,-1,-1,-1,-1,-1,-1,-1,-1,-1,-1,-1,-1,-1,-1,-1,-1,-1,-1,-1,-1,-1,-1,-1,-1,-1,-1,-1,-1,-1,-1],"split_conditions":[2.5147E1,1.5017E1,4.5433E1,1.0572E1,1.9873E1,3.3442E1,7.1082E1,8.115E0,1.2381E1,1.7221E1,2.251E1,2.8322E1,3.8247E1,5.5425E1,2.9463E1,5.787E0,9.128E0,8.3E0,6.4E-2,2.05E-1,-2.01E-1,-8E-2,4.79E-1,-1.85E-1,-1.67E-1,-3.86E-1,8.6E0,-8.6E-1,1.64E0,1.29E-1,9.5E0,-2.7075518E-2,-2.2425154E-2,-1.9583113E-2,-1.7373482E-2,-1.5874935E-2,-1.3996177E-2,-1.2622738E-2,-1.0673047E-2,-9.477599E-3,-7.411892E-3,-7.3588486E-3,-5.5638887E-3,-4.7700196E-3,-2.6062273E-3,-1.9357757E-3,2.512695E-4,-3.7011542E-4,1.6345877E-3,2.4149935E-3,4.739552E-3,5.001788E-3,7.449804E-3,8.33441E-3,1.0395864E-2,1.107723E-2,1.4421885E-2,1.7073933E-2,2.0460082E-2,2.074305E-2,2.4442054E-2,2.3898194E-2,3.3283174E-2],"split_indices":[1,1,1,1,1,1,1,1,1,1,1,1,1,1,0,1,1,5,2,2,2,2,2,2,2,2,5,2,2,2,5,0,0,0,0,0,0,0,0,0,0,0,0,0,0,0,0,0,0,0,0,0,0,0,0,0,0,0,0,0,0,0,0],"split_type":[0,0,0,0,0,0,0,0,0,0,0,0,0,0,0,0,0,0,0,0,0,0,0,0,0,0,0,0,0,0,0,0,0,0,0,0,0,0,0,0,0,0,0,0,0,0,0,0,0,0,0,0,0,0,0,0,0,0,0,0,0,0,0],"sum_hessian":[9.165486E4,4.5477574E4,4.6177285E4,1.7424951E4,2.8052621E4,3.334693E4,1.2830355E4,6.426732E3,1.0998219E4,1.3574999E4,1.4477623E4,1.7235328E4,1.6111601E4,1.0567765E4,2.2625908E3,2.2901387E3,4.1365933E3,4.3251797E3,6.673039E3,5.89773E3,7.677269E3,6.8862705E3,7.5913525E3,7.24593E3,9.989398E3,7.7350454E3,8.376555E3,5.616309E3,4.9514556E3,1.371389E3,8.9120184E2,2.707492E2,2.0193895E3,1.2692026E3,2.8673906E3,2.361297E3,1.9638826E3,3.626632E3,3.0464072E3,3.985211E3,1.9125189E3,2.3709749E3,5.3062944E3,3.0959343E3,3.790336E3,5.7952964E3,1.796056E3,2.871258E3,4.374672E3,4.031428E3,5.95797E3,2.4451711E3,5.289874E3,3.5231775E3,4.8533774E3,1.3912659E3,4.2250435E3,3.994554E3,9.5690173E2,6.7760583E2,6.937832E2,2.4702507E2,6.4417676E2],"tree_param":{"num_deleted":"0","num_feature":"6","num_nodes":"63","size_leaf_vector":"1"}},{"base_weights":[4.2145184E-4,-2.4301624E-1,2.6178697E-1,-4.5209688E-1,-1.2625009E-1,1.5728366E-1,4.844911E-1,-5.7649165E-1,-3.7740067E-1,-2.04874E-1,-5.4373592E-2,7.495093E-2,2.2244877E-1,4.205743E-1,6.76623E-1,-6.702443E-1,-5.239871E-1,-4.2147243E-1,-3.3185336E-1,-2.4826519E-1,-1.664196E-1,-8.123398E-2,-1.6919255E-2,4.3755952E-2,1.077786E-1,1.8438303E-1,2.607487E-1,3.724037E-1,4.8048437E-1,6.020956E-1,8.5860264E-1,-2.4802074E-2,-2.166999E-2,-1.9167054E-2,-1.6982077E-2,-1.5206452E-2,-1.3287207E-2,-1.2038505E-2,-1.018144E-2,-8.908422E-3,-6.749899E-3,-6.3654394E-3,-4.791852E-3,-3.982014E-3,-1.7582834E-3,-1.0797277E-3,1.0369234E-3,2.5577573E-4,2.3366825E-3,1.9239767E-3,4.2122304E-3,4.5497664E-3,6.91292E-3,8.201727E-3,1.0522281E-2,1.0990524E-2,1.3435638E-2,1.5207243E-2,1.7408388E-2,1.8367661E-2,2.1870546E-2,2.6156325E-2,3.394539E-2],"categories":[],"categories_nodes":[],"categories_segments":[],"categories_sizes":[],"default_left":[0,0,0,0,0,0,0,0,0,0,0,0,0,0,0,0,0,0,0,0,0,0,0,0,0,0,0,0,0,0,0,0,0,0,0,0,0,0,0,0,0,0,0,0,0,0,0,0,0,0,0,0,0,0,0,0,0,0,0,0,0,0,0],"id":17,"left_children":[1,3,5,7,9,11,13,15,17,19,21,23,25,27,29,31,33,35,37,39,41,43,45,47,49,51,53,55,57,59,61,-1,-1,-1,-1,-1,-1,-1,-1,-1,-1,-1,-1,-1,-1,-1,-1,-1,-1,-1,-1,-1,-1,-1,-1,-1,-1,-1,-1,-1,-1,-1,-1],"loss_changes":[5.820646E3,1.1559944E3,1.0263691E3,1.5700684E2,1.7162866E2,1.609577E2,1.7218726E2,3.0383545E1,2.0788818E1,2.3972168E1,1.5930252E1,1.3513573E1,2.4168823E1,2.992566E1,4.64115E1,2.9655151E0,2.8983154E0,3.762146E0,3.5010376E0,4.9191284E0,3.9960938E0,9.816677E0,4.7796574E0,6.2536383E0,5.510193E0,8.374878E0,7.1691895E0,6.6066895E0,4.2613525E0,5.7175903E0,1.0825684E1,0E0,0E0,0E0,0E0,0E0,0E0,0E0,0E0,0E0,0E0,0E0,0E0,0E0,0E0,0E0,0E0,0E0,0E0,0E0,0E0,0E0,0E0,0E0,0E0,0E0,0E0,0E0,0E0,0E0,0E0,0E0,0E0],"parents":[2147483647,0,0,1,1,2,2,3,3,4,4,5,5,6,6,7,7,8,8,9,9,10,10,11,11,12,12,13,13,14,14,15,15,16,16,17,17,18,18,19,19,20,20,21,21,22,22,23,23,24,24,25,25,26,26,27,27,28,28,29,29,30,30],"right_children":[2,4,6,8,10,12,14,16,18,20,22,24,26,28,30,32,34,36,38,40,42,44,46,48,50,52,54,56,58,60,62,-1,-1,-1,-1,-1,-1,-1,-1,-1,-1,-1,-1,-1,-1,-1,-1,-1,-1,-1,-1,-1,-1,-1,-1,-1,-1,-1,-1,-1,-1,-1,-1],"split_conditions":[2.6183E1,1.5017E1,4.436E1,1.0572E1,2.0315E1,3.2399E1,6.5356E1,8.115E0,1.2914E1,1.7568E1,2.3651E1,6.7E-2,3.7669E1,5.429E1,8.9299E1,6.594E0,9.128E0,1.1668E1,6.7E-2,2.89E-1,8E0,-8E-2,4.7E-1,2.8504E1,5.8E0,-3.77E-1,8.63E-1,7.4E0,5.5E-1,-5.4E-2,1.22E1,-2.4802074E-2,-2.166999E-2,-1.9167054E-2,-1.6982077E-2,-1.5206452E-2,-1.3287207E-2,-1.2038505E-2,-1.018144E-2,-8.908422E-3,-6.749899E-3,-6.3654394E-3,-4.791852E-3,-3.982014E-3,-1.7582834E-3,-1.0797277E-3,1.0369234E-3,2.5577573E-4,2.3366825E-3,1.9239767E-3,4.2122304E-3,4.5497664E-3,6.91292E-3,8.201727E-3,1.0522281E-2,1.0990524E-2,1.3435638E-2,1.5207243E-2,1.7408388E-2,1.8367661E-2,2.1870546E-2,2.6156325E-2,3.394539E-2],"split_indices":[1,1,1,1,1,1,1,1,1,1,1,2,1,1,1,1,1,1,2,2,5,2,2,1,5,2,2,5,2,2,5,0,0,0,0,0,0,0,0,0,0,0,0,0,0,0,0,0,0,0,0,0,0,0,0,0,0,0,0,0,0,0,0],"split_type":[0,0,0,0,0,0,0,0,0,0,0,0,0,0,0,0,0,0,0,0,0,0,0,0,0,0,0,0,0,0,0,0,0,0,0,0,0,0,0,0,0,0,0,0,0,0,0,0,0,0,0,0,0,0,0,0,0,0,0,0,0,0,0],"sum_hessian":[9.147967E4,4.7363344E4,4.411633E4,1.6969963E4,3.0393383E4,3.0029152E4,1.4087176E4,6.3618823E3,1.060808E4,1.4511259E4,1.5882124E4,1.3271242E4,1.675791E4,1.0574974E4,3.5122026E3,2.2761943E3,4.0856882E3,5.3816714E3,5.2264087E3,6.8094473E3,7.7018115E3,9.24091E3,6.641214E3,6.813612E3,6.45763E3,8.413976E3,8.343935E3,5.87038E3,4.7045933E3,2.4967664E3,1.0154362E3,6.677146E2,1.6084797E3,1.2769178E3,2.8087705E3,2.5878848E3,2.7937864E3,2.832283E3,2.3941257E3,5.1117173E3,1.6977299E3,4.005943E3,3.6958687E3,4.0706738E3,5.1702363E3,5.0519443E3,1.5892695E3,2.8270527E3,3.986559E3,1.6364658E3,4.821164E3,2.4796306E3,5.934345E3,6.222826E3,2.1211091E3,2.1119468E3,3.758433E3,2.584365E3,2.1202283E3,1.1241571E3,1.3726093E3,6.561486E2,3.592876E2],"tree_param":{"num_deleted":"0","num_feature":"6","num_nodes":"63","size_leaf_vector":"1"}},{"base_weights":[-1.12537E-3,-2.2564435E-1,2.5304437E-1,-4.3258277E-1,-1.15123324E-1,1.5101086E-1,4.5918295E-1,-5.614918E-1,-3.6210498E-1,-1.9611159E-1,-4.6429787E-2,8.856557E-2,2.2135653E-1,4.0451804E-1,6.5071285E-1,-6.551551E-1,-5.126091E-1,-4.15344E-1,-3.2244274E-1,-2.427252E-1,-1.658845E-1,-7.344748E-2,-1.2588595E-2,5.7126127E-2,1.2707564E-1,1.9025962E-1,2.5166425E-1,3.4768316E-1,4.5829055E-1,5.928772E-1,8.097663E-1,-2.5198082E-2,-2.1280667E-2,-1.8759508E-2,-1.6568882E-2,-1.5307431E-2,-1.330734E-2,-1.2426391E-2,-1.039867E-2,-9.6264E-3,-7.6302993E-3,-6.742257E-3,-5.0028786E-3,-3.2310744E-3,-1.3469954E-3,-1.3038473E-3,6.3289027E-4,9.952601E-4,2.8650337E-3,2.5337997E-3,4.850269E-3,5.9294864E-3,8.397789E-3,7.017231E-3,9.164559E-3,9.70424E-3,1.2324063E-2,1.4502084E-2,1.687067E-2,1.7133014E-2,2.0657403E-2,2.2418655E-2,2.8835097E-2],"categories":[],"categories_nodes":[],"categories_segments":[],"categories_sizes":[],"default_left":[0,0,0,0,0,0,0,0,0,0,0,0,0,0,0,0,0,0,0,0,0,0,0,0,0,0,0,0,0,0,0,0,0,0,0,0,0,0,0,0,0,0,0,0,0,0,0,0,0,0,0,0,0,0,0,0,0,0,0,0,0,0,0],"id":18,"left_children":[1,3,5,7,9,11,13,15,17,19,21,23,25,27,29,31,33,35,37,39,41,43,45,47,49,51,53,55,57,59,61,-1,-1,-1,-1,-1,-1,-1,-1,-1,-1,-1,-1,-1,-1,-1,-1,-1,-1,-1,-1,-1,-1,-1,-1,-1,-1,-1,-1,-1,-1,-1,-1],"loss_changes":[5.2508735E3,1.1171172E3,9.07345E2,1.5386304E2,1.7707446E2,1.26652405E2,1.4880151E2,2.659607E1,2.2735962E1,2.0352356E1,1.5718742E1,1.8427315E1,1.2528931E1,3.3428955E1,2.7976929E1,3.421753E0,2.8973389E0,3.1609497E0,3.6621704E0,3.7293396E0,5.101288E0,7.1031E0,6.272448E0,6.41992E0,5.8517227E0,5.4487762E0,5.710541E0,5.3241577E0,6.102051E0,3.0115356E0,4.1829834E0,0E0,0E0,0E0,0E0,0E0,0E0,0E0,0E0,0E0,0E0,0E0,0E0,0E0,0E0,0E0,0E0,0E0,0E0,0E0,0E0,0E0,0E0,0E0,0E0,0E0,0E0,0E0,0E0,0E0,0E0,0E0,0E0],"parents":[2147483647,0,0,1,1,2,2,3,3,4,4,5,5,6,6,7,7,8,8,9,9,10,10,11,11,12,12,13,13,14,14,15,15,16,16,17,17,18,18,19,19,20,20,21,21,22,22,23,23,24,24,25,25,26,26,27,27,28,28,29,29,30,30],"right_children":[2,4,6,8,10,12,14,16,18,20,22,24,26,28,30,32,34,36,38,40,42,44,46,48,50,52,54,56,58,60,62,-1,-1,-1,-1,-1,-1,-1,-1,-1,-1,-1,-1,-1,-1,-1,-1,-1,-1,-1,-1,-1,-1,-1,-1,-1,-1,-1,-1,-1,-1,-1,-1],"split_conditions":[2.6503E1,1.5113E1,4.3602E1,1.0572E1,2.0419E1,3.415E1,6.5356E1,8.115E0,1.2674E1,1.7221E1,2.3651E1,3.0307E1,3.8247E1,5.2459E1,2.9463E1,6.229E0,9.128E0,-1.38E-1,-3.19E-1,-2.86E-1,-2.01E-1,1.58E-1,8.1E-2,3.3E-2,-6.1E-1,1.027E0,-5.24E-1,-9.22E-1,5.9E-1,-1.517E0,2.564E1,-2.5198082E-2,-2.1280667E-2,-1.8759508E-2,-1.6568882E-2,-1.5307431E-2,-1.330734E-2,-1.2426391E-2,-1.039867E-2,-9.6264E-3,-7.6302993E-3,-6.742257E-3,-5.0028786E-3,-3.2310744E-3,-1.3469954E-3,-1.3038473E-3,6.3289027E-4,9.952601E-4,2.8650337E-3,2.5337997E-3,4.850269E-3,5.9294864E-3,8.397789E-3,7.017231E-3,9.164559E-3,9.70424E-3,1.2324063E-2,1.4502084E-2,1.687067E-2,1.7133014E-2,2.0657403E-2,2.2418655E-2,2.8835097E-2],"split_indices":[1,1,1,1,1,1,1,1,1,1,1,1,1,1,0,1,1,2,2,2,2,2,2,2,2,2,2,2,2,2,3,0,0,0,0,0,0,0,0,0,0,0,0,0,0,0,0,0,0,0,0,0,0,0,0,0,0,0,0,0,0,0,0],"split_type":[0,0,0,0,0,0,0,0,0,0,0,0,0,0,0,0,0,0,0,0,0,0,0,0,0,0,0,0,0,0,0,0,0,0,0,0,0,0,0,0,0,0,0,0,0,0,0,0,0,0,0,0,0,0,0,0,0,0,0,0,0,0,0],"sum_hessian":[9.201234E4,4.8856938E4,4.3155406E4,1.7006598E4,3.185034E4,2.8869725E4,1.4285679E4,6.0064146E3,1.1000183E4,1.461299E4,1.723735E4,1.5298531E4,1.3571194E4,1.1118147E4,3.167531E3,2.051996E3,3.9544185E3,4.6869434E3,6.3132397E3,5.7392373E3,8.873753E3,9.576397E3,7.6609517E3,8.430776E3,6.867755E3,6.709944E3,6.861251E3,5.413256E3,5.7048916E3,2.3286667E3,8.3886426E2,4.1745264E2,1.6345435E3,1.2855094E3,2.668909E3,1.6289747E3,3.0579685E3,1.4710968E3,4.8421426E3,1.5874994E3,4.151738E3,3.0084695E3,5.8652837E3,5.735395E3,3.8410027E3,4.1912886E3,3.469663E3,4.2402046E3,4.1905713E3,1.6809011E3,5.1868535E3,5.393801E3,1.3161432E3,2.1717683E3,4.6894824E3,1.2438973E3,4.169359E3,3.4169917E3,2.2879001E3,4.4603296E2,1.8826338E3,2.0541258E2,6.3345166E2],"tree_param":{"num_deleted":"0","num_feature":"6","num_nodes":"63","size_leaf_vector":"1"}},{"base_weights":[-8.0297166E-4,-2.3961838E-1,2.2614165E-1,-4.2989987E-1,-1.2753479E-1,1.2377484E-1,4.1814044E-1,-5.532937E-1,-3.573658E-1,-1.9741574E-1,-6.028024E-2,5.94466E-2,1.9314387E-1,3.5554305E-1,5.513158E-1,-6.425162E-1,-4.9980724E-1,-4.1004384E-1,-3.185305E-1,-2.3621345E-1,-1.6178031E-1,-9.420714E-2,-3.6236826E-2,2.2455258E-2,9.491814E-2,1.5541491E-1,2.22168E-1,3.047155E-1,4.0421566E-1,5.075044E-1,7.5876176E-1,-2.60102E-2,-2.113662E-2,-1.8381026E-2,-1.620602E-2,-1.5101045E-2,-1.3120807E-2,-1.2329422E-2,-1.0273264E-2,-8.823297E-3,-6.818403E-3,-6.2360046E-3,-4.537753E-3,-4.4367807E-3,-2.4100712E-3,-2.1187733E-3,-4.4127263E-4,3.056538E-4,2.6273262E-3,1.9504848E-3,4.187471E-3,3.4781522E-3,5.8698547E-3,6.6577964E-3,8.213681E-3,8.765251E-3,1.0998329E-2,1.30374925E-2,1.5834393E-2,1.6117148E-2,1.8382205E-2,2.0821763E-2,2.800389E-2],"categories":[],"categories_nodes":[],"categories_segments":[],"categories_sizes":[],"default_left":[0,0,0,0,0,0,0,0,0,0,0,0,0,0,0,0,0,0,0,0,0,0,0,0,0,0,0,0,0,0,0,0,0,0,0,0,0,0,0,0,0,0,0,0,0,0,0,0,0,0,0,0,0,0,0,0,0,0,0,0,0,0,0],"id":19,"left_children":[1,3,5,7,9,11,13,15,17,19,21,23,25,27,29,31,33,35,37,39,41,43,45,47,49,51,53,55,57,59,61,-1,-1,-1,-1,-1,-1,-1,-1,-1,-1,-1,-1,-1,-1,-1,-1,-1,-1,-1,-1,-1,-1,-1,-1,-1,-1,-1,-1,-1,-1,-1,-1],"loss_changes":[4.964738E3,9.5163696E2,9.22813E2,1.4742944E2,1.3189374E2,1.365846E2,1.3550537E2,2.8325928E1,2.084021E1,1.881128E1,1.1614891E1,2.0806309E1,1.5920288E1,2.7028076E1,4.641211E1,3.493103E0,2.5826416E0,2.9160156E0,3.50354E0,5.414612E0,4.3456116E0,4.9301643E0,5.126683E0,5.7430363E0,8.698433E0,6.0957184E0,4.1392517E0,4.8472595E0,5.9401855E0,4.03479E0,7.933899E0,0E0,0E0,0E0,0E0,0E0,0E0,0E0,0E0,0E0,0E0,0E0,0E0,0E0,0E0,0E0,0E0,0E0,0E0,0E0,0E0,0E0,0E0,0E0,0E0,0E0,0E0,0E0,0E0,0E0,0E0,0E0,0E0],"parents":[2147483647,0,0,1,1,2,2,3,3,4,4,5,5,6,6,7,7,8,8,9,9,10,10,11,11,12,12,13,13,14,14,15,15,16,16,17,17,18,18,19,19,20,20,21,21,22,22,23,23,24,24,25,25,26,26,27,27,28,28,29,29,30,30],"right_children":[2,4,6,8,10,12,14,16,18,20,22,24,26,28,30,32,34,36,38,40,42,44,46,48,50,52,54,56,58,60,62,-1,-1,-1,-1,-1,-1,-1,-1,-1,-1,-1,-1,-1,-1,-1,-1,-1,-1,-1,-1,-1,-1,-1,-1,-1,-1,-1,-1,-1,-1,-1,-1],"split_conditions":[2.5147E1,1.5017E1,4.217E1,1.0572E1,2.0029E1,3.2399E1,6.0453E1,8.115E0,1.2515E1,1.7464E1,2.2299E1,2.8504E1,3.6187E1,4.9775E1,8.9299E1,5.787E0,9.128E0,-1.38E-1,-3.25E-1,8.9E0,8E0,-1.48E-1,-2.7E-2,6.71E-1,-8.5E-2,-5.6E-1,1.2E-2,-3.69E-1,1.439E0,6.7638E1,9.5E0,-2.60102E-2,-2.113662E-2,-1.8381026E-2,-1.620602E-2,-1.5101045E-2,-1.3120807E-2,-1.2329422E-2,-1.0273264E-2,-8.823297E-3,-6.818403E-3,-6.2360046E-3,-4.537753E-3,-4.4367807E-3,-2.4100712E-3,-2.1187733E-3,-4.4127263E-4,3.056538E-4,2.6273262E-3,1.9504848E-3,4.187471E-3,3.4781522E-3,5.8698547E-3,6.6577964E-3,8.213681E-3,8.765251E-3,1.0998329E-2,1.30374925E-2,1.5834393E-2,1.6117148E-2,1.8382205E-2,2.0821763E-2,2.800389E-2],"split_indices":[1,1,1,1,1,1,1,1,1,1,1,1,1,1,1,1,1,2,2,5,5,2,2,2,2,2,2,2,2,1,5,0,0,0,0,0,0,0,0,0,0,0,0,0,0,0,0,0,0,0,0,0,0,0,0,0,0,0,0,0,0,0,0],"split_type":[0,0,0,0,0,0,0,0,0,0,0,0,0,0,0,0,0,0,0,0,0,0,0,0,0,0,0,0,0,0,0,0,0,0,0,0,0,0,0,0,0,0,0,0,0,0,0,0,0,0,0,0,0,0,0,0,0,0,0,0,0,0,0],"sum_hessian":[9.160175E4,4.4634562E4,4.696719E4,1.6542889E4,2.8091674E4,3.0636908E4,1.6330283E4,6.1193247E3,1.0423564E4,1.3772336E4,1.4319337E4,1.5900606E4,1.4736301E4,1.1113786E4,5.216497E3,2.2858599E3,3.8334646E3,4.413977E3,6.0095874E3,6.5843525E3,7.1879834E3,5.9294277E3,8.389909E3,7.791043E3,8.1095635E3,6.4173906E3,8.31891E3,5.445047E3,5.6687397E3,4.3117505E3,9.047467E2,2.4214583E2,2.043714E3,1.1333019E3,2.7001628E3,1.5659794E3,2.8479978E3,1.3612047E3,4.6483823E3,3.7609412E3,2.8234114E3,3.876698E3,3.3112854E3,2.2353784E3,3.6940493E3,3.895399E3,4.4945103E3,6.2830737E3,1.5079692E3,3.5829912E3,4.5265723E3,1.6932312E3,4.7241597E3,3.8658723E3,4.4530376E3,1.7686499E3,3.6763972E3,4.4715435E3,1.1971962E3,2.422285E3,1.8894655E3,3.0938275E2,5.9536395E2],"tree_param":{"num_deleted":"0","num_feature":"6","num_nodes":"63","size_leaf_vector":"1"}},{"base_weights":[3.8469702E-4,-2.3017775E-1,2.1794122E-1,-4.1439265E-1,-1.2417339E-1,1.2341854E-1,4.0806615E-1,-5.3854203E-1,-3.4483778E-1,-1.9606045E-1,-6.632618E-2,4.7996547E-2,1.8116711E-1,3.7127832E-1,6.403736E-1,-6.201706E-1,-4.830014E-1,-3.9656314E-1,-3.0468518E-1,-2.3182067E-1,-1.6463535E-1,-9.6705124E-2,-3.9079007E-2,1.934804E-2,8.059723E-2,1.4648703E-1,2.2125605E-1,2.9740056E-1,4.196114E-1,5.6471294E-1,7.4622405E-1,-2.2829538E-2,-1.9897649E-2,-1.7264893E-2,-1.5551891E-2,-1.4353516E-2,-1.2427749E-2,-1.1286518E-2,-9.603827E-3,-8.660811E-3,-6.6894926E-3,-6.0449666E-3,-4.028542E-3,-3.942757E-3,-1.9185997E-3,-1.7989811E-3,3.6061785E-4,2.5517598E-4,2.3370897E-3,2.0764421E-3,4.1672494E-3,3.763794E-3,5.849635E-3,5.7778233E-3,7.8958245E-3,9.361507E-3,1.1584963E-2,1.3063029E-2,1.5461411E-2,1.8247891E-2,2.2514267E-2,2.2411177E-2,3.012545E-2],"categories":[],"categories_nodes":[],"categories_segments":[],"categories_sizes":[],"default_left":[0,0,0,0,0,0,0,0,0,0,0,0,0,0,0,0,0,0,0,0,0,0,0,0,0,0,0,0,0,0,0,0,0,0,0,0,0,0,0,0,0,0,0,0,0,0,0,0,0,0,0,0,0,0,0,0,0,0,0,0,0,0,0],"id":20,"left_children":[1,3,5,7,9,11,13,15,17,19,21,23,25,27,29,31,33,35,37,39,41,43,45,47,49,51,53,55,57,59,61,-1,-1,-1,-1,-1,-1,-1,-1,-1,-1,-1,-1,-1,-1,-1,-1,-1,-1,-1,-1,-1,-1,-1,-1,-1,-1,-1,-1,-1,-1,-1,-1],"loss_changes":[4.530541E3,8.55949E2,8.3485254E2,1.3766602E2,1.15614685E2,1.3509085E2,1.3113257E2,2.5209595E1,2.0865112E1,1.3712524E1,1.2702118E1,1.2527657E1,2.4227173E1,4.7104614E1,1.5801819E1,2.9540405E0,1.4564209E0,3.1049194E0,3.0618896E0,4.570099E0,4.1945343E0,5.767555E0,5.800149E0,4.1857142E0,5.0461807E0,8.713028E0,4.9869385E0,4.4283447E0,9.498779E0,2.0541077E0,9.116852E0,0E0,0E0,0E0,0E0,0E0,0E0,0E0,0E0,0E0,0E0,0E0,0E0,0E0,0E0,0E0,0E0,0E0,0E0,0E0,0E0,0E0,0E0,0E0,0E0,0E0,0E0,0E0,0E0,0E0,0E0,0E0,0E0],"parents":[2147483647,0,0,1,1,2,2,3,3,4,4,5,5,6,6,7,7,8,8,9,9,10,10,11,11,12,12,13,13,14,14,15,15,16,16,17,17,18,18,19,19,20,20,21,21,22,22,23,23,24,24,25,25,26,26,27,27,28,28,29,29,30,30],"right_children":[2,4,6,8,10,12,14,16,18,20,22,24,26,28,30,32,34,36,38,40,42,44,46,48,50,52,54,56,58,60,62,-1,-1,-1,-1,-1,-1,-1,-1,-1,-1,-1,-1,-1,-1,-1,-1,-1,-1,-1,-1,-1,-1,-1,-1,-1,-1,-1,-1,-1,-1,-1,-1],"split_conditions":[2.5147E1,1.5017E1,4.254E1,1.0572E1,1.9545E1,3.1281E1,7.1082E1,8.348E0,1.2674E1,1.7221E1,2.2299E1,2.8322E1,3.6756E1,5.0735E1,2.9463E1,6.929E0,-8.5E-2,1.1534E1,-9.5E-2,8.9E0,3.62E-1,2.71E-1,4.96E-1,6.4E-1,5.08E-1,-8.5E-2,5.4E0,8.82E-1,5.8854E1,3.8186E1,1.22E1,-2.2829538E-2,-1.9897649E-2,-1.7264893E-2,-1.5551891E-2,-1.4353516E-2,-1.2427749E-2,-1.1286518E-2,-9.603827E-3,-8.660811E-3,-6.6894926E-3,-6.0449666E-3,-4.028542E-3,-3.942757E-3,-1.9185997E-3,-1.7989811E-3,3.6061785E-4,2.5517598E-4,2.3370897E-3,2.0764421E-3,4.1672494E-3,3.763794E-3,5.849635E-3,5.7778233E-3,7.8958245E-3,9.361507E-3,1.1584963E-2,1.3063029E-2,1.5461411E-2,1.8247891E-2,2.2514267E-2,2.2411177E-2,3.012545E-2],"split_indices":[1,1,1,1,1,1,1,1,1,1,1,1,1,1,0,1,2,1,2,5,2,2,2,2,2,2,5,2,1,3,5,0,0,0,0,0,0,0,0,0,0,0,0,0,0,0,0,0,0,0,0,0,0,0,0,0,0,0,0,0,0,0,0],"split_type":[0,0,0,0,0,0,0,0,0,0,0,0,0,0,0,0,0,0,0,0,0,0,0,0,0,0,0,0,0,0,0,0,0,0,0,0,0,0,0,0,0,0,0,0,0,0,0,0,0,0,0,0,0,0,0,0,0,0,0,0,0,0,0],"sum_hessian":[9.031919E4,4.384781E4,4.6471383E4,1.6012923E4,2.7834885E4,3.1042498E4,1.5428885E4,5.7449004E3,1.0268022E4,1.24064795E4,1.5428404E4,1.3465824E4,1.7576674E4,1.3323714E4,2.1051714E3,2.318394E3,3.4265063E3,4.4781016E3,5.7899214E3,5.792723E3,6.6137563E3,7.285344E3,8.14306E3,7.1761167E3,6.2897075E3,9.433118E3,8.1435566E3,5.276244E3,8.047469E3,1.2341141E3,8.7105725E2,7.934609E2,1.5249333E3,1.4593766E3,1.9671298E3,2.188719E3,2.2893823E3,2.2992578E3,3.4906633E3,3.3071462E3,2.485577E3,4.989737E3,1.6240195E3,4.8249805E3,2.4603643E3,6.33731E3,1.8057502E3,5.8150527E3,1.361064E3,4.3678423E3,1.9218651E3,4.119961E3,5.3131567E3,1.6758105E3,6.467746E3,3.6998164E3,1.5764279E3,4.402832E3,3.6446375E3,1.01194006E3,2.2217416E2,5.653662E2,3.0569104E2],"tree_param":{"num_deleted":"0","num_feature":"6","num_nodes":"63","size_leaf_vector":"1"}},{"base_weights":[-1.9165662E-3,-2.122676E-1,2.2543846E-1,-4.0798864E-1,-1.1024499E-1,1.3430725E-1,4.0136066E-1,-5.544978E-1,-3.532678E-1,-1.8615216E-1,-5.1458746E-2,6.659385E-2,1.8833572E-1,3.449707E-1,5.4797167E-1,-6.259105E-1,-5.017413E-1,-4.1326714E-1,-3.1173146E-1,-2.2472914E-1,-1.5610689E-1,-9.348159E-2,-2.8300498E-2,4.4913176E-2,1.0132803E-1,1.4773825E-1,2.1736541E-1,3.000086E-1,3.878893E-1,4.7509933E-1,6.5695184E-1,-2.5015814E-2,-2.05822E-2,-1.8009817E-2,-1.6020933E-2,-1.4627192E-2,-1.3179783E-2,-1.1246827E-2,-9.519685E-3,-8.911479E-3,-7.009765E-3,-6.0411803E-3,-4.3695928E-3,-4.402337E-3,-2.7893893E-3,-1.4888939E-3,-1.9277625E-4,7.0064986E-4,2.1501372E-3,1.5213945E-3,3.9677355E-3,3.8154735E-3,5.4778093E-3,6.5413457E-3,8.030245E-3,8.789608E-3,1.0906793E-2,1.1557099E-2,1.3696124E-2,1.5440534E-2,1.8728806E-2,1.9297892E-2,2.3947192E-2],"categories":[],"categories_nodes":[],"categories_segments":[],"categories_sizes":[],"default_left":[0,0,0,0,0,0,0,0,0,0,0,0,0,0,0,0,0,0,0,0,0,0,0,0,0,0,0,0,0,0,0,0,0,0,0,0,0,0,0,0,0,0,0,0,0,0,0,0,0,0,0,0,0,0,0,0,0,0,0,0,0,0,0],"id":21,"left_children":[1,3,5,7,9,11,13,15,17,19,21,23,25,27,29,31,33,35,37,39,41,43,45,47,49,51,53,55,57,59,61,-1,-1,-1,-1,-1,-1,-1,-1,-1,-1,-1,-1,-1,-1,-1,-1,-1,-1,-1,-1,-1,-1,-1,-1,-1,-1,-1,-1,-1,-1,-1,-1],"loss_changes":[4.3743896E3,9.4841626E2,7.043916E2,1.2986255E2,1.3925412E2,1.0581134E2,1.2336572E2,1.5793823E1,2.9066528E1,1.5575958E1,1.7073673E1,9.607338E0,1.8768555E1,2.0459839E1,3.218506E1,2.2797852E0,1.4518433E0,1.6517334E0,4.098572E0,3.6912842E0,4.5135803E0,2.3810234E0,4.040474E0,3.5618353E0,4.4377403E0,3.2622375E0,4.296173E0,4.5126343E0,4.046997E0,2.7213745E0,6.440674E0,0E0,0E0,0E0,0E0,0E0,0E0,0E0,0E0,0E0,0E0,0E0,0E0,0E0,0E0,0E0,0E0,0E0,0E0,0E0,0E0,0E0,0E0,0E0,0E0,0E0,0E0,0E0,0E0,0E0,0E0,0E0,0E0],"parents":[2147483647,0,0,1,1,2,2,3,3,4,4,5,5,6,6,7,7,8,8,9,9,10,10,11,11,12,12,13,13,14,14,15,15,16,16,17,17,18,18,19,19,20,20,21,21,22,22,23,23,24,24,25,25,26,26,27,27,28,28,29,29,30,30],"right_children":[2,4,6,8,10,12,14,16,18,20,22,24,26,28,30,32,34,36,38,40,42,44,46,48,50,52,54,56,58,60,62,-1,-1,-1,-1,-1,-1,-1,-1,-1,-1,-1,-1,-1,-1,-1,-1,-1,-1,-1,-1,-1,-1,-1,-1,-1,-1,-1,-1,-1,-1,-1,-1],"split_conditions":[2.6378E1,1.5017E1,4.3602E1,9.88E0,1.9873E1,3.2399E1,6.3529E1,7.928E0,1.2029E1,1.7221E1,2.2299E1,2.9942E1,3.6506E1,5.1519E1,7.5392E1,5.787E0,8.952E0,8.3E0,1.3771E1,5.5E0,8E0,4.9E0,2.4544E1,8.4E0,6E0,6.3E0,9.2E0,7.4E0,7.4E0,1.34E1,1.02E1,-2.5015814E-2,-2.05822E-2,-1.8009817E-2,-1.6020933E-2,-1.4627192E-2,-1.3179783E-2,-1.1246827E-2,-9.519685E-3,-8.911479E-3,-7.009765E-3,-6.0411803E-3,-4.3695928E-3,-4.402337E-3,-2.7893893E-3,-1.4888939E-3,-1.9277625E-4,7.0064986E-4,2.1501372E-3,1.5213945E-3,3.9677355E-3,3.8154735E-3,5.4778093E-3,6.5413457E-3,8.030245E-3,8.789608E-3,1.0906793E-2,1.1557099E-2,1.3696124E-2,1.5440534E-2,1.8728806E-2,1.9297892E-2,2.3947192E-2],"split_indices":[1,1,1,1,1,1,1,1,1,1,1,1,1,1,1,1,1,5,1,5,5,5,1,5,5,5,5,5,5,5,5,0,0,0,0,0,0,0,0,0,0,0,0,0,0,0,0,0,0,0,0,0,0,0,0,0,0,0,0,0,0,0,0],"split_type":[0,0,0,0,0,0,0,0,0,0,0,0,0,0,0,0,0,0,0,0,0,0,0,0,0,0,0,0,0,0,0,0,0,0,0,0,0,0,0,0,0,0,0,0,0,0,0,0,0,0,0,0,0,0,0,0,0,0,0,0,0,0,0],"sum_hessian":[9.146587E4,4.7510703E4,4.3955164E4,1.6276985E4,3.1233719E4,2.8958594E4,1.499657E4,4.4212773E3,1.1855708E4,1.3627239E4,1.760648E4,1.285667E4,1.6101924E4,1.0835665E4,4.1609053E3,1.8698608E3,2.5514163E3,4.8414272E3,7.014281E3,5.9565386E3,7.6707007E3,6.2469053E3,1.1359574E4,7.92576E3,4.93091E3,6.72293E3,9.378993E3,5.301357E3,5.5343086E3,2.4994944E3,1.6614109E3,2.1382701E2,1.6560338E3,1.1405138E3,1.4109025E3,2.518771E3,2.3226565E3,4.0242478E3,2.9900327E3,1.7727068E3,4.1838315E3,4.097554E3,3.5731462E3,1.3957618E3,4.8511436E3,6.6632705E3,4.696304E3,3.485758E3,4.440002E3,1.1161958E3,3.8147146E3,2.0133118E3,4.7096187E3,4.417335E3,4.9616587E3,1.9849293E3,3.3164275E3,1.599436E3,3.9348723E3,2.0661157E3,4.333786E2,6.473956E2,1.0140153E3],"tree_param":{"num_deleted":"0","num_feature":"6","num_nodes":"63","size_leaf_vector":"1"}},{"base_weights":[2.82929E-4,-2.2698213E-1,1.9376032E-1,-4.1423097E-1,-1.3172567E-1,1.0470759E-1,3.7373593E-1,-5.4351246E-1,-3.5571915E-1,-2.0586717E-1,-7.54331E-2,3.6564637E-2,1.6248176E-1,3.1504086E-1,4.9355394E-1,-6.288218E-1,-5.0030166E-1,-4.1211203E-1,-3.183505E-1,-2.4506213E-1,-1.7958473E-1,-1.14472136E-1,-5.032028E-2,7.2998647E-3,6.827427E-2,1.2703803E-1,1.9332728E-1,2.752806E-1,3.6082265E-1,4.567949E-1,6.7263085E-1,-2.462574E-2,-2.0545008E-2,-1.7871855E-2,-1.5782002E-2,-1.4428984E-2,-1.2581477E-2,-1.1770394E-2,-1.004133E-2,-8.821721E-3,-6.6349674E-3,-7.137439E-3,-5.3109922E-3,-4.3539647E-3,-2.162861E-3,-2.8403304E-3,-9.3735394E-4,-4.6712346E-4,1.2989952E-3,5.7901855E-4,2.89303E-3,2.3845206E-3,4.8202956E-3,6.0125734E-3,8.004999E-3,8.620006E-3,1.1361787E-2,1.1216319E-2,1.3582286E-2,1.4711174E-2,1.7225638E-2,2.0229684E-2,2.8102113E-2],"categories":[],"categories_nodes":[],"categories_segments":[],"categories_sizes":[],"default_left":[0,0,0,0,0,0,0,0,0,0,0,0,0,0,0,0,0,0,0,0,0,0,0,0,0,0,0,0,0,0,0,0,0,0,0,0,0,0,0,0,0,0,0,0,0,0,0,0,0,0,0,0,0,0,0,0,0,0,0,0,0,0,0],"id":22,"left_children":[1,3,5,7,9,11,13,15,17,19,21,23,25,27,29,31,33,35,37,39,41,43,45,47,49,51,53,55,57,59,61,-1,-1,-1,-1,-1,-1,-1,-1,-1,-1,-1,-1,-1,-1,-1,-1,-1,-1,-1,-1,-1,-1,-1,-1,-1,-1,-1,-1,-1,-1,-1,-1],"loss_changes":[4.0264497E3,7.5074414E2,7.92501E2,1.067522E2,1.1634622E2,1.3018451E2,1.14583496E2,1.5419556E1,2.0118652E1,1.2155029E1,1.5474747E1,1.4058426E1,1.9395569E1,1.9602783E1,3.4542603E1,1.845398E0,2.0808105E0,1.8329468E0,3.3047485E0,3.5702515E0,4.903183E0,4.4636536E0,7.325205E0,5.232924E0,6.461197E0,7.347351E0,6.096985E0,6.779999E0,5.546936E0,4.284729E0,9.457214E0,0E0,0E0,0E0,0E0,0E0,0E0,0E0,0E0,0E0,0E0,0E0,0E0,0E0,0E0,0E0,0E0,0E0,0E0,0E0,0E0,0E0,0E0,0E0,0E0,0E0,0E0,0E0,0E0,0E0,0E0,0E0,0E0],"parents":[2147483647,0,0,1,1,2,2,3,3,4,4,5,5,6,6,7,7,8,8,9,9,10,10,11,11,12,12,13,13,14,14,15,15,16,16,17,17,18,18,19,19,20,20,21,21,22,22,23,23,24,24,25,25,26,26,27,27,28,28,29,29,30,30],"right_children":[2,4,6,8,10,12,14,16,18,20,22,24,26,28,30,32,34,36,38,40,42,44,46,48,50,52,54,56,58,60,62,-1,-1,-1,-1,-1,-1,-1,-1,-1,-1,-1,-1,-1,-1,-1,-1,-1,-1,-1,-1,-1,-1,-1,-1,-1,-1,-1,-1,-1,-1,-1,-1],"split_conditions":[2.4544E1,1.4306E1,4.217E1,9.88E0,1.8815E1,3.0882E1,6.0453E1,7.494E0,1.1668E1,1.6161E1,2.1183E1,2.762E1,3.5725E1,5.0735E1,8.9299E1,5.787E0,8.952E0,1.1E1,-9E-2,2.82E-1,-9.5E-2,4.06E-1,-1.55E-1,2.05E-1,-5.04E-1,-7.56E-1,8.63E-1,1.111E0,5.5E-1,7.1082E1,1.22E1,-2.462574E-2,-2.0545008E-2,-1.7871855E-2,-1.5782002E-2,-1.4428984E-2,-1.2581477E-2,-1.1770394E-2,-1.004133E-2,-8.821721E-3,-6.6349674E-3,-7.137439E-3,-5.3109922E-3,-4.3539647E-3,-2.162861E-3,-2.8403304E-3,-9.3735394E-4,-4.6712346E-4,1.2989952E-3,5.7901855E-4,2.89303E-3,2.3845206E-3,4.8202956E-3,6.0125734E-3,8.004999E-3,8.620006E-3,1.1361787E-2,1.1216319E-2,1.3582286E-2,1.4711174E-2,1.7225638E-2,2.0229684E-2,2.8102113E-2],"split_indices":[1,1,1,1,1,1,1,1,1,1,1,1,1,1,1,1,1,5,2,2,2,2,2,2,2,2,2,2,2,1,5,0,0,0,0,0,0,0,0,0,0,0,0,0,0,0,0,0,0,0,0,0,0,0,0,0,0,0,0,0,0,0,0],"split_type":[0,0,0,0,0,0,0,0,0,0,0,0,0,0,0,0,0,0,0,0,0,0,0,0,0,0,0,0,0,0,0,0,0,0,0,0,0,0,0,0,0,0,0,0,0,0,0,0,0,0,0,0,0,0,0,0,0,0,0,0,0,0,0],"sum_hessian":[9.156962E4,4.2106836E4,4.9462777E4,1.419491E4,2.7911924E4,3.3092684E4,1.6370096E4,4.4175605E3,9.77735E3,1.2041313E4,1.5870611E4,1.5188419E4,1.7904264E4,1.0992818E4,5.3772783E3,1.4768254E3,2.940735E3,3.8875056E3,5.8898438E3,4.82254E3,7.2187734E3,6.203736E3,9.666875E3,7.9072866E3,7.2811323E3,8.340892E3,9.563372E3,5.8928184E3,5.1E3,4.466739E3,9.105395E2,2.3047914E2,1.2463463E3,1.5215479E3,1.4191874E3,2.7586292E3,1.1288766E3,2.355966E3,3.5338774E3,3.5855286E3,1.2370114E3,2.9368616E3,4.281912E3,4.7994165E3,1.4043191E3,3.8505208E3,5.8163545E3,4.7046274E3,3.2026592E3,1.8646556E3,5.4164766E3,1.8413813E3,6.4995107E3,7.1362495E3,2.4271223E3,4.473617E3,1.4192012E3,3.0562E3,2.0438E3,3.2434312E3,1.2233074E3,6.3171515E2,2.7882437E2],"tree_param":{"num_deleted":"0","num_feature":"6","num_nodes":"63","size_leaf_vector":"1"}},{"base_weights":[5.005805E-4,-2.1283913E-1,1.9545399E-1,-3.8793972E-1,-1.1355054E-1,1.145752E-1,3.7132168E-1,-4.9520516E-1,-3.134422E-1,-1.761521E-1,-5.6686364E-2,5.014671E-2,1.7468376E-1,3.0738136E-1,4.664802E-1,-6.009844E-1,-4.5292112E-1,-3.5584065E-1,-2.8162098E-1,-2.1477851E-1,-1.4868793E-1,-8.83611E-2,-3.4902114E-2,1.1791666E-2,7.619638E-2,1.475693E-1,2.1001934E-1,2.700294E-1,3.3772987E-1,4.214384E-1,5.87023E-1,-2.4118092E-2,-1.9684019E-2,-1.7092766E-2,-1.4502965E-2,-1.2661579E-2,-1.081508E-2,-1.0962044E-2,-9.009218E-3,-7.769375E-3,-5.6046546E-3,-5.6024184E-3,-3.7897555E-3,-4.615421E-3,-2.4403685E-3,-1.5510428E-3,4.0967262E-4,-6.231245E-4,1.1060692E-3,1.8618647E-3,4.265999E-3,3.6685977E-3,5.7102363E-3,6.5809623E-3,8.50705E-3,7.1857735E-3,9.675693E-3,1.04526505E-2,1.2599317E-2,1.2889761E-2,1.4857129E-2,1.7752253E-2,2.1736687E-2],"categories":[],"categories_nodes":[],"categories_segments":[],"categories_sizes":[],"default_left":[0,0,0,0,0,0,0,0,0,0,0,0,0,0,0,0,0,0,0,0,0,0,0,0,0,0,0,0,0,0,0,0,0,0,0,0,0,0,0,0,0,0,0,0,0,0,0,0,0,0,0,0,0,0,0,0,0,0,0,0,0,0,0],"id":23,"left_children":[1,3,5,7,9,11,13,15,17,19,21,23,25,27,29,31,33,35,37,39,41,43,45,47,49,51,53,55,57,59,61,-1,-1,-1,-1,-1,-1,-1,-1,-1,-1,-1,-1,-1,-1,-1,-1,-1,-1,-1,-1,-1,-1,-1,-1,-1,-1,-1,-1,-1,-1,-1,-1],"loss_changes":[3.7887747E3,7.5590295E2,6.767837E2,1.25203125E2,9.869595E1,1.2616644E2,9.069946E1,2.8040405E1,1.212616E1,1.3804047E1,9.978344E0,1.5687115E1,1.5954468E1,9.784607E0,3.1945557E1,2.583191E0,5.0199585E0,2.274292E0,2.9747314E0,3.9158936E0,4.7365875E0,4.483265E0,4.518484E0,4.06071E0,9.79546E0,7.9019165E0,4.3332825E0,3.566681E0,4.474182E0,2.713684E0,4.7755737E0,0E0,0E0,0E0,0E0,0E0,0E0,0E0,0E0,0E0,0E0,0E0,0E0,0E0,0E0,0E0,0E0,0E0,0E0,0E0,0E0,0E0,0E0,0E0,0E0,0E0,0E0,0E0,0E0,0E0,0E0,0E0,0E0],"parents":[2147483647,0,0,1,1,2,2,3,3,4,4,5,5,6,6,7,7,8,8,9,9,10,10,11,11,12,12,13,13,14,14,15,15,16,16,17,17,18,18,19,19,20,20,21,21,22,22,23,23,24,24,25,25,26,26,27,27,28,28,29,29,30,30],"right_children":[2,4,6,8,10,12,14,16,18,20,22,24,26,28,30,32,34,36,38,40,42,44,46,48,50,52,54,56,58,60,62,-1,-1,-1,-1,-1,-1,-1,-1,-1,-1,-1,-1,-1,-1,-1,-1,-1,-1,-1,-1,-1,-1,-1,-1,-1,-1,-1,-1,-1,-1,-1,-1],"split_conditions":[2.5147E1,1.5017E1,4.3602E1,1.0868E1,1.9873E1,3.2399E1,5.8854E1,7.928E0,1.279E1,1.7072E1,2.2173E1,2.7777E1,3.8247E1,4.9775E1,7.5392E1,5.787E0,9.128E0,1.12E-1,-3.03E-1,2.89E-1,2.71E-1,-3.61E-1,6.3E-1,-1.85E-1,5.18E-1,-2.36E-1,8.2E-1,-9.22E-1,5.73E-1,-5.04E-1,9.225E0,-2.4118092E-2,-1.9684019E-2,-1.7092766E-2,-1.4502965E-2,-1.2661579E-2,-1.081508E-2,-1.0962044E-2,-9.009218E-3,-7.769375E-3,-5.6046546E-3,-5.6024184E-3,-3.7897555E-3,-4.615421E-3,-2.4403685E-3,-1.5510428E-3,4.0967262E-4,-6.231245E-4,1.1060692E-3,1.8618647E-3,4.265999E-3,3.6685977E-3,5.7102363E-3,6.5809623E-3,8.50705E-3,7.1857735E-3,9.675693E-3,1.04526505E-2,1.2599317E-2,1.2889761E-2,1.4857129E-2,1.7752253E-2,2.1736687E-2],"split_indices":[1,1,1,1,1,1,1,1,1,1,1,1,1,1,1,1,1,2,2,2,2,2,2,2,2,2,2,2,2,2,4,0,0,0,0,0,0,0,0,0,0,0,0,0,0,0,0,0,0,0,0,0,0,0,0,0,0,0,0,0,0,0,0],"split_type":[0,0,0,0,0,0,0,0,0,0,0,0,0,0,0,0,0,0,0,0,0,0,0,0,0,0,0,0,0,0,0,0,0,0,0,0,0,0,0,0,0,0,0,0,0,0,0,0,0,0,0,0,0,0,0,0,0,0,0,0,0,0,0],"sum_hessian":[9.109351E4,4.349446E4,4.7599047E4,1.5735768E4,2.7758691E4,3.2607717E4,1.4991332E4,6.444439E3,9.291329E3,1.3207718E4,1.4550974E4,1.5743098E4,1.686462E4,8.972091E3,6.0192407E3,1.8332684E3,4.6111704E3,3.972606E3,5.3187227E3,5.478291E3,7.7294263E3,5.9191313E3,8.631842E3,6.375686E3,9.367411E3,9.553108E3,7.3115107E3,4.0336672E3,4.938424E3,4.388186E3,1.6310547E3,2.3341089E2,1.5998575E3,1.364705E3,3.2464656E3,2.5387288E3,1.4338773E3,1.3196033E3,3.9991196E3,4.1389834E3,1.3393076E3,5.2135757E3,2.5158506E3,1.4600415E3,4.45909E3,6.994432E3,1.6374103E3,2.60237E3,3.7733157E3,6.6164204E3,2.7509912E3,3.4393577E3,6.113751E3,5.4156157E3,1.8958948E3,9.296686E2,3.1039988E3,2.7922E3,2.1462239E3,1.4482318E3,2.939954E3,8.0207166E2,8.289831E2],"tree_param":{"num_deleted":"0","num_feature":"6","num_nodes":"63","size_leaf_vector":"1"}},{"base_weights":[-9.168794E-4,-2.064055E-1,1.8681565E-1,-3.8164234E-1,-1.1133728E-1,1.04264006E-1,3.4565318E-1,-4.9435604E-1,-3.13866E-1,-1.749664E-1,-5.5703048E-2,5.004455E-2,1.6209869E-1,3.0333498E-1,5.012664E-1,-5.740032E-1,-4.413326E-1,-3.6146742E-1,-2.7959043E-1,-2.1747953E-1,-1.5002707E-1,-9.515206E-2,-4.155639E-2,1.7089603E-2,7.961673E-2,1.2840436E-1,1.81006E-1,2.5229052E-1,3.4139234E-1,4.5300084E-1,6.480609E-1,-2.3788968E-2,-1.885099E-2,-1.6055897E-2,-1.4272437E-2,-1.3148754E-2,-1.1107545E-2,-1.020937E-2,-8.997523E-3,-8.088144E-3,-6.344536E-3,-5.8016744E-3,-4.228673E-3,-3.8589998E-3,-2.3028883E-3,-1.9747624E-3,-6.734201E-4,-8.1451355E-5,1.1922849E-3,1.2366789E-3,3.116269E-3,3.1184757E-3,4.819738E-3,5.3885574E-3,6.799243E-3,7.3663574E-3,9.135529E-3,1.0211865E-2,1.2077227E-2,1.4699579E-2,1.660087E-2,1.6749488E-2,2.3477362E-2],"categories":[],"categories_nodes":[],"categories_segments":[],"categories_sizes":[],"default_left":[0,0,0,0,0,0,0,0,0,0,0,0,0,0,0,0,0,0,0,0,0,0,0,0,0,0,0,0,0,0,0,0,0,0,0,0,0,0,0,0,0,0,0,0,0,0,0,0,0,0,0,0,0,0,0,0,0,0,0,0,0,0,0],"id":24,"left_children":[1,3,5,7,9,11,13,15,17,19,21,23,25,27,29,31,33,35,37,39,41,43,45,47,49,51,53,55,57,59,61,-1,-1,-1,-1,-1,-1,-1,-1,-1,-1,-1,-1,-1,-1,-1,-1,-1,-1,-1,-1,-1,-1,-1,-1,-1,-1,-1,-1,-1,-1,-1,-1],"loss_changes":[3.541177E3,7.298391E2,6.287273E2,1.1718579E2,1.0046808E2,9.88779E1,1.07467896E2,2.3671265E1,1.5298584E1,1.3838165E1,8.393478E0,1.5835941E1,9.554626E0,2.4685425E1,2.3984436E1,3.5549927E0,1.553833E0,3.1889038E0,1.3044128E0,2.9528656E0,4.366028E0,1.9707336E0,4.0599937E0,2.7645068E0,4.6431923E0,2.7386093E0,4.0636597E0,3.1749268E0,4.324402E0,1.1105957E0,5.3347473E0,0E0,0E0,0E0,0E0,0E0,0E0,0E0,0E0,0E0,0E0,0E0,0E0,0E0,0E0,0E0,0E0,0E0,0E0,0E0,0E0,0E0,0E0,0E0,0E0,0E0,0E0,0E0,0E0,0E0,0E0,0E0,0E0],"parents":[2147483647,0,0,1,1,2,2,3,3,4,4,5,5,6,6,7,7,8,8,9,9,10,10,11,11,12,12,13,13,14,14,15,15,16,16,17,17,18,18,19,19,20,20,21,21,22,22,23,23,24,24,25,25,26,26,27,27,28,28,29,29,30,30],"right_children":[2,4,6,8,10,12,14,16,18,20,22,24,26,28,30,32,34,36,38,40,42,