{"learner":{"attributes":{"scikit_learn":"{\"_estimator_type\": \"regressor\"}"},"feature_names":["promedio_consumo","consumo_90d","tendencia","stock_actual","stock_minimo","lead_time_base_dias"],"feature_types":["float","float","float","float","float","float"],"gradient_booster":{"model":{"cats":{"enc":[],"feature_segments":[],"sorted_idx":[]},"gbtree_model_param":{"num_parallel_tree":"1","num_trees":"575"},"iteration_indptr":[0,1,2,3,4,5,6,7,8,9,10,11,12,13,14,15,16,17,18,19,20,21,22,23,24,25,26,27,28,29,30,31,32,33,34,35,36,37,38,39,40,41,42,43,44,45,46,47,48,49,50,51,52,53,54,55,56,57,58,59,60,61,62,63,64,65,66,67,68,69,70,71,72,73,74,75,76,77,78,79,80,81,82,83,84,85,86,87,88,89,90,91,92,93,94,95,96,97,98,99,100,101,102,103,104,105,106,107,108,109,110,111,112,113,114,115,116,117,118,119,120,121,122,123,124,125,126,127,128,129,130,131,132,133,134,135,136,137,138,139,140,141,142,143,144,145,146,147,148,149,150,151,152,153,154,155,156,157,158,159,160,161,162,163,164,165,166,167,168,169,170,171,172,173,174,175,176,177,178,179,180,181,182,183,184,185,186,187,188,189,190,191,192,193,194,195,196,197,198,199,200,201,202,203,204,205,206,207,208,209,210,211,212,213,214,215,216,217,218,219,220,221,222,223,224,225,226,227,228,229,230,231,232,233,234,235,236,237,238,239,240,241,242,243,244,245,246,247,248,249,250,251,252,253,254,255,256,257,258,259,260,261,262,263,264,265,266,267,268,269,270,271,272,273,274,275,276,277,278,279,280,281,282,283,284,285,286,287,288,289,290,291,292,293,294,295,296,297,298,299,300,301,302,303,304,305,306,307,308,309,310,311,312,313,314,315,316,317,318,319,320,321,322,323,324,325,326,327,328,329,330,331,332,333,334,335,336,337,338,339,340,341,342,343,344,345,346,347,348,349,350,351,352,353,354,355,356,357,358,359,360,361,362,363,364,365,366,367,368,369,370,371,372,373,374,375,376,377,378,379,380,381,382,383,384,385,386,387,388,389,390,391,392,393,394,395,396,397,398,399,400,401,402,403,404,405,406,407,408,409,410,411,412,413,414,415,416,417,418,419,420,421,422,423,424,425,426,427,428,429,430,431,432,433,434,435,436,437,438,439,440,441,442,443,444,445,446,447,448,449,450,451,452,453,454,455,456,457,458,459,460,461,462,463,464,465,466,467,468,469,470,471,472,473,474,475,476,477,478,479,480,481,482,483,484,485,486,487,488,489,490,491,492,493,494,495,496,497,498,499,500,501,502,503,504,505,506,507,508,509,510,511,512,513,514,515,516,517,518,519,520,521,522,523,524,525,526,527,528,529,530,531,532,533,534,535,536,537,538,539,540,541,542,543,544,545,546,547,548,549,550,551,552,553,554,555,556,557,558,559,560,561,562,563,564,565,566,567,568,569,570,571,572,573,574,575],"tree_info":[0,0,0,0,0,0,0,0,0,0,0,0,0,0,0,0,0,0,0,0,0,0,0,0,0,0,0,0,0,0,0,0,0,0,0,0,0,0,0,0,0,0,0,0,0,0,0,0,0,0,0,0,0,0,0,0,0,0,0,0,0,0,0,0,0,0,0,0,0,0,0,0,0,0,0,0,0,0,0,0,0,0,0,0,0,0,0,0,0,0,0,0,0,0,0,0,0,0,0,0,0,0,0,0,0,0,0,0,0,0,0,0,0,0,0,0,0,0,0,0,0,0,0,0,0,0,0,0,0,0,0,0,0,0,0,0,0,0,0,0,0,0,0,0,0,0,0,0,0,0,0,0,0,0,0,0,0,0,0,0,0,0,0,0,0,0,0,0,0,0,0,0,0,0,0,0,0,0,0,0,0,0,0,0,0,0,0,0,0,0,0,0,0,0,0,0,0,0,0,0,0,0,0,0,0,0,0,0,0,0,0,0,0,0,0,0,0,0,0,0,0,0,0,0,0,0,0,0,0,0,0,0,0,0,0,0,0,0,0,0,0,0,0,0,0,0,0,0,0,0,0,0,0,0,0,0,0,0,0,0,0,0,0,0,0,0,0,0,0,0,0,0,0,0,0,0,0,0,0,0,0,0,0,0,0,0,0,0,0,0,0,0,0,0,0,0,0,0,0,0,0,0,0,0,0,0,0,0,0,0,0,0,0,0,0,0,0,0,0,0,0,0,0,0,0,0,0,0,0,0,0,0,0,0,0,0,0,0,0,0,0,0,0,0,0,0,0,0,0,0,0,0,0,0,0,0,0,0,0,0,0,0,0,0,0,0,0,0,0,0,0,0,0,0,0,0,0,0,0,0,0,0,0,0,0,0,0,0,0,0,0,0,0,0,0,0,0,0,0,0,0,0,0,0,0,0,0,0,0,0,0,0,0,0,0,0,0,0,0,0,0,0,0,0,0,0,0,0,0,0,0,0,0,0,0,0,0,0,0,0,0,0,0,0,0,0,0,0,0,0,0,0,0,0,0,0,0,0,0,0,0,0,0,0,0,0,0,0,0,0,0,0,0,0,0,0,0,0,0,0,0,0,0,0,0,0,0,0,0,0,0,0,0,0,0,0,0,0,0,0,0,0,0,0,0,0,0,0,0,0,0,0,0,0,0,0,0,0,0,0,0,0,0,0,0,0,0,0,0,0,0,0,0,0,0,0,0,0,0,0,0,0,0,0,0,0,0,0,0,0,0,0,0,0,0,0,0,0,0,0,0,0,0,0,0,0,0,0,0,0,0,0,0,0,0],"trees":[{"base_weights":[6.604952E-2,-8.9212555E-1,8.711957E-1,2.900852E-1,-1.3196739E0,3.473361E-1,1.4339653E0,-1.5587581E0,-5.2711856E-1,-4.0311742E-1,1.2131468E0,9.680494E-1,3.093745E-1,-6.986893E-2,-3.2693917E-1,6.132596E-2,-1.9463924E-1,4.9238224E-2,-1.614886E-1,3.8998273E-1,-4.9173974E-2,3.0549744E-1,3.715796E-1,1.13344826E-1,-1.1019523E-3],"categories":[],"categories_nodes":[],"categories_segments":[],"categories_sizes":[],"default_left":[0,0,0,0,0,0,0,0,0,0,0,0,0,0,0,0,0,0,0,0,0,0,0,0,0],"id":0,"left_children":[1,3,5,-1,7,9,11,13,15,17,19,21,-1,-1,-1,-1,-1,-1,-1,-1,-1,-1,23,-1,-1],"loss_changes":[5.4008717E1,3.7416267E1,1.0704796E1,0E0,4.484001E0,1.4133803E1,1.2702866E0,7.359352E0,4.639673E0,4.665124E0,1.6315533E1,4.1249094E0,0E0,0E0,0E0,0E0,0E0,0E0,0E0,0E0,0E0,0E0,7.584113E-1,0E0,0E0],"parents":[2147483647,0,0,1,1,2,2,4,4,5,5,6,6,7,7,8,8,9,9,10,10,11,11,22,22],"right_children":[2,4,6,-1,8,10,12,14,16,18,20,22,-1,-1,-1,-1,-1,-1,-1,-1,-1,-1,24,-1,-1],"split_conditions":[1.6667E0,2E0,6E0,2.900852E-1,6E0,8E0,3.158E-1,1.1667E0,1.1E1,6.857E-1,3E1,2.158E-1,3.093745E-1,-6.986893E-2,-3.2693917E-1,6.132596E-2,-1.9463924E-1,4.9238224E-2,-1.614886E-1,3.8998273E-1,-4.9173974E-2,3.0549744E-1,2.521E-1,1.13344826E-1,-1.1019523E-3],"split_indices":[0,1,3,0,1,1,4,0,1,4,1,4,0,0,0,0,0,0,0,0,0,0,4,0,0],"split_type":[0,0,0,0,0,0,0,0,0,0,0,0,0,0,0,0,0,0,0,0,0,0,0,0,0],"sum_hessian":[6.8E1,3.1E1,3.7E1,4E0,2.7E1,2E1,1.7E1,2E1,7E0,1.1E1,9E0,9E0,8E0,5E0,1.5E1,3E0,4E0,5E0,6E0,5E0,4E0,3E0,6E0,3E0,3E0],"tree_param":{"num_deleted":"0","num_feature":"6","num_nodes":"25","size_leaf_vector":"1"}},{"base_weights":[-3.083154E-2,-1.0046122E0,8.385089E-1,1.3073686E-1,-1.206061E0,4.313272E-1,2.2606266E0,1.7328592E-2,-1.4713671E0,8.9758635E-1,-5.909498E-1,4.702824E-1,1.9256577E-1,-3.263292E-1,-1.2033231E0,6.0966134E-1,2.3929809E-1,-3.7053872E-3,-8.3194727E-1,-2.3657781E-1,-1.2854175E-1,2.1271048E-1,3.0225232E-2,-7.005092E-2,-1.81255E-1],"categories":[],"categories_nodes":[],"categories_segments":[],"categories_sizes":[],"default_left":[0,0,0,0,0,0,0,0,0,0,0,0,0,0,0,0,0,0,0,0,0,0,0,0,0],"id":1,"left_children":[1,3,5,-1,7,9,11,-1,13,15,17,-1,-1,-1,19,21,-1,-1,23,-1,-1,-1,-1,-1,-1],"loss_changes":[5.925412E1,1.2627041E1,2.0450163E1,0E0,1.0546001E1,1.482981E1,1.2098541E0,0E0,5.3401566E-1,2.1100235E0,1.3545814E0,0E0,0E0,0E0,3.6013412E-1,3.8428473E0,0E0,0E0,2.2448683E-1,0E0,0E0,0E0,0E0,0E0,0E0],"parents":[2147483647,0,0,1,1,2,2,4,4,5,5,6,6,8,8,9,9,10,10,14,14,15,15,18,18],"right_children":[2,4,6,-1,8,10,12,-1,14,16,18,-1,-1,-1,20,22,-1,-1,24,-1,-1,-1,-1,-1,-1],"split_conditions":[1.6667E0,1.701E-1,5E0,1.3073686E-1,2.011E-1,2.0624E0,1.04211E1,1.7328592E-2,0E0,9.214E-1,6.857E-1,4.702824E-1,1.9256577E-1,-3.263292E-1,6.102E-1,2.521E-1,2.3929809E-1,-3.7053872E-3,1.3333E0,-2.3657781E-1,-1.2854175E-1,2.1271048E-1,3.0225232E-2,-7.005092E-2,-1.81255E-1],"split_indices":[0,5,0,0,4,5,0,0,2,5,4,0,0,0,4,4,0,0,2,0,0,0,0,0,0],"split_type":[0,0,0,0,0,0,0,0,0,0,0,0,0,0,0,0,0,0,0,0,0,0,0,0,0],"sum_hessian":[6.8E1,3.2E1,3.6E1,3E0,2.9E1,2.9E1,7E0,5E0,2.4E1,2E1,9E0,4E0,3E0,7E0,1.7E1,1.4E1,6E0,3E0,6E0,1.1E1,6E0,5E0,9E0,3E0,3E0],"tree_param":{"num_deleted":"0","num_feature":"6","num_nodes":"25","size_leaf_vector":"1"}},{"base_weights":[-3.6271047E-3,-3.7377074E-1,4.6179995E-1,-1.0637766E0,1.981082E-2,5.839655E-1,-1.08913176E-1,-5.908566E-1,-3.4281087E-1,-3.8132012E-1,4.5262256E-1,-1.2143163E-1,7.5141984E-1,8.1834204E-2,-2.0412904E-1,-6.5972203E-1,5.829358E-2,8.969302E-2,-1.2637381E-1,3.8281268E-1,1.1495605E0,4.269124E-2,-1.8892305E-1,2.5918517E-1,-1.1575717E-1,2.3484312E-1,-1.6640864E-2,2.8451574E-1,9.628988E-2],"categories":[],"categories_nodes":[],"categories_segments":[],"categories_sizes":[],"default_left":[0,0,0,0,0,0,0,0,0,0,0,0,0,0,0,0,0,0,0,0,0,0,0,0,0,0,0,0,0],"id":2,"left_children":[1,3,5,7,9,11,-1,13,-1,15,-1,17,19,-1,-1,21,23,-1,-1,25,27,-1,-1,-1,-1,-1,-1,-1,-1],"loss_changes":[1.3610047E1,1.1970312E1,5.040942E0,5.8049717E0,3.1273073E1,3.8711443E0,0E0,8.122738E0,0E0,3.2205794E0,0E0,3.1208768E0,3.3756285E0,0E0,0E0,6.580543E0,1.2579183E1,0E0,0E0,7.1593E0,2.6218948E0,0E0,0E0,0E0,0E0,0E0,0E0,0E0,0E0],"parents":[2147483647,0,0,1,1,2,2,3,3,4,4,5,5,7,7,9,9,11,11,12,12,15,15,16,16,19,19,20,20],"right_children":[2,4,6,8,10,12,-1,14,-1,16,-1,18,20,-1,-1,22,24,-1,-1,26,28,-1,-1,-1,-1,-1,-1,-1,-1],"split_conditions":[4E0,2.1457E0,2.5E2,7.236E-1,5E0,2.814E-1,-1.08913176E-1,1E0,-3.4281087E-1,8.257E-1,4.5262256E-1,5E0,2.857E-1,8.1834204E-2,-2.0412904E-1,4.8E-1,0E0,8.969302E-2,-1.2637381E-1,2.022E-1,8.257E-1,4.269124E-2,-1.8892305E-1,2.5918517E-1,-1.1575717E-1,2.3484312E-1,-1.6640864E-2,2.8451574E-1,9.628988E-2],"split_indices":[3,5,3,4,2,5,0,3,0,4,0,3,4,0,0,4,2,0,0,4,4,0,0,0,0,0,0,0,0],"split_type":[0,0,0,0,0,0,0,0,0,0,0,0,0,0,0,0,0,0,0,0,0,0,0,0,0,0,0,0,0],"sum_hessian":[7.7E1,4.3E1,3.4E1,1.5E1,2.8E1,3.1E1,3E0,1.1E1,4E0,2.5E1,3E0,6E0,2.5E1,4E0,7E0,1.5E1,1E1,3E0,3E0,1.4E1,1.1E1,5E0,1E1,3E0,7E0,4E0,1E1,5E0,6E0],"tree_param":{"num_deleted":"0","num_feature":"6","num_nodes":"29","size_leaf_vector":"1"}},{"base_weights":[6.1798867E-2,-8.9358115E-1,2.924698E-1,-4.9445084E-1,-3.3958817E-1,5.215467E-2,3.9882368E-1,-7.9910755E-1,6.745709E-2,1.115586E0,-1.5738393E-1,-1.9839445E-1,-4.8479822E-1,2.3702274E-1,6.661673E-2,4.6206668E-1,-6.4324534E-1,-2.7769607E-2,-1.1867317E-1,-1.1197282E-1,1.2601553E-1,-1.8151285E-1,6.576239E-2],"categories":[],"categories_nodes":[],"categories_segments":[],"categories_sizes":[],"default_left":[0,0,0,0,0,0,0,0,0,0,0,0,0,0,0,0,0,0,0,0,0,0,0],"id":3,"left_children":[1,3,5,7,-1,9,-1,11,-1,13,15,-1,17,-1,-1,19,21,-1,-1,-1,-1,-1,-1],"loss_changes":[1.8111994E1,5.8844767E0,3.1887577E1,3.8183787E0,0E0,1.3545372E1,0E0,5.437007E-1,0E0,1.3494406E0,1.5646546E1,0E0,3.4904408E-1,0E0,0E0,7.3200345E0,1.2529001E1,0E0,0E0,0E0,0E0,0E0,0E0],"parents":[2147483647,0,0,1,1,2,2,3,3,5,5,7,7,9,9,10,10,12,12,15,15,16,16],"right_children":[2,4,6,8,-1,10,-1,12,-1,14,16,-1,18,-1,-1,20,22,-1,-1,-1,-1,-1,-1],"split_conditions":[2.814E-1,8.257E-1,2.7E1,1E0,-3.3958817E-1,3E0,3.9882368E-1,0E0,6.745709E-2,2E0,2.0624E0,-1.9839445E-1,7E0,2.3702274E-1,6.661673E-2,4E0,7E0,-2.7769607E-2,-1.1867317E-1,-1.1197282E-1,1.2601553E-1,-1.8151285E-1,6.576239E-2],"split_indices":[5,4,1,2,0,1,0,2,0,2,5,0,1,0,0,1,1,0,0,0,0,0,0],"split_type":[0,0,0,0,0,0,0,0,0,0,0,0,0,0,0,0,0,0,0,0,0,0,0],"sum_hessian":[8E1,1.5E1,6.5E1,1.2E1,3E0,5.9E1,6E0,9E0,3E0,9E0,5E1,3E0,6E0,6E0,3E0,2.2E1,2.8E1,3E0,3E0,4E0,1.8E1,2E1,8E0],"tree_param":{"num_deleted":"0","num_feature":"6","num_nodes":"23","size_leaf_vector":"1"}},{"base_weights":[-8.8017926E-2,-5.749637E-1,4.6254665E-1,1.9312945E-1,-8.216576E-1,-1.756567E-1,7.103469E-1,5.359398E-2,-9.4948286E-1,4.9636707E-1,3.22806E-1,-6.0547495E-1,-1.8964314E-1,5.624142E-1,1.5562068E-3,1.7980354E-2,-1.5269381E-1,6.2336642E-2,1.626216E-1],"categories":[],"categories_nodes":[],"categories_segments":[],"categories_sizes":[],"default_left":[0,0,0,0,0,0,0,0,0,0,0,0,0,0,0,0,0,0,0],"id":4,"left_children":[1,3,5,-1,7,-1,9,-1,11,13,-1,15,-1,17,-1,-1,-1,-1,-1],"loss_changes":[1.8228317E1,1.59622345E1,1.2460211E1,0E0,4.925745E0,0E0,6.0205164E0,0E0,8.2313347E-1,7.9963493E-1,0E0,2.2711034E0,0E0,1.3411489E0,0E0,0E0,0E0,0E0,0E0],"parents":[2147483647,0,0,1,1,2,2,4,4,6,6,8,8,9,9,11,11,13,13],"right_children":[2,4,6,-1,8,-1,10,-1,12,14,-1,16,-1,18,-1,-1,-1,-1,-1],"split_conditions":[1.6667E0,2E0,2.245E-1,1.9312945E-1,2.093E-1,-1.756567E-1,5E0,5.359398E-2,1.25E0,1.6E1,3.22806E-1,6E0,-1.8964314E-1,5E0,1.5562068E-3,1.7980354E-2,-1.5269381E-1,6.2336642E-2,1.626216E-1],"split_indices":[0,1,5,0,5,0,0,0,0,1,0,3,0,1,0,0,0,0,0],"split_type":[0,0,0,0,0,0,0,0,0,0,0,0,0,0,0,0,0,0,0],"sum_hessian":[6.6E1,3.5E1,3.1E1,4E0,3.1E1,4E0,2.7E1,3E0,2.8E1,2.4E1,3E0,1E1,1.8E1,2.1E1,3E0,3E0,7E0,1.5E1,6E0],"tree_param":{"num_deleted":"0","num_feature":"6","num_nodes":"19","size_leaf_vector":"1"}},{"base_weights":[6.424732E-2,-6.2732065E-1,2.4458897E-1,-2.6801366E-1,-2.8277823E-1,8.7182514E-2,2.8877002E-1,-4.277163E-1,3.4219533E-2,-1.8770492E-1,4.6152014E-1,-1.4815971E-1,-1.2054113E-1,-8.1411105E-1,4.5309488E-2,8.3816826E-1,2.8940588E-1,5.332405E-2,-8.973586E-2,-2.080613E-1,-4.088549E-3,2.1669203E-1,-3.0511137E-2,2.0626794E-1,4.691714E-2,1.4532211E-1,1.2326697E-2],"categories":[],"categories_nodes":[],"categories_segments":[],"categories_sizes":[],"default_left":[0,0,0,0,0,0,0,0,0,0,0,0,0,0,0,0,0,0,0,0,0,0,0,0,0,0,0],"id":5,"left_children":[1,3,5,7,-1,9,-1,11,-1,13,15,-1,17,19,21,23,25,-1,-1,-1,-1,-1,-1,-1,-1,-1,-1],"loss_changes":[9.632043E0,5.3726068E0,1.3568983E1,1.0528115E0,0E0,5.849069E0,0E0,1.219315E0,0E0,4.853622E0,1.3132658E0,0E0,1.3611008E0,2.7548351E0,6.939946E0,1.0898046E0,2.1078098E0,0E0,0E0,0E0,0E0,0E0,0E0,0E0,0E0,0E0,0E0],"parents":[2147483647,0,0,1,1,2,2,3,3,5,5,7,7,9,9,10,10,12,12,13,13,14,14,15,15,16,16],"right_children":[2,4,6,8,-1,10,-1,12,-1,14,16,-1,18,20,22,24,26,-1,-1,-1,-1,-1,-1,-1,-1,-1,-1],"split_conditions":[2.814E-1,8.257E-1,5E0,6.857E-1,-2.8277823E-1,5E0,2.8877002E-1,0E0,3.4219533E-2,2.1457E0,8E0,-1.4815971E-1,5E0,1E0,2.011E-1,7.857E-1,2.013E-1,5.332405E-2,-8.973586E-2,-2.080613E-1,-4.088549E-3,2.1669203E-1,-3.0511137E-2,2.0626794E-1,4.691714E-2,1.4532211E-1,1.2326697E-2],"split_indices":[5,4,2,4,0,3,0,2,0,5,3,0,3,2,4,4,4,0,0,0,0,0,0,0,0,0,0],"split_type":[0,0,0,0,0,0,0,0,0,0,0,0,0,0,0,0,0,0,0,0,0,0,0,0,0,0,0],"sum_hessian":[7.5E1,1.5E1,6E1,1.2E1,3E0,5.5E1,5E0,9E0,3E0,3.2E1,2.3E1,3E0,6E0,8E0,2.4E1,6E0,1.7E1,3E0,3E0,5E0,3E0,3E0,2.1E1,3E0,3E0,4E0,1.3E1],"tree_param":{"num_deleted":"0","num_feature":"6","num_nodes":"27","size_leaf_vector":"1"}},{"base_weights":[-7.511595E-2,-3.449395E-1,5.147229E-1,3.4421825E-1,-5.258344E-1,2.7565205E-1,2.7296665E-1,9.513068E-2,1.3055253E-1,1.676888E-2,-6.6200924E-1,7.635653E-1,-4.5806296E-2,-9.729035E-2,1.0410527E-1,6.95114E-2,-6.430131E-2,-9.3182725E-1,-1.959808E-1,1.8113181E-1,3.718504E-2,-7.991777E-2,1.2564905E-1,-2.229169E-1,-1.0088529E-1,-1.3045378E-1,4.286907E-2,-6.466622E-2,1.6738695E-1],"categories":[],"categories_nodes":[],"categories_segments":[],"categories_sizes":[],"default_left":[0,0,0,0,0,0,0,0,0,0,0,0,0,0,0,0,0,0,0,0,0,0,0,0,0,0,0,0,0],"id":6,"left_children":[1,3,5,7,9,11,-1,13,-1,15,17,19,21,-1,-1,-1,-1,23,25,-1,-1,-1,27,-1,-1,-1,-1,-1,-1],"loss_changes":[1.1636521E1,6.414258E0,5.4293265E0,1.0572441E0,2.9666576E0,3.171852E0,0E0,3.0171256E0,0E0,1.5021865E0,3.8411503E0,1.0271945E0,9.880504E-1,0E0,0E0,0E0,0E0,1.7435093E0,3.421237E0,0E0,0E0,0E0,4.586122E0,0E0,0E0,0E0,0E0,0E0,0E0],"parents":[2147483647,0,0,1,1,2,2,3,3,4,4,5,5,7,7,9,9,10,10,11,11,12,12,17,17,18,18,22,22],"right_children":[2,4,6,8,10,12,-1,14,-1,16,18,20,22,-1,-1,-1,-1,24,26,-1,-1,-1,28,-1,-1,-1,-1,-1,-1],"split_conditions":[2.2E0,2.022E-1,4.3571E0,1.4286E0,1.1667E0,8E-1,2.7296665E-1,2.1457E0,1.3055253E-1,4.444E-1,1.7E0,3.25E0,7.027E-1,-9.729035E-2,1.0410527E-1,6.95114E-2,-6.430131E-2,3.913E-1,9.214E-1,1.8113181E-1,3.718504E-2,-7.991777E-2,1.4676E0,-2.229169E-1,-1.0088529E-1,-1.3045378E-1,4.286907E-2,-6.466622E-2,1.6738695E-1],"split_indices":[0,4,4,0,0,4,0,5,0,4,0,0,5,0,0,0,0,4,5,0,0,0,4,0,0,0,0,0,0],"split_type":[0,0,0,0,0,0,0,0,0,0,0,0,0,0,0,0,0,0,0,0,0,0,0,0,0,0,0,0,0],"sum_hessian":[7.1E1,4.9E1,2.2E1,1E1,3.9E1,1.9E1,3E0,7E0,3E0,8E0,3.1E1,7E0,1.2E1,3E0,4E0,4E0,4E0,1.9E1,1.2E1,4E0,3E0,3E0,9E0,8E0,1.1E1,5E0,7E0,6E0,3E0],"tree_param":{"num_deleted":"0","num_feature":"6","num_nodes":"29","size_leaf_vector":"1"}},{"base_weights":[5.4674083E-3,-3.8609532E-1,3.8629958E-1,1.3125126E-1,-5.955404E-1,2.1444488E-1,1.0921848E0,-2.0754692E-1,-3.6844113E-1,-3.7062055E-1,4.0053147E-1,2.5576806E-1,7.4147664E-2,1.08627886E-1,-5.409463E-1,-1.4576578E-1,1.4255439E-2,1.4227094E-1,2.7458078E-1,-1.2947136E-1,1.845014E-2,-4.4167463E-2,8.979189E-2],"categories":[],"categories_nodes":[],"categories_segments":[],"categories_sizes":[],"default_left":[0,0,0,0,0,0,0,0,0,0,0,0,0,0,0,0,0,0,0,0,0,0,0],"id":7,"left_children":[1,3,5,-1,7,9,11,-1,13,15,17,-1,-1,-1,19,-1,-1,-1,21,-1,-1,-1,-1],"loss_changes":[1.0885765E1,9.097343E0,4.2542453E0,0E0,3.8292952E0,3.5235028E0,1.1704655E0,0E0,4.47129E0,1.7877775E0,1.0544395E0,0E0,0E0,0E0,2.9252748E0,0E0,0E0,0E0,2.7388992E0,0E0,0E0,0E0,0E0],"parents":[2147483647,0,0,1,1,2,2,4,4,5,5,6,6,8,8,9,9,10,10,14,14,18,18],"right_children":[2,4,6,-1,8,10,12,-1,14,16,18,-1,-1,-1,20,-1,-1,-1,22,-1,-1,-1,-1],"split_conditions":[1.6667E0,2E0,5E0,1.3125126E-1,2.202E-1,2E0,3E1,-2.0754692E-1,2.416E-1,7E0,2.158E-1,2.5576806E-1,7.4147664E-2,1.08627886E-1,8E0,-1.4576578E-1,1.4255439E-2,1.4227094E-1,2.857E-1,-1.2947136E-1,1.845014E-2,-4.4167463E-2,8.979189E-2],"split_indices":[0,1,0,0,4,3,1,0,4,1,4,0,0,0,1,0,0,0,4,0,0,0,0],"split_type":[0,0,0,0,0,0,0,0,0,0,0,0,0,0,0,0,0,0,0,0,0,0,0],"sum_hessian":[7.1E1,3.5E1,3.6E1,5E0,3E1,3E1,6E0,7E0,2.3E1,7E0,2.3E1,3E0,3E0,3E0,2E1,3E0,4E0,4E0,1.9E1,1.5E1,5E0,6E0,1.3E1],"tree_param":{"num_deleted":"0","num_feature":"6","num_nodes":"23","size_leaf_vector":"1"}},{"base_weights":[-2.2784209E-2,-4.009114E-1,3.4623164E-1,7.726541E-2,-5.139049E-1,4.879347E-1,-3.7125877E-1,-1.5499692E-1,-2.0017272E-1,2.393389E-1,1.0357711E0,-1.6452912E-2,-9.569305E-2,-4.1764632E-1,2.6337057E-1,1.7245999E-1,3.742563E-2,2.2371347E-1,8.911516E-2,-2.7377052E-2,-1.271454E-1,9.222955E-2,-1.2673326E-2,-1.6247185E-2,3.6018647E-2],"categories":[],"categories_nodes":[],"categories_segments":[],"categories_sizes":[],"default_left":[0,0,0,0,0,0,0,0,0,0,0,0,0,0,0,0,0,0,0,0,0,0,0,0,0],"id":8,"left_children":[1,3,5,-1,7,9,11,-1,13,15,17,-1,-1,19,21,-1,23,-1,-1,-1,-1,-1,-1,-1,-1],"loss_changes":[1.0743462E1,3.8734531E0,4.1463037E0,0E0,3.9168673E0,4.246364E0,3.0088162E-1,0E0,2.1261644E0,3.644465E0,6.8303394E-1,0E0,0E0,1.0398808E0,6.780047E-1,0E0,4.701886E-1,0E0,0E0,0E0,0E0,0E0,0E0,0E0,0E0],"parents":[2147483647,0,0,1,1,2,2,4,4,5,5,6,6,8,8,9,9,10,10,13,13,14,14,16,16],"right_children":[2,4,6,-1,8,10,12,-1,14,16,18,-1,-1,20,22,-1,24,-1,-1,-1,-1,-1,-1,-1,-1],"split_conditions":[1.6667E0,2E0,1.7561E0,7.726541E-2,3.92E-1,9E0,6.8E0,-1.5499692E-1,1.4286E0,2.158E-1,1E0,-1.6452912E-2,-9.569305E-2,1.25E0,0E0,1.7245999E-1,2.6667E0,2.2371347E-1,8.911516E-2,-2.7377052E-2,-1.271454E-1,9.222955E-2,-1.2673326E-2,-1.6247185E-2,3.6018647E-2],"split_indices":[0,1,4,0,4,1,0,0,0,4,2,0,0,0,2,0,0,0,0,0,0,0,0,0,0],"split_type":[0,0,0,0,0,0,0,0,0,0,0,0,0,0,0,0,0,0,0,0,0,0,0,0,0],"sum_hessian":[7.5E1,3.7E1,3.8E1,4E0,3.3E1,3.2E1,6E0,1.4E1,1.9E1,2.3E1,9E0,3E0,3E0,1.3E1,6E0,4E0,1.9E1,5E0,4E0,8E0,5E0,3E0,3E0,1.1E1,8E0],"tree_param":{"num_deleted":"0","num_feature":"6","num_nodes":"25","size_leaf_vector":"1"}},{"base_weights":[-2.8345298E-2,2.0341972E-1,-9.997182E-2,6.1326823E-3,-2.4457176E-1,9.765115E-2,-6.269727E-2,-2.6296142E-1,1.6955775E-1,5.8669586E-2,-6.2979266E-2,6.6297196E-2,-3.0620739E-2],"categories":[],"categories_nodes":[],"categories_segments":[],"categories_sizes":[],"default_left":[0,0,0,0,0,0,0,0,0,0,0,0,0],"id":9,"left_children":[1,-1,3,5,-1,-1,7,9,11,-1,-1,-1,-1],"loss_changes":[6.1686907E0,0E0,9.370693E0,2.4620402E0,0E0,0E0,2.695791E0,2.0283887E0,2.0777712E0,0E0,0E0,0E0,0E0],"parents":[2147483647,0,0,2,2,3,3,6,6,7,7,8,8],"right_children":[2,-1,4,6,-1,-1,8,10,12,-1,-1,-1,-1],"split_conditions":[-1E0,2.0341972E-1,1.7561E0,1.714E-1,-2.4457176E-1,9.765115E-2,4E0,1.701E-1,1E0,5.8669586E-2,-6.2979266E-2,6.6297196E-2,-3.0620739E-2],"split_indices":[2,0,4,4,0,0,3,5,2,0,0,0,0],"split_type":[0,0,0,0,0,0,0,0,0,0,0,0,0],"sum_hessian":[6.9E1,3E0,6.6E1,6.2E1,4E0,6E0,5.6E1,3E1,2.6E1,4E0,2.6E1,1.6E1,1E1],"tree_param":{"num_deleted":"0","num_feature":"6","num_nodes":"13","size_leaf_vector":"1"}},{"base_weights":[-2.252725E-2,4.8566613E-2,-1.3209212E-1,-4.6056014E-1,1.7739174E-1,-6.883265E-2,-2.2866471E-1,-5.8987685E-2,9.505405E-1,3.057225E-2,-1.9954167E-1,-2.8743398E-1,3.858007E-1,6.7692914E-4,2.4568775E-1,-5.958197E-2,-6.934914E-4,1.424578E-1,-7.9559065E-2,9.973521E-2,-1.3008597E-2],"categories":[],"categories_nodes":[],"categories_segments":[],"categories_sizes":[],"default_left":[0,0,0,0,0,0,0,0,0,0,0,0,0,0,0,0,0,0,0,0,0],"id":10,"left_children":[1,3,-1,5,7,9,-1,11,13,-1,15,17,19,-1,-1,-1,-1,-1,-1,-1,-1],"loss_changes":[3.6278121E0,4.2137637E0,0E0,4.309608E0,9.37665E0,3.5681954E-1,0E0,4.1753025E0,5.3653717E0,0E0,1.979441E-1,5.5924788E0,1.2831683E0,0E0,0E0,0E0,0E0,0E0,0E0,0E0,0E0],"parents":[2147483647,0,0,1,1,3,3,4,4,5,5,7,7,8,8,10,10,11,11,12,12],"right_children":[2,4,-1,6,8,10,-1,12,14,-1,16,18,20,-1,-1,-1,-1,-1,-1,-1,-1],"split_conditions":[2.1E1,2.814E-1,-1.3209212E-1,1.3E1,9E0,1E0,-2.2866471E-1,5E0,9.875E-1,3.057225E-2,4.918E-1,2E0,9.875E-1,6.7692914E-4,2.4568775E-1,-5.958197E-2,-6.934914E-4,1.424578E-1,-7.9559065E-2,9.973521E-2,-1.3008597E-2],"split_indices":[3,5,0,1,1,3,0,3,5,0,4,1,5,0,0,0,0,0,0,0,0],"split_type":[0,0,0,0,0,0,0,0,0,0,0,0,0,0,0,0,0,0,0,0,0],"sum_hessian":[6.7E1,6.2E1,5E0,1.2E1,5E1,9E0,3E0,3.9E1,1.1E1,3E0,6E0,2.6E1,1.3E1,4E0,7E0,3E0,3E0,3E0,2.3E1,9E0,4E0],"tree_param":{"num_deleted":"0","num_feature":"6","num_nodes":"21","size_leaf_vector":"1"}},{"base_weights":[1.2651078E-1,-2.0435317E-1,5.1369816E-1,1.00695275E-1,-3.1104565E-1,8.360818E-1,2.3214799E-1,-4.551882E-1,-3.2097578E-2,1.6338539E-1,8.848363E-2,3.672535E-1,-3.79051E-2,-2.4279511E-1,-1.0868444E-1,-3.0067235E-1,7.9013884E-2,-2.4270646E-3,8.754693E-2,3.90127E-2,-1.0528371E-1,-7.0659526E-2,-3.0742757E-2],"categories":[],"categories_nodes":[],"categories_segments":[],"categories_sizes":[],"default_left":[0,0,0,0,0,0,0,0,0,0,0,0,0,0,0,0,0,0,0,0,0,0,0],"id":11,"left_children":[1,3,5,-1,7,9,11,13,15,-1,-1,17,-1,19,-1,21,-1,-1,-1,-1,-1,-1,-1],"loss_changes":[9.200526E0,3.4591522E0,2.8012218E0,0E0,1.3926799E0,5.0775528E-2,1.240283E0,6.993723E-1,1.8479465E0,0E0,0E0,8.075373E-1,0E0,2.2033525E0,0E0,4.6983123E-2,0E0,0E0,0E0,0E0,0E0,0E0,0E0],"parents":[2147483647,0,0,1,1,2,2,4,4,5,5,6,6,7,7,8,8,11,11,13,13,15,15],"right_children":[2,4,6,-1,8,10,12,14,16,-1,-1,18,-1,20,-1,22,-1,-1,-1,-1,-1,-1,-1],"split_conditions":[1.75E0,2E0,1E0,1.00695275E-1,1.4286E0,2.3333E0,2.8E1,1.25E0,4E0,1.6338539E-1,8.848363E-2,2.6667E0,-3.79051E-2,6E0,-1.0868444E-1,0E0,7.9013884E-2,-2.4270646E-3,8.754693E-2,3.90127E-2,-1.0528371E-1,-7.0659526E-2,-3.0742757E-2],"split_indices":[0,1,2,0,0,0,1,0,1,0,0,0,0,3,0,2,0,0,0,0,0,0,0],"split_type":[0,0,0,0,0,0,0,0,0,0,0,0,0,0,0,0,0,0,0,0,0,0,0],"sum_hessian":[7E1,3.8E1,3.2E1,4E0,3.4E1,1.4E1,1.8E1,2.2E1,1.2E1,9E0,5E0,1.4E1,4E0,1.1E1,1.1E1,8E0,4E0,4E0,1E1,5E0,6E0,3E0,5E0],"tree_param":{"num_deleted":"0","num_feature":"6","num_nodes":"23","size_leaf_vector":"1"}},{"base_weights":[-3.887412E-3,-4.4367003E-1,1.0257431E-1,-1.8330848E-1,-1.9226074E-1,-7.094399E-2,6.509946E-1,1.5577656E-2,-2.8452113E-1,1.857608E-1,-2.774833E-1,2.6478267E-1,3.0241543E-1,-6.633251E-2,-1.1002156E-2,9.689817E-2,7.110577E-2,1.10979594E-1,-4.1932634E-1,7.4011296E-2,1.2785669E-1,-8.434721E-2,4.590441E-2,-1.4018413E-1,-4.7159202E-2,8.480262E-2,-6.1807297E-2],"categories":[],"categories_nodes":[],"categories_segments":[],"categories_sizes":[],"default_left":[0,0,0,0,0,0,0,0,0,0,0,0,0,0,0,0,0,0,0,0,0,0,0,0,0,0,0],"id":12,"left_children":[1,3,5,7,-1,9,11,-1,13,15,17,-1,19,-1,-1,-1,21,-1,23,25,-1,-1,-1,-1,-1,-1,-1],"loss_changes":[3.6038303E0,2.4131105E0,5.946163E0,3.5792464E-1,0E0,2.5964878E0,4.1529717E0,0E0,1.7374712E-1,9.07516E-1,3.794627E0,0E0,1.1465076E0,0E0,0E0,0E0,2.0930529E0,0E0,1.1556191E0,1.7986232E0,0E0,0E0,0E0,0E0,0E0,0E0,0E0],"parents":[2147483647,0,0,1,1,2,2,3,3,5,5,6,6,8,8,9,9,10,10,12,12,16,16,18,18,19,19],"right_children":[2,4,6,8,-1,10,12,-1,14,16,18,-1,20,-1,-1,-1,22,-1,24,26,-1,-1,-1,-1,-1,-1,-1],"split_conditions":[2.814E-1,8E-1,9E0,2.093E-1,-1.9226074E-1,2.0624E0,0E0,1.5577656E-2,1.1E1,2.022E-1,2E0,2.6478267E-1,7E0,-6.633251E-2,-1.1002156E-2,9.689817E-2,2.286E-1,1.10979594E-1,2.368E-1,1.6E1,1.2785669E-1,-8.434721E-2,4.590441E-2,-1.4018413E-1,-4.7159202E-2,8.480262E-2,-6.1807297E-2],"split_indices":[5,4,1,5,0,5,2,0,1,4,1,0,2,0,0,0,4,0,4,1,0,0,0,0,0,0,0],"split_type":[0,0,0,0,0,0,0,0,0,0,0,0,0,0,0,0,0,0,0,0,0,0,0,0,0,0,0],"sum_hessian":[7.5E1,1.4E1,6.1E1,1.1E1,3E0,4.7E1,1.4E1,3E0,8E0,2.1E1,2.6E1,3E0,1.1E1,5E0,3E0,4E0,1.7E1,3E0,2.3E1,8E0,3E0,4E0,1.3E1,5E0,1.8E1,4E0,4E0],"tree_param":{"num_deleted":"0","num_feature":"6","num_nodes":"27","size_leaf_vector":"1"}},{"base_weights":[1.27024E-1,4.6588328E-2,1.4970067E-1,8.600844E-2,-6.247618E-2,1.5464121E-1,-1.7930034E-1,4.0623832E-2,4.6725672E-1,1.6961686E-1,-8.6754926E-2,8.171778E-2,-1.31431185E-2,1.1882986E-1,-4.194065E-3,-4.1351195E-2,9.2587285E-2],"categories":[],"categories_nodes":[],"categories_segments":[],"categories_sizes":[],"default_left":[0,0,0,0,0,0,0,0,0,0,0,0,0,0,0,0,0],"id":13,"left_children":[1,3,-1,5,-1,7,9,11,13,15,-1,-1,-1,-1,-1,-1,-1],"loss_changes":[4.2466383E0,1.0940293E0,0E0,1.1384686E0,0E0,1.7275544E0,1.551727E0,1.9058924E0,1.4300396E0,1.1790383E0,0E0,0E0,0E0,0E0,0E0,0E0,0E0],"parents":[2147483647,0,0,1,1,3,3,5,5,6,6,7,7,8,8,9,9],"right_children":[2,4,-1,6,-1,8,10,12,14,16,-1,-1,-1,-1,-1,-1,-1],"split_conditions":[5.8333E0,1.6E1,1.4970067E-1,2E0,-6.247618E-2,1.7E0,9.214E-1,3E0,2.0624E0,4.604E-1,-8.6754926E-2,8.171778E-2,-1.31431185E-2,1.1882986E-1,-4.194065E-3,-4.1351195E-2,9.2587285E-2],"split_indices":[0,1,0,2,0,0,5,1,5,5,0,0,0,0,0,0,0],"split_type":[0,0,0,0,0,0,0,0,0,0,0,0,0,0,0,0,0],"sum_hessian":[7.1E1,6.5E1,6E0,6E1,5E0,4.8E1,1.2E1,3.6E1,1.2E1,6E0,6E0,7E0,2.9E1,8E0,4E0,3E0,3E0],"tree_param":{"num_deleted":"0","num_feature":"6","num_nodes":"17","size_leaf_vector":"1"}},{"base_weights":[1.1070806E-3,5.559911E-2,-1.6681197E-1,1.0055565E-1,-1.2472226E-1,5.9202913E-2,1.2900937E-1,1.1312948E-2,1.0902465E-1,-5.2993656E-3,5.0660368E-2],"categories":[],"categories_nodes":[],"categories_segments":[],"categories_sizes":[],"default_left":[0,0,0,0,0,0,0,0,0,0,0],"id":14,"left_children":[1,3,-1,5,-1,7,-1,9,-1,-1,-1],"loss_changes":[3.9551291E0,2.5564814E0,0E0,1.7746657E0,0E0,1.7747018E0,0E0,7.32202E-1,0E0,0E0,0E0],"parents":[2147483647,0,0,1,1,3,3,5,5,7,7],"right_children":[2,4,-1,6,-1,8,-1,10,-1,-1,-1],"split_conditions":[1.04211E1,2.5E2,-1.6681197E-1,5E0,-1.2472226E-1,1.8E1,1.2900937E-1,4E0,1.0902465E-1,-5.2993656E-3,5.0660368E-2],"split_indices":[0,3,0,0,0,3,0,2,0,0,0],"split_type":[0,0,0,0,0,0,0,0,0,0,0],"sum_hessian":[7.3E1,7E1,3E0,6.7E1,3E0,6.4E1,3E0,6E1,4E0,5.3E1,7E0],"tree_param":{"num_deleted":"0","num_feature":"6","num_nodes":"11","size_leaf_vector":"1"}},{"base_weights":[-3.4709685E-2,-2.6467547E-1,1.2102182E-1,-6.639624E-2,-6.7442226E-1,9.225069E-2,5.756953E-2,-1.9925506E-1,1.0033581E-1,-1.9727543E-1,-2.9625166E-2,-3.325704E-1,1.622268E-1,7.976346E-2,-3.5214016E-1,-7.28384E-2,-1.9904453E-2,2.3947953E-1,-7.038934E-2,-1.09622344E-1,-1.0617158E-2,8.799277E-3,9.82037E-2,-1.0628346E-1,5.263067E-2],"categories":[],"categories_nodes":[],"categories_segments":[],"categories_sizes":[],"default_left":[0,0,0,0,0,0,0,0,0,0,0,0,0,0,0,0,0,0,0,0,0,0,0,0,0],"id":15,"left_children":[1,3,5,7,9,-1,11,13,-1,-1,-1,15,17,-1,19,-1,-1,21,23,-1,-1,-1,-1,-1,-1],"loss_changes":[2.7538133E0,2.4737937E0,1.1759261E0,2.0089192E0,2.159264E0,0E0,1.7280219E0,2.0838363E0,0E0,0E0,0E0,1.2616283E-1,6.098744E-1,0E0,1.2766463E0,0E0,0E0,1.5235507E0,2.0297637E0,0E0,0E0,0E0,0E0,0E0,0E0],"parents":[2147483647,0,0,1,1,2,2,3,3,4,4,6,6,7,7,11,11,12,12,14,14,17,17,18,18],"right_children":[2,4,6,8,10,-1,12,14,-1,-1,-1,16,18,-1,20,-1,-1,22,24,-1,-1,-1,-1,-1,-1],"split_conditions":[3.92E-1,2.521E-1,4.8E-1,4E0,2.857E-1,9.225069E-2,6.102E-1,1E0,1.0033581E-1,-1.9727543E-1,-2.9625166E-2,1E0,1.7561E0,7.976346E-2,1E0,-7.28384E-2,-1.9904453E-2,9E0,4.3571E0,-1.09622344E-1,-1.0617158E-2,8.799277E-3,9.82037E-2,-1.0628346E-1,5.263067E-2],"split_indices":[4,4,4,1,4,0,4,3,0,0,0,3,4,0,2,0,0,1,4,0,0,0,0,0,0],"split_type":[0,0,0,0,0,0,0,0,0,0,0,0,0,0,0,0,0,0,0,0,0,0,0,0,0],"sum_hessian":[7.5E1,3E1,4.5E1,2.1E1,9E0,5E0,4E1,1.8E1,3E0,4E0,5E0,8E0,3.2E1,3E0,1.5E1,5E0,3E0,2.4E1,8E0,7E0,8E0,1.6E1,8E0,3E0,5E0],"tree_param":{"num_deleted":"0","num_feature":"6","num_nodes":"25","size_leaf_vector":"1"}},{"base_weights":[-4.8207276E-2,-2.358376E-3,-5.0635934E-1,-5.9056167E-2,1.0731415E-1,-1.5142746E-1,-1.5282636E-3,9.514402E-2,-9.686547E-2,-2.4645966E-1,5.575578E-2,5.319184E-2,-5.8117617E-2,-1.11523844E-1,2.6002264E-2],"categories":[],"categories_nodes":[],"categories_segments":[],"categories_sizes":[],"default_left":[0,0,0,0,0,0,0,0,0,0,0,0,0,0,0],"id":16,"left_children":[1,3,5,7,-1,-1,-1,-1,9,11,13,-1,-1,-1,-1],"loss_changes":[1.6162499E0,2.5489316E0,1.2839612E0,1.5762451E0,0E0,0E0,0E0,0E0,1.4521105E0,1.7052685E0,2.228381E0,0E0,0E0,0E0,0E0],"parents":[2147483647,0,0,1,1,2,2,3,3,8,8,9,9,10,10],"right_children":[2,4,6,8,-1,-1,-1,-1,10,12,14,-1,-1,-1,-1],"split_conditions":[2.1E1,1.7E1,1E0,-1E0,1.0731415E-1,-1.5142746E-1,-1.5282636E-3,9.514402E-2,2E0,2E0,3E0,5.319184E-2,-5.8117617E-2,-1.11523844E-1,2.6002264E-2],"split_indices":[3,3,2,2,0,0,0,0,3,1,1,0,0,0,0],"split_type":[0,0,0,0,0,0,0,0,0,0,0,0,0,0,0],"sum_hessian":[7.6E1,7E1,6E0,6.5E1,5E0,3E0,3E0,3E0,6.2E1,3.1E1,3.1E1,4E0,2.7E1,3E0,2.8E1],"tree_param":{"num_deleted":"0","num_feature":"6","num_nodes":"15","size_leaf_vector":"1"}},{"base_weights":[-1.22157615E-2,1.756957E-2,-9.6695125E-2,-1.560658E-1,1.3293606E-1,2.817028E-2,-6.6623634E-1,7.532166E-2,8.4098145E-2,-2.0645975E-1,1.2555137E-1,-1.74025E-1,-1.2468411E-2,1.391716E-1,-1.9541547E-1,-2.0534245E-3,-1.0246268E-1,2.9302023E-2,-2.2898829E-2,-4.203881E-2,-1.6990246E-2],"categories":[],"categories_nodes":[],"categories_segments":[],"categories_sizes":[],"default_left":[0,0,0,0,0,0,0,0,0,0,0,0,0,0,0,0,0,0,0,0,0],"id":17,"left_children":[1,3,-1,5,7,9,11,-1,13,15,-1,-1,-1,17,19,-1,-1,-1,-1,-1,-1],"loss_changes":[1.266606E0,1.5030929E0,0E0,2.838523E0,6.301524E-1,3.9233713E0,1.5521481E0,0E0,6.429473E-1,1.3487732E0,0E0,0E0,0E0,3.052041E-1,8.703262E-3,0E0,0E0,0E0,0E0,0E0,0E0],"parents":[2147483647,0,0,1,1,3,3,4,4,5,5,6,6,8,8,9,9,13,13,14,14],"right_children":[2,4,-1,6,8,10,12,-1,14,16,-1,-1,-1,18,20,-1,-1,-1,-1,-1,-1],"split_conditions":[3.8545E0,3.92E-1,-9.6695125E-2,2.667E-1,4.8E-1,2.286E-1,3.025E-1,7.532166E-2,8E0,2.022E-1,1.2555137E-1,-1.74025E-1,-1.2468411E-2,1.7561E0,6.857E-1,-2.0534245E-3,-1.0246268E-1,2.9302023E-2,-2.2898829E-2,-4.203881E-2,-1.6990246E-2],"split_indices":[4,4,0,4,4,4,4,0,3,4,0,0,0,4,4,0,0,0,0,0,0],"split_type":[0,0,0,0,0,0,0,0,0,0,0,0,0,0,0,0,0,0,0,0,0],"sum_hessian":[7.6E1,7.3E1,3E0,2.9E1,4.4E1,2.2E1,7E0,5E0,3.9E1,1.7E1,5E0,4E0,3E0,3.3E1,6E0,1.2E1,5E0,3E1,3E0,3E0,3E0],"tree_param":{"num_deleted":"0","num_feature":"6","num_nodes":"21","size_leaf_vector":"1"}},{"base_weights":[1.1753384E-1,-8.525591E-2,1.5127699E-1,1.1484002E-1,1.2335962E-1,2.9937106E-1,2.810106E-2,1.03062384E-1,1.1690355E-1,-1.0950366E-1,8.907509E-2,8.292412E-2,-1.3434077E-2,5.2982543E-2,-8.9138135E-4],"categories":[],"categories_nodes":[],"categories_segments":[],"categories_sizes":[],"default_left":[0,0,0,0,0,0,0,0,0,0,0,0,0,0,0],"id":18,"left_children":[1,-1,3,5,-1,7,9,11,-1,-1,13,-1,-1,-1,-1],"loss_changes":[1.560247E0,0E0,1.3343767E0,1.0479856E0,0E0,1.4880614E0,1.914681E0,1.0612708E0,0E0,0E0,8.844657E-1,0E0,0E0,0E0,0E0],"parents":[2147483647,0,0,2,2,3,3,5,5,6,6,7,7,10,10],"right_children":[2,-1,4,6,-1,8,10,12,-1,-1,14,-1,-1,-1,-1],"split_conditions":[1.333E-1,-8.525591E-2,5.8333E0,2.667E-1,1.2335962E-1,2.286E-1,3.913E-1,1.714E-1,1.1690355E-1,-1.0950366E-1,1.5E0,8.292412E-2,-1.3434077E-2,5.2982543E-2,-8.9138135E-4],"split_indices":[4,0,0,4,0,4,4,4,0,0,0,0,0,0,0],"split_type":[0,0,0,0,0,0,0,0,0,0,0,0,0,0,0],"sum_hessian":[7.1E1,3E0,6.8E1,6.5E1,3E0,2E1,4.5E1,1.4E1,6E0,3E0,4.2E1,4E0,1E1,1.2E1,3E1],"tree_param":{"num_deleted":"0","num_feature":"6","num_nodes":"15","size_leaf_vector":"1"}},{"base_weights":[-1.9545596E-2,7.578449E-2,-6.7166574E-2,-2.8008452E-1,2.2948535E-2,-5.2170135E-2,-1.6456638E-1,7.64259E-2,-1.00875504E-1,-2.7592805E-1,8.549135E-2,1.603007E-2,8.0493264E-2,-1.1820357E-2,-7.1516715E-2,1.1497005E-2,-4.8619397E-2],"categories":[],"categories_nodes":[],"categories_segments":[],"categories_sizes":[],"default_left":[0,0,0,0,0,0,0,0,0,0,0,0,0,0,0,0,0],"id":19,"left_children":[1,-1,3,5,7,9,-1,11,-1,13,-1,15,-1,-1,-1,-1,-1],"loss_changes":[1.6237108E0,0E0,1.2919648E0,3.0193977E0,1.6036981E0,2.0966134E0,0E0,1.052203E0,0E0,3.1614423E-1,0E0,6.2102395E-1,0E0,0E0,0E0,0E0,0E0],"parents":[2147483647,0,0,2,2,3,3,4,4,5,5,7,7,9,9,11,11],"right_children":[2,-1,4,6,8,10,-1,12,-1,14,-1,16,-1,-1,-1,-1,-1],"split_conditions":[1.714E-1,7.578449E-2,2.857E-1,2.521E-1,2.3077E0,2.368E-1,-1.6456638E-1,1.2426E0,-1.00875504E-1,2.022E-1,8.549135E-2,9.677E-1,8.0493264E-2,-1.1820357E-2,-7.1516715E-2,1.1497005E-2,-4.8619397E-2],"split_indices":[4,0,4,4,4,4,0,4,0,4,0,4,0,0,0,0,0],"split_type":[0,0,0,0,0,0,0,0,0,0,0,0,0,0,0,0,0],"sum_hessian":[7.2E1,6E0,6.6E1,1.9E1,4.7E1,1.5E1,4E0,4.4E1,3E0,1.1E1,4E0,3.9E1,5E0,5E0,6E0,3.4E1,5E0],"tree_param":{"num_deleted":"0","num_feature":"6","num_nodes":"17","size_leaf_vector":"1"}},{"base_weights":[2.3031522E-2,-4.0171206E-2,1.1968088E-1,-4.232783E-1,2.2116916E-2,-9.582083E-2,-2.0659512E-2,6.0109597E-2,-8.4029764E-2,1.1261288E-1,-1.5059501E-1,2.3771513E-2,-1.8248936E-2,-5.9932843E-2,2.6718345E-2],"categories":[],"categories_nodes":[],"categories_segments":[],"categories_sizes":[],"default_left":[0,0,0,0,0,0,0,0,0,0,0,0,0,0,0],"id":20,"left_children":[1,3,-1,5,7,-1,-1,9,-1,11,13,-1,-1,-1,-1],"loss_changes":[2.9511273E0,1.5365951E0,0E0,2.9380524E-1,1.1120615E0,0E0,0E0,6.0328114E-1,0E0,2.5024945E-1,7.142293E-1,0E0,0E0,0E0,0E0],"parents":[2147483647,0,0,1,1,3,3,4,4,7,7,9,9,10,10],"right_children":[2,4,-1,6,8,-1,-1,10,-1,12,14,-1,-1,-1,-1],"split_conditions":[5.8333E0,0E0,1.1968088E-1,1.6667E0,2.5E2,-9.582083E-2,-2.0659512E-2,1E1,-8.4029764E-2,2.1E1,2.1333E0,2.3771513E-2,-1.8248936E-2,-5.9932843E-2,2.6718345E-2],"split_indices":[0,2,0,0,3,0,0,1,0,3,0,0,0,0,0],"split_type":[0,0,0,0,0,0,0,0,0,0,0,0,0,0,0],"sum_hessian":[6.8E1,6.3E1,5E0,8E0,5.5E1,5E0,3E0,5.2E1,3E0,4.2E1,1E1,3.8E1,4E0,6E0,4E0],"tree_param":{"num_deleted":"0","num_feature":"6","num_nodes":"15","size_leaf_vector":"1"}},{"base_weights":[-1.2225012E-1,-1.6826437E-1,2.1343301E-1,-3.821986E-2,-3.779942E-1,-1.1347044E-1,1.797841E-1,7.285343E-2,-1.4218396E-1,-4.2174393E-1,-9.2881555E-3,-4.4628523E-2,6.1176173E-2,4.5258246E-2,-2.8494057E-1,-2.0072539E-1,-5.1791567E-1,3.773192E-2,-2.2206534E-2,-1.06289424E-1,-4.2916816E-3,3.0852235E-3,-7.315142E-2,-9.994363E-2,-3.8048096E-2],"categories":[],"categories_nodes":[],"categories_segments":[],"categories_sizes":[],"default_left":[0,0,0,0,0,0,0,0,0,0,0,0,0,0,0,0,0,0,0,0,0,0,0,0,0],"id":21,"left_children":[1,3,5,7,9,-1,-1,11,13,15,-1,17,-1,-1,19,21,23,-1,-1,-1,-1,-1,-1,-1,-1],"loss_changes":[1.132594E0,1.7038287E0,7.1749234E0,4.72264E-1,3.176973E-1,0E0,0E0,6.7738765E-1,1.287002E0,3.42412E-1,0E0,3.5987115E-1,0E0,0E0,1.3613647E0,3.9767414E-1,1.2682009E-1,0E0,0E0,0E0,0E0,0E0,0E0,0E0,0E0],"parents":[2147483647,0,0,1,1,2,2,3,3,4,4,7,7,8,8,9,9,11,11,14,14,15,15,16,16],"right_children":[2,4,6,8,10,-1,-1,12,14,16,-1,18,-1,-1,20,22,24,-1,-1,-1,-1,-1,-1,-1,-1],"split_conditions":[2.7E1,2.1457E0,9.875E-1,8E0,1.2426E0,-1.1347044E-1,1.797841E-1,5E0,2.158E-1,4E0,-9.2881555E-3,2.093E-1,6.1176173E-2,4.5258246E-2,2.857E-1,1E0,7E0,3.773192E-2,-2.2206534E-2,-1.06289424E-1,-4.2916816E-3,3.0852235E-3,-7.315142E-2,-9.994363E-2,-3.8048096E-2],"split_indices":[1,5,5,3,4,0,0,3,4,1,0,5,0,0,4,3,1,0,0,0,0,0,0,0,0],"split_type":[0,0,0,0,0,0,0,0,0,0,0,0,0,0,0,0,0,0,0,0,0,0,0,0,0],"sum_hessian":[7E1,6.2E1,8E0,3.9E1,2.3E1,4E0,4E0,1.9E1,2E1,2E1,3E0,1.4E1,5E0,5E0,1.5E1,7E0,1.3E1,3E0,1.1E1,6E0,9E0,4E0,3E0,1E1,3E0],"tree_param":{"num_deleted":"0","num_feature":"6","num_nodes":"25","size_leaf_vector":"1"}},{"base_weights":[1.0197824E-1,-1.0611642E-1,2.0823634E-1,-2.4379036E-1,3.9720304E-2,-1.4973056E-1,3.600383E-1,1.0655633E-2,-3.8643718E-1,4.602805E-2,-1.3544759E-1,-1.9343147E-2,-8.690284E-2,1.5583023E-1,1.3340296E-1,-9.895054E-3,-9.3458354E-2,-1.2264916E-2,-2.7595693E-2,-5.2487165E-2,5.4557342E-2,4.6001336E-1,-1.8668732E-1,1.1937952E-1,-8.434197E-3,-5.762102E-2,2.775893E-3],"categories":[],"categories_nodes":[],"categories_segments":[],"categories_sizes":[],"default_left":[0,0,0,0,0,0,0,0,0,0,0,0,0,0,0,0,0,0,0,0,0,0,0,0,0,0,0],"id":22,"left_children":[1,3,5,7,9,11,13,-1,15,-1,17,19,-1,21,-1,-1,-1,-1,-1,-1,-1,23,25,-1,-1,-1,-1],"loss_changes":[1.6141427E0,5.116313E-1,2.6622322E0,5.904188E-1,5.528954E-1,6.820899E-1,2.7457657E0,0E0,4.2807662E-1,0E0,1.222238E-3,1.2421563E0,0E0,2.5863922E0,0E0,0E0,0E0,0E0,0E0,0E0,0E0,1.5658913E0,3.6337537E-1,0E0,0E0,0E0,0E0],"parents":[2147483647,0,0,1,1,2,2,3,3,4,4,5,5,6,6,8,8,10,10,11,11,13,13,21,21,22,22],"right_children":[2,4,6,8,10,12,14,-1,16,-1,18,20,-1,22,-1,-1,-1,-1,-1,-1,-1,24,26,-1,-1,-1,-1],"split_conditions":[4E0,2.286E-1,7.242E-1,2E0,1.4286E0,1.6E1,1E1,1.0655633E-2,7.242E-1,4.602805E-2,7.379E-1,1.7E0,-8.690284E-2,6.857E-1,1.3340296E-1,-9.895054E-3,-9.3458354E-2,-1.2264916E-2,-2.7595693E-2,-5.2487165E-2,5.4557342E-2,5E0,1E0,1.1937952E-1,-8.434197E-3,-5.762102E-2,2.775893E-3],"split_indices":[1,4,5,1,0,1,1,0,5,0,5,0,0,4,0,0,0,0,0,0,0,1,4,0,0,0,0],"split_type":[0,0,0,0,0,0,0,0,0,0,0,0,0,0,0,0,0,0,0,0,0,0,0,0,0,0,0],"sum_hessian":[7.1E1,2.4E1,4.7E1,1.2E1,1.2E1,1.4E1,3.3E1,4E0,8E0,5E0,7E0,1.1E1,3E0,2.3E1,1E1,3E0,5E0,3E0,4E0,6E0,5E0,1.2E1,1.1E1,8E0,4E0,6E0,5E0],"tree_param":{"num_deleted":"0","num_feature":"6","num_nodes":"27","size_leaf_vector":"1"}},{"base_weights":[1.1828163E-2,4.9019914E-2,-1.0599892E-1,1.3521293E-1,-1.4622255E-1,2.7225685E-1,2.3615338E-2,-7.6638475E-2,2.486054E-3,4.3991154E-1,-3.8008727E-2,-4.200653E-2,1.488341E-1,8.2827695E-2,-2.841817E-1,3.2655716E-2,1.976035E-1,5.6505665E-2,1.6380964E-2,-1.2192612E-1,4.820548E-2],"categories":[],"categories_nodes":[],"categories_segments":[],"categories_sizes":[],"default_left":[0,0,0,0,0,0,0,0,0,0,0,0,0,0,0,0,0,0,0,0,0],"id":23,"left_children":[1,3,-1,5,7,9,11,-1,13,15,-1,-1,17,-1,19,-1,-1,-1,-1,-1,-1],"loss_changes":[1.6596341E0,1.1472832E0,0E0,7.1237785E-1,9.310112E-1,1.8306794E0,9.3883634E-1,0E0,2.1890435E0,2.611111E0,0E0,0E0,1.5187228E-1,0E0,2.5760636E0,0E0,0E0,0E0,0E0,0E0,0E0],"parents":[2147483647,0,0,1,1,3,3,4,4,5,5,6,6,8,8,9,9,12,12,14,14],"right_children":[2,4,-1,6,8,10,12,-1,14,16,-1,-1,18,-1,20,-1,-1,-1,-1,-1,-1],"split_conditions":[4.6E0,8E0,-1.0599892E-1,1.5E0,1.6667E0,9.677E-1,2.0909E0,-7.6638475E-2,2.158E-1,4.444E-1,-3.8008727E-2,-4.200653E-2,4.8E-1,8.2827695E-2,2.857E-1,3.2655716E-2,1.976035E-1,5.6505665E-2,1.6380964E-2,-1.2192612E-1,4.820548E-2],"split_indices":[4,3,0,0,0,4,0,0,4,4,0,0,4,0,4,0,0,0,0,0,0],"split_type":[0,0,0,0,0,0,0,0,0,0,0,0,0,0,0,0,0,0,0,0,0],"sum_hessian":[6.9E1,6.6E1,3E0,4.6E1,2E1,2E1,2.6E1,6E0,1.4E1,1.5E1,5E0,8E0,1.8E1,5E0,9E0,1.2E1,3E0,3E0,1.5E1,5E0,4E0],"tree_param":{"num_deleted":"0","num_feature":"6","num_nodes":"21","size_leaf_vector":"1"}},{"base_weights":[1.3602997E-2,-2.3087546E-2,7.373293E-2,4.7507577E-2,-2.0764905E-1,-1.5655701E-1,1.3121483E-1,-2.7023003E-1,-4.6637096E-3,1.40505135E-2,-2.2282952E-1,3.6580855E-1,6.197468E-2,-3.42882E-1,-1.2234692E-2,-2.1162855E-2,-5.2235726E-2,2.8443452E-2,9.0730965E-2,-3.110913E-2,3.7974313E-2,-1.9595753E-2,-8.231231E-2],"categories":[],"categories_nodes":[],"categories_segments":[],"categories_sizes":[],"default_left":[0,0,0,0,0,0,0,0,0,0,0,0,0,0,0,0,0,0,0,0,0,0,0],"id":24,"left_children":[1,3,-1,5,7,9,11,13,-1,-1,15,17,19,21,-1,-1,-1,-1,-1,-1,-1,-1,-1],"loss_changes":[1.1175425E0,8.9584666E-1,0E0,8.7462693E-1,2.074753E-1,2.546882E-1,5.620882E-1,1.7846084E-1,0E0,0E0,5.8862627E-2,1.7042124E-1,1.1495882E0,2.531637E-1,0E0,0E0,0E0,0E0,0E0,0E0,0E0,0E0,0E0],"parents":[2147483647,0,0,1,1,3,3,4,4,5,5,6,6,7,7,10,10,11,11,12,12,13,13],"right_children":[2,4,-1,6,8,10,12,14,-1,-1,16,18,20,22,-1,-1,-1,-1,-1,-1,-1,-1,-1],"split_conditions":[5E0,8E-1,7.373293E-2,1.3333E0,4E0,1.701E-1,2.022E-1,3.25E0,-4.6637096E-3,1.40505135E-2,9.875E-1,1.4286E0,2.857E-1,1.3333E0,-1.2234692E-2,-2.1162855E-2,-5.2235726E-2,2.8443452E-2,9.0730965E-2,-3.110913E-2,3.7974313E-2,-1.9595753E-2,-8.231231E-2],"split_indices":[0,4,0,0,3,5,4,0,0,0,5,0,4,0,0,0,0,0,0,0,0,0,0],"split_type":[0,0,0,0,0,0,0,0,0,0,0,0,0,0,0,0,0,0,0,0,0,0,0],"sum_hessian":[7.2E1,6.7E1,5E0,4.9E1,1.8E1,1.4E1,3.5E1,1.3E1,5E0,3E0,1.1E1,7E0,2.8E1,9E0,4E0,6E0,5E0,4E0,3E0,1.1E1,1.7E1,4E0,5E0],"tree_param":{"num_deleted":"0","num_feature":"6","num_nodes":"23","size_leaf_vector":"1"}},{"base_weights":[-6.9327964E-3,-1.3945466E-1,7.4983515E-2,3.373774E-2,-6.885933E-1,-1.577378E-1,1.4214435E-1,-5.924642E-2,1.07445665E-1,-1.946443E-1,-1.3358756E-2,-4.417617E-2,-4.9224656E-2,3.9738125E-1,7.992492E-2,-2.1971572E-2,8.6321406E-2,1.0016195E-3,-1.4345895E-2,3.1235196E-2,8.880158E-2,-2.7763184E-2,2.3116715E-1,-3.9689794E-2,2.1714794E-2,-1.7739523E-2,4.8194975E-2,5.929417E-2,1.4809603E-2],"categories":[],"categories_nodes":[],"categories_segments":[],"categories_sizes":[],"default_left":[0,0,0,0,0,0,0,0,0,0,0,0,0,0,0,0,0,0,0,0,0,0,0,0,0,0,0,0,0],"id":25,"left_children":[1,3,5,7,9,11,13,-1,15,-1,-1,17,-1,19,21,23,-1,-1,-1,-1,-1,25,27,-1,-1,-1,-1,-1,-1],"loss_changes":[8.246345E-1,2.781324E0,7.570202E-1,6.7595667E-1,1.7911761E0,1.4659566E-1,5.558251E-1,0E0,1.027291E0,0E0,0E0,1.4103736E-2,0E0,8.427584E-2,5.1131463E-1,5.2063596E-1,0E0,0E0,0E0,0E0,0E0,4.661825E-1,1.828391E-1,0E0,0E0,0E0,0E0,0E0,0E0],"parents":[2147483647,0,0,1,1,2,2,3,3,4,4,5,5,6,6,8,8,11,11,13,13,14,14,15,15,21,21,22,22],"right_children":[2,4,6,8,10,12,14,-1,16,-1,-1,18,-1,20,22,24,-1,-1,-1,-1,-1,26,28,-1,-1,-1,-1,-1,-1],"split_conditions":[3.158E-1,2.485E-1,1.3333E0,0E0,2.857E-1,1.1667E0,1.5E0,-5.924642E-2,2.286E-1,-1.946443E-1,-1.3358756E-2,6E-1,-4.9224656E-2,8.257E-1,4E0,1.3333E0,8.6321406E-2,1.0016195E-3,-1.4345895E-2,3.1235196E-2,8.880158E-2,4.3571E0,7.857E-1,-3.9689794E-2,2.1714794E-2,-1.7739523E-2,4.8194975E-2,5.929417E-2,1.4809603E-2],"split_indices":[4,4,0,2,4,0,0,0,4,0,0,4,0,4,3,0,0,0,0,0,0,4,4,0,0,0,0,0,0],"split_type":[0,0,0,0,0,0,0,0,0,0,0,0,0,0,0,0,0,0,0,0,0,0,0,0,0,0,0,0,0],"sum_hessian":[7.4E1,2.8E1,4.6E1,2.2E1,6E0,1E1,3.6E1,3E0,1.9E1,3E0,3E0,6E0,4E0,6E0,3E1,1.5E1,4E0,3E0,3E0,3E0,3E0,1.8E1,1.2E1,6E0,9E0,1.5E1,3E0,6E0,6E0],"tree_param":{"num_deleted":"0","num_feature":"6","num_nodes":"29","size_leaf_vector":"1"}},{"base_weights":[2.1875994E-2,-9.365995E-2,6.6152565E-2,1.324362E-2,1.1758554E-1,5.2839115E-2,-3.0517578E-1,2.0044971E-2,7.522412E-2,-2.7849298E-2,-7.0541866E-2,9.696324E-3,-3.8288254E-2],"categories":[],"categories_nodes":[],"categories_segments":[],"categories_sizes":[],"default_left":[0,0,0,0,0,0,0,0,0,0,0,0,0],"id":26,"left_children":[1,-1,3,5,-1,7,9,11,-1,-1,-1,-1,-1],"loss_changes":[2.0603564E0,0E0,2.4641988E0,9.112913E-1,0E0,7.9503447E-1,5.3157985E-2,5.367623E-1,0E0,0E0,0E0,0E0,0E0],"parents":[2147483647,0,0,2,2,3,3,5,5,6,6,7,7],"right_children":[2,-1,4,6,-1,8,10,12,-1,-1,-1,-1,-1],"split_conditions":[1.701E-1,-9.365995E-2,5.8333E0,1.2E0,1.1758554E-1,8.333E-1,2.0624E0,8E-1,7.522412E-2,-2.7849298E-2,-7.0541866E-2,9.696324E-3,-3.8288254E-2],"split_indices":[5,0,0,4,0,4,5,4,0,0,0,0,0],"split_type":[0,0,0,0,0,0,0,0,0,0,0,0,0],"sum_hessian":[8E1,5E0,7.5E1,7E1,5E0,6.3E1,7E0,5.9E1,4E0,4E0,3E0,5.2E1,7E0],"tree_param":{"num_deleted":"0","num_feature":"6","num_nodes":"13","size_leaf_vector":"1"}},{"base_weights":[-2.8769646E-2,-1.7604773E-1,6.780142E-2,-2.7036357E-1,1.455232E-1,6.161072E-2,2.0364724E-2,-1.6225055E-1,-3.3273026E-1,-5.3400025E-3,4.929813E-2,-1.5808736E-1,8.974359E-2,1.9796884E-2,-6.317449E-2,-4.9425033E-1,-1.2367729E-1,-9.20513E-2,4.9273387E-2,1.3527864E-1,-2.1416929E-2,-4.023905E-2,-1.0905891E-1,-3.4800398E-3,-3.38791E-2,4.2627577E-2,-2.0493843E-2,5.7115708E-2,7.758772E-4,-2.772173E-2,2.1067489E-2],"categories":[],"categories_nodes":[],"categories_segments":[],"categories_sizes":[],"default_left":[0,0,0,0,0,0,0,0,0,0,0,0,0,0,0,0,0,0,0,0,0,0,0,0,0,0,0,0,0,0,0],"id":27,"left_children":[1,3,5,7,9,-1,11,13,15,-1,-1,17,19,-1,-1,21,23,-1,25,27,29,-1,-1,-1,-1,-1,-1,-1,-1,-1,-1],"loss_changes":[1.0075324E0,8.8856286E-1,5.824965E-1,9.43526E-2,1.8186374E-1,0E0,4.8465785E-1,6.0622305E-1,3.7783372E-1,0E0,0E0,8.820953E-1,1.4462486E-1,0E0,0E0,1.0417354E-1,4.8647486E-2,0E0,2.950107E-1,5.101743E-1,1.9932027E-1,0E0,0E0,0E0,0E0,0E0,0E0,0E0,0E0,0E0,0E0],"parents":[2147483647,0,0,1,1,2,2,3,3,4,4,6,6,7,7,8,8,11,11,12,12,15,15,16,16,18,18,19,19,20,20],"right_children":[2,4,6,8,10,-1,12,14,16,-1,-1,18,20,-1,-1,22,24,-1,26,28,30,-1,-1,-1,-1,-1,-1,-1,-1,-1,-1],"split_conditions":[1.4286E0,1E0,1.6667E0,4E0,1.3333E0,6.161072E-2,1E0,2E0,1E0,-5.3400025E-3,4.929813E-2,3.25E0,1.7E1,1.9796884E-2,-6.317449E-2,1.3333E0,7E0,-9.20513E-2,6.7778E0,1E0,1.8E1,-4.023905E-2,-1.0905891E-1,-3.4800398E-3,-3.38791E-2,4.2627577E-2,-2.0493843E-2,5.7115708E-2,7.758772E-4,-2.772173E-2,2.1067489E-2],"split_indices":[0,2,0,1,0,0,3,3,3,0,0,0,3,0,0,0,1,0,0,2,3,0,0,0,0,0,0,0,0,0,0],"split_type":[0,0,0,0,0,0,0,0,0,0,0,0,0,0,0,0,0,0,0,0,0,0,0,0,0,0,0,0,0,0,0],"sum_hessian":[6.9E1,2.7E1,4.2E1,2.1E1,6E0,5E0,3.7E1,9E0,1.2E1,3E0,3E0,1E1,2.7E1,4E0,5E0,6E0,6E0,3E0,7E0,1.9E1,8E0,3E0,3E0,3E0,3E0,3E0,4E0,7E0,1.2E1,4E0,4E0],"tree_param":{"num_deleted":"0","num_feature":"6","num_nodes":"31","size_leaf_vector":"1"}},{"base_weights":[-2.1239495E-2,1.1609577E-2,-2.895894E-1,-1.8714832E-2,1.8329775E-1,-6.7028865E-2,-1.6186649E-2,7.555016E-2,-8.012569E-2,-2.879442E-2,1.2948833E-1,-2.6236743E-2,6.3576005E-2,3.3500765E-2,-1.2176808E-1,3.281749E-2,-1.4185837E-2,-7.5863816E-2,-1.2432827E-2],"categories":[],"categories_nodes":[],"categories_segments":[],"categories_sizes":[],"default_left":[0,0,0,0,0,0,0,0,0,0,0,0,0,0,0,0,0,0,0],"id":28,"left_children":[1,3,5,7,9,-1,-1,11,13,-1,-1,15,-1,-1,17,-1,-1,-1,-1],"loss_changes":[6.468603E-1,3.4704897E-1,1.1825228E-1,3.360205E-1,2.1098557E0,0E0,0E0,6.950648E-1,4.2328662E-1,0E0,0E0,2.3351021E-1,0E0,0E0,4.5827892E-1,0E0,0E0,0E0,0E0],"parents":[2147483647,0,0,1,1,2,2,3,3,4,4,7,7,8,8,11,11,14,14],"right_children":[2,4,6,8,10,-1,-1,12,14,-1,-1,16,-1,-1,18,-1,-1,-1,-1],"split_conditions":[1.7561E0,9E0,4.3571E0,9.875E-1,8.333E-1,-6.7028865E-2,-1.6186649E-2,8.598E-1,2E0,-2.879442E-2,1.2948833E-1,2.022E-1,6.3576005E-2,3.3500765E-2,3E0,3.281749E-2,-1.4185837E-2,-7.5863816E-2,-1.2432827E-2],"split_indices":[4,1,4,5,4,0,0,5,1,0,0,4,0,0,1,0,0,0,0],"split_type":[0,0,0,0,0,0,0,0,0,0,0,0,0,0,0,0,0,0,0],"sum_hessian":[7.2E1,6.5E1,7E0,5.6E1,9E0,4E0,3E0,2.2E1,3.4E1,6E0,3E0,1.7E1,5E0,4E0,3E1,3E0,1.4E1,3E0,2.7E1],"tree_param":{"num_deleted":"0","num_feature":"6","num_nodes":"19","size_leaf_vector":"1"}},{"base_weights":[1.2820266E-3,-7.0356116E-2,3.6818307E-2,-5.6383284E-3,1.2568651E-1,1.6524379E-1,-8.9055404E-2,-7.976443E-2,3.1094596E-1,-1.1174366E-1,-1.8795915E-2,1.814181E-2,-3.274689E-2,1.3261526E-4,1.0719392E-1,-3.6833182E-2,4.754285E-3],"categories":[],"categories_nodes":[],"categories_segments":[],"categories_sizes":[],"default_left":[0,0,0,0,0,0,0,0,0,0,0,0,0,0,0,0,0],"id":29,"left_children":[1,-1,3,5,-1,7,9,11,13,-1,15,-1,-1,-1,-1,-1,-1],"loss_changes":[1.0902351E0,0E0,2.0293617E0,9.555119E-1,0E0,8.101634E-1,1.753049E0,2.0287475E-1,1.3459888E0,0E0,3.7558502E-1,0E0,0E0,0E0,0E0,0E0,0E0],"parents":[2147483647,0,0,2,2,3,3,5,5,6,6,7,7,8,8,10,10],"right_children":[2,-1,4,6,-1,8,10,12,14,-1,16,-1,-1,-1,-1,-1,-1],"split_conditions":[1.701E-1,-7.0356116E-2,9E0,2.667E-1,1.2568651E-1,8.598E-1,3.025E-1,2.022E-1,2.011E-1,-1.1174366E-1,1.3333E0,1.814181E-2,-3.274689E-2,1.3261526E-4,1.0719392E-1,-3.6833182E-2,4.754285E-3],"split_indices":[5,0,2,4,0,5,4,4,4,0,0,0,0,0,0,0,0],"split_type":[0,0,0,0,0,0,0,0,0,0,0,0,0,0,0,0,0],"sum_hessian":[7.3E1,5E0,6.8E1,6.5E1,3E0,2.1E1,4.4E1,8E0,1.3E1,4E0,4E1,3E0,5E0,7E0,6E0,7E0,3.3E1],"tree_param":{"num_deleted":"0","num_feature":"6","num_nodes":"17","size_leaf_vector":"1"}},{"base_weights":[2.8225267E-2,-9.400862E-2,6.874003E-2,1.1609949E-1,-3.7408072E-1,8.0243185E-2,1.0941532E-1,-1.1800542E-1,5.007038E-3,3.336324E-2,1.7467892E-1,2.9189382E-2,-1.3030242E-2,4.8159443E-2,-2.8802657E-3],"categories":[],"categories_nodes":[],"categories_segments":[],"categories_sizes":[],"default_left":[0,0,0,0,0,0,0,0,0,0,0,0,0,0,0],"id":30,"left_children":[1,-1,3,5,7,9,-1,-1,-1,11,13,-1,-1,-1,-1],"loss_changes":[1.7549006E0,0E0,1.511453E0,1.1373472E0,8.933141E-1,2.642278E-1,0E0,0E0,0E0,6.333481E-1,4.039451E-1,0E0,0E0,0E0,0E0],"parents":[2147483647,0,0,2,2,3,3,4,4,5,5,9,9,10,10],"right_children":[2,-1,4,6,8,10,-1,-1,-1,12,14,-1,-1,-1,-1],"split_conditions":[1.701E-1,-9.400862E-2,2.1E1,9E0,1.6667E0,5E0,1.0941532E-1,-1.1800542E-1,5.007038E-3,1.5E0,1E0,2.9189382E-2,-1.3030242E-2,4.8159443E-2,-2.8802657E-3],"split_indices":[5,0,3,2,0,3,0,0,0,0,2,0,0,0,0],"split_type":[0,0,0,0,0,0,0,0,0,0,0,0,0,0,0],"sum_hessian":[7.3E1,4E0,6.9E1,6.3E1,6E0,6E1,3E0,3E0,3E0,4.1E1,1.9E1,1.8E1,2.3E1,1.2E1,7E0],"tree_param":{"num_deleted":"0","num_feature":"6","num_nodes":"15","size_leaf_vector":"1"}},{"base_weights":[-3.18958E-2,4.3456394E-2,-8.1983246E-2,-5.319663E-2,2.009234E-1,1.2086608E-1,-1.3459162E-1,-4.5803744E-2,3.521434E-2,4.0570238E-1,-2.8810121E-2,-3.9016955E-2,3.018313E-1,-1.3648608E-1,-5.344216E-2,1.4071628E-1,-5.007365E-2,5.1120766E-3,1.3366742E-1,-5.621391E-3,9.679543E-2,-8.694718E-2,3.7902355E-2,-5.65395E-3,6.7340404E-2,-6.127079E-3,-7.3422864E-2],"categories":[],"categories_nodes":[],"categories_segments":[],"categories_sizes":[],"default_left":[0,0,0,0,0,0,0,0,0,0,0,0,0,0,0,0,0,0,0,0,0,0,0,0,0,0,0],"id":31,"left_children":[1,3,5,7,9,11,13,-1,15,17,-1,-1,19,-1,21,23,-1,-1,-1,-1,-1,25,-1,-1,-1,-1,-1],"loss_changes":[2.9040176E-1,4.82498E-1,5.0716E-1,3.8449216E-1,9.7160363E-1,6.9600445E-1,1.92777E0,0E0,5.556328E-1,1.086316E0,0E0,0E0,6.2438655E-1,0E0,3.3011347E-1,5.319688E-1,0E0,0E0,0E0,0E0,0E0,5.246695E-1,0E0,0E0,0E0,0E0,0E0],"parents":[2147483647,0,0,1,1,2,2,3,3,4,4,5,5,6,6,8,8,9,9,12,12,14,14,15,15,21,21],"right_children":[2,4,6,8,10,12,14,-1,16,18,-1,-1,20,-1,22,24,-1,-1,-1,-1,-1,26,-1,-1,-1,-1,-1],"split_conditions":[1.5E0,6.102E-1,2.667E-1,0E0,1.1E1,1.7E0,3.158E-1,-4.5803744E-2,4E0,1.3333E0,-2.8810121E-2,-3.9016955E-2,3E0,-1.3648608E-1,4.7111E0,2.202E-1,-5.007365E-2,5.1120766E-3,1.3366742E-1,-5.621391E-3,9.679543E-2,2.3077E0,3.7902355E-2,-5.65395E-3,6.7340404E-2,-6.127079E-3,-7.3422864E-2],"split_indices":[0,4,4,2,1,0,4,0,1,0,0,0,1,0,4,4,0,0,0,0,0,4,0,0,0,0,0],"split_type":[0,0,0,0,0,0,0,0,0,0,0,0,0,0,0,0,0,0,0,0,0,0,0,0,0,0,0],"sum_hessian":[7.5E1,3E1,4.5E1,1.9E1,1.1E1,9E0,3.6E1,5E0,1.4E1,7E0,4E0,3E0,6E0,3E0,3.3E1,1.1E1,3E0,4E0,3E0,3E0,3E0,3E1,3E0,7E0,4E0,2.7E1,3E0],"tree_param":{"num_deleted":"0","num_feature":"6","num_nodes":"27","size_leaf_vector":"1"}},{"base_weights":[-7.87861E-4,-6.0728356E-2,3.1627387E-2,-1.4356326E-2,1.2712261E-1,-4.08737E-2,1.6974515E-1,7.6996293E-3,-1.14287324E-1,5.590434E-2,2.15638E-3,2.96068E-2,-1.2061262E-2],"categories":[],"categories_nodes":[],"categories_segments":[],"categories_sizes":[],"default_left":[0,0,0,0,0,0,0,0,0,0,0,0,0],"id":32,"left_children":[1,-1,3,5,-1,7,9,11,-1,-1,-1,-1,-1],"loss_changes":[8.076467E-1,0E0,2.1173005E0,3.096151E-1,0E0,1.6647474E0,1.8985158E-1,6.728323E-1,0E0,0E0,0E0,0E0,0E0],"parents":[2147483647,0,0,2,2,3,3,5,5,6,6,7,7],"right_children":[2,-1,4,6,-1,8,10,12,-1,-1,-1,-1,-1],"split_conditions":[1.701E-1,-6.0728356E-2,7E0,4E0,1.2712261E-1,2E0,4.8E-1,2.667E-1,-1.14287324E-1,5.590434E-2,2.15638E-3,2.96068E-2,-1.2061262E-2],"split_indices":[5,0,2,2,0,2,4,4,0,0,0,0,0],"split_type":[0,0,0,0,0,0,0,0,0,0,0,0,0],"sum_hessian":[6.9E1,5E0,6.4E1,6.1E1,3E0,5.4E1,7E0,5.1E1,3E0,3E0,4E0,1.6E1,3.5E1],"tree_param":{"num_deleted":"0","num_feature":"6","num_nodes":"13","size_leaf_vector":"1"}},{"base_weights":[1.5052579E-2,1.0362214E-1,-1.8132307E-2,-5.673032E-2,5.981923E-2,-6.1833602E-3,-8.4613554E-2,-4.5867268E-2,8.123105E-2,-2.1127428E-1,3.8327742E-2,1.6975272E-1,-2.0375998E-1,-4.9362887E-2,-1.8858971E-2,4.2538118E-2,9.72541E-4,-1.5507551E-2,6.824974E-2,-4.9980808E-2,-1.2031554E-2],"categories":[],"categories_nodes":[],"categories_segments":[],"categories_sizes":[],"default_left":[0,0,0,0,0,0,0,0,0,0,0,0,0,0,0,0,0,0,0,0,0],"id":33,"left_children":[1,-1,3,5,7,9,-1,11,-1,13,15,17,19,-1,-1,-1,-1,-1,-1,-1,-1],"loss_changes":[1.4481186E0,0E0,2.1701653E-1,1.0486704E0,1.0635241E0,4.097659E-1,0E0,7.1548533E-1,0E0,2.9723018E-2,2.5035483E-1,5.6270254E-1,1.1783737E-1,0E0,0E0,0E0,0E0,0E0,0E0,0E0,0E0],"parents":[2147483647,0,0,2,2,3,3,4,4,5,5,7,7,9,9,10,10,11,11,12,12],"right_children":[2,-1,4,6,8,10,-1,12,-1,14,16,18,20,-1,-1,-1,-1,-1,-1,-1,-1],"split_conditions":[1.455E-1,1.0362214E-1,2.7722E0,1.2426E0,5.8333E0,0E0,-8.4613554E-2,1.5E0,8.123105E-2,2.368E-1,1.701E-1,8.257E-1,3.25E0,-4.9362887E-2,-1.8858971E-2,4.2538118E-2,9.72541E-4,-1.5507551E-2,6.824974E-2,-4.9980808E-2,-1.2031554E-2],"split_indices":[4,0,5,4,0,2,0,0,0,4,5,4,0,0,0,0,0,0,0,0,0],"split_type":[0,0,0,0,0,0,0,0,0,0,0,0,0,0,0,0,0,0,0,0,0],"sum_hessian":[7.3E1,3E0,7E1,4.7E1,2.3E1,4.3E1,4E0,1.9E1,4E0,7E0,3.6E1,8E0,1.1E1,3E0,4E0,4E0,3.2E1,4E0,4E0,6E0,5E0],"tree_param":{"num_deleted":"0","num_feature":"6","num_nodes":"21","size_leaf_vector":"1"}},{"base_weights":[-6.053358E-2,-1.9346409E-2,-1.1357763E-1,2.3131752E-2,-8.710319E-2,7.014364E-2,-4.4130977E-2,1.0382877E-1,-4.6156395E-2,-2.3141302E-1,8.3175436E-2,8.147683E-3,6.004433E-2,3.554734E-3,-7.1523145E-2,-1.1884954E-2,3.213689E-2],"categories":[],"categories_nodes":[],"categories_segments":[],"categories_sizes":[],"default_left":[0,0,0,0,0,0,0,0,0,0,0,0,0,0,0,0,0],"id":34,"left_children":[1,3,-1,5,-1,7,9,11,-1,13,15,-1,-1,-1,-1,-1,-1],"loss_changes":[1.9066807E0,1.5370768E0,0E0,2.2128372E-1,0E0,4.9394345E-1,7.1067184E-1,5.0868356E-1,0E0,5.617799E-1,2.9469645E-1,0E0,0E0,0E0,0E0,0E0,0E0],"parents":[2147483647,0,0,1,1,3,3,5,5,6,6,7,7,9,9,10,10],"right_children":[2,4,-1,6,-1,8,10,12,-1,14,16,-1,-1,-1,-1,-1,-1],"split_conditions":[6.8E0,2.1E1,-1.1357763E-1,1E0,-8.710319E-2,1.4E0,1E0,8.257E-1,-4.6156395E-2,1.4286E0,2.6667E0,8.147683E-3,6.004433E-2,3.554734E-3,-7.1523145E-2,-1.1884954E-2,3.213689E-2],"split_indices":[0,3,0,2,0,4,3,4,0,0,0,0,0,0,0,0,0],"split_type":[0,0,0,0,0,0,0,0,0,0,0,0,0,0,0,0,0],"sum_hessian":[7.7E1,7.3E1,4E0,6.8E1,5E0,4E1,2.8E1,3.7E1,3E0,1.1E1,1.7E1,3.1E1,6E0,5E0,6E0,7E0,1E1],"tree_param":{"num_deleted":"0","num_feature":"6","num_nodes":"17","size_leaf_vector":"1"}},{"base_weights":[-1.5148763E-2,8.339142E-2,-5.9543494E-2,-1.8645061E-2,-9.717233E-2,-6.745302E-2,1.07122235E-1,-3.6059868E-1,-5.591018E-3,7.6848805E-2,-2.1276202E-2,-3.3409096E-2,-7.2862096E-2,-1.6651584E-2,1.3273442E-2,-1.3970825E-2,1.2387047E-2],"categories":[],"categories_nodes":[],"categories_segments":[],"categories_sizes":[],"default_left":[0,0,0,0,0,0,0,0,0,0,0,0,0,0,0,0,0],"id":35,"left_children":[1,-1,3,5,-1,7,9,11,13,-1,15,-1,-1,-1,-1,-1,-1],"loss_changes":[1.6214342E0,0E0,1.3689497E0,3.9394775E-1,0E0,8.3217454E-1,7.908593E-1,5.104542E-4,2.997782E-1,0E0,8.352068E-2,0E0,0E0,0E0,0E0,0E0,0E0],"parents":[2147483647,0,0,2,2,3,3,5,5,6,6,7,7,8,8,10,10],"right_children":[2,-1,4,6,-1,8,10,12,14,-1,16,-1,-1,-1,-1,-1,-1],"split_conditions":[1.714E-1,8.339142E-2,9E0,8E0,-9.717233E-2,0E0,0E0,3.92E-1,2.857E-1,7.6848805E-2,1E0,-3.3409096E-2,-7.2862096E-2,-1.6651584E-2,1.3273442E-2,-1.3970825E-2,1.2387047E-2],"split_indices":[4,0,2,1,0,2,2,4,4,0,2,0,0,0,0,0,0],"split_type":[0,0,0,0,0,0,0,0,0,0,0,0,0,0,0,0,0],"sum_hessian":[7.1E1,5E0,6.6E1,6.2E1,4E0,4.5E1,1.7E1,7E0,3.8E1,4E0,1.3E1,3E0,4E0,1.8E1,2E1,8E0,5E0],"tree_param":{"num_deleted":"0","num_feature":"6","num_nodes":"17","size_leaf_vector":"1"}},{"base_weights":[4.900091E-2,-7.032192E-2,1.1537901E-1,2.774902E-3,-8.1653394E-2,-1.0490801E-1,1.8760945E-1,1.6671689E-1,-1.9122697E-1,4.1915506E-2,-2.4780266E-1,1.2712178E-1,1.0781438E-1,-7.3126643E-3,3.0268866E-1,-3.3168912E-2,-7.932111E-2,-1.1190126E-2,-6.580218E-2,4.1198573E-1,4.5538347E-2,8.445111E-3,7.683982E-2,-2.549933E-2,1.1238947E-2,1.2169738E-2,1.1227859E-1,2.9754372E-2,-2.016204E-2],"categories":[],"categories_nodes":[],"categories_segments":[],"categories_sizes":[],"default_left":[0,0,0,0,0,0,0,0,0,0,0,0,0,0,0,0,0,0,0,0,0,0,0,0,0,0,0,0,0],"id":36,"left_children":[1,3,5,7,-1,9,11,13,15,-1,17,19,-1,-1,21,23,-1,-1,-1,25,27,-1,-1,-1,-1,-1,-1,-1,-1],"loss_changes":[5.704637E-1,7.6670074E-1,7.516074E-1,7.6339704E-1,0E0,6.5645653E-1,8.4575534E-1,3.824033E-1,4.512508E-1,0E0,1.9498748E-1,7.2492456E-1,0E0,0E0,2.6745456E-1,9.96891E-2,0E0,0E0,0E0,5.242089E-1,5.555195E-1,0E0,0E0,0E0,0E0,0E0,0E0,0E0,0E0],"parents":[2147483647,0,0,1,1,2,2,3,3,5,5,6,6,7,7,8,8,10,10,11,11,14,14,15,15,19,19,20,20],"right_children":[2,4,6,8,-1,10,12,14,16,-1,18,20,-1,-1,22,24,-1,-1,-1,26,28,-1,-1,-1,-1,-1,-1,-1,-1],"split_conditions":[2.857E-1,2.521E-1,2.814E-1,9.875E-1,-8.1653394E-2,4.918E-1,2.3077E0,1.6667E0,2E-1,4.1915506E-2,1.3333E0,1.5E0,1.0781438E-1,-7.3126643E-3,4.604E-1,1.1667E0,-7.932111E-2,-1.1190126E-2,-6.580218E-2,1.25E0,4.292E0,8.445111E-3,7.683982E-2,-2.549933E-2,1.1238947E-2,1.2169738E-2,1.1227859E-1,2.9754372E-2,-2.016204E-2],"split_indices":[4,4,5,5,0,4,4,0,4,0,0,0,0,0,5,0,0,0,0,0,5,0,0,0,0,0,0,0,0],"split_type":[0,0,0,0,0,0,0,0,0,0,0,0,0,0,0,0,0,0,0,0,0,0,0,0,0,0,0,0,0],"sum_hessian":[7E1,2.5E1,4.5E1,2.2E1,3E0,1.1E1,3.4E1,1.2E1,1E1,3E0,8E0,3.1E1,3E0,5E0,7E0,7E0,3E0,4E0,4E0,6E0,2.5E1,3E0,4E0,3E0,4E0,3E0,3E0,1.4E1,1.1E1],"tree_param":{"num_deleted":"0","num_feature":"6","num_nodes":"29","size_leaf_vector":"1"}},{"base_weights":[6.845359E-2,4.0144227E-2,9.071096E-2,7.4221805E-2,-1.877137E-1,4.324951E-2,8.445493E-2,-7.270599E-2,-1.3156154E-4,-2.6965104E-2,1.3139424E-1,-1.9842917E-2,1.9070389E-2,5.968309E-2,1.7561765E-3],"categories":[],"categories_nodes":[],"categories_segments":[],"categories_sizes":[],"default_left":[0,0,0,0,0,0,0,0,0,0,0,0,0,0,0],"id":37,"left_children":[1,3,-1,5,7,9,-1,-1,-1,11,13,-1,-1,-1,-1],"loss_changes":[8.8465536E-1,5.341771E-1,0E0,7.3729926E-1,3.9255562E-1,3.5012972E-1,0E0,0E0,0E0,3.997169E-1,6.461364E-1,0E0,0E0,0E0,0E0],"parents":[2147483647,0,0,1,1,3,3,4,4,5,5,9,9,10,10],"right_children":[2,4,-1,6,8,10,-1,-1,-1,12,14,-1,-1,-1,-1],"split_conditions":[5.8333E0,1.2E0,9.071096E-2,8.333E-1,1E0,1.75E0,8.445493E-2,-7.270599E-2,-1.3156154E-4,3.025E-1,3E-1,-1.9842917E-2,1.9070389E-2,5.968309E-2,1.7561765E-3],"split_indices":[0,4,0,4,3,0,0,0,0,4,4,0,0,0,0],"split_type":[0,0,0,0,0,0,0,0,0,0,0,0,0,0,0],"sum_hessian":[6.9E1,6.6E1,3E0,5.8E1,8E0,5.5E1,3E0,3E0,5E0,3.1E1,2.4E1,1.9E1,1.2E1,8E0,1.6E1],"tree_param":{"num_deleted":"0","num_feature":"6","num_nodes":"15","size_leaf_vector":"1"}},{"base_weights":[-6.9695357E-3,-5.926099E-2,1.0207547E-1,-1.5856875E-2,-9.944926E-2,1.3646551E-2,9.716553E-2,-8.479167E-2,7.259908E-2,6.997332E-2,-4.4415828E-2,3.8200866E-2,-1.3037653E-1,-1.7640382E-2,1.1588685E-1,-3.787392E-2,8.352118E-2,-3.7448145E-2,-3.194759E-3,2.5613677E-2,-2.5362825E-2,3.0990075E-2,-1.6417106E-3,1.0494054E-2,-1.7805777E-2],"categories":[],"categories_nodes":[],"categories_segments":[],"categories_sizes":[],"default_left":[0,0,0,0,0,0,0,0,0,0,0,0,0,0,0,0,0,0,0,0,0,0,0,0,0],"id":38,"left_children":[1,3,5,7,-1,9,-1,11,13,15,-1,-1,17,19,21,23,-1,-1,-1,-1,-1,-1,-1,-1,-1],"loss_changes":[4.394104E-1,1.1574813E0,1.0111082E0,3.0494276E-1,0E0,3.537807E-1,0E0,4.1955692E-1,8.798214E-2,8.6643857E-1,0E0,0E0,2.3810732E-1,1.9353946E-1,1.21431306E-1,1.09332465E-1,0E0,0E0,0E0,0E0,0E0,0E0,0E0,0E0,0E0],"parents":[2147483647,0,0,1,1,2,2,3,3,5,5,7,7,8,8,9,9,12,12,13,13,14,14,15,15],"right_children":[2,4,6,8,-1,10,-1,12,14,16,-1,-1,18,20,22,24,-1,-1,-1,-1,-1,-1,-1,-1,-1],"split_conditions":[7E0,5E0,2.8E1,1E0,-9.944926E-2,1.6E1,9.716553E-2,2.093E-1,3E0,8E0,-4.4415828E-2,3.8200866E-2,9.214E-1,1.7E0,2.1457E0,4E0,8.352118E-2,-3.7448145E-2,-3.194759E-3,2.5613677E-2,-2.5362825E-2,3.0990075E-2,-1.6417106E-3,1.0494054E-2,-1.7805777E-2],"split_indices":[5,0,1,2,0,1,0,5,1,1,0,0,5,0,5,1,0,0,0,0,0,0,0,0,0],"split_type":[0,0,0,0,0,0,0,0,0,0,0,0,0,0,0,0,0,0,0,0,0,0,0,0,0],"sum_hessian":[7.5E1,5.1E1,2.4E1,4.8E1,3E0,2.1E1,3E0,2.7E1,2.1E1,1.8E1,3E0,3E0,2.4E1,7E0,1.4E1,1.5E1,3E0,1.3E1,1.1E1,3E0,4E0,9E0,5E0,6E0,9E0],"tree_param":{"num_deleted":"0","num_feature":"6","num_nodes":"25","size_leaf_vector":"1"}},{"base_weights":[-3.1943906E-2,-1.1155598E-1,-9.6576975E-4,-2.2318771E-2,-8.375688E-2,8.401534E-2,-6.0165763E-2,-1.1940488E-1,5.99537E-2,1.8464074E-1,-9.30287E-2,-2.2447763E-1,1.3931441E-3,1.6203655E-2,-1.8054736E-1,8.5599E-2,6.549876E-2,-4.7738506E-3,-2.0904122E-2,7.2805746E-3,-6.2974736E-2,5.435178E-2,-5.5667765E-2,-4.371023E-2,-1.9427836E-2,-4.6666632E-3,3.4600623E-2,-1.633918E-2,2.4762273E-2],"categories":[],"categories_nodes":[],"categories_segments":[],"categories_sizes":[],"default_left":[0,0,0,0,0,0,0,0,0,0,0,0,0,0,0,0,0,0,0,0,0,0,0,0,0,0,0,0,0],"id":39,"left_children":[1,3,5,7,-1,9,11,13,-1,15,17,19,21,-1,23,-1,25,-1,-1,-1,-1,-1,27,-1,-1,-1,-1,-1,-1],"loss_changes":[1.8485977E-1,6.8943655E-1,2.817533E-1,6.874598E-1,0E0,4.2692488E-1,3.3410305E-1,2.1255437E-1,0E0,5.237911E-1,1.3169438E-2,3.5223547E-1,4.647246E-1,0E0,3.0802399E-2,0E0,1.5527569E-1,0E0,0E0,0E0,0E0,0E0,1.8438959E-1,0E0,0E0,0E0,0E0,0E0,0E0],"parents":[2147483647,0,0,1,1,2,2,3,3,5,5,6,6,7,7,9,9,10,10,11,11,12,12,14,14,16,16,22,22],"right_children":[2,4,6,8,-1,10,12,14,-1,16,18,20,22,-1,24,-1,26,-1,-1,-1,-1,-1,28,-1,-1,-1,-1,-1,-1],"split_conditions":[2.857E-1,2.485E-1,6.857E-1,2.286E-1,-8.375688E-2,5E0,1.4286E0,2E0,5.99537E-2,1.4286E0,7E0,1.1667E0,2.0909E0,1.6203655E-2,1.778E-1,8.5599E-2,1.6667E0,-4.7738506E-3,-2.0904122E-2,7.2805746E-3,-6.2974736E-2,5.435178E-2,4.7111E0,-4.371023E-2,-1.9427836E-2,-4.6666632E-3,3.4600623E-2,-1.633918E-2,2.4762273E-2],"split_indices":[4,4,4,4,0,1,0,1,0,0,1,0,0,0,4,0,0,0,0,0,0,0,4,0,0,0,0,0,0],"split_type":[0,0,0,0,0,0,0,0,0,0,0,0,0,0,0,0,0,0,0,0,0,0,0,0,0,0,0,0,0],"sum_hessian":[7.4E1,2E1,5.4E1,1.7E1,3E0,2.2E1,3.2E1,1.4E1,3E0,1.4E1,8E0,8E0,2.4E1,3E0,1.1E1,3E0,1.1E1,3E0,5E0,3E0,5E0,3E0,2.1E1,4E0,7E0,7E0,4E0,1.8E1,3E0],"tree_param":{"num_deleted":"0","num_feature":"6","num_nodes":"29","size_leaf_vector":"1"}},{"base_weights":[-6.478654E-2,-2.9349744E-2,-9.7028024E-2,5.1639248E-2,-6.601769E-2,-1.3343234E-2,4.9754273E-2,-7.076909E-2,-2.719407E-2,3.4962792E-2,-2.137503E-2,-1.0921643E-1,1.6017279E-2,-1.1475078E-2,3.9848067E-2,9.927098E-3,-4.233871E-2,4.316687E-2,-8.658419E-3],"categories":[],"categories_nodes":[],"categories_segments":[],"categories_sizes":[],"default_left":[0,0,0,0,0,0,0,0,0,0,0,0,0,0,0,0,0,0,0],"id":40,"left_children":[1,3,-1,5,7,9,-1,-1,11,13,-1,15,17,-1,-1,-1,-1,-1,-1],"loss_changes":[1.322916E0,2.1722747E-1,0E0,3.5747612E-1,6.565658E-1,1.0573905E-1,0E0,0E0,1.6478701E-1,2.935505E-1,0E0,3.7708572E-1,4.927365E-1,0E0,0E0,0E0,0E0,0E0,0E0],"parents":[2147483647,0,0,1,1,3,3,4,4,5,5,8,8,9,9,11,11,12,12],"right_children":[2,4,-1,6,8,10,-1,-1,12,14,-1,16,18,-1,-1,-1,-1,-1,-1],"split_conditions":[6.8E0,2.667E-1,-9.7028024E-2,2.4E-1,3.025E-1,2.158E-1,4.9754273E-2,-7.076909E-2,1.4286E0,1.6667E0,-2.137503E-2,1.1667E0,1.6667E0,-1.1475078E-2,3.9848067E-2,9.927098E-3,-4.233871E-2,4.316687E-2,-8.658419E-3],"split_indices":[0,4,0,4,4,4,0,0,0,0,0,0,0,0,0,0,0,0,0],"split_type":[0,0,0,0,0,0,0,0,0,0,0,0,0,0,0,0,0,0,0],"sum_hessian":[7.5E1,7.1E1,4E0,2.2E1,4.9E1,1.8E1,4E0,4E0,4.5E1,1.3E1,5E0,1.5E1,3E1,9E0,4E0,7E0,8E0,6E0,2.4E1],"tree_param":{"num_deleted":"0","num_feature":"6","num_nodes":"19","size_leaf_vector":"1"}},{"base_weights":[1.642868E-2,4.4206772E-2,-8.0583625E-2,1.939928E-2,2.6115894E-1,6.359798E-2,-7.8807816E-2,9.647444E-2,-1.7586276E-2,3.2538123E-2,1.8077095E-1,-1.3749702E-1,-1.8289654E-2,2.0551456E-2,-1.77702E-3,5.6170188E-2,-4.6339073E-6,-3.6124315E-2,3.8837474E-3,-1.7382057E-2,1.15942275E-2],"categories":[],"categories_nodes":[],"categories_segments":[],"categories_sizes":[],"default_left":[0,0,0,0,0,0,0,0,0,0,0,0,0,0,0,0,0,0,0,0,0],"id":41,"left_children":[1,3,-1,5,7,9,11,-1,-1,13,15,17,19,-1,-1,-1,-1,-1,-1,-1,-1],"loss_changes":[9.872074E-1,3.6629444E-1,0E0,2.7847147E-1,8.136233E-1,1.5425058E-1,6.852049E-2,0E0,0E0,1.346449E-1,2.3536992E-1,1.1956176E-1,8.423466E-2,0E0,0E0,0E0,0E0,0E0,0E0,0E0,0E0],"parents":[2147483647,0,0,1,1,3,3,4,4,5,5,6,6,9,9,10,10,11,11,12,12],"right_children":[2,4,-1,6,8,10,12,-1,-1,14,16,18,20,-1,-1,-1,-1,-1,-1,-1,-1],"split_conditions":[6.8E0,2.1E1,-8.0583625E-2,8E0,3E0,9E0,5E0,9.647444E-2,-1.7586276E-2,9.875E-1,1.6E1,9.214E-1,1.1667E0,2.0551456E-2,-1.77702E-3,5.6170188E-2,-4.6339073E-6,-3.6124315E-2,3.8837474E-3,-1.7382057E-2,1.15942275E-2],"split_indices":[0,3,0,3,1,1,1,0,0,5,1,5,0,0,0,0,0,0,0,0,0],"split_type":[0,0,0,0,0,0,0,0,0,0,0,0,0,0,0,0,0,0,0,0,0],"sum_hessian":[7.1E1,6.8E1,3E0,6.2E1,6E0,4.3E1,1.9E1,3E0,3E0,3.5E1,8E0,9E0,1E1,1.1E1,2.4E1,4E0,4E0,6E0,3E0,5E0,5E0],"tree_param":{"num_deleted":"0","num_feature":"6","num_nodes":"21","size_leaf_vector":"1"}},{"base_weights":[-2.9054573E-2,-4.4183493E-2,4.4549927E-2,-1.9371254E-2,-1.707658E-1,-2.5357755E-3,-3.6965653E-2,1.846092E-2,-6.266982E-2,-3.7963733E-2,1.2574497E-1,-4.4062234E-2,4.963872E-2,-1.34835495E-2,1.4784871E-2,5.7954405E-2,5.03472E-3],"categories":[],"categories_nodes":[],"categories_segments":[],"categories_sizes":[],"default_left":[0,0,0,0,0,0,0,0,0,0,0,0,0,0,0,0,0],"id":42,"left_children":[1,3,-1,5,7,9,-1,11,-1,13,15,-1,-1,-1,-1,-1,-1],"loss_changes":[3.459108E-1,2.2911052E-1,0E0,2.0605212E-1,4.4337016E-1,2.729125E-1,0E0,5.8906126E-1,0E0,2.3997241E-1,2.538698E-1,0E0,0E0,0E0,0E0,0E0,0E0],"parents":[2147483647,0,0,1,1,3,3,4,4,5,5,7,7,9,9,10,10],"right_children":[2,4,-1,6,8,10,-1,12,-1,14,16,-1,-1,-1,-1,-1,-1],"split_conditions":[4.7111E0,1.7E1,4.4549927E-2,1.7561E0,2.485E-1,8.333E-1,-3.6965653E-2,1.6667E0,-6.266982E-2,2.6667E0,9.677E-1,-4.4062234E-2,4.963872E-2,-1.34835495E-2,1.4784871E-2,5.7954405E-2,5.03472E-3],"split_indices":[4,3,0,4,4,4,0,0,0,0,4,0,0,0,0,0,0],"split_type":[0,0,0,0,0,0,0,0,0,0,0,0,0,0,0,0,0],"sum_hessian":[7.6E1,7.3E1,3E0,6.2E1,1.1E1,5.8E1,4E0,6E0,5E0,4.6E1,1.2E1,3E0,3E0,3.5E1,1.1E1,3E0,9E0],"tree_param":{"num_deleted":"0","num_feature":"6","num_nodes":"17","size_leaf_vector":"1"}},{"base_weights":[3.1308625E-2,-2.1330053E-1,8.559501E-2,-1.2772712E-2,-4.2754386E-2,-5.1702037E-2,2.4514726E-1,-2.1902528E-3,-6.865384E-2,1.6616873E-1,8.524873E-2,-4.9741536E-2,3.251648E-2,8.786254E-2,8.571541E-2,-1.4886055E-2,1.833169E-2,3.7626546E-2,-1.3970774E-2],"categories":[],"categories_nodes":[],"categories_segments":[],"categories_sizes":[],"default_left":[0,0,0,0,0,0,0,0,0,0,0,0,0,0,0,0,0,0,0],"id":43,"left_children":[1,3,5,-1,-1,7,9,11,-1,13,-1,15,-1,17,-1,-1,-1,-1,-1],"loss_changes":[9.4778377E-1,4.3952405E-2,1.2832255E0,0E0,0E0,5.473787E-1,4.4833016E-1,2.7216417E-1,0E0,5.255822E-1,0E0,1.457614E-1,0E0,4.3497106E-1,0E0,0E0,0E0,0E0,0E0],"parents":[2147483647,0,0,1,1,2,2,5,5,6,6,7,7,9,9,11,11,13,13],"right_children":[2,4,6,-1,-1,8,10,12,-1,14,-1,16,-1,18,-1,-1,-1,-1,-1],"split_conditions":[0E0,-1E0,1.0383E0,-1.2772712E-2,-4.2754386E-2,3.25E0,1E1,2.1333E0,-6.865384E-2,5E0,8.524873E-2,1.3333E0,3.251648E-2,1.4286E0,8.571541E-2,-1.4886055E-2,1.833169E-2,3.7626546E-2,-1.3970774E-2],"split_indices":[2,2,5,0,0,0,3,0,0,0,0,2,0,0,0,0,0,0,0],"split_type":[0,0,0,0,0,0,0,0,0,0,0,0,0,0,0,0,0,0,0],"sum_hessian":[6.9E1,1.2E1,5.7E1,3E0,9E0,3.1E1,2.6E1,2.8E1,3E0,2.1E1,5E0,2.3E1,5E0,1.8E1,3E0,1.9E1,4E0,1E1,8E0],"tree_param":{"num_deleted":"0","num_feature":"6","num_nodes":"19","size_leaf_vector":"1"}},{"base_weights":[-8.945043E-3,1.2656141E-2,-5.567285E-2,5.2338567E-2,-6.5627664E-2,2.1335185E-2,1.877608E-1,4.041253E-2,-2.287292E-1,8.1490315E-2,-1.1449819E-1,7.573603E-2,-1.876273E-3,-1.378353E-1,2.8927904E-1,-6.289782E-2,-1.1853303E-1,-3.02275E-3,2.630669E-2,-3.34956E-2,1.9507084E-2,-4.9838837E-2,-5.509106E-3,7.3456034E-2,1.3926353E-2,-7.6701147E-3,-2.8135102E-2],"categories":[],"categories_nodes":[],"categories_segments":[],"categories_sizes":[],"default_left":[0,0,0,0,0,0,0,0,0,0,0,0,0,0,0,0,0,0,0,0,0,0,0,0,0,0,0],"id":44,"left_children":[1,3,-1,5,7,9,11,13,15,17,19,-1,-1,21,23,-1,25,-1,-1,-1,-1,-1,-1,-1,-1,-1,-1],"loss_changes":[5.256707E-1,2.3020871E-1,0E0,2.0172295E-1,4.4162646E-1,3.4434456E-1,4.534868E-1,7.496316E-1,1.0630095E-1,2.0626764E-1,2.5722182E-1,0E0,0E0,1.5061587E-1,1.6465873E-1,0E0,1.5819691E-2,0E0,0E0,0E0,0E0,0E0,0E0,0E0,0E0,0E0,0E0],"parents":[2147483647,0,0,1,1,3,3,4,4,5,5,6,6,7,7,8,8,9,9,10,10,13,13,14,14,16,16],"right_children":[2,4,-1,6,8,10,12,14,16,18,20,-1,-1,22,24,-1,26,-1,-1,-1,-1,-1,-1,-1,-1,-1,-1],"split_conditions":[5E0,8E0,-5.567285E-2,9E0,2.667E-1,5E0,1.3E1,4E0,4.8E-1,2.697E-1,5E0,7.573603E-2,-1.876273E-3,1.7E1,1.7E1,-6.289782E-2,7E0,-3.02275E-3,2.630669E-2,-3.34956E-2,1.9507084E-2,-4.9838837E-2,-5.509106E-3,7.3456034E-2,1.3926353E-2,-7.6701147E-3,-2.8135102E-2],"split_indices":[0,3,0,1,4,1,1,1,4,4,3,0,0,3,3,0,1,0,0,0,0,0,0,0,0,0,0],"split_type":[0,0,0,0,0,0,0,0,0,0,0,0,0,0,0,0,0,0,0,0,0,0,0,0,0,0,0],"sum_hessian":[7.6E1,7.2E1,4E0,4.8E1,2.4E1,4E1,8E0,1.5E1,9E0,2.8E1,1.2E1,3E0,5E0,9E0,6E0,3E0,6E0,1.2E1,1.6E1,9E0,3E0,3E0,6E0,3E0,3E0,3E0,3E0],"tree_param":{"num_deleted":"0","num_feature":"6","num_nodes":"27","size_leaf_vector":"1"}},{"base_weights":[-3.9146505E-3,-4.510493E-2,1.5069006E-2,-1.939002E-2,9.860601E-2,-7.965952E-2,1.3298088E-2,-1.7596562E-1,7.957907E-3,2.9201046E-2,-1.1663597E-2,-1.6501712E-2,-3.5943054E-2,1.0795332E-2,-2.2524051E-2,1.0947769E-2,-1.4225588E-2],"categories":[],"categories_nodes":[],"categories_segments":[],"categories_sizes":[],"default_left":[0,0,0,0,0,0,0,0,0,0,0,0,0,0,0,0,0],"id":45,"left_children":[1,-1,3,5,-1,7,9,11,13,-1,15,-1,-1,-1,-1,-1,-1],"loss_changes":[3.5575086E-1,0E0,1.3143533E0,1.2911557E-1,0E0,1.9547644E-1,1.6928123E-1,8.616418E-3,1.064016E-1,0E0,2.0710266E-1,0E0,0E0,0E0,0E0,0E0,0E0],"parents":[2147483647,0,0,2,2,3,3,5,5,6,6,7,7,8,8,10,10],"right_children":[2,-1,4,6,-1,8,10,12,14,-1,16,-1,-1,-1,-1,-1,-1],"split_conditions":[1.701E-1,-4.510493E-2,2.7E1,4E0,9.860601E-2,1E0,0E0,9.875E-1,2E0,2.9201046E-2,5E0,-1.6501712E-2,-3.5943054E-2,1.0795332E-2,-2.2524051E-2,1.0947769E-2,-1.4225588E-2],"split_indices":[5,0,1,1,0,2,2,5,2,0,1,0,0,0,0,0,0],"split_type":[0,0,0,0,0,0,0,0,0,0,0,0,0,0,0,0,0],"sum_hessian":[7.1E1,4E0,6.7E1,6.4E1,3E0,2.2E1,4.2E1,1E1,1.2E1,5E0,3.7E1,4E0,6E0,9E0,3E0,1.8E1,1.9E1],"tree_param":{"num_deleted":"0","num_feature":"6","num_nodes":"17","size_leaf_vector":"1"}},{"base_weights":[-9.953276E-3,-8.2456894E-2,1.7306909E-2,-1.9751778E-3,5.715753E-2,9.098783E-2,-4.7379866E-2,-2.47019E-2,1.3548216E-1,-5.7849027E-2,-1.1131476E-2,3.3856694E-2,-1.27042895E-2,1.4108876E-2,-1.274516E-2],"categories":[],"categories_nodes":[],"categories_segments":[],"categories_sizes":[],"default_left":[0,0,0,0,0,0,0,0,0,0,0,0,0,0,0],"id":46,"left_children":[1,-1,3,5,-1,7,9,-1,11,-1,13,-1,-1,-1,-1],"loss_changes":[9.263358E-1,0E0,4.1819054E-1,2.8289407E-1,0E0,2.4853832E-1,4.6565843E-1,0E0,2.55421E-1,0E0,2.4479721E-1,0E0,0E0,0E0,0E0],"parents":[2147483647,0,0,2,2,3,3,5,5,6,6,8,8,10,10],"right_children":[2,-1,4,6,-1,8,10,-1,12,-1,14,-1,-1,-1,-1],"split_conditions":[1.455E-1,-8.2456894E-2,1E1,2.667E-1,5.715753E-2,0E0,3.025E-1,-2.47019E-2,2E0,-5.7849027E-2,6.857E-1,3.3856694E-2,-1.27042895E-2,1.4108876E-2,-1.274516E-2],"split_indices":[4,0,2,4,0,2,4,0,2,0,4,0,0,0,0],"split_type":[0,0,0,0,0,0,0,0,0,0,0,0,0,0,0],"sum_hessian":[7.1E1,3E0,6.8E1,6.5E1,3E0,2.1E1,4.4E1,3E0,1.8E1,4E0,4E1,1.4E1,4E0,1.6E1,2.4E1],"tree_param":{"num_deleted":"0","num_feature":"6","num_nodes":"15","size_leaf_vector":"1"}},{"base_weights":[5.5876322E-2,3.90481E-2,5.3709477E-2,1.0503119E-1,-4.420843E-2,-1.2110241E-2,1.9934985E-1,4.3757133E-2,-1.1841527E-1,-1.7059768E-2,4.4178225E-2,8.380896E-2,1.1056801E-1,-1.0949956E-2,9.297855E-2,-1.8008226E-1,9.19475E-3,1.8902779E-2,-1.6835004E-2,-2.41156E-2,3.7703395E-2,2.5533032E-2,-4.5599644E-3,-5.176428E-2,-1.7767565E-3],"categories":[],"categories_nodes":[],"categories_segments":[],"categories_sizes":[],"default_left":[0,0,0,0,0,0,0,0,0,0,0,0,0,0,0,0,0,0,0,0,0,0,0,0,0],"id":47,"left_children":[1,3,-1,5,7,9,11,13,15,-1,17,19,-1,-1,21,23,-1,-1,-1,-1,-1,-1,-1,-1,-1],"loss_changes":[2.7567846E-1,3.5622874E-1,0E0,4.001646E-1,1.9448325E-1,8.735212E-2,9.6587425E-1,7.976584E-2,1.7898837E-1,0E0,1.1252145E-1,5.420529E-1,0E0,0E0,6.950837E-2,2.4101636E-1,0E0,0E0,0E0,0E0,0E0,0E0,0E0,0E0,0E0],"parents":[2147483647,0,0,1,1,3,3,4,4,5,5,6,6,7,7,8,8,10,10,11,11,14,14,15,15],"right_children":[2,4,-1,6,8,10,12,14,16,-1,18,20,-1,-1,22,24,-1,-1,-1,-1,-1,-1,-1,-1,-1],"split_conditions":[3E1,1.8571E0,5.3709477E-2,1.3333E0,6.667E-1,2.202E-1,6.102E-1,3E0,1.2426E0,-1.7059768E-2,1.1667E0,0E0,1.1056801E-1,-1.0949956E-2,3.25E0,4E0,9.19475E-3,1.8902779E-2,-1.6835004E-2,-2.41156E-2,3.7703395E-2,2.5533032E-2,-4.5599644E-3,-5.176428E-2,-1.7767565E-3],"split_indices":[1,0,0,0,4,4,4,1,4,0,0,2,0,0,0,2,0,0,0,0,0,0,0,0,0],"split_type":[0,0,0,0,0,0,0,0,0,0,0,0,0,0,0,0,0,0,0,0,0,0,0,0,0],"sum_hessian":[6.6E1,6.3E1,3E0,3.5E1,2.8E1,1.6E1,1.9E1,1.3E1,1.5E1,6E0,1E1,1.6E1,3E0,4E0,9E0,1.1E1,4E0,7E0,3E0,6E0,1E1,6E0,3E0,6E0,5E0],"tree_param":{"num_deleted":"0","num_feature":"6","num_nodes":"25","size_leaf_vector":"1"}},{"base_weights":[-6.1432417E-2,-2.841163E-2,-7.43838E-2,-1.2694468E-1,3.7293788E-3,3.8541652E-2,-3.6885968E-1,9.9653505E-2,-2.089608E-2,-2.8129706E-2,2.1433685E-2,-1.758415E-2,-9.383712E-2,4.360038E-2,3.225177E-2,-1.2846968E-1,3.0001465E-2,2.0413373E-2,-2.89105E-2,-1.8521916E-2,2.6858993E-2,-4.967771E-2,1.2423928E-2,1.8479396E-2,-3.4944797E-3],"categories":[],"categories_nodes":[],"categories_segments":[],"categories_sizes":[],"default_left":[0,0,0,0,0,0,0,0,0,0,0,0,0,0,0,0,0,0,0,0,0,0,0,0,0],"id":48,"left_children":[1,3,-1,5,7,9,11,13,15,17,-1,-1,-1,19,-1,21,23,-1,-1,-1,-1,-1,-1,-1,-1],"loss_changes":[8.9064467E-1,2.1899308E-1,0E0,6.947881E-1,1.2727767E-1,6.6293865E-2,2.712562E-1,4.5615196E-2,2.3928925E-1,1.6261531E-1,0E0,0E0,0E0,1.5191194E-1,0E0,4.6783835E-1,1.1832139E-1,0E0,0E0,0E0,0E0,0E0,0E0,0E0,0E0],"parents":[2147483647,0,0,1,1,3,3,4,4,5,5,6,6,7,7,8,8,9,9,13,13,15,15,16,16],"right_children":[2,4,-1,6,8,10,12,14,16,18,-1,-1,-1,20,-1,22,24,-1,-1,-1,-1,-1,-1,-1,-1],"split_conditions":[2.1E1,2.857E-1,-7.43838E-2,2.202E-1,4.8E-1,2.011E-1,4E0,1.3333E0,6E0,1E0,2.1433685E-2,-1.758415E-2,-9.383712E-2,3.913E-1,3.225177E-2,1E0,1.1E1,2.0413373E-2,-2.89105E-2,-1.8521916E-2,2.6858993E-2,-4.967771E-2,1.2423928E-2,1.8479396E-2,-3.4944797E-3],"split_indices":[3,4,0,4,4,4,3,2,1,2,0,0,0,4,0,2,1,0,0,0,0,0,0,0,0],"split_type":[0,0,0,0,0,0,0,0,0,0,0,0,0,0,0,0,0,0,0,0,0,0,0,0,0],"sum_hessian":[7.3E1,6.8E1,5E0,1.6E1,5.2E1,1E1,6E0,1E1,4.2E1,6E0,4E0,3E0,3E0,7E0,3E0,1.3E1,2.9E1,3E0,3E0,3E0,4E0,7E0,6E0,1.1E1,1.8E1],"tree_param":{"num_deleted":"0","num_feature":"6","num_nodes":"25","size_leaf_vector":"1"}},{"base_weights":[2.5118433E-2,2.961984E-1,-1.5716165E-2,6.1142268E-3,9.491722E-2,-2.7145794E-2,2.9531512E-2,4.19454E-2,-1.3660587E-1,9.081866E-2,-1.1375624E-1,2.5677148E-2,-2.1448478E-1,2.605837E-2,-2.933474E-3,-4.994667E-2,4.9010245E-4,-3.479431E-3,1.1457323E-2,-5.9576105E-2,-1.0355219E-2],"categories":[],"categories_nodes":[],"categories_segments":[],"categories_sizes":[],"default_left":[0,0,0,0,0,0,0,0,0,0,0,0,0,0,0,0,0,0,0,0,0],"id":49,"left_children":[1,3,5,-1,-1,7,-1,9,11,13,15,17,19,-1,-1,-1,-1,-1,-1,-1,-1],"loss_changes":[8.4593266E-1,6.4209074E-1,1.476953E-1,0E0,0E0,4.897446E-1,0E0,3.1471705E-1,3.2146788E-1,2.0359004E-1,2.0556721E-1,1.8126996E-2,3.2246155E-1,0E0,0E0,0E0,0E0,0E0,0E0,0E0,0E0],"parents":[2147483647,0,0,1,1,2,2,5,5,7,7,8,8,9,9,10,10,11,11,12,12],"right_children":[2,4,6,-1,-1,8,-1,10,12,14,16,18,20,-1,-1,-1,-1,-1,-1,-1,-1],"split_conditions":[3E0,1.7E1,1.04211E1,6.1142268E-3,9.491722E-2,2.1457E0,2.9531512E-2,1.7E1,1.4286E0,7E0,1.8E1,1.3333E0,7E0,2.605837E-2,-2.933474E-3,-4.994667E-2,4.9010245E-4,-3.479431E-3,1.1457323E-2,-5.9576105E-2,-1.0355219E-2],"split_indices":[1,3,0,0,0,5,0,3,0,1,3,0,1,0,0,0,0,0,0,0,0],"split_type":[0,0,0,0,0,0,0,0,0,0,0,0,0,0,0,0,0,0,0,0,0],"sum_hessian":[7.5E1,9E0,6.6E1,5E0,4E0,6.3E1,3E0,3.9E1,2.4E1,3E1,9E0,8E0,1.6E1,1.9E1,1.1E1,3E0,6E0,4E0,4E0,8E0,8E0],"tree_param":{"num_deleted":"0","num_feature":"6","num_nodes":"21","size_leaf_vector":"1"}},{"base_weights":[-1.535075E-4,3.1354155E-2,-7.942438E-2,-2.9064061E-2,7.18358E-2,-3.972276E-2,3.079076E-2,2.189844E-2,1.4985994E-1,1.2470268E-1,-7.351305E-2,-2.4471238E-2,1.4088154E-1,2.3407912E-1,2.5853455E-2,3.460669E-2,-6.326856E-3,-3.99912E-3,-1.653431E-2,-1.7213464E-2,1.903554E-2,5.156217E-2,-1.5817262E-2,1.937234E-2,5.756253E-2,1.2042447E-2,-6.1278692E-3],"categories":[],"categories_nodes":[],"categories_segments":[],"categories_sizes":[],"default_left":[0,0,0,0,0,0,0,0,0,0,0,0,0,0,0,0,0,0,0,0,0,0,0,0,0,0,0],"id":50,"left_children":[1,3,-1,5,7,-1,9,11,13,15,17,19,21,23,25,-1,-1,-1,-1,-1,-1,-1,-1,-1,-1,-1,-1],"loss_changes":[1.130383E0,1.8063334E-1,0E0,3.6812624E-1,1.6815636E-1,0E0,2.4425618E-1,1.5792936E-1,1.7149156E-1,1.6632135E-1,1.1238635E-2,2.2394565E-1,3.209713E-1,8.369225E-2,2.403078E-2,0E0,0E0,0E0,0E0,0E0,0E0,0E0,0E0,0E0,0E0,0E0,0E0],"parents":[2147483647,0,0,1,1,3,3,4,4,6,6,7,7,8,8,9,9,10,10,11,11,12,12,13,13,14,14],"right_children":[2,4,-1,6,8,-1,10,12,14,16,18,20,22,24,26,-1,-1,-1,-1,-1,-1,-1,-1,-1,-1,-1,-1],"split_conditions":[6.8E0,1.4286E0,-7.942438E-2,0E0,7E0,-3.972276E-2,1E0,9E0,1.8E1,1E0,6E0,4E0,1E0,1.3E1,1E0,3.460669E-2,-6.326856E-3,-3.99912E-3,-1.653431E-2,-1.7213464E-2,1.903554E-2,5.156217E-2,-1.5817262E-2,1.937234E-2,5.756253E-2,1.2042447E-2,-6.1278692E-3],"split_indices":[0,0,0,2,3,0,3,1,3,2,3,0,2,3,2,0,0,0,0,0,0,0,0,0,0,0,0],"split_type":[0,0,0,0,0,0,0,0,0,0,0,0,0,0,0,0,0,0,0,0,0,0,0,0,0,0,0],"sum_hessian":[7.6E1,7.2E1,4E0,2.9E1,4.3E1,6E0,2.3E1,2.7E1,1.6E1,1.2E1,1.1E1,2E1,7E0,9E0,7E0,8E0,4E0,4E0,7E0,1.3E1,7E0,4E0,3E0,5E0,4E0,4E0,3E0],"tree_param":{"num_deleted":"0","num_feature":"6","num_nodes":"27","size_leaf_vector":"1"}},{"base_weights":[-1.1252514E-2,-2.7797462E-2,4.7806554E-2,-1.7814822E-3,-1.2987585E-1,1.732849E-2,-2.8294306E-2,-2.6731154E-1,6.614864E-3,4.0847346E-2,-5.4561038E-2,-1.1880397E-2,-6.8866275E-2,-2.3653109E-2,3.1849988E-2,4.1210037E-4,2.626146E-2,-4.0340524E-2,8.807849E-3],"categories":[],"categories_nodes":[],"categories_segments":[],"categories_sizes":[],"default_left":[0,0,0,0,0,0,0,0,0,0,0,0,0,0,0,0,0,0,0],"id":51,"left_children":[1,3,-1,5,7,9,-1,11,13,15,17,-1,-1,-1,-1,-1,-1,-1,-1],"loss_changes":[3.510292E-1,1.8300982E-1,0E0,1.7635366E-1,2.6439E-1,8.8457406E-2,0E0,1.5546155E-1,2.2972625E-1,1.6657205E-1,2.5783008E-1,0E0,0E0,0E0,0E0,0E0,0E0,0E0,0E0],"parents":[2147483647,0,0,1,1,3,3,4,4,5,5,7,7,8,8,9,9,10,10],"right_children":[2,4,-1,6,8,10,-1,12,14,16,18,-1,-1,-1,-1,-1,-1,-1,-1],"split_conditions":[1E1,1E1,4.7806554E-2,2.3E1,1.8E1,1.3333E0,-2.8294306E-2,2.485E-1,4E0,8.257E-1,4E0,-1.1880397E-2,-6.8866275E-2,-2.3653109E-2,3.1849988E-2,4.1210037E-4,2.626146E-2,-4.0340524E-2,8.807849E-3],"split_indices":[2,3,0,1,3,2,0,4,1,4,2,0,0,0,0,0,0,0,0],"split_type":[0,0,0,0,0,0,0,0,0,0,0,0,0,0,0,0,0,0,0],"sum_hessian":[7.1E1,6.8E1,3E0,5.5E1,1.3E1,5E1,5E0,6E0,7E0,3.8E1,1.2E1,3E0,3E0,4E0,3E0,2.9E1,9E0,4E0,8E0],"tree_param":{"num_deleted":"0","num_feature":"6","num_nodes":"19","size_leaf_vector":"1"}},{"base_weights":[-3.281563E-2,1.0816768E-3,-3.089911E-1,-1.9855732E-2,4.983295E-2,-9.684643E-2,3.5096344E-3,3.826142E-2,-1.1577214E-1,1.4130448E-2,3.1108186E-2,7.035326E-3,-1.8110152E-1,-2.3295196E-2,7.1143424E-3,-5.419971E-2,-1.7991235E-2],"categories":[],"categories_nodes":[],"categories_segments":[],"categories_sizes":[],"default_left":[0,0,0,0,0,0,0,0,0,0,0,0,0,0,0,0,0],"id":52,"left_children":[1,3,5,7,-1,-1,-1,9,11,13,-1,-1,15,-1,-1,-1,-1],"loss_changes":[5.9947705E-1,3.5500813E-1,5.9251004E-1,3.11021E-1,0E0,0E0,0E0,1.17350355E-1,2.22128E-1,1.3074456E-1,0E0,0E0,1.20512545E-1,0E0,0E0,0E0,0E0],"parents":[2147483647,0,0,1,1,2,2,3,3,7,7,8,8,9,9,12,12],"right_children":[2,4,6,8,-1,-1,-1,10,12,14,-1,-1,16,-1,-1,-1,-1],"split_conditions":[2.1E1,7E0,1E0,4.292E0,4.983295E-2,-9.684643E-2,3.5096344E-3,1.7E1,4E0,3E0,3.1108186E-2,7.035326E-3,0E0,-2.3295196E-2,7.1143424E-3,-5.419971E-2,-1.7991235E-2],"split_indices":[3,2,2,5,0,0,0,3,1,1,0,0,2,0,0,0,0],"split_type":[0,0,0,0,0,0,0,0,0,0,0,0,0,0,0,0,0],"sum_hessian":[6.3E1,5.7E1,6E0,5.4E1,3E0,3E0,3E0,3.4E1,2E1,3E1,4E0,6E0,1.4E1,4E0,2.6E1,4E0,1E1],"tree_param":{"num_deleted":"0","num_feature":"6","num_nodes":"17","size_leaf_vector":"1"}},{"base_weights":[2.5170436E-2,9.509582E-2,-5.2322648E-3,-4.944637E-2,7.6330975E-2,-2.3836637E-2,-5.3921897E-2,2.5803298E-3,7.98977E-2,3.834575E-2,-1.0440101E-1,-2.7349994E-2,4.7167227E-2,1.9346505E-2,-5.085836E-4,-6.791687E-2,-4.420459E-3,2.507294E-2,-1.6156714E-2],"categories":[],"categories_nodes":[],"categories_segments":[],"categories_sizes":[],"default_left":[0,0,0,0,0,0,0,0,0,0,0,0,0,0,0,0,0,0,0],"id":53,"left_children":[1,-1,3,5,7,9,-1,11,-1,13,15,-1,17,-1,-1,-1,-1,-1,-1],"loss_changes":[1.1697409E0,0E0,2.5621152E-1,3.0231315E-1,7.115057E-1,2.1941978E-1,0E0,1.6542873E-1,0E0,7.6447874E-2,4.2266795E-1,0E0,2.6213974E-1,0E0,0E0,0E0,0E0,0E0,0E0],"parents":[2147483647,0,0,2,2,3,3,4,4,5,5,7,7,9,9,10,10,12,12],"right_children":[2,-1,4,6,8,10,-1,12,-1,14,16,-1,18,-1,-1,-1,-1,-1,-1],"split_conditions":[1.455E-1,9.509582E-2,2.7722E0,2.3E1,1.8113E0,7.379E-1,-5.3921897E-2,3.025E-1,7.98977E-2,2.521E-1,9.214E-1,-2.7349994E-2,9.677E-1,1.9346505E-2,-5.085836E-4,-6.791687E-2,-4.420459E-3,2.507294E-2,-1.6156714E-2],"split_indices":[4,0,5,1,4,5,0,4,0,4,5,0,4,0,0,0,0,0,0],"split_type":[0,0,0,0,0,0,0,0,0,0,0,0,0,0,0,0,0,0,0],"sum_hessian":[7.2E1,3E0,6.9E1,4.5E1,2.4E1,4.2E1,3E0,2.1E1,3E0,2.4E1,1.8E1,4E0,1.7E1,8E0,1.6E1,3E0,1.5E1,1E1,7E0],"tree_param":{"num_deleted":"0","num_feature":"6","num_nodes":"19","size_leaf_vector":"1"}},{"base_weights":[4.679202E-2,-3.971963E-2,1.9025992E-1,-2.4105923E-3,-6.7931615E-2,9.0698875E-2,1.20667726E-1,-2.9591635E-2,2.6239844E-2,5.4888222E-2,6.955426E-2,-1.6856848E-3,-4.1161694E-2,1.8499018E-1,-4.450452E-2,2.8416472E-2,-4.381639E-3,4.835822E-2,-7.308598E-3],"categories":[],"categories_nodes":[],"categories_segments":[],"categories_sizes":[],"default_left":[0,0,0,0,0,0,0,0,0,0,0,0,0,0,0,0,0,0,0],"id":54,"left_children":[1,3,5,7,-1,-1,9,11,-1,13,-1,15,-1,17,-1,-1,-1,-1,-1],"loss_changes":[8.267256E-1,5.535008E-1,5.197636E-1,1.6820112E-1,0E0,0E0,3.8639215E-1,1.9777738E-1,0E0,8.207187E-1,0E0,1.2636258E-1,0E0,3.1474397E-1,0E0,0E0,0E0,0E0,0E0],"parents":[2147483647,0,0,1,1,2,2,3,3,6,6,7,7,9,9,11,11,13,13],"right_children":[2,4,6,8,-1,-1,10,12,-1,14,-1,16,-1,18,-1,-1,-1,-1,-1],"split_conditions":[2.7722E0,5E0,7E0,2.75E0,-6.7931615E-2,9.0698875E-2,1.8113E0,2.0624E0,2.6239844E-2,9.677E-1,6.955426E-2,2.022E-1,-4.1161694E-2,1.6667E0,-4.450452E-2,2.8416472E-2,-4.381639E-3,4.835822E-2,-7.308598E-3],"split_indices":[5,0,5,0,0,0,4,5,0,4,0,4,0,0,0,0,0,0,0],"split_type":[0,0,0,0,0,0,0,0,0,0,0,0,0,0,0,0,0,0,0],"sum_hessian":[6.5E1,4.1E1,2.4E1,3.8E1,3E0,3E0,2.1E1,3.3E1,5E0,1.8E1,3E0,3E1,3E0,1.3E1,5E0,3E0,2.7E1,9E0,4E0],"tree_param":{"num_deleted":"0","num_feature":"6","num_nodes":"19","size_leaf_vector":"1"}},{"base_weights":[-1.7457938E-2,9.82635E-3,-1.6965503E-1,-1.7368968E-1,3.259038E-2,-2.013223E-3,-4.4580247E-2,-2.7703648E-4,-5.2189328E-2,1.3696135E-5,7.8725174E-2,-4.376579E-2,1.03989124E-1,-1.12301875E-2,1.0328053E-2,-6.387189E-3,2.4057208E-2],"categories":[],"categories_nodes":[],"categories_segments":[],"categories_sizes":[],"default_left":[0,0,0,0,0,0,0,0,0,0,0,0,0,0,0,0,0],"id":55,"left_children":[1,3,5,7,9,-1,-1,-1,-1,11,-1,13,15,-1,-1,-1,-1],"loss_changes":[3.006535E-1,2.6466966E-1,1.5099207E-1,1.5450042E-1,7.725706E-1,0E0,0E0,0E0,0E0,2.4580668E-1,0E0,8.772629E-2,8.4977314E-2,0E0,0E0,0E0,0E0],"parents":[2147483647,0,0,1,1,2,2,3,3,4,4,9,9,11,11,12,12],"right_children":[2,4,6,8,10,-1,-1,-1,-1,12,-1,14,16,-1,-1,-1,-1],"split_conditions":[1.7E1,2.093E-1,7.242E-1,4E0,7E0,-2.013223E-3,-4.4580247E-2,-2.7703648E-4,-5.2189328E-2,5E0,7.8725174E-2,8E0,2.814E-1,-1.12301875E-2,1.0328053E-2,-6.387189E-3,2.4057208E-2],"split_indices":[3,5,5,1,2,0,0,0,0,3,0,1,5,0,0,0,0],"split_type":[0,0,0,0,0,0,0,0,0,0,0,0,0,0,0,0,0],"sum_hessian":[7.1E1,6.1E1,1E1,6E0,5.5E1,4E0,6E0,3E0,3E0,5.2E1,3E0,3.7E1,1.5E1,3.1E1,6E0,3E0,1.2E1],"tree_param":{"num_deleted":"0","num_feature":"6","num_nodes":"17","size_leaf_vector":"1"}},{"base_weights":[3.304528E-2,4.344177E-3,7.491185E-2,-8.406256E-2,3.5955194E-2,-1.0832632E-2,-4.9529016E-2,5.6312017E-2,5.6008976E-3,1.9604892E-2,-5.140024E-2,-4.03065E-2,2.6271427E-2,1.651738E-2,-1.9170731E-2,1.7170744E-2,-9.634033E-4],"categories":[],"categories_nodes":[],"categories_segments":[],"categories_sizes":[],"default_left":[0,0,0,0,0,0,0,0,0,0,0,0,0,0,0,0,0],"id":56,"left_children":[1,3,-1,5,7,9,-1,-1,11,-1,13,-1,15,-1,-1,-1,-1],"loss_changes":[8.6118555E-1,2.01441E-1,0E0,2.7916878E-1,4.6517047E-1,8.154379E-2,0E0,0E0,2.4831994E-1,0E0,1.1593856E-1,0E0,1.0781723E-1,0E0,0E0,0E0,0E0],"parents":[2147483647,0,0,1,1,3,3,4,4,5,5,8,8,10,10,12,12],"right_children":[2,4,-1,6,8,10,-1,-1,12,-1,14,-1,16,-1,-1,-1,-1],"split_conditions":[2.1E1,4E0,7.491185E-2,4.444E-1,2.667E-1,1.676E-1,-4.9529016E-2,5.6312017E-2,3E-1,1.9604892E-2,1.1667E0,-4.03065E-2,6.857E-1,1.651738E-2,-1.9170731E-2,1.7170744E-2,-9.634033E-4],"split_indices":[3,1,0,4,4,4,0,0,4,0,0,0,4,0,0,0,0],"split_type":[0,0,0,0,0,0,0,0,0,0,0,0,0,0,0,0,0],"sum_hessian":[7.4E1,7E1,4E0,1.8E1,5.2E1,1.4E1,4E0,4E0,4.8E1,3E0,1.1E1,3E0,4.5E1,3E0,8E0,1.3E1,3.2E1],"tree_param":{"num_deleted":"0","num_feature":"6","num_nodes":"17","size_leaf_vector":"1"}},{"base_weights":[-1.2345037E-2,5.205065E-3,-3.0821621E-2,1.3456455E-1,-3.469795E-2,5.197921E-2,6.3749745E-2,-1.2301515E-1,1.9879078E-2,-5.511405E-2,1.5164687E-1,-6.462637E-2,-5.87592E-2,-3.2831002E-2,7.081113E-2,3.2560558E-3,-1.990433E-2,3.2695346E-2,1.3112554E-2,5.117415E-3,-3.5132933E-2,-1.6745433E-3,-3.1199316E-2],"categories":[],"categories_nodes":[],"categories_segments":[],"categories_sizes":[],"default_left":[0,0,0,0,0,0,0,0,0,0,0,0,0,0,0,0,0,0,0,0,0,0,0],"id":57,"left_children":[1,3,-1,5,7,9,-1,11,13,15,17,19,-1,21,-1,-1,-1,-1,-1,-1,-1,-1,-1],"loss_changes":[2.1387826E-1,3.5051197E-1,0E0,2.9100809E-1,2.5309014E-1,1.4711642E-1,0E0,2.3187304E-1,6.924662E-1,3.3348873E-2,5.619779E-3,2.2866082E-1,0E0,1.00885816E-1,0E0,0E0,0E0,0E0,0E0,0E0,0E0,0E0,0E0],"parents":[2147483647,0,0,1,1,3,3,4,4,5,5,7,7,8,8,9,9,10,10,11,11,13,13],"right_children":[2,4,-1,6,8,10,-1,12,14,16,18,20,-1,22,-1,-1,-1,-1,-1,-1,-1,-1,-1],"split_conditions":[2.1E1,2.667E-1,-3.0821621E-2,1E1,9.214E-1,2.202E-1,6.3749745E-2,1.2426E0,7E0,2E-1,4.604E-1,8E0,-5.87592E-2,1.6E0,7.081113E-2,3.2560558E-3,-1.990433E-2,3.2695346E-2,1.3112554E-2,5.117415E-3,-3.5132933E-2,-1.6745433E-3,-3.1199316E-2],"split_indices":[3,4,0,3,5,4,0,4,2,4,5,3,0,4,0,0,0,0,0,0,0,0,0],"split_type":[0,0,0,0,0,0,0,0,0,0,0,0,0,0,0,0,0,0,0,0,0,0,0],"sum_hessian":[7.2E1,6.6E1,6E0,1.5E1,5.1E1,1.2E1,3E0,1.9E1,3.2E1,6E0,6E0,1.6E1,3E0,2.9E1,3E0,3E0,3E0,3E0,3E0,1E1,6E0,2.6E1,3E0],"tree_param":{"num_deleted":"0","num_feature":"6","num_nodes":"23","size_leaf_vector":"1"}},{"base_weights":[-1.4834509E-2,3.241588E-3,-1.8572937E-1,1.8013954E-2,-4.0378354E-2,-4.4823702E-2,-1.12794805E-2,3.8131937E-2,-3.9849408E-2,-1.4072125E-2,5.4032393E-2,5.643981E-3,-6.5177076E-2,9.353697E-3,-2.8332837E-2,2.3768716E-2,3.0973377E-3,5.3960127E-3,-3.6911378E-3,-2.780755E-2,-1.5653739E-3],"categories":[],"categories_nodes":[],"categories_segments":[],"categories_sizes":[],"default_left":[0,0,0,0,0,0,0,0,0,0,0,0,0,0,0,0,0,0,0,0,0],"id":58,"left_children":[1,3,5,7,-1,-1,-1,9,11,13,15,17,19,-1,-1,-1,-1,-1,-1,-1,-1],"loss_changes":[2.2610725E-1,2.3895088E-1,4.5347944E-2,7.602155E-2,0E0,0E0,0E0,4.060363E-2,1.9955955E-2,1.3182323E-1,1.0924912E-1,5.515163E-3,5.7741422E-2,0E0,0E0,0E0,0E0,0E0,0E0,0E0,0E0],"parents":[2147483647,0,0,1,1,2,2,3,3,7,7,8,8,9,9,10,10,11,11,12,12],"right_children":[2,4,6,8,-1,-1,-1,10,12,14,16,18,20,-1,-1,-1,-1,-1,-1,-1,-1],"split_conditions":[2.1E1,6.7778E0,1E0,8E0,-4.0378354E-2,-4.4823702E-2,-1.12794805E-2,1.3333E0,4.604E-1,1.0383E0,1.5E0,1.8571E0,9.214E-1,9.353697E-3,-2.8332837E-2,2.3768716E-2,3.0973377E-3,5.3960127E-3,-3.6911378E-3,-2.780755E-2,-1.5653739E-3],"split_indices":[3,0,2,3,0,0,0,0,5,5,0,0,5,0,0,0,0,0,0,0,0],"split_type":[0,0,0,0,0,0,0,0,0,0,0,0,0,0,0,0,0,0,0,0,0],"sum_hessian":[7.2E1,6.6E1,6E0,6.3E1,3E0,3E0,3E0,4.7E1,1.6E1,1.1E1,3.6E1,6E0,1E1,8E0,3E0,1E1,2.6E1,3E0,3E0,3E0,7E0],"tree_param":{"num_deleted":"0","num_feature":"6","num_nodes":"21","size_leaf_vector":"1"}},{"base_weights":[-7.476248E-2,-9.0462126E-2,-4.8019134E-2,-2.511448E-2,-5.8818407E-2,1.0981848E-1,-4.5619346E-2,-6.663694E-4,4.3650318E-2,-1.7834453E-1,-3.3133004E-3,-7.3985215E-3,-8.7398976E-2,-1.5617573E-2,7.471503E-3],"categories":[],"categories_nodes":[],"categories_segments":[],"categories_sizes":[],"default_left":[0,0,0,0,0,0,0,0,0,0,0,0,0,0,0],"id":59,"left_children":[1,-1,3,5,-1,7,9,-1,-1,11,13,-1,-1,-1,-1],"loss_changes":[8.5202134E-1,0E0,4.6079564E-1,1.8761745E-1,0E0,1.4734647E-1,3.250836E-1,0E0,0E0,6.0041213E-1,1.8669546E-1,0E0,0E0,0E0,0E0],"parents":[2147483647,0,0,2,2,3,3,5,5,6,6,9,9,10,10],"right_children":[2,-1,4,6,-1,8,10,-1,-1,12,14,-1,-1,-1,-1],"split_conditions":[1.455E-1,-9.0462126E-2,6.8E0,2.022E-1,-5.8818407E-2,1.4286E0,2.857E-1,-6.663694E-4,4.3650318E-2,2.521E-1,1.4286E0,-7.3985215E-3,-8.7398976E-2,-1.5617573E-2,7.471503E-3],"split_indices":[4,0,0,4,0,0,4,0,0,4,0,0,0,0,0],"split_type":[0,0,0,0,0,0,0,0,0,0,0,0,0,0,0],"sum_hessian":[7.2E1,3E0,6.9E1,6.5E1,4E0,8E0,5.7E1,5E0,3E0,1.3E1,4.4E1,1E1,3E0,1.5E1,2.9E1],"tree_param":{"num_deleted":"0","num_feature":"6","num_nodes":"15","size_leaf_vector":"1"}},{"base_weights":[3.433317E-2,8.551708E-2,9.613064E-3,-4.7665588E-3,4.6542514E-2,3.6294825E-2,-4.3541383E-2,1.530196E-1,-1.4484689E-2,-1.6603684E-1,6.1368803E-3,1.3123044E-2,4.6389364E-2,-5.2909542E-2,6.3753254E-3,1.363777E-2,-4.622613E-2,1.6568277E-2,-7.1590804E-3],"categories":[],"categories_nodes":[],"categories_segments":[],"categories_sizes":[],"default_left":[0,0,0,0,0,0,0,0,0,0,0,0,0,0,0,0,0,0,0],"id":60,"left_children":[1,-1,3,5,-1,7,9,11,13,15,17,-1,-1,-1,-1,-1,-1,-1,-1],"loss_changes":[8.957117E-1,0E0,2.8545374E-1,1.1780713E-1,0E0,2.1559663E-1,2.322627E-1,7.7583075E-2,4.0174982E-1,2.954749E-1,1.2376248E-1,0E0,0E0,0E0,0E0,0E0,0E0,0E0,0E0],"parents":[2147483647,0,0,2,2,3,3,5,5,6,6,7,7,8,8,9,9,10,10],"right_children":[2,-1,4,6,-1,8,10,12,14,16,18,-1,-1,-1,-1,-1,-1,-1,-1],"split_conditions":[1.455E-1,8.551708E-2,4.3571E0,9.875E-1,4.6542514E-2,2.521E-1,4E0,4E0,3.158E-1,2E-1,6.857E-1,1.3123044E-2,4.6389364E-2,-5.2909542E-2,6.3753254E-3,1.363777E-2,-4.622613E-2,1.6568277E-2,-7.1590804E-3],"split_indices":[4,0,4,5,0,4,1,1,4,4,4,0,0,0,0,0,0,0,0],"split_type":[0,0,0,0,0,0,0,0,0,0,0,0,0,0,0,0,0,0,0],"sum_hessian":[7.8E1,3E0,7.5E1,7.2E1,3E0,3.5E1,3.7E1,1E1,2.5E1,1E1,2.7E1,7E0,3E0,3E0,2.2E1,3E0,7E0,9E0,1.8E1],"tree_param":{"num_deleted":"0","num_feature":"6","num_nodes":"19","size_leaf_vector":"1"}},{"base_weights":[-6.926866E-2,-1.6201293E-2,-3.4760556E-1,2.7357163E-2,-1.7243561E-1,7.4471133E-3,-4.9952957E-1,-1.24830315E-2,1.3251482E-1,-2.8294578E-1,6.30125E-4,-1.3585694E-1,-2.627582E-3,2.5066204E-2,-3.420268E-2,2.4434835E-1,-1.6447853E-2,-2.259786E-2,-6.0065072E-2,-6.9406565E-4,3.7135243E-2,1.734087E-2,5.1705297E-2],"categories":[],"categories_nodes":[],"categories_segments":[],"categories_sizes":[],"default_left":[0,0,0,0,0,0,0,0,0,0,0,0,0,0,0,0,0,0,0,0,0,0,0],"id":61,"left_children":[1,3,5,7,9,-1,11,13,15,17,-1,-1,-1,19,-1,21,-1,-1,-1,-1,-1,-1,-1],"loss_changes":[1.0135403E0,4.0623158E-1,6.745579E-1,1.9856076E-1,2.540039E-1,0E0,1.1020788E0,2.4897298E-1,3.5447216E-1,3.353846E-2,0E0,0E0,0E0,1.6672479E-1,0E0,4.138881E-2,0E0,0E0,0E0,0E0,0E0,0E0,0E0],"parents":[2147483647,0,0,1,1,2,2,3,3,4,4,6,6,7,7,8,8,9,9,13,13,15,15],"right_children":[2,4,6,8,10,-1,12,14,16,18,-1,-1,-1,20,-1,22,-1,-1,-1,-1,-1,-1,-1],"split_conditions":[1.3E1,1.6667E0,7.242E-1,8.257E-1,4E0,7.4471133E-3,2.857E-1,6.857E-1,1.6E0,8.257E-1,6.30125E-4,-1.3585694E-1,-2.627582E-3,6.102E-1,-3.420268E-2,4.292E0,-1.6447853E-2,-2.259786E-2,-6.0065072E-2,-6.9406565E-4,3.7135243E-2,1.734087E-2,5.1705297E-2],"split_indices":[3,2,5,4,3,0,4,4,4,4,0,0,0,4,0,5,0,0,0,0,0,0,0],"split_type":[0,0,0,0,0,0,0,0,0,0,0,0,0,0,0,0,0,0,0,0,0,0,0],"sum_hessian":[6.8E1,5.8E1,1E1,4.6E1,1.2E1,3E0,7E0,3.4E1,1.2E1,7E0,5E0,4E0,3E0,2.9E1,5E0,8E0,4E0,3E0,4E0,2.6E1,3E0,3E0,5E0],"tree_param":{"num_deleted":"0","num_feature":"6","num_nodes":"23","size_leaf_vector":"1"}},{"base_weights":[4.702104E-2,3.3081695E-2,4.6990737E-2,4.7250066E-2,-2.092044E-2,1.1721376E-1,6.8496973E-3,-6.409505E-3,1.6215068E-1,6.482416E-2,-7.083012E-2,4.4786237E-2,1.5858222E-2,3.541429E-3,4.8543736E-2,-2.540603E-2,3.776781E-3],"categories":[],"categories_nodes":[],"categories_segments":[],"categories_sizes":[],"default_left":[0,0,0,0,0,0,0,0,0,0,0,0,0,0,0,0,0],"id":62,"left_children":[1,3,-1,5,-1,7,9,-1,11,13,15,-1,-1,-1,-1,-1,-1],"loss_changes":[2.1388648E-1,1.5436906E-1,0E0,1.7727035E-1,0E0,1.6554561E-1,1.8923277E-1,0E0,9.926346E-2,2.2435278E-1,1.3064298E-1,0E0,0E0,0E0,0E0,0E0,0E0],"parents":[2147483647,0,0,1,1,3,3,5,5,6,6,8,8,9,9,10,10],"right_children":[2,4,-1,6,-1,8,10,-1,12,14,16,-1,-1,-1,-1,-1,-1],"split_conditions":[8.6E1,1.6E0,4.6990737E-2,1E0,-2.092044E-2,3.025E-1,3.913E-1,-6.409505E-3,5E0,2.857E-1,5E0,4.4786237E-2,1.5858222E-2,3.541429E-3,4.8543736E-2,-2.540603E-2,3.776781E-3],"split_indices":[2,4,0,3,0,4,4,0,1,4,3,0,0,0,0,0,0],"split_type":[0,0,0,0,0,0,0,0,0,0,0,0,0,0,0,0,0],"sum_hessian":[7E1,6.7E1,3E0,6.2E1,5E0,2.2E1,4E1,5E0,1.7E1,2.3E1,1.7E1,6E0,1.1E1,2E1,3E0,9E0,8E0],"tree_param":{"num_deleted":"0","num_feature":"6","num_nodes":"17","size_leaf_vector":"1"}},{"base_weights":[1.3145414E-2,-1.2915102E-1,3.9014004E-2,-6.7772726E-3,-4.775095E-2,1.3969344E-2,6.665327E-2,-4.116851E-2,4.727666E-2,2.2976756E-2,-9.653763E-2,9.713433E-2,2.5338114E-3,7.2768503E-3,-5.7683783E-6,1.8522872E-3,-2.3041202E-2,1.9338626E-2,6.7255693E-3,-1.1381666E-2,6.315639E-3],"categories":[],"categories_nodes":[],"categories_segments":[],"categories_sizes":[],"default_left":[0,0,0,0,0,0,0,0,0,0,0,0,0,0,0,0,0,0,0,0,0],"id":63,"left_children":[1,3,5,-1,-1,7,-1,9,11,13,15,17,19,-1,-1,-1,-1,-1,-1,-1,-1],"loss_changes":[2.6270923E-1,1.3496913E-1,5.1623535E-1,0E0,0E0,1.06626466E-1,0E0,8.0354795E-2,8.006175E-2,4.856276E-3,4.8993453E-2,1.0370731E-2,4.9048893E-2,0E0,0E0,0E0,0E0,0E0,0E0,0E0,0E0],"parents":[2147483647,0,0,1,1,2,2,5,5,7,7,8,8,9,9,10,10,11,11,12,12],"right_children":[2,4,6,-1,-1,8,-1,10,12,14,16,18,20,-1,-1,-1,-1,-1,-1,-1,-1],"split_conditions":[2.245E-1,5E0,6.1E1,-6.7772726E-3,-4.775095E-2,1E0,6.665327E-2,5E0,8E0,1.4286E0,1.3333E0,3.25E0,4E0,7.2768503E-3,-5.7683783E-6,1.8522872E-3,-2.3041202E-2,1.9338626E-2,6.7255693E-3,-1.1381666E-2,6.315639E-3],"split_indices":[5,1,1,0,0,3,0,1,3,0,0,0,1,0,0,0,0,0,0,0,0],"split_type":[0,0,0,0,0,0,0,0,0,0,0,0,0,0,0,0,0,0,0,0,0],"sum_hessian":[6.9E1,1E1,5.9E1,7E0,3E0,5.6E1,3E0,2.1E1,3.5E1,1E1,1.1E1,1.6E1,1.9E1,5E0,5E0,3E0,8E0,1.2E1,4E0,6E0,1.3E1],"tree_param":{"num_deleted":"0","num_feature":"6","num_nodes":"21","size_leaf_vector":"1"}},{"base_weights":[3.169042E-2,-4.9542364E-2,8.762746E-2,-4.476641E-2,2.79276E-3,-6.2378153E-2,1.3497396E-1,-6.794542E-2,5.4481246E-2,-3.41433E-2,4.3266263E-2,3.059164E-1,7.7184975E-2,-7.595466E-4,-2.0742042E-2,1.4409149E-1,-6.851496E-2,-3.4184533E-3,1.6487872E-2,1.70253E-2,7.08671E-2,-2.4806112E-3,1.8604538E-1,3.7920732E-2,-9.1954874E-4,-3.3576486E-3,-1.7338634E-2,9.892293E-3,-7.6096947E-3,5.8870338E-2,1.47209065E-2],"categories":[],"categories_nodes":[],"categories_segments":[],"categories_sizes":[],"default_left":[0,0,0,0,0,0,0,0,0,0,0,0,0,0,0,0,0,0,0,0,0,0,0,0,0,0,0,0,0,0,0],"id":64,"left_children":[1,3,5,-1,7,9,11,13,15,-1,17,19,21,-1,-1,23,25,-1,-1,-1,-1,27,29,-1,-1,-1,-1,-1,-1,-1,-1],"loss_changes":[3.3150366E-1,3.3013093E-1,3.1381577E-1,0E0,9.511048E-2,1.659359E-1,3.0238128E-1,3.5973396E-2,1.7519823E-1,0E0,2.4961587E-2,1.3303E-1,2.2594464E-1,0E0,0E0,1.02831185E-1,9.013515E-3,0E0,0E0,0E0,0E0,4.23279E-2,1.4272565E-1,0E0,0E0,0E0,0E0,0E0,0E0,0E0,0E0],"parents":[2147483647,0,0,1,1,2,2,4,4,5,5,6,6,7,7,8,8,10,10,11,11,12,12,15,15,16,16,21,21,22,22],"right_children":[2,4,6,-1,8,10,12,14,16,-1,18,20,22,-1,-1,24,26,-1,-1,-1,-1,28,30,-1,-1,-1,-1,-1,-1,-1,-1],"split_conditions":[1.4286E0,0E0,4E0,-4.476641E-2,2.697E-1,3.025E-1,3E-1,1.727E-1,7E0,-3.41433E-2,0E0,1.8571E0,8.333E-1,-7.595466E-4,-2.0742042E-2,8.571E-1,1.1667E0,-3.4184533E-3,1.6487872E-2,1.70253E-2,7.08671E-2,1E0,2.6667E0,3.7920732E-2,-9.1954874E-4,-3.3576486E-3,-1.7338634E-2,9.892293E-3,-7.6096947E-3,5.8870338E-2,1.47209065E-2],"split_indices":[0,2,1,0,4,4,4,4,1,0,2,0,4,0,0,4,0,0,0,0,0,2,0,0,0,0,0,0,0,0,0],"split_type":[0,0,0,0,0,0,0,0,0,0,0,0,0,0,0,0,0,0,0,0,0,0,0,0,0,0,0,0,0,0,0],"sum_hessian":[7.1E1,2.9E1,4.2E1,5E0,2.4E1,1E1,3.2E1,1E1,1.4E1,4E0,6E0,7E0,2.5E1,5E0,5E0,8E0,6E0,3E0,3E0,3E0,4E0,1.5E1,1E1,5E0,3E0,3E0,3E0,6E0,9E0,3E0,7E0],"tree_param":{"num_deleted":"0","num_feature":"6","num_nodes":"31","size_leaf_vector":"1"}},{"base_weights":[-1.1349071E-2,-2.5996031E-2,4.0246543E-2,5.6939702E-2,-7.168119E-2,1.7548436E-2,2.9721702E-2,-6.915514E-2,-3.6993153E-2,-1.2249852E-2,1.7853795E-2,1.2876652E-2,-1.3052827E-1,4.6953396E-3,-2.2015247E-2,1.8360566E-2,-1.407402E-2,-6.170011E-2,-6.2389527E-3],"categories":[],"categories_nodes":[],"categories_segments":[],"categories_sizes":[],"default_left":[0,0,0,0,0,0,0,0,0,0,0,0,0,0,0,0,0,0,0],"id":65,"left_children":[1,3,-1,5,7,9,-1,-1,11,13,-1,15,17,-1,-1,-1,-1,-1,-1],"loss_changes":[2.5317508E-1,2.54151E-1,0E0,1.059337E-1,4.7585088E-1,4.9892437E-2,0E0,0E0,1.882639E-1,7.1696684E-2,0E0,2.4699947E-1,2.8693002E-1,0E0,0E0,0E0,0E0,0E0,0E0],"parents":[2147483647,0,0,1,1,3,3,4,4,5,5,8,8,9,9,11,11,12,12],"right_children":[2,4,-1,6,8,10,-1,-1,12,14,-1,16,18,-1,-1,-1,-1,-1,-1],"split_conditions":[1E1,2.667E-1,4.0246543E-2,4E0,3.025E-1,1.7E1,2.9721702E-2,-6.915514E-2,1E0,1.6667E0,1.7853795E-2,7.857E-1,6.857E-1,4.6953396E-3,-2.2015247E-2,1.8360566E-2,-1.407402E-2,-6.170011E-2,-6.2389527E-3],"split_indices":[2,4,0,1,4,3,0,0,2,2,0,4,4,0,0,0,0,0,0],"split_type":[0,0,0,0,0,0,0,0,0,0,0,0,0,0,0,0,0,0,0],"sum_hessian":[6.8E1,6.5E1,3E0,2.3E1,4.2E1,1.8E1,5E0,3E0,3.9E1,1.4E1,4E0,2.6E1,1.3E1,1.1E1,3E0,1.3E1,1.3E1,3E0,1E1],"tree_param":{"num_deleted":"0","num_feature":"6","num_nodes":"19","size_leaf_vector":"1"}},{"base_weights":[4.3832166E-3,-6.1439577E-2,4.325011E-2,4.86351E-2,-1.2193336E-1,1.9243684E-2,5.325253E-2,-1.1706191E-2,2.7096951E-2,-3.4754786E-3,-1.7633888E-1,-5.9641767E-2,4.0043976E-2,4.250072E-3,-5.299908E-3,-4.6933748E-2,-1.20478764E-1,1.2373959E-2,-2.9474882E-2,2.1727283E-1,-1.2671851E-3,-4.204779E-2,3.7986244E-4,1.7186735E-2,-1.3448939E-2,1.3583029E-2,5.2048475E-2,1.1158313E-2,-1.4830733E-2],"categories":[],"categories_nodes":[],"categories_segments":[],"categories_sizes":[],"default_left":[0,0,0,0,0,0,0,0,0,0,0,0,0,0,0,0,0,0,0,0,0,0,0,0,0,0,0,0,0],"id":66,"left_children":[1,3,5,7,9,11,-1,-1,-1,13,15,17,19,-1,-1,-1,21,23,-1,25,27,-1,-1,-1,-1,-1,-1,-1,-1],"loss_changes":[1.9964848E-1,1.9903642E-1,3.0609402E-1,1.4943807E-1,1.21837646E-1,7.786694E-2,0E0,0E0,0E0,6.1114854E-3,3.6639214E-2,8.213473E-2,2.7117196E-1,0E0,0E0,0E0,1.5157852E-1,6.286698E-2,0E0,5.8012784E-2,1.7852111E-1,0E0,0E0,0E0,0E0,0E0,0E0,0E0,0E0],"parents":[2147483647,0,0,1,1,2,2,3,3,4,4,5,5,9,9,10,10,11,11,12,12,16,16,17,17,19,19,20,20],"right_children":[2,4,6,8,10,12,-1,-1,-1,14,16,18,20,-1,-1,-1,22,24,-1,26,28,-1,-1,-1,-1,-1,-1,-1,-1],"split_conditions":[9.214E-1,2.521E-1,6.1E1,1.6667E0,1.4286E0,2.286E-1,5.325253E-2,-1.1706191E-2,2.7096951E-2,7E0,3.158E-1,1.676E-1,3E-1,4.250072E-3,-5.299908E-3,-4.6933748E-2,2.245E-1,2E0,-2.9474882E-2,4E0,2.2E0,-4.204779E-2,3.7986244E-4,1.7186735E-2,-1.3448939E-2,1.3583029E-2,5.2048475E-2,1.1158313E-2,-1.4830733E-2],"split_indices":[5,4,1,0,0,4,0,0,0,1,4,4,4,0,0,0,5,1,0,1,0,0,0,0,0,0,0,0,0],"split_type":[0,0,0,0,0,0,0,0,0,0,0,0,0,0,0,0,0,0,0,0,0,0,0,0,0,0,0,0,0],"sum_hessian":[7.6E1,2.8E1,4.8E1,1E1,1.8E1,4.5E1,3E0,5E0,5E0,6E0,1.2E1,9E0,3.6E1,3E0,3E0,3E0,9E0,6E0,3E0,6E0,3E1,4E0,5E0,3E0,3E0,3E0,3E0,1.7E1,1.3E1],"tree_param":{"num_deleted":"0","num_feature":"6","num_nodes":"29","size_leaf_vector":"1"}},{"base_weights":[1.9100185E-2,-3.0996097E-2,7.342836E-2,1.3441078E-3,-4.727538E-2,6.855248E-3,5.1904127E-2,-7.152147E-2,4.499625E-2,-2.6365036E-2,5.4391768E-2,-1.178447E-1,8.731737E-3,2.185916E-2,9.6127816E-4,-3.1416696E-2,1.433419E-1,-3.921458E-3,-3.9885763E-2,-1.7964983E-2,6.7439014E-3,-1.9071639E-2,1.4769976E-2,4.6227805E-2,-1.9042628E-2],"categories":[],"categories_nodes":[],"categories_segments":[],"categories_sizes":[],"default_left":[0,0,0,0,0,0,0,0,0,0,0,0,0,0,0,0,0,0,0,0,0,0,0,0,0],"id":67,"left_children":[1,3,5,7,-1,9,-1,11,13,-1,15,17,-1,-1,19,21,23,-1,-1,-1,-1,-1,-1,-1,-1],"loss_changes":[1.7646094E-1,2.6743925E-1,4.669736E-1,1.0182109E-1,0E0,1.9797578E-1,0E0,7.383835E-2,7.178025E-2,0E0,1.571568E-1,9.168916E-2,0E0,0E0,6.010681E-2,1.11207E-1,3.4528682E-1,0E0,0E0,0E0,0E0,0E0,0E0,0E0,0E0],"parents":[2147483647,0,0,1,1,2,2,3,3,5,5,7,7,8,8,10,10,11,11,14,14,15,15,16,16],"right_children":[2,4,6,8,-1,10,-1,12,14,-1,