{"learner":{"attributes":{"scikit_learn":"{\"_estimator_type\": \"regressor\"}"},"feature_names":["tasa_entrega_a_tiempo","tasa_defectos","precio_promedio","volumen_compras_previas","lead_time_estimado_dias"],"feature_types":["float","float","float","float","float"],"gradient_booster":{"model":{"cats":{"enc":[],"feature_segments":[],"sorted_idx":[]},"gbtree_model_param":{"num_parallel_tree":"1","num_trees":"521"},"iteration_indptr":[0,1,2,3,4,5,6,7,8,9,10,11,12,13,14,15,16,17,18,19,20,21,22,23,24,25,26,27,28,29,30,31,32,33,34,35,36,37,38,39,40,41,42,43,44,45,46,47,48,49,50,51,52,53,54,55,56,57,58,59,60,61,62,63,64,65,66,67,68,69,70,71,72,73,74,75,76,77,78,79,80,81,82,83,84,85,86,87,88,89,90,91,92,93,94,95,96,97,98,99,100,101,102,103,104,105,106,107,108,109,110,111,112,113,114,115,116,117,118,119,120,121,122,123,124,125,126,127,128,129,130,131,132,133,134,135,136,137,138,139,140,141,142,143,144,145,146,147,148,149,150,151,152,153,154,155,156,157,158,159,160,161,162,163,164,165,166,167,168,169,170,171,172,173,174,175,176,177,178,179,180,181,182,183,184,185,186,187,188,189,190,191,192,193,194,195,196,197,198,199,200,201,202,203,204,205,206,207,208,209,210,211,212,213,214,215,216,217,218,219,220,221,222,223,224,225,226,227,228,229,230,231,232,233,234,235,236,237,238,239,240,241,242,243,244,245,246,247,248,249,250,251,252,253,254,255,256,257,258,259,260,261,262,263,264,265,266,267,268,269,270,271,272,273,274,275,276,277,278,279,280,281,282,283,284,285,286,287,288,289,290,291,292,293,294,295,296,297,298,299,300,301,302,303,304,305,306,307,308,309,310,311,312,313,314,315,316,317,318,319,320,321,322,323,324,325,326,327,328,329,330,331,332,333,334,335,336,337,338,339,340,341,342,343,344,345,346,347,348,349,350,351,352,353,354,355,356,357,358,359,360,361,362,363,364,365,366,367,368,369,370,371,372,373,374,375,376,377,378,379,380,381,382,383,384,385,386,387,388,389,390,391,392,393,394,395,396,397,398,399,400,401,402,403,404,405,406,407,408,409,410,411,412,413,414,415,416,417,418,419,420,421,422,423,424,425,426,427,428,429,430,431,432,433,434,435,436,437,438,439,440,441,442,443,444,445,446,447,448,449,450,451,452,453,454,455,456,457,458,459,460,461,462,463,464,465,466,467,468,469,470,471,472,473,474,475,476,477,478,479,480,481,482,483,484,485,486,487,488,489,490,491,492,493,494,495,496,497,498,499,500,501,502,503,504,505,506,507,508,509,510,511,512,513,514,515,516,517,518,519,520,521],"tree_info":[0,0,0,0,0,0,0,0,0,0,0,0,0,0,0,0,0,0,0,0,0,0,0,0,0,0,0,0,0,0,0,0,0,0,0,0,0,0,0,0,0,0,0,0,0,0,0,0,0,0,0,0,0,0,0,0,0,0,0,0,0,0,0,0,0,0,0,0,0,0,0,0,0,0,0,0,0,0,0,0,0,0,0,0,0,0,0,0,0,0,0,0,0,0,0,0,0,0,0,0,0,0,0,0,0,0,0,0,0,0,0,0,0,0,0,0,0,0,0,0,0,0,0,0,0,0,0,0,0,0,0,0,0,0,0,0,0,0,0,0,0,0,0,0,0,0,0,0,0,0,0,0,0,0,0,0,0,0,0,0,0,0,0,0,0,0,0,0,0,0,0,0,0,0,0,0,0,0,0,0,0,0,0,0,0,0,0,0,0,0,0,0,0,0,0,0,0,0,0,0,0,0,0,0,0,0,0,0,0,0,0,0,0,0,0,0,0,0,0,0,0,0,0,0,0,0,0,0,0,0,0,0,0,0,0,0,0,0,0,0,0,0,0,0,0,0,0,0,0,0,0,0,0,0,0,0,0,0,0,0,0,0,0,0,0,0,0,0,0,0,0,0,0,0,0,0,0,0,0,0,0,0,0,0,0,0,0,0,0,0,0,0,0,0,0,0,0,0,0,0,0,0,0,0,0,0,0,0,0,0,0,0,0,0,0,0,0,0,0,0,0,0,0,0,0,0,0,0,0,0,0,0,0,0,0,0,0,0,0,0,0,0,0,0,0,0,0,0,0,0,0,0,0,0,0,0,0,0,0,0,0,0,0,0,0,0,0,0,0,0,0,0,0,0,0,0,0,0,0,0,0,0,0,0,0,0,0,0,0,0,0,0,0,0,0,0,0,0,0,0,0,0,0,0,0,0,0,0,0,0,0,0,0,0,0,0,0,0,0,0,0,0,0,0,0,0,0,0,0,0,0,0,0,0,0,0,0,0,0,0,0,0,0,0,0,0,0,0,0,0,0,0,0,0,0,0,0,0,0,0,0,0,0,0,0,0,0,0,0,0,0,0,0,0,0,0,0,0,0,0,0,0,0,0,0,0,0,0,0,0,0,0,0,0,0,0,0,0,0,0,0,0,0,0,0,0,0,0,0,0,0,0,0,0,0,0,0,0,0,0,0],"trees":[{"base_weights":[-7.373803E-2,-2.4710985E1,5.4924464E0,-2.610084E1,-5.948658E-1,3.8411207E0,1.6032654E1,-2.4822767E1,-1.7673126E0,9.012815E-1,5.5493703E0,5.7061946E-1,8.2170403E-1,-1.1445851E0,-1.3466192E0,-2.1999823E-1,8.350702E-2,2.1966001E-1,3.5176793E-1],"categories":[],"categories_nodes":[],"categories_segments":[],"categories_sizes":[],"default_left":[0,0,0,0,0,0,0,0,0,0,0,0,0,0,0,0,0,0,0],"id":0,"left_children":[1,3,5,7,-1,9,11,13,-1,15,17,-1,-1,-1,-1,-1,-1,-1,-1],"loss_changes":[5.405674E5,1.16624375E4,5.5753406E4,5.092E3,0E0,1.3966051E4,6.060625E2,1.483125E2,0E0,4.4131016E3,2.9455352E3,0E0,0E0,0E0,0E0,0E0,0E0,0E0,0E0],"parents":[2147483647,0,0,1,1,2,2,3,3,5,5,6,6,7,7,9,9,10,10],"right_children":[2,4,6,8,-1,10,12,14,-1,16,18,-1,-1,-1,-1,-1,-1,-1,-1],"split_conditions":[3.75222E1,2.06746E1,8.37129E1,6.1794E0,-5.948658E-1,6.72518E1,9.15912E1,2.9476E0,-1.7673126E0,5.6158E1,7.35396E1,5.7061946E-1,8.2170403E-1,-1.1445851E0,-1.3466192E0,-2.1999823E-1,8.350702E-2,2.1966001E-1,3.5176793E-1],"split_indices":[0,0,0,4,0,0,0,4,0,0,0,0,0,0,0,0,0,0,0],"split_type":[0,0,0,0,0,0,0,0,0,0,0,0,0,0,0,0,0,0,0],"sum_hessian":[3.935E3,7.23E2,3.212E3,6.48E2,7.5E1,2.781E3,4.31E2,5.84E2,6.4E1,1.024E3,1.757E3,6.4E1,3.67E2,3.82E2,2.02E2,1.3E2,8.94E2,1.053E3,7.04E2],"tree_param":{"num_deleted":"0","num_feature":"5","num_nodes":"19","size_leaf_vector":"1"}},{"base_weights":[-1.9419776E-1,-2.329282E1,5.057807E0,-2.4809612E1,-5.701267E-1,3.6004333E0,1.5501664E1,-1.1493603E0,-1.6296426E0,3.8017228E-1,5.0281067E0,5.82247E-1,7.853653E-1,-2.6452288E-1,5.7345696E-2,1.9176134E-1,3.2572353E-1],"categories":[],"categories_nodes":[],"categories_segments":[],"categories_sizes":[],"default_left":[0,0,0,0,0,0,0,0,0,0,0,0,0,0,0,0,0],"id":1,"left_children":[1,3,5,7,-1,9,11,-1,-1,13,15,-1,-1,-1,-1,-1,-1],"loss_changes":[4.7964988E5,1.2021156E4,4.883979E4,5.163375E3,0E0,1.3010797E4,3.890625E0,0E0,0E0,3.9652563E3,3.440504E3,0E0,0E0,0E0,0E0,0E0,0E0],"parents":[2147483647,0,0,1,1,2,2,3,3,5,5,6,6,9,9,10,10],"right_children":[2,4,6,8,-1,10,12,-1,-1,14,16,-1,-1,-1,-1,-1,-1],"split_conditions":[3.75222E1,2.06746E1,8.5277E1,5.5318E0,-5.701267E-1,6.61352E1,9.2968E1,-1.1493603E0,-1.6296426E0,5.36899E1,7.28037E1,5.82247E-1,7.853653E-1,-2.6452288E-1,5.7345696E-2,1.9176134E-1,3.2572353E-1],"split_indices":[0,0,0,4,0,0,0,0,0,0,0,0,0,0,0,0,0],"split_type":[0,0,0,0,0,0,0,0,0,0,0,0,0,0,0,0,0],"sum_hessian":[3.947E3,7.29E2,3.218E3,6.42E2,8.7E1,2.828E3,3.9E2,5.57E2,8.5E1,8.7E2,1.958E3,5.3E1,3.37E2,1.02E2,7.68E2,1.15E3,8.08E2],"tree_param":{"num_deleted":"0","num_feature":"5","num_nodes":"17","size_leaf_vector":"1"}},{"base_weights":[-1.6478296E-1,3.3157191E0,-2.0720135E1,1.3562386E1,1.9772094E0,-1.6212742E1,-2.7611473E1,6.9272596E-1,6.1528187E0,3.8941915E0,-3.5515406E0,-1.7679142E1,-5.846717E0,-1.2252437E0,-1.7252364E0,6.027631E-1,-6.1548996E-1,2.0134503E-1,1.850763E-1,-3.4334546E-1,-1.0344757E-1,-3.9950386E-1,-8.944789E-1,-9.267974E-2,-4.095072E-1],"categories":[],"categories_nodes":[],"categories_segments":[],"categories_sizes":[],"default_left":[0,0,0,0,0,0,0,0,0,0,0,0,0,0,0,0,0,0,0,0,0,0,0,0,0],"id":2,"left_children":[1,3,5,7,9,11,13,-1,15,17,19,21,23,-1,-1,-1,-1,-1,-1,-1,-1,-1,-1,-1,-1],"loss_changes":[2.8529544E5,4.6682477E4,1.6395094E4,1.1875859E3,3.2059781E4,5.077172E3,1.5187969E3,0E0,4.099993E3,6.078125E0,3.818502E3,9.556328E2,4.3036743E2,0E0,0E0,0E0,0E0,0E0,0E0,0E0,0E0,0E0,0E0,0E0,0E0],"parents":[2147483647,0,0,1,1,2,2,3,3,4,4,5,5,6,6,8,8,9,9,10,10,11,11,12,12],"right_children":[2,4,6,8,10,12,14,-1,16,18,20,22,24,-1,-1,-1,-1,-1,-1,-1,-1,-1,-1,-1,-1],"split_conditions":[1.2243E0,2.395E-1,3.3656E0,6.216362E2,2.7849E0,1.49E1,8.4112E0,6.9272596E-1,1.033E-1,1.0017E0,8.842E-1,1.00067E1,1.8422E0,-1.2252437E0,-1.7252364E0,6.027631E-1,-6.1548996E-1,2.0134503E-1,1.850763E-1,-3.4334546E-1,-1.0344757E-1,-3.9950386E-1,-8.944789E-1,-9.267974E-2,-4.095072E-1],"split_indices":[4,4,4,2,2,3,4,0,4,4,4,2,4,0,0,0,0,0,0,0,0,0,0,0,0],"split_type":[0,0,0,0,0,0,0,0,0,0,0,0,0,0,0,0,0,0,0,0,0,0,0,0,0],"sum_hessian":[3.981E3,3.407E3,5.74E2,3.9E2,3.017E3,3.54E2,2.2E2,3.62E2,2.8E1,2.241E3,7.76E2,3.08E2,4.6E1,1.72E2,4.8E1,2.2E1,6E0,8.71E2,1.37E3,2.27E2,5.49E2,1.8E1,2.9E2,2E1,2.6E1],"tree_param":{"num_deleted":"0","num_feature":"5","num_nodes":"25","size_leaf_vector":"1"}},{"base_weights":[-7.827783E-2,3.3503575E0,-1.9525658E1,1.2382873E1,2.0706275E0,-1.5488777E1,-2.6007908E1,1.3116036E1,4.823581E0,3.7259555E0,-3.1174886E0,-1.6610783E1,-6.308968E0,-1.1561245E0,-1.6180897E0,6.569838E-1,3.0136743E-1,5.976226E-1,-6.9256645E-1,1.9356173E-1,1.7669684E-1,-3.7188295E-1,-8.342584E-2,-7.53821E-1,-1.0261724E0,-7.883806E-3,-3.8257656E-1],"categories":[],"categories_nodes":[],"categories_segments":[],"categories_sizes":[],"default_left":[0,0,0,0,0,0,0,0,0,0,0,0,0,0,0,0,0,0,0,0,0,0,0,0,0,0,0],"id":3,"left_children":[1,3,5,7,9,11,13,15,17,19,21,23,25,-1,-1,-1,-1,-1,-1,-1,-1,-1,-1,-1,-1,-1,-1],"loss_changes":[2.6489975E5,3.8951906E4,1.41945E4,2.1009883E3,2.5481527E4,3.5058516E3,1.2097656E3,3.288125E2,6.454213E3,1.4498047E1,4.4911094E3,7.276328E2,4.1323547E2,0E0,0E0,0E0,0E0,0E0,0E0,0E0,0E0,0E0,0E0,0E0,0E0,0E0,0E0],"parents":[2147483647,0,0,1,1,2,2,3,3,4,4,5,5,6,6,7,7,8,8,9,9,10,10,11,11,12,12],"right_children":[2,4,6,8,10,12,14,16,18,20,22,24,26,-1,-1,-1,-1,-1,-1,-1,-1,-1,-1,-1,-1,-1,-1],"split_conditions":[1.2243E0,3.799E-1,3.3656E0,6.216362E2,2.8739E0,1.49E1,8.4112E0,3.228E-1,1.033E-1,1.0037E0,8.842E-1,3.096125E2,1.538E0,-1.1561245E0,-1.6180897E0,6.569838E-1,3.0136743E-1,5.976226E-1,-6.9256645E-1,1.9356173E-1,1.7669684E-1,-3.7188295E-1,-8.342584E-2,-7.53821E-1,-1.0261724E0,-7.883806E-3,-3.8257656E-1],"split_indices":[4,4,4,2,2,3,4,4,4,4,4,2,4,0,0,0,0,0,0,0,0,0,0,0,0,0,0],"split_type":[0,0,0,0,0,0,0,0,0,0,0,0,0,0,0,0,0,0,0,0,0,0,0,0,0,0,0],"sum_hessian":[3.966E3,3.374E3,5.92E2,4.15E2,2.959E3,3.72E2,2.2E2,3.76E2,3.9E1,2.244E3,7.15E2,3.29E2,4.3E1,1.72E2,4.8E1,3.61E2,1.5E1,2.9E1,1E1,8.56E2,1.388E3,1.7E2,5.45E2,2.64E2,6.5E1,9E0,3.4E1],"tree_param":{"num_deleted":"0","num_feature":"5","num_nodes":"27","size_leaf_vector":"1"}},{"base_weights":[-1.2363661E-1,-2.069627E1,4.6377177E0,-1.090668E0,-4.7956854E-1,3.1725624E0,1.3094937E1,1.0070609E0,4.8409295E0,4.468265E-1,6.806104E-1,-7.5374015E-2,9.009038E-2,1.978552E-1,3.1158733E-1],"categories":[],"categories_nodes":[],"categories_segments":[],"categories_sizes":[],"default_left":[0,0,0,0,0,0,0,0,0,0,0,0,0,0,0],"id":4,"left_children":[1,3,5,-1,-1,7,9,11,13,-1,-1,-1,-1,-1,-1],"loss_changes":[3.958125E5,1.13998125E4,4.0517492E4,0E0,0E0,1.0104289E4,9.8772656E2,2.5654978E3,1.8466875E3,0E0,0E0,0E0,0E0,0E0,0E0],"parents":[2147483647,0,0,1,1,2,2,5,5,6,6,7,7,8,8],"right_children":[2,4,6,-1,-1,8,10,12,14,-1,-1,-1,-1,-1,-1],"split_conditions":[4.00079E1,2.06746E1,8.22844E1,-1.090668E0,-4.7956854E-1,6.81925E1,9.07525E1,6.02638E1,7.46373E1,4.468265E-1,6.806104E-1,-7.5374015E-2,9.009038E-2,1.978552E-1,3.1158733E-1],"split_indices":[0,0,0,0,0,0,0,0,0,0,0,0,0,0,0],"split_type":[0,0,0,0,0,0,0,0,0,0,0,0,0,0,0],"sum_hessian":[4.034E3,7.56E2,3.278E3,6.64E2,9.2E1,2.798E3,4.8E2,1.22E3,1.578E3,8.1E1,3.99E2,2.98E2,9.22E2,1.025E3,5.53E2],"tree_param":{"num_deleted":"0","num_feature":"5","num_nodes":"15","size_leaf_vector":"1"}},{"base_weights":[1.2211408E-1,-1.9503021E1,4.4925375E0,-2.1079174E1,-9.9397135E0,3.096453E0,1.2429994E1,-9.91849E-1,-1.4986343E0,-5.5438066E-1,-3.753381E-1,1.1820438E0,4.715299E0,4.405798E-1,6.5328777E-1,-4.6858367E-2,1.0045642E-1,1.9976965E-1,3.047986E-1],"categories":[],"categories_nodes":[],"categories_segments":[],"categories_sizes":[],"default_left":[0,0,0,0,0,0,0,0,0,0,0,0,0,0,0,0,0,0,0],"id":5,"left_children":[1,3,5,7,9,11,13,-1,-1,-1,-1,15,17,-1,-1,-1,-1,-1,-1],"loss_changes":[3.4256188E5,1.0243219E4,3.606382E4,3.3039688E3,3.906836E1,8.60385E3,1.0173281E3,0E0,0E0,0E0,0E0,2.350995E3,1.3749141E3,0E0,0E0,0E0,0E0,0E0,0E0],"parents":[2147483647,0,0,1,1,2,2,3,3,4,4,5,5,6,6,11,11,12,12],"right_children":[2,4,6,8,10,12,14,-1,-1,-1,-1,16,18,-1,-1,-1,-1,-1,-1],"split_conditions":[4.00079E1,1.35962E1,8.22844E1,8.4112E0,3.14845E1,6.87776E1,9.15912E1,-9.91849E-1,-1.4986343E0,-5.5438066E-1,-3.753381E-1,6.20105E1,7.54011E1,4.405798E-1,6.5328777E-1,-4.6858367E-2,1.0045642E-1,1.9976965E-1,3.047986E-1],"split_indices":[0,0,0,4,0,0,0,0,0,0,0,0,0,0,0,0,0,0,0],"split_type":[0,0,0,0,0,0,0,0,0,0,0,0,0,0,0,0,0,0,0],"sum_hessian":[3.987E3,7.24E2,3.263E3,6.18E2,1.06E2,2.779E3,4.84E2,5.72E2,4.6E1,5.9E1,4.7E1,1.276E3,1.503E3,1.02E2,3.82E2,3.66E2,9.1E2,1.049E3,4.54E2],"tree_param":{"num_deleted":"0","num_feature":"5","num_nodes":"19","size_leaf_vector":"1"}},{"base_weights":[1.9511841E-2,-1.8744406E1,4.1561832E0,-1.9994074E1,-4.441236E-1,2.8332372E0,1.1499242E1,-1.8994858E1,-1.4810584E0,5.1446927E-1,4.1145034E0,3.9176416E-1,6.154141E-1,-9.6038294E-1,-7.497387E-1,-2.2134885E-1,4.897437E-2,1.543631E-1,2.557754E-1],"categories":[],"categories_nodes":[],"categories_segments":[],"categories_sizes":[],"default_left":[0,0,0,0,0,0,0,0,0,0,0,0,0,0,0,0,0,0,0],"id":6,"left_children":[1,3,5,7,-1,9,11,13,-1,15,17,-1,-1,-1,-1,-1,-1,-1,-1],"loss_changes":[3.100064E5,8.1440312E3,3.167761E4,4.4505625E3,0E0,8.244279E3,1.4262656E3,1.16453125E2,0E0,2.4043972E3,1.8365859E3,0E0,0E0,0E0,0E0,0E0,0E0,0E0,0E0],"parents":[2147483647,0,0,1,1,2,2,3,3,5,5,6,6,7,7,9,9,10,10],"right_children":[2,4,6,8,-1,10,12,14,-1,16,18,-1,-1,-1,-1,-1,-1,-1,-1],"split_conditions":[3.75222E1,2.06746E1,8.12611E1,8.4112E0,-4.441236E-1,6.69416E1,9.07525E1,6.8394E0,-1.4810584E0,5.18008E1,7.23533E1,3.9176416E-1,6.154141E-1,-9.6038294E-1,-7.497387E-1,-2.2134885E-1,4.897437E-2,1.543631E-1,2.557754E-1],"split_indices":[0,0,0,4,0,0,0,0,0,0,0,0,0,0,0,0,0,0,0],"split_type":[0,0,0,0,0,0,0,0,0,0,0,0,0,0,0,0,0,0,0],"sum_hessian":[3.987E3,7.18E2,3.269E3,6.33E2,8.5E1,2.774E3,4.95E2,5.85E2,4.8E1,9.89E2,1.785E3,1.16E2,3.79E2,5.02E2,8.3E1,8.4E1,9.05E2,9.44E2,8.41E2],"tree_param":{"num_deleted":"0","num_feature":"5","num_nodes":"19","size_leaf_vector":"1"}},{"base_weights":[-6.602353E-2,-1.793398E1,3.8968909E0,-1.9112852E1,-4.2626822E-1,2.5696478E0,1.0709719E1,-1.8208885E1,-1.3929996E0,4.727559E-2,3.6749759E0,3.4797516E-1,5.8070225E-1,-8.418667E-1,-9.915494E-1,-2.0461595E-1,2.9573219E-2,1.3326575E-1,2.334907E-1],"categories":[],"categories_nodes":[],"categories_segments":[],"categories_sizes":[],"default_left":[0,0,0,0,0,0,0,0,0,0,0,0,0,0,0,0,0,0,0],"id":7,"left_children":[1,3,5,7,-1,9,11,13,-1,15,17,-1,-1,-1,-1,-1,-1,-1,-1],"loss_changes":[2.8414606E5,7.3944375E3,2.960384E4,3.5682031E3,0E0,7.676047E3,1.8272695E3,8.85E1,0E0,1.9686609E3,1.9347715E3,0E0,0E0,0E0,0E0,0E0,0E0,0E0,0E0],"parents":[2147483647,0,0,1,1,2,2,3,3,5,5,6,6,7,7,9,9,10,10],"right_children":[2,4,6,8,-1,10,12,14,-1,16,18,-1,-1,-1,-1,-1,-1,-1,-1],"split_conditions":[3.75222E1,2.06746E1,8.04663E1,8.4112E0,-4.2626822E-1,6.56525E1,8.79774E1,3.1723E0,-1.3929996E0,5.18008E1,7.16572E1,3.4797516E-1,5.8070225E-1,-8.418667E-1,-9.915494E-1,-2.0461595E-1,2.9573219E-2,1.3326575E-1,2.334907E-1],"split_indices":[0,0,0,4,0,0,0,4,0,0,0,0,0,0,0,0,0,0,0],"split_type":[0,0,0,0,0,0,0,0,0,0,0,0,0,0,0,0,0,0,0],"sum_hessian":[4.006E3,7.25E2,3.281E3,6.4E2,8.5E1,2.75E3,5.31E2,5.92E2,4.8E1,8.39E2,1.911E3,1.28E2,4.03E2,3.98E2,1.94E2,9.5E1,7.44E2,1.009E3,9.02E2],"tree_param":{"num_deleted":"0","num_feature":"5","num_nodes":"19","size_leaf_vector":"1"}},{"base_weights":[3.2808937E-2,-1.7604464E1,3.767262E0,-1.6628254E1,-1.3607551E0,2.4035342E0,9.962684E0,-8.5912E-1,-4.412586E-1,-6.171358E-1,3.31218E0,3.3800617E-1,5.5748713E-1,-2.3285146E-1,8.226926E-3,1.1273532E-1,2.1046703E-1],"categories":[],"categories_nodes":[],"categories_segments":[],"categories_sizes":[],"default_left":[0,0,0,0,0,0,0,0,0,0,0,0,0,0,0,0,0],"id":8,"left_children":[1,3,5,7,-1,9,11,-1,-1,13,15,-1,-1,-1,-1,-1,-1],"loss_changes":[2.621384E5,5.2321875E3,2.7667133E4,3.5184844E3,0E0,7.4080645E3,2.2266133E3,0E0,0E0,2.0235203E3,2.0075117E3,0E0,0E0,0E0,0E0,0E0,0E0],"parents":[2147483647,0,0,1,1,2,2,3,3,5,5,6,6,9,9,10,10],"right_children":[2,4,6,8,-1,10,12,-1,-1,14,16,-1,-1,-1,-1,-1,-1],"split_conditions":[3.45334E1,8.4112E0,7.95707E1,1.35962E1,-1.3607551E0,6.42583E1,9.07525E1,-8.5912E-1,-4.412586E-1,5.00687E1,7.06407E1,3.3800617E-1,5.5748713E-1,-2.3285146E-1,8.226926E-3,1.1273532E-1,2.1046703E-1],"split_indices":[0,4,0,0,0,0,0,0,0,0,0,0,0,0,0,0,0],"split_type":[0,0,0,0,0,0,0,0,0,0,0,0,0,0,0,0,0],"sum_hessian":[3.973E3,6.92E2,3.281E3,6.39E2,5.3E1,2.693E3,5.88E2,5.73E2,6.6E1,6.23E2,2.07E3,1.86E2,4.02E2,9.7E1,5.26E2,1.01E3,1.06E3],"tree_param":{"num_deleted":"0","num_feature":"5","num_nodes":"17","size_leaf_vector":"1"}},{"base_weights":[-1.0974901E-1,-1.6675854E1,3.4903283E0,-1.5257525E1,-2.1787579E1,2.2215939E0,9.309092E0,-7.934082E-1,-4.4900495E-1,-9.460285E-1,-1.3437154E0,-4.100964E-1,3.1356213E0,3.1005907E-1,1.0609353E1,-2.418892E-1,7.278092E-3,1.09546416E-1,1.9844379E-1,4.324082E-1,5.48822E-1],"categories":[],"categories_nodes":[],"categories_segments":[],"categories_sizes":[],"default_left":[0,0,0,0,0,0,0,0,0,0,0,0,0,0,0,0,0,0,0,0,0],"id":9,"left_children":[1,3,5,7,9,11,13,-1,-1,-1,-1,15,17,-1,19,-1,-1,-1,-1,-1,-1],"loss_changes":[2.3299889E5,3.9118438E3,2.3622164E4,2.4348594E3,2.2459375E2,6.353495E3,2.0144023E3,0E0,0E0,0E0,0E0,1.7199526E3,1.5664043E3,0E0,5.198828E1,0E0,0E0,0E0,0E0,0E0,0E0],"parents":[2147483647,0,0,1,1,2,2,3,3,4,4,5,5,6,6,11,11,12,12,14,14],"right_children":[2,4,6,8,10,12,14,-1,-1,-1,-1,16,18,-1,20,-1,-1,-1,-1,-1,-1],"split_conditions":[3.45334E1,4.3354E0,7.93735E1,1.01992E1,1.02803E1,6.47654E1,8.79774E1,-7.934082E-1,-4.4900495E-1,-9.460285E-1,-1.3437154E0,4.80016E1,7.07521E1,3.1005907E-1,9.55482E1,-2.418892E-1,7.278092E-3,1.09546416E-1,1.9844379E-1,4.324082E-1,5.48822E-1],"split_indices":[0,4,0,0,4,0,0,0,0,0,0,0,0,0,0,0,0,0,0,0,0],"split_type":[0,0,0,0,0,0,0,0,0,0,0,0,0,0,0,0,0,0,0,0,0],"sum_hessian":[3.9E3,6.94E2,3.206E3,5.54E2,1.4E2,2.636E3,5.7E2,4.81E2,7.3E1,1.06E2,3.4E1,6.8E2,1.956E3,1.78E2,3.92E2,7.2E1,6.08E2,9.76E2,9.8E2,1.03E2,2.89E2],"tree_param":{"num_deleted":"0","num_feature":"5","num_nodes":"21","size_leaf_vector":"1"}},{"base_weights":[1.3707544E-1,2.4629035E0,-1.3979407E1,4.4695348E-1,1.5998404E0,-9.733534E0,-1.7853642E1,2.606035E0,-1.3527921E0,-1.1138164E1,-5.785248E0,-1.6151102E1,-1.1189852E0,1.3717112E-1,1.2476731E-1,1.7639686E-1,-9.805988E-2,-3.4041905E-1,-5.7269925E-1,-3.680792E-2,-3.0698884E-1,-8.0788225E-1,-2.6362327E-1],"categories":[],"categories_nodes":[],"categories_segments":[],"categories_sizes":[],"default_left":[0,0,0,0,0,0,0,0,0,0,0,0,0,0,0,0,0,0,0,0,0,0,0],"id":10,"left_children":[1,3,5,-1,7,9,11,13,15,17,19,21,-1,-1,-1,-1,-1,-1,-1,-1,-1,-1,-1],"loss_changes":[1.303136E5,1.9407996E4,8.636852E3,0E0,8.979713E3,1.3054629E3,1.1394219E3,4.6464844E0,2.4522764E3,1.4025195E2,1.6426685E2,3.334453E2,0E0,0E0,0E0,0E0,0E0,0E0,0E0,0E0,0E0,0E0,0E0],"parents":[2147483647,0,0,1,1,2,2,4,4,5,5,6,6,7,7,8,8,9,9,10,10,11,11],"right_children":[2,4,6,-1,8,10,12,14,16,18,20,22,-1,-1,-1,-1,-1,-1,-1,-1,-1,-1,-1],"split_conditions":[1.2243E0,2.138E-1,2.791E0,4.4695348E-1,2.7155E0,6.63E0,6.1794E0,9.631E-1,4.923E-1,2.28669E1,7.2484E0,1.785E1,-1.1189852E0,1.3717112E-1,1.2476731E-1,1.7639686E-1,-9.805988E-2,-3.4041905E-1,-5.7269925E-1,-3.680792E-2,-3.0698884E-1,-8.0788225E-1,-2.6362327E-1],"split_indices":[4,4,4,0,2,3,4,4,4,2,2,3,0,0,0,0,0,0,0,0,0,0,0],"split_type":[0,0,0,0,0,0,0,0,0,0,0,0,0,0,0,0,0,0,0,0,0,0,0],"sum_hessian":[3.962E3,3.404E3,5.58E2,3.89E2,3.015E3,2.72E2,2.86E2,2.249E3,7.66E2,1.96E2,7.6E1,2.23E2,6.3E1,6.01E2,1.648E3,8.6E1,6.8E2,2.6E1,1.7E2,7E0,6.9E1,2.16E2,7E0],"tree_param":{"num_deleted":"0","num_feature":"5","num_nodes":"23","size_leaf_vector":"1"}},{"base_weights":[1.1310852E-1,-1.5176754E1,3.2431517E0,-7.9392475E-1,-8.588025E0,1.9794781E0,8.320651E0,-4.969444E-1,-3.3037308E-1,-6.2144834E-1,2.7545176E0,6.129256E0,4.9500602E-1,-2.028703E-1,-9.51375E-4,9.417651E-2,1.769226E-1,2.756369E-1,3.5293064E-1],"categories":[],"categories_nodes":[],"categories_segments":[],"categories_sizes":[],"default_left":[0,0,0,0,0,0,0,0,0,0,0,0,0,0,0,0,0,0,0],"id":11,"left_children":[1,3,5,-1,7,9,11,-1,-1,13,15,17,-1,-1,-1,-1,-1,-1,-1],"loss_changes":[1.8994689E5,3.7493281E3,2.1081223E4,0E0,2.7948242E1,5.332624E3,2.2795312E3,0E0,0E0,1.2838696E3,1.4146914E3,2.6098633E1,0E0,0E0,0E0,0E0,0E0,0E0,0E0],"parents":[2147483647,0,0,1,1,2,2,4,4,5,5,6,6,9,9,10,10,11,11],"right_children":[2,4,6,-1,8,10,12,-1,-1,14,16,18,-1,-1,-1,-1,-1,-1,-1],"split_conditions":[3.45334E1,1.01992E1,7.84036E1,-7.9392475E-1,2.5732E1,6.39731E1,9.2968E1,-4.969444E-1,-3.3037308E-1,5.00687E1,7.04547E1,8.37129E1,4.9500602E-1,-2.028703E-1,-9.51375E-4,9.417651E-2,1.769226E-1,2.756369E-1,3.5293064E-1],"split_indices":[0,0,0,0,0,0,0,0,0,0,0,0,0,0,0,0,0,0,0],"split_type":[0,0,0,0,0,0,0,0,0,0,0,0,0,0,0,0,0,0,0],"sum_hessian":[3.962E3,6.71E2,3.291E3,5.82E2,8.9E1,2.639E3,6.52E2,4.1E1,4.8E1,6.06E2,2.033E3,2.95E2,3.57E2,8.6E1,5.2E2,1.021E3,1.012E3,2.1E2,8.5E1],"tree_param":{"num_deleted":"0","num_feature":"5","num_nodes":"19","size_leaf_vector":"1"}},{"base_weights":[7.8286275E-2,2.1310174E0,-1.2316278E1,4.1710702E-1,1.3680251E0,-8.494149E0,-1.566963E1,2.343696E0,-1.4140692E0,-1.0719596E1,-5.5210347E0,-1.4014258E1,-9.9730915E-1,1.2213483E-1,1.1056105E-1,1.878174E-1,-1.0275954E-1,-3.0481702E-1,-5.5303824E-1,-3.3148804E-1,-1.4955348E-1,-7.0808965E-1,-2.74896E-1],"categories":[],"categories_nodes":[],"categories_segments":[],"categories_sizes":[],"default_left":[0,0,0,0,0,0,0,0,0,0,0,0,0,0,0,0,0,0,0,0,0,0,0],"id":12,"left_children":[1,3,5,-1,7,9,11,13,15,17,19,21,-1,-1,-1,-1,-1,-1,-1,-1,-1,-1,-1],"loss_changes":[1.030425E5,1.677273E4,6.916867E3,0E0,8.44086E3,1.6250664E3,1.3201797E3,1.1609375E1,2.8742778E3,1.20265625E2,3.0715308E2,4.511875E2,0E0,0E0,0E0,0E0,0E0,0E0,0E0,0E0,0E0,0E0,0E0],"parents":[2147483647,0,0,1,1,2,2,4,4,5,5,6,6,7,7,8,8,9,9,10,10,11,11],"right_children":[2,4,6,-1,8,10,12,14,16,18,20,22,-1,-1,-1,-1,-1,-1,-1,-1,-1,-1,-1],"split_conditions":[1.2243E0,1.947E-1,2.6703E0,4.1710702E-1,2.8739E0,3.96E0,5.5318E0,1.0037E0,4.923E-1,2.10621E1,1.49E1,1.785E1,-9.9730915E-1,1.2213483E-1,1.1056105E-1,1.878174E-1,-1.0275954E-1,-3.0481702E-1,-5.5303824E-1,-3.3148804E-1,-1.4955348E-1,-7.0808965E-1,-2.74896E-1],"split_indices":[4,4,4,0,2,3,4,4,4,2,3,3,0,0,0,0,0,0,0,0,0,0,0],"split_type":[0,0,0,0,0,0,0,0,0,0,0,0,0,0,0,0,0,0,0,0,0,0,0],"sum_hessian":[4.043E3,3.471E3,5.72E2,3.69E2,3.102E3,2.73E2,2.99E2,2.297E3,8.05E2,1.51E2,1.22E2,2.3E2,6.9E1,9.2E2,1.377E3,9E1,7.15E2,2E1,1.31E2,7.8E1,4.4E1,2.18E2,1.2E1],"tree_param":{"num_deleted":"0","num_feature":"5","num_nodes":"23","size_leaf_vector":"1"}},{"base_weights":[-6.2181637E-2,-1.4082642E1,2.9240935E0,-1.35416155E1,-1.1510524E0,1.7171103E0,7.36729E0,-6.944225E-1,-3.7056947E-1,-9.513054E-1,2.4042914E0,5.5094414E0,4.5210335E-1,-2.0614947E-1,-1.161803E-2,7.679214E-2,1.5603605E-1,2.473034E-1,3.146678E-1],"categories":[],"categories_nodes":[],"categories_segments":[],"categories_sizes":[],"default_left":[0,0,0,0,0,0,0,0,0,0,0,0,0,0,0,0,0,0,0],"id":13,"left_children":[1,3,5,7,-1,9,11,-1,-1,13,15,17,-1,-1,-1,-1,-1,-1,-1],"loss_changes":[1.6558462E5,2.4037344E3,1.7441568E4,1.8916016E3,0E0,4.717613E3,2.1728945E3,0E0,0E0,1.2198469E3,1.3035215E3,4.0356445E1,0E0,0E0,0E0,0E0,0E0,0E0,0E0],"parents":[2147483647,0,0,1,1,2,2,3,3,5,5,6,6,9,9,10,10,11,11],"right_children":[2,4,6,8,-1,10,12,-1,-1,14,16,18,-1,-1,-1,-1,-1,-1,-1],"split_conditions":[3.14845E1,1.02803E1,7.75841E1,1.35962E1,-1.1510524E0,6.32487E1,9.2968E1,-6.944225E-1,-3.7056947E-1,4.80016E1,6.97292E1,8.22844E1,4.5210335E-1,-2.0614947E-1,-1.161803E-2,7.679214E-2,1.5603605E-1,2.473034E-1,3.146678E-1],"split_indices":[0,4,0,0,0,0,0,0,0,0,0,0,0,0,0,0,0,0,0],"split_type":[0,0,0,0,0,0,0,0,0,0,0,0,0,0,0,0,0,0,0],"sum_hessian":[3.948E3,6.91E2,3.257E3,6.61E2,3E1,2.565E3,6.92E2,6E2,6.1E1,5.25E2,2.04E3,3.49E2,3.43E2,9.2E1,4.33E2,9.75E2,1.065E3,2.4E2,1.09E2],"tree_param":{"num_deleted":"0","num_feature":"5","num_nodes":"19","size_leaf_vector":"1"}},{"base_weights":[-4.630856E-2,-1.2915942E1,2.9053416E0,-1.4040658E1,-6.3673015E0,1.7087331E0,7.0976295E0,-7.193089E-1,-6.021557E-1,-3.728225E-1,-2.564379E-1,-5.3621348E-2,2.4334865E0,5.2134466E0,4.2960706E-1,-8.748857E-2,2.3823421E-2,9.010282E-2,1.5584466E-1,2.3577268E-1,2.982148E-1],"categories":[],"categories_nodes":[],"categories_segments":[],"categories_sizes":[],"default_left":[0,0,0,0,0,0,0,0,0,0,0,0,0,0,0,0,0,0,0,0,0],"id":14,"left_children":[1,3,5,7,9,11,13,-1,-1,-1,-1,15,17,19,-1,-1,-1,-1,-1,-1,-1],"loss_changes":[1.530044E5,5.226547E3,1.6394428E4,4.415625E1,2.6609863E1,3.261941E3,2.0734492E3,0E0,0E0,0E0,0E0,6.9555E2,7.791904E2,2.359668E1,0E0,0E0,0E0,0E0,0E0,0E0,0E0],"parents":[2147483647,0,0,1,1,2,2,3,3,4,4,5,5,6,6,11,11,12,12,13,13],"right_children":[2,4,6,8,10,12,14,-1,-1,-1,-1,16,18,20,-1,-1,-1,-1,-1,-1,-1],"split_conditions":[4.00079E1,1.35962E1,7.75841E1,2.9067E0,2.90697E1,6.52079E1,9.2968E1,-7.193089E-1,-6.021557E-1,-3.728225E-1,-2.564379E-1,5.81535E1,7.10963E1,8.22844E1,4.2960706E-1,-8.748857E-2,2.3823421E-2,9.010282E-2,1.5584466E-1,2.3577268E-1,2.982148E-1],"split_indices":[0,0,0,0,0,0,0,0,0,0,0,0,0,0,0,0,0,0,0,0,0],"split_type":[0,0,0,0,0,0,0,0,0,0,0,0,0,0,0,0,0,0,0,0,0],"sum_hessian":[4.021E3,7.48E2,3.273E3,6.35E2,1.13E2,2.55E3,7.23E2,4.64E2,1.71E2,4.6E1,6.7E1,7.44E2,1.806E3,3.42E2,3.81E2,1.75E2,5.69E2,9.97E2,8.09E2,2.43E2,9.9E1],"tree_param":{"num_deleted":"0","num_feature":"5","num_nodes":"21","size_leaf_vector":"1"}},{"base_weights":[5.3240176E-2,1.91292E0,-1.1230316E1,7.0418024E0,1.1952417E0,-8.572251E0,-1.5299721E1,3.6705887E-1,2.0016181E0,2.0220647E0,-1.3562253E0,-9.286891E0,-3.3790588E0,-6.811927E-1,-1.0364991E0,3.0765912E-1,-3.898991E-1,1.04751E-1,9.5971376E-2,-1.4946285E-1,-2.6325138E-2,-4.0554032E-1,-5.5348974E-1,-7.3293366E-2,-2.5080127E-1],"categories":[],"categories_nodes":[],"categories_segments":[],"categories_sizes":[],"default_left":[0,0,0,0,0,0,0,0,0,0,0,0,0,0,0,0,0,0,0,0,0,0,0,0,0],"id":15,"left_children":[1,3,5,7,9,11,13,-1,15,17,19,21,23,-1,-1,-1,-1,-1,-1,-1,-1,-1,-1,-1,-1],"loss_changes":[8.326276E4,1.2509582E4,5.6211406E3,8.2089453E2,6.3223384E3,1.1811855E3,8.262969E2,0E0,1.7063184E3,2.9882812E0,1.007881E3,3.0351953E2,1.27605896E2,0E0,0E0,0E0,0E0,0E0,0E0,0E0,0E0,0E0,0E0,0E0,0E0],"parents":[2147483647,0,0,1,1,2,2,3,3,4,4,5,5,6,6,8,8,9,9,10,10,11,11,12,12],"right_children":[2,4,6,8,10,12,14,-1,16,18,20,22,24,-1,-1,-1,-1,-1,-1,-1,-1,-1,-1,-1,-1],"split_conditions":[1.2243E0,3.228E-1,3.3656E0,6.216362E2,2.8739E0,1.49E1,1.02803E1,3.6705887E-1,1.033E-1,1.0017E0,9.209E-1,2.5941E0,1.9609E0,-6.811927E-1,-1.0364991E0,3.0765912E-1,-3.898991E-1,1.04751E-1,9.5971376E-2,-1.4946285E-1,-2.6325138E-2,-4.0554032E-1,-5.5348974E-1,-7.3293366E-2,-2.5080127E-1],"split_indices":[4,4,4,2,2,3,4,0,4,4,4,4,4,0,0,0,0,0,0,0,0,0,0,0,0],"split_type":[0,0,0,0,0,0,0,0,0,0,0,0,0,0,0,0,0,0,0,0,0,0,0,0,0],"sum_hessian":[3.961E3,3.403E3,5.58E2,4.14E2,2.989E3,3.44E2,2.14E2,3.81E2,3.3E1,2.258E3,7.31E2,3E2,4.4E1,1.8E2,3.4E1,2.4E1,9E0,8.78E2,1.38E3,2.37E2,4.94E2,2.07E2,9.3E1,2.4E1,2E1],"tree_param":{"num_deleted":"0","num_feature":"5","num_nodes":"25","size_leaf_vector":"1"}},{"base_weights":[-7.368284E-2,1.6777527E0,-1.0581264E1,3.354121E-1,1.0862151E0,-7.86895E0,-1.4564437E1,1.8888675E0,-1.3308666E0,-8.522516E0,-3.3360574E0,-6.4315885E-1,-1.066248E0,9.998869E-2,8.845437E-2,1.46278E-1,-9.08216E-2,-3.7389958E-1,-5.181514E-1,-2.5339324E-2,-2.1659526E-1],"categories":[],"categories_nodes":[],"categories_segments":[],"categories_sizes":[],"default_left":[0,0,0,0,0,0,0,0,0,0,0,0,0,0,0,0,0,0,0,0,0],"id":16,"left_children":[1,3,5,-1,7,9,11,13,15,17,19,-1,-1,-1,-1,-1,-1,-1,-1,-1,-1],"loss_changes":[7.360919E4,1.039012E4,5.7787734E3,0E0,5.981074E3,9.312168E2,1.4449297E3,1.763086E1,1.7207047E3,2.8433398E2,1.4049731E2,0E0,0E0,0E0,0E0,0E0,0E0,0E0,0E0,0E0,0E0],"parents":[2147483647,0,0,1,1,2,2,4,4,5,5,6,6,7,7,8,8,9,9,10,10],"right_children":[2,4,6,-1,8,10,12,14,16,18,20,-1,-1,-1,-1,-1,-1,-1,-1,-1,-1],"split_conditions":[1.2243E0,2.138E-1,3.3656E0,3.354121E-1,2.7849E0,1.49E1,1.02803E1,1.0017E0,4.923E-1,2.5941E0,1.538E0,-6.4315885E-1,-1.066248E0,9.998869E-2,8.845437E-2,1.46278E-1,-9.08216E-2,-3.7389958E-1,-5.181514E-1,-2.5339324E-2,-2.1659526E-1],"split_indices":[4,4,4,0,2,3,4,4,4,4,4,0,0,0,0,0,0,0,0,0,0],"split_type":[0,0,0,0,0,0,0,0,0,0,0,0,0,0,0,0,0,0,0,0,0],"sum_hessian":[3.993E3,3.425E3,5.68E2,3.5E2,3.075E3,3.44E2,2.24E2,2.309E3,7.66E2,2.98E2,4.6E1,1.93E2,3.1E1,8.78E2,1.431E3,8E1,6.86E2,2.15E2,8.3E1,1.4E1,3.2E1],"tree_param":{"num_deleted":"0","num_feature":"5","num_nodes":"21","size_leaf_vector":"1"}},{"base_weights":[-7.4697584E-2,-1.2024769E1,2.494936E0,-1.2691633E1,-7.874002E0,1.3516262E0,6.065665E0,-5.984683E-1,-9.0065914E-1,-4.253269E-1,-2.5106424E-1,-8.453369E-1,1.961003E0,4.656243E0,3.8167328E-1,-2.0717639E-1,-2.1425955E-2,5.8056623E-2,1.26547E-1,2.0870721E-1,2.6962757E-1],"categories":[],"categories_nodes":[],"categories_segments":[],"categories_sizes":[],"default_left":[0,0,0,0,0,0,0,0,0,0,0,0,0,0,0,0,0,0,0,0,0],"id":17,"left_children":[1,3,5,7,9,11,13,-1,-1,-1,-1,15,17,19,-1,-1,-1,-1,-1,-1,-1],"loss_changes":[1.2205569E5,1.6027969E3,1.3327117E4,1.0318828E3,7.4268555E1,3.3291665E3,1.7604492E3,0E0,0E0,0E0,0E0,7.403681E2,9.161113E2,7.050098E1,0E0,0E0,0E0,0E0,0E0,0E0,0E0],"parents":[2147483647,0,0,1,1,2,2,3,3,4,4,5,5,6,6,11,11,12,12,13,13],"right_children":[2,4,6,8,10,12,14,-1,-1,-1,-1,16,18,20,-1,-1,-1,-1,-1,-1,-1],"split_conditions":[3.14845E1,7.7057E0,7.66438E1,8.4112E0,2.5732E1,6.32487E1,9.39893E1,-5.984683E-1,-9.0065914E-1,-4.253269E-1,-2.5106424E-1,4.37121E1,6.90302E1,1.9136E0,3.8167328E-1,-2.0717639E-1,-2.1425955E-2,5.8056623E-2,1.26547E-1,2.0870721E-1,2.6962757E-1],"split_indices":[0,0,0,4,0,0,0,0,0,0,0,0,0,2,0,0,0,0,0,0,0],"split_type":[0,0,0,0,0,0,0,0,0,0,0,0,0,0,0,0,0,0,0,0,0],"sum_hessian":[3.968E3,7E2,3.268E3,5.97E2,1.03E2,2.479E3,7.89E2,5.55E2,4.2E1,7.5E1,2.8E1,5.38E2,1.941E3,4.37E2,3.52E2,5.5E1,4.83E2,8.55E2,1.086E3,3.04E2,1.33E2],"tree_param":{"num_deleted":"0","num_feature":"5","num_nodes":"21","size_leaf_vector":"1"}},{"base_weights":[1.0743152E-1,-1.1242088E1,2.4232235E0,-1.2168253E1,-7.7180343E0,1.3247557E0,5.775263E0,-5.6905514E-1,-8.136061E-1,-4.2566526E-1,-2.325003E-1,-4.7700867E-1,1.9289428E0,4.511921E0,3.6705893E-1,-1.4851329E-1,-6.3735023E-3,6.286756E-2,1.2250947E-1,2.0009784E-1,2.5935507E-1],"categories":[],"categories_nodes":[],"categories_segments":[],"categories_sizes":[],"default_left":[0,0,0,0,0,0,0,0,0,0,0,0,0,0,0,0,0,0,0,0,0],"id":18,"left_children":[1,3,5,7,9,11,13,-1,-1,-1,-1,15,17,19,-1,-1,-1,-1,-1,-1,-1],"loss_changes":[1.0584216E5,1.9037891E3,1.2288107E4,7.594531E2,2.8052734E2,2.7502236E3,1.6350371E3,0E0,0E0,0E0,0E0,5.603795E2,6.787178E2,8.8299805E1,0E0,0E0,0E0,0E0,0E0,0E0,0E0],"parents":[2147483647,0,0,1,1,2,2,3,3,4,4,5,5,6,6,11,11,12,12,13,13],"right_children":[2,4,6,8,10,12,14,-1,-1,-1,-1,16,18,20,-1,-1,-1,-1,-1,-1,-1],"split_conditions":[3.45334E1,5.956E0,7.66438E1,6.1794E0,2.5732E1,6.42583E1,9.48329E1,-5.6905514E-1,-8.136061E-1,-4.2566526E-1,-2.325003E-1,4.80016E1,6.964E1,2.5266E0,3.6705893E-1,-1.4851329E-1,-6.3735023E-3,6.286756E-2,1.2250947E-1,2.0009784E-1,2.5935507E-1],"split_indices":[0,0,0,4,0,0,0,0,0,0,0,0,0,2,0,0,0,0,0,0,0],"split_type":[0,0,0,0,0,0,0,0,0,0,0,0,0,0,0,0,0,0,0,0,0],"sum_hessian":[4.02E3,6.79E2,3.341E3,5.31E2,1.48E2,2.52E3,8.21E2,4.77E2,5.4E1,1.08E2,4E1,6.33E2,1.887E3,4.76E2,3.45E2,7.3E1,5.6E2,8.77E2,1.01E3,3.13E2,1.63E2],"tree_param":{"num_deleted":"0","num_feature":"5","num_nodes":"21","size_leaf_vector":"1"}},{"base_weights":[-1.2257345E-2,-1.0882242E1,2.2194624E0,-1.0426609E1,-8.772887E-1,1.1649092E0,5.350355E0,-5.380679E-1,-3.0818644E-1,-1.0308454E0,1.6710258E0,4.017356E0,6.884015E0,-1.7467834E-1,-2.5780339E-2,4.9238358E-2,1.09617494E-1,1.7994611E-1,2.2698642E-1,2.6931375E-1,3.5599154E-1],"categories":[],"categories_nodes":[],"categories_segments":[],"categories_sizes":[],"default_left":[0,0,0,0,0,0,0,0,0,0,0,0,0,0,0,0,0,0,0,0,0],"id":19,"left_children":[1,3,5,7,-1,9,11,-1,-1,13,15,17,19,-1,-1,-1,-1,-1,-1,-1,-1],"loss_changes":[9.775977E4,1.5302969E3,1.1017426E4,1.1334297E3,0E0,2.7902576E3,1.6248105E3,0E0,0E0,5.9543823E2,7.518159E2,4.0317383E1,5.342578E1,0E0,0E0,0E0,0E0,0E0,0E0,0E0,0E0],"parents":[2147483647,0,0,1,1,2,2,3,3,5,5,6,6,9,9,10,10,11,11,12,12],"right_children":[2,4,6,8,-1,10,12,-1,-1,14,16,18,20,-1,-1,-1,-1,-1,-1,-1,-1],"split_conditions":[3.14845E1,1.02803E1,7.6228E1,1.01992E1,-8.772887E-1,6.2195E1,9.07525E1,-5.380679E-1,-3.0818644E-1,4.58363E1,6.88614E1,8.00037E1,9.63894E1,-1.7467834E-1,-2.5780339E-2,4.9238358E-2,1.09617494E-1,1.7994611E-1,2.2698642E-1,2.6931375E-1,3.5599154E-1],"split_indices":[0,4,0,0,0,0,0,0,0,0,0,0,0,0,0,0,0,0,0,0,0],"split_type":[0,0,0,0,0,0,0,0,0,0,0,0,0,0,0,0,0,0,0,0,0],"sum_hessian":[4.023E3,6.83E2,3.34E3,6.49E2,3.4E1,2.502E3,8.38E2,5.74E2,7.5E1,4.68E2,2.034E3,4.55E2,3.83E2,7.5E1,3.93E2,9.26E2,1.108E3,2.98E2,1.57E2,8.7E1,2.96E2],"tree_param":{"num_deleted":"0","num_feature":"5","num_nodes":"21","size_leaf_vector":"1"}},{"base_weights":[6.185094E-4,-1.0390464E1,2.1216593E0,-1.0886085E1,-6.1071744E0,1.1415789E0,5.021911E0,-5.614612E-1,-4.5943442E-1,-3.240153E-1,-1.7468801E-1,-6.2178713E-1,1.6767368E0,3.8675203E0,6.5921974E0,-1.6206872E-1,-1.1591273E-2,5.1547922E-2,1.05455734E-1,1.6540416E-1,2.1668537E-1,2.633482E-1,3.3946812E-1],"categories":[],"categories_nodes":[],"categories_segments":[],"categories_sizes":[],"default_left":[0,0,0,0,0,0,0,0,0,0,0,0,0,0,0,0,0,0,0,0,0,0,0],"id":20,"left_children":[1,3,5,7,9,11,13,-1,-1,-1,-1,15,17,19,21,-1,-1,-1,-1,-1,-1,-1,-1],"loss_changes":[8.599697E4,1.1750234E3,9.191028E3,1.0802344E2,1.2284912E1,2.2933933E3,1.393834E3,0E0,0E0,0E0,0E0,5.826649E2,5.3804395E2,7.892334E1,1.6708984E0,0E0,0E0,0E0,0E0,0E0,0E0,0E0,0E0],"parents":[2147483647,0,0,1,1,2,2,3,3,4,4,5,5,6,6,11,11,12,12,13,13,14,14],"right_children":[2,4,6,8,10,12,14,-1,-1,-1,-1,16,18,20,22,-1,-1,-1,-1,-1,-1,-1,-1],"split_conditions":[3.14845E1,1.01992E1,7.60693E1,2.5617E0,2.90697E1,6.36105E1,9.2968E1,-5.614612E-1,-4.5943442E-1,-3.240153E-1,-1.7468801E-1,4.58363E1,6.88614E1,7.91714E1,9.71952E1,-1.6206872E-1,-1.1591273E-2,5.1547922E-2,1.05455734E-1,1.6540416E-1,2.1668537E-1,2.633482E-1,3.3946812E-1],"split_indices":[0,0,0,0,0,0,0,0,0,0,0,0,0,0,0,0,0,0,0,0,0,0,0],"split_type":[0,0,0,0,0,0,0,0,0,0,0,0,0,0,0,0,0,0,0,0,0,0,0],"sum_hessian":[3.895E3,6.58E2,3.237E3,5.85E2,7.3E1,2.423E3,8.14E2,4.22E2,1.63E2,5.7E1,1.6E1,5.64E2,1.859E3,4.76E2,3.38E2,6.8E1,4.96E2,7.95E2,1.064E3,2.57E2,2.19E2,7.9E1,2.59E2],"tree_param":{"num_deleted":"0","num_feature":"5","num_nodes":"23","size_leaf_vector":"1"}},{"base_weights":[-2.1021713E-2,1.3994862E0,-8.242761E0,5.051931E0,8.6934197E-1,-6.0962105E0,-1.1552378E1,5.431331E0,4.1556677E-1,1.4509038E0,-9.989601E-1,-6.9783683E0,-4.0033755E0,-5.206795E-1,-9.6949637E-1,2.363089E-1,2.965447E-1,2.2353892E-1,-3.4211576E-1,7.9938374E-2,6.6351116E-2,-1.7102762E-1,-1.2175156E-2,-1.09074935E-1,-3.467395E-1,-5.7576355E-2,-2.2568019E-1],"categories":[],"categories_nodes":[],"categories_segments":[],"categories_sizes":[],"default_left":[0,0,0,0,0,0,0,0,0,0,0,0,0,0,0,0,0,0,0,0,0,0,0,0,0,0,0],"id":21,"left_children":[1,3,5,7,9,11,13,15,17,19,21,23,25,-1,-1,-1,-1,-1,-1,-1,-1,-1,-1,-1,-1,-1,-1],"loss_changes":[4.680789E4,6.6020244E3,3.9519219E3,7.527842E2,3.2520376E3,5.7830664E2,1.0964668E3,4.962793E1,1.2158058E3,3.3046875E1,1.3206155E3,2.4641602E1,1.7317065E2,0E0,0E0,0E0,0E0,0E0,0E0,0E0,0E0,0E0,0E0,0E0,0E0,0E0,0E0],"parents":[2147483647,0,0,1,1,2,2,3,3,4,4,5,5,6,6,7,7,8,8,9,9,10,10,11,11,12,12],"right_children":[2,4,6,8,10,12,14,16,18,20,22,24,26,-1,-1,-1,-1,-1,-1,-1,-1,-1,-1,-1,-1,-1,-1],"split_conditions":[1.2243E0,3.799E-1,3.3656E0,6.216362E2,2.7155E0,5.75E0,1.37305E1,9.10571E1,1.033E-1,9.943E-1,8.833E-1,9.5222E0,1.00353E1,-5.206795E-1,-9.6949637E-1,2.363089E-1,2.965447E-1,2.2353892E-1,-3.4211576E-1,7.9938374E-2,6.6351116E-2,-1.7102762E-1,-1.2175156E-2,-1.09074935E-1,-3.467395E-1,-5.7576355E-2,-2.2568019E-1],"split_indices":[4,4,4,2,2,3,4,2,4,4,4,2,2,0,0,0,0,0,0,0,0,0,0,0,0,0,0],"split_type":[0,0,0,0,0,0,0,0,0,0,0,0,0,0,0,0,0,0,0,0,0,0,0,0,0,0,0],"sum_hessian":[4.001E3,3.414E3,5.87E2,4.29E2,2.985E3,3.62E2,2.25E2,3.96E2,3.3E1,2.277E3,7.08E2,2.49E2,1.13E2,2.08E2,1.7E1,2.07E2,1.89E2,2.2E1,1.1E1,8.31E2,1.446E3,1.62E2,5.46E2,5E0,2.44E2,2.1E1,9.2E1],"tree_param":{"num_deleted":"0","num_feature":"5","num_nodes":"27","size_leaf_vector":"1"}},{"base_weights":[-3.8389314E-2,-9.280138E0,1.9789656E0,-9.856812E0,-5.2629604E0,9.344351E-1,4.3792253E0,-9.467529E0,-7.0342267E-1,-3.057842E-1,-1.871203E-1,-8.2458115E-1,1.3555113E0,3.303949E0,5.902394E0,-4.863477E-1,-4.021934E-1,-1.5324025E-1,-2.4273137E-2,3.9523613E-2,8.744571E-2,1.4446245E-1,1.8478689E-1,2.3346275E-1,3.111569E-1],"categories":[],"categories_nodes":[],"categories_segments":[],"categories_sizes":[],"default_left":[0,0,0,0,0,0,0,0,0,0,0,0,0,0,0,0,0,0,0,0,0,0,0,0,0],"id":22,"left_children":[1,3,5,7,9,11,13,15,-1,-1,-1,17,19,21,23,-1,-1,-1,-1,-1,-1,-1,-1,-1,-1],"loss_changes":[7.298782E4,1.4461172E3,8.0423604E3,5.855703E2,5.0897217E1,1.6655293E3,1.5270215E3,2.6890625E1,0E0,0E0,0E0,3.2495404E2,4.163462E2,5.8044434E1,8.998926E1,0E0,0E0,0E0,0E0,0E0,0E0,0E0,0E0,0E0,0E0],"parents":[2147483647,0,0,1,1,2,2,3,3,4,4,5,5,6,6,7,7,11,11,12,12,13,13,14,14],"right_children":[2,4,6,8,10,12,14,16,-1,-1,-1,18,20,22,24,-1,-1,-1,-1,-1,-1,-1,-1,-1,-1],"split_conditions":[3.45334E1,1.01992E1,7.47426E1,8.4112E0,2.5732E1,6.2195E1,8.79774E1,2.9067E0,-7.0342267E-1,-3.057842E-1,-1.871203E-1,4.37121E1,6.81925E1,7.82108E1,9.71952E1,-4.863477E-1,-4.021934E-1,-1.5324025E-1,-2.4273137E-2,3.9523613E-2,8.744571E-2,1.4446245E-1,1.8478689E-1,2.3346275E-1,3.111569E-1],"split_indices":[0,0,0,4,0,0,0,0,0,0,0,0,0,0,0,0,0,0,0,0,0,0,0,0,0],"split_type":[0,0,0,0,0,0,0,0,0,0,0,0,0,0,0,0,0,0,0,0,0,0,0,0,0],"sum_hessian":[3.908E3,6.98E2,3.21E3,6.06E2,9.2E1,2.24E3,9.7E2,5.67E2,3.9E1,4.9E1,4.3E1,4.32E2,1.808E3,5.75E2,3.95E2,4.13E2,1.54E2,5.1E1,3.81E2,7.86E2,1.022E3,3.3E2,2.45E2,1.16E2,2.79E2],"tree_param":{"num_deleted":"0","num_feature":"5","num_nodes":"25","size_leaf_vector":"1"}},{"base_weights":[-6.6852914E-3,-8.691061E0,1.921115E0,-9.301217E0,-1.8999034E-1,1.0629636E0,4.4727707E0,-8.969301E0,-7.7670014E-1,-7.815939E-2,1.6181706E0,3.5227919E0,2.877644E-1,-4.6174994E-1,-3.5380033E-1,-5.534954E-2,1.6979015E-2,6.506008E-2,1.12227365E-1,1.529811E-1,2.0048486E-1],"categories":[],"categories_nodes":[],"categories_segments":[],"categories_sizes":[],"default_left":[0,0,0,0,0,0,0,0,0,0,0,0,0,0,0,0,0,0,0,0,0],"id":23,"left_children":[1,3,5,7,-1,9,11,13,-1,15,17,19,-1,-1,-1,-1,-1,-1,-1,-1,-1],"loss_changes":[6.62116E4,1.994168E3,7.070375E3,8.7852344E2,0E0,1.5377644E3,9.898496E2,2.1596875E2,0E0,3.5431992E2,3.0982812E2,6.8012695E1,0E0,0E0,0E0,0E0,0E0,0E0,0E0,0E0,0E0],"parents":[2147483647,0,0,1,1,2,2,3,3,5,5,6,6,7,7,9,9,10,10,11,11],"right_children":[2,4,6,8,-1,10,12,14,-1,16,18,20,-1,-1,-1,-1,-1,-1,-1,-1,-1],"split_conditions":[4.00079E1,2.06746E1,7.6228E1,1.02803E1,-1.8999034E-1,6.55191E1,9.48329E1,4.2068E0,-7.7670014E-1,5.91363E1,7.23533E1,8.04663E1,2.877644E-1,-4.6174994E-1,-3.5380033E-1,-5.534954E-2,1.6979015E-2,6.506008E-2,1.12227365E-1,1.529811E-1,2.0048486E-1],"split_indices":[0,0,0,4,0,0,0,0,0,0,0,0,0,0,0,0,0,0,0,0,0],"split_type":[0,0,0,0,0,0,0,0,0,0,0,0,0,0,0,0,0,0,0,0,0],"sum_hessian":[3.948E3,7.15E2,3.233E3,6.32E2,8.3E1,2.423E3,8.1E2,6.09E2,2.3E1,7.94E2,1.629E3,4.86E2,3.24E2,4.83E2,1.26E2,2.27E2,5.67E2,1.132E3,4.97E2,2.9E2,1.96E2],"tree_param":{"num_deleted":"0","num_feature":"5","num_nodes":"21","size_leaf_vector":"1"}},{"base_weights":[-6.78321E-2,-8.496266E0,1.7911946E0,-9.317764E0,-5.63551E0,9.362104E-1,4.200932E0,-4.367556E-1,-7.213176E-1,-3.179237E-1,-1.661666E-1,-3.8849172E-1,1.4402467E0,3.3537993E0,2.74176E-1,-8.08328E-2,2.8137797E-3,5.2957438E-2,9.629486E-2,1.4631991E-1,2.0054913E-1],"categories":[],"categories_nodes":[],"categories_segments":[],"categories_sizes":[],"default_left":[0,0,0,0,0,0,0,0,0,0,0,0,0,0,0,0,0,0,0,0,0],"id":24,"left_children":[1,3,5,7,9,11,13,-1,-1,-1,-1,15,17,19,-1,-1,-1,-1,-1,-1,-1],"loss_changes":[6.2467797E4,1.5120938E3,6.716161E3,8.6983203E2,2.3985693E2,1.6147334E3,9.262334E2,0E0,0E0,0E0,0E0,3.7378122E2,3.2181982E2,1.0553906E2,0E0,0E0,0E0,0E0,0E0,0E0,0E0],"parents":[2147483647,0,0,1,1,2,2,3,3,4,4,5,5,6,6,11,11,12,12,13,13],"right_children":[2,4,6,8,10,12,14,-1,-1,-1,-1,16,18,20,-1,-1,-1,-1,-1,-1,-1],"split_conditions":[3.45334E1,5.956E0,7.59285E1,1.02803E1,2.5732E1,6.45347E1,9.48329E1,-4.367556E-1,-7.213176E-1,-3.179237E-1,-1.661666E-1,5.7149E1,7.09983E1,1.9136E0,2.74176E-1,-8.08328E-2,2.8137797E-3,5.2957438E-2,9.629486E-2,1.4631991E-1,2.0054913E-1],"split_indices":[0,0,0,4,0,0,0,0,0,0,0,0,0,2,0,0,0,0,0,0,0],"split_type":[0,0,0,0,0,0,0,0,0,0,0,0,0,0,0,0,0,0,0,0,0],"sum_hessian":[3.98E3,7.17E2,3.263E3,5.51E2,1.66E2,2.412E3,8.51E2,5.17E2,3.4E1,1.17E2,4.9E1,6.65E2,1.747E3,5.33E2,3.18E2,1.72E2,4.93E2,1.03E3,7.17E2,3.6E2,1.73E2],"tree_param":{"num_deleted":"0","num_feature":"5","num_nodes":"21","size_leaf_vector":"1"}},{"base_weights":[3.5829544E-2,-7.7222495E0,1.8245407E0,-8.4276E0,-3.5733626E0,8.8830465E-1,3.7957478E0,-8.061968E0,-6.892662E-1,-2.1643417E-1,-3.0700126E0,-7.756342E-2,1.3356339E0,3.031833E0,2.637829E-1,-4.1631606E-1,-3.2685405E-1,-1.5428448E-1,-4.7810126E-2,-4.287953E-2,1.2338176E-2,5.730831E-2,1.0841235E-1,1.3239333E-1,1.848871E-1],"categories":[],"categories_nodes":[],"categories_segments":[],"categories_sizes":[],"default_left":[0,0,0,0,0,0,0,0,0,0,0,0,0,0,0,0,0,0,0,0,0,0,0,0,0],"id":25,"left_children":[1,3,5,7,9,11,13,15,-1,-1,17,19,21,23,-1,-1,-1,-1,-1,-1,-1,-1,-1,-1,-1],"loss_changes":[5.528478E4,2.0805117E3,5.963041E3,9.061914E2,8.1481934E-1,9.5067725E2,1.1872041E3,1.4610938E2,0E0,0E0,5.328369E-1,1.8291849E2,2.1452173E2,1.404585E2,0E0,0E0,0E0,0E0,0E0,0E0,0E0,0E0,0E0,0E0,0E0],"parents":[2147483647,0,0,1,1,2,2,3,3,4,4,5,5,6,6,7,7,10,10,11,11,12,12,13,13],"right_children":[2,4,6,8,10,12,14,16,-1,-1,18,20,22,24,-1,-1,-1,-1,-1,-1,-1,-1,-1,-1,-1],"split_conditions":[4.37121E1,2.06746E1,7.47426E1,1.02803E1,2.90697E1,6.52079E1,9.55482E1,4.2068E0,-6.892662E-1,-2.1643417E-1,3.096125E2,5.91363E1,2.7849E0,1.9136E0,2.637829E-1,-4.1631606E-1,-3.2685405E-1,-1.5428448E-1,-4.7810126E-2,-4.287953E-2,1.2338176E-2,5.730831E-2,1.0841235E-1,1.3239333E-1,1.848871E-1],"split_indices":[0,0,0,4,0,0,0,0,0,0,2,0,2,2,0,0,0,0,0,0,0,0,0,0,0],"split_type":[0,0,0,0,0,0,0,0,0,0,0,0,0,0,0,0,0,0,0,0,0,0,0,0,0],"sum_hessian":[3.977E3,7.43E2,3.234E3,6.32E2,1.11E2,2.196E3,1.038E3,6.01E2,3.1E1,3.2E1,7.9E1,6.96E2,1.5E3,7.04E2,3.34E2,4.57E2,1.44E2,7.5E1,4E0,2.02E2,4.94E2,1.259E3,2.41E2,4.89E2,2.15E2],"tree_param":{"num_deleted":"0","num_feature":"5","num_nodes":"25","size_leaf_vector":"1"}},{"base_weights":[-5.810336E-3,-7.7705626E0,1.6308078E0,-8.276761E0,-5.0087247E0,8.8841957E-1,4.043253E0,-3.9203075E-1,-6.345293E-1,-2.7420488E-1,-1.5996072E-1,-4.2932892E-1,1.3388512E0,3.1287112E0,5.008916E0,-1.2256118E-1,-5.8572786E-3,4.9280457E-2,9.514455E-2,1.3816394E-1,1.7665151E-1,2.0582418E-1,2.599696E-1],"categories":[],"categories_nodes":[],"categories_segments":[],"categories_sizes":[],"default_left":[0,0,0,0,0,0,0,0,0,0,0,0,0,0,0,0,0,0,0,0,0,0,0],"id":26,"left_children":[1,3,5,7,9,11,13,-1,-1,-1,-1,15,17,19,21,-1,-1,-1,-1,-1,-1,-1,-1],"loss_changes":[5.0766715E4,8.293086E2,5.8967324E3,4.8732422E2,5.2546875E1,1.5021744E3,6.307178E2,0E0,0E0,0E0,0E0,4.1227634E2,3.7130713E2,2.5532715E1,7.4853516E0,0E0,0E0,0E0,0E0,0E0,0E0,0E0,0E0],"parents":[2147483647,0,0,1,1,2,2,3,3,4,4,5,5,6,6,11,11,12,12,13,13,14,14],"right_children":[2,4,6,8,10,12,14,-1,-1,-1,-1,16,18,20,22,-1,-1,-1,-1,-1,-1,-1,-1],"split_conditions":[3.14845E1,7.7057E0,7.68241E1,1.02803E1,2.5732E1,6.41465E1,9.39893E1,-3.9203075E-1,-6.345293E-1,-2.7420488E-1,-1.5996072E-1,4.58363E1,7.15722E1,8.12611E1,9.84747E1,-1.2256118E-1,-5.8572786E-3,4.9280457E-2,9.514455E-2,1.3816394E-1,1.7665151E-1,2.0582418E-1,2.599696E-1],"split_indices":[0,0,0,4,0,0,0,0,0,0,0,0,0,0,0,0,0,0,0,0,0,0,0],"split_type":[0,0,0,0,0,0,0,0,0,0,0,0,0,0,0,0,0,0,0,0,0,0,0],"sum_hessian":[3.988E3,6.92E2,3.296E3,5.79E2,1.13E2,2.524E3,7.72E2,5.51E2,2.8E1,8E1,3.3E1,6.43E2,1.881E3,4.04E2,3.68E2,8.1E1,5.62E2,1.205E3,6.76E2,2.52E2,1.52E2,1.05E2,2.63E2],"tree_param":{"num_deleted":"0","num_feature":"5","num_nodes":"23","size_leaf_vector":"1"}},{"base_weights":[6.1703674E-3,-7.570853E0,1.5119932E0,-4.0073925E-1,-6.0828876E0,6.4615107E-1,3.335455E0,-3.1588882E-1,-1.8575306E-1,-1.3129781E0,9.169293E-1,2.51244E0,4.587055E0,-1.3267565E-1,-3.730028E-2,1.6377386E-2,6.154058E-2,1.1400054E-1,1.6063194E-1,1.9089918E-1,2.4589463E-1],"categories":[],"categories_nodes":[],"categories_segments":[],"categories_sizes":[],"default_left":[0,0,0,0,0,0,0,0,0,0,0,0,0,0,0,0,0,0,0,0,0],"id":27,"left_children":[1,3,5,-1,7,9,11,-1,-1,13,15,17,19,-1,-1,-1,-1,-1,-1,-1,-1],"loss_changes":[4.5933918E4,3.951836E2,5.294905E3,0E0,6.957715E1,1.2144146E3,1.0731328E3,0E0,0E0,2.0659442E2,3.8913818E2,7.120361E1,5.596875E1,0E0,0E0,0E0,0E0,0E0,0E0,0E0,0E0],"parents":[2147483647,0,0,1,1,2,2,4,4,5,5,6,6,9,9,10,10,11,11,12,12],"right_children":[2,4,6,-1,8,10,12,-1,-1,14,16,18,20,-1,-1,-1,-1,-1,-1,-1,-1],"split_conditions":[2.90697E1,3.3686E0,7.42078E1,-4.0073925E-1,2.06746E1,5.91363E1,8.5277E1,-3.1588882E-1,-1.8575306E-1,4.37121E1,6.6538E1,2.5266E0,9.84747E1,-1.3267565E-1,-3.730028E-2,1.6377386E-2,6.154058E-2,1.1400054E-1,1.6063194E-1,1.9089918E-1,2.4589463E-1],"split_indices":[0,0,0,0,0,0,0,0,0,0,0,2,0,0,0,0,0,0,0,0,0],"split_type":[0,0,0,0,0,0,0,0,0,0,0,0,0,0,0,0,0,0,0,0,0],"sum_hessian":[4.019E3,6.64E2,3.355E3,4.69E2,1.95E2,2.278E3,1.077E3,1.65E2,3E1,2.75E2,2.003E3,6.56E2,4.21E2,7.5E1,2E2,7.3E2,1.273E3,5.31E2,1.25E2,1.67E2,2.54E2],"tree_param":{"num_deleted":"0","num_feature":"5","num_nodes":"21","size_leaf_vector":"1"}},{"base_weights":[-5.3566415E-2,-6.702245E0,1.5077064E0,-7.258477E0,-3.0889323E0,8.6288387E-1,3.6527073E0,-6.879257E0,-5.6291085E-1,-2.790508E-2,-1.5349244E-1,5.2928183E-2,1.3886381E0,2.9614732E0,2.3074381E-1,-3.5844266E-1,-2.7694413E-1,-4.921914E-2,1.4876352E-2,5.4315113E-2,9.262956E-2,1.2828842E-1,1.688412E-1],"categories":[],"categories_nodes":[],"categories_segments":[],"categories_sizes":[],"default_left":[0,0,0,0,0,0,0,0,0,0,0,0,0,0,0,0,0,0,0,0,0,0,0],"id":28,"left_children":[1,3,5,7,9,11,13,15,-1,-1,-1,17,19,21,-1,-1,-1,-1,-1,-1,-1,-1,-1],"loss_changes":[4.1509168E4,1.4509844E3,4.468287E3,7.6860156E2,1.7297363E0,1.0619421E3,4.8662305E2,1.6647852E2,0E0,0E0,0E0,2.5962955E2,2.0552124E2,4.5259033E1,0E0,0E0,0E0,0E0,0E0,0E0,0E0,0E0,0E0],"parents":[2147483647,0,0,1,1,2,2,3,3,4,4,5,5,6,6,7,7,11,11,12,12,13,13],"right_children":[2,4,6,8,10,12,14,16,-1,-1,-1,18,20,22,-1,-1,-1,-1,-1,-1,-1,-1,-1],"split_conditions":[4.00079E1,2.06746E1,7.69905E1,8.4112E0,6.51E-1,6.69416E1,9.63894E1,2.9067E0,-5.6291085E-1,-2.790508E-2,-1.5349244E-1,5.85345E1,7.25134E1,2.5266E0,2.3074381E-1,-3.5844266E-1,-2.7694413E-1,-4.921914E-2,1.4876352E-2,5.4315113E-2,9.262956E-2,1.2828842E-1,1.688412E-1],"split_indices":[0,0,0,4,4,0,0,0,0,0,0,0,0,2,0,0,0,0,0,0,0,0,0],"split_type":[0,0,0,0,0,0,0,0,0,0,0,0,0,0,0,0,0,0,0,0,0,0,0],"sum_hessian":[3.992E3,7.57E2,3.235E3,6.53E2,1.04E2,2.491E3,7.44E2,6.07E2,4.6E1,2E0,1.02E2,9.82E2,1.509E3,4.54E2,2.9E2,4.47E2,1.6E2,1.86E2,7.96E2,9.63E2,5.46E2,2.71E2,1.83E2],"tree_param":{"num_deleted":"0","num_feature":"5","num_nodes":"23","size_leaf_vector":"1"}},{"base_weights":[-1.8700875E-2,-6.800052E0,1.3664776E0,-6.453606E0,-6.508924E-1,6.65495E-1,3.2457643E0,-3.3894145E-1,-4.6203494E0,-8.854632E-1,9.6994203E-1,2.55231E0,4.3415966E0,-2.4535204E-1,-1.4189683E-1,-1.1733591E-1,-2.472193E-2,2.9753555E-2,6.83939E-2,1.12020046E-1,1.5719485E-1,2.0247833E-1,2.723578E-1],"categories":[],"categories_nodes":[],"categories_segments":[],"categories_sizes":[],"default_left":[0,0,0,0,0,0,0,0,0,0,0,0,0,0,0,0,0,0,0,0,0,0,0],"id":29,"left_children":[1,3,5,7,-1,9,11,-1,13,15,17,19,21,-1,-1,-1,-1,-1,-1,-1,-1,-1,-1],"loss_changes":[3.7572188E4,1.2154453E3,4.3679727E3,4.050371E2,0E0,1.1472688E3,6.4673145E2,0E0,3.5378418E1,2.2516223E2,3.0788953E2,7.428003E1,1.5197754E1,0E0,0E0,0E0,0E0,0E0,0E0,0E0,0E0,0E0,0E0],"parents":[2147483647,0,0,1,1,2,2,3,3,5,5,6,6,8,8,9,9,10,10,11,11,12,12],"right_children":[2,4,6,8,-1,10,12,-1,14,16,18,20,22,-1,-1,-1,-1,-1,-1,-1,-1,-1,-1],"split_conditions":[3.14845E1,1.02803E1,7.56452E1,5.956E0,-6.508924E-1,6.13706E1,9.39893E1,-3.3894145E-1,2.5732E1,4.37121E1,6.93288E1,1.9136E0,2.395E-1,-2.4535204E-1,-1.4189683E-1,-1.1733591E-1,-2.472193E-2,2.9753555E-2,6.83939E-2,1.12020046E-1,1.5719485E-1,2.0247833E-1,2.723578E-1],"split_indices":[0,4,0,0,0,0,0,0,0,0,0,2,4,0,0,0,0,0,0,0,0,0,0],"split_type":[0,0,0,0,0,0,0,0,0,0,0,0,0,0,0,0,0,0,0,0,0,0,0],"sum_hessian":[3.993E3,6.75E2,3.318E3,6.47E2,2.8E1,2.42E3,8.98E2,5.16E2,1.31E2,3.96E2,2.024E3,5.57E2,3.41E2,1.03E2,2.8E1,7.7E1,3.19E2,1.086E3,9.38E2,4E2,1.57E2,2.99E2,4.2E1],"tree_param":{"num_deleted":"0","num_feature":"5","num_nodes":"23","size_leaf_vector":"1"}},{"base_weights":[3.0251658E-2,-6.201371E0,1.3915496E0,-6.913959E0,-3.612971E0,8.1196415E-1,3.3925183E0,-6.6209507E0,-6.810255E-1,-2.2116438E-1,-2.5099635E0,1.3991704E-2,1.2572944E0,2.7372851E0,4.2500396E0,-3.0646238E-1,-3.706561E-1,-1.261417E-1,-2.6713138E-2,-3.3500776E-2,1.4470648E-2,5.377082E-2,1.0204785E-1,1.1795771E-1,1.5508434E-1,1.9794291E-1,2.678905E-1],"categories":[],"categories_nodes":[],"categories_segments":[],"categories_sizes":[],"default_left":[0,0,0,0,0,0,0,0,0,0,0,0,0,0,0,0,0,0,0,0,0,0,0,0,0,0,0],"id":30,"left_children":[1,3,5,7,9,11,13,15,-1,-1,17,19,21,23,25,-1,-1,-1,-1,-1,-1,-1,-1,-1,-1,-1,-1],"loss_changes":[3.380453E4,1.2315703E3,3.7832656E3,8.126875E2,1.1770679E2,9.0268567E2,3.71917E2,3.2578125E1,0E0,0E0,3.3503418E0,1.7829405E2,2.1156909E2,3.3848145E1,9.503906E0,0E0,0E0,0E0,0E0,0E0,0E0,0E0,0E0,0E0,0E0,0E0,0E0],"parents":[2147483647,0,0,1,1,2,2,3,3,4,4,5,5,6,6,7,7,10,10,11,11,12,12,13,13,14,14],"right_children":[2,4,6,8,10,12,14,16,-1,-1,18,20,22,24,26,-1,-1,-1,-1,-1,-1,-1,-1,-1,-1,-1,-1],"split_conditions":[4.00079E1,6.8394E0,7.75841E1,1.37305E1,2.5732E1,6.6538E1,9.63894E1,3.6018E0,-6.810255E-1,-2.2116438E-1,3.021513E2,6.00882E1,2.7849E0,1.9136E0,2.395E-1,-3.0646238E-1,-3.706561E-1,-1.261417E-1,-2.6713138E-2,-3.3500776E-2,1.4470648E-2,5.377082E-2,1.0204785E-1,1.1795771E-1,1.5508434E-1,1.9794291E-1,2.678905E-1],"split_indices":[0,0,0,4,0,0,0,4,0,0,2,0,2,2,4,0,0,0,0,0,0,0,0,0,0,0,0],"split_type":[0,0,0,0,0,0,0,0,0,0,0,0,0,0,0,0,0,0,0,0,0,0,0,0,0,0,0],"sum_hessian":[3.978E3,7.11E2,3.267E3,5.53E2,1.58E2,2.537E3,7.3E2,5.37E2,1.6E1,8.2E1,7.6E1,9.1E2,1.627E3,4.22E2,3.08E2,3.93E2,1.44E2,7.3E1,3E0,2.6E2,6.5E2,1.36E3,2.67E2,2.44E2,1.78E2,2.71E2,3.7E1],"tree_param":{"num_deleted":"0","num_feature":"5","num_nodes":"27","size_leaf_vector":"1"}},{"base_weights":[4.5979517E-3,-6.0244865E0,1.2788873E0,-5.7836037E0,-6.378373E-1,5.2648085E-1,2.7119527E0,-3.0956015E-1,-3.8971322E0,-5.584354E-1,7.9577816E-1,2.0270078E0,3.6438618E0,-2.2042355E-1,-1.3624671E-1,-5.64695E-2,-5.794698E-3,3.1520925E-2,7.702419E-2,9.1248184E-2,1.2863265E-1,1.5018609E-1,2.0214564E-1],"categories":[],"categories_nodes":[],"categories_segments":[],"categories_sizes":[],"default_left":[0,0,0,0,0,0,0,0,0,0,0,0,0,0,0,0,0,0,0,0,0,0,0],"id":31,"left_children":[1,3,5,7,-1,9,11,-1,13,15,17,19,21,-1,-1,-1,-1,-1,-1,-1,-1,-1,-1],"loss_changes":[3.0445994E4,8.9639453E2,3.522438E3,5.577539E2,0E0,6.295259E2,6.9283496E2,0E0,5.649585E1,1.10925476E2,2.0251038E2,4.993579E1,8.631055E1,0E0,0E0,0E0,0E0,0E0,0E0,0E0,0E0,0E0,0E0],"parents":[2147483647,0,0,1,1,2,2,3,3,5,5,6,6,8,8,9,9,10,10,11,11,12,12],"right_children":[2,4,6,8,-1,10,12,-1,14,16,18,20,22,-1,-1,-1,-1,-1,-1,-1,-1,-1,-1],"split_conditions":[3.45334E1,1.37305E1,7.3785E1,5.956E0,-6.378373E-1,6.2195E1,8.29517E1,-3.0956015E-1,2.06746E1,5.7699E1,2.7155E0,2.5266E0,9.84747E1,-2.2042355E-1,-1.3624671E-1,-5.64695E-2,-5.794698E-3,3.1520925E-2,7.702419E-2,9.1248184E-2,1.2863265E-1,1.5018609E-1,2.0214564E-1],"split_indices":[0,4,0,0,0,0,0,0,0,0,2,2,0,0,0,0,0,0,0,0,0,0,0],"split_type":[0,0,0,0,0,0,0,0,0,0,0,0,0,0,0,0,0,0,0,0,0,0,0],"sum_hessian":[3.956E3,6.88E2,3.268E3,6.71E2,1.7E1,2.146E3,1.122E3,5.23E2,1.48E2,4.26E2,1.72E3,6.53E2,4.69E2,9.1E1,5.7E1,1.8E2,2.46E2,1.436E3,2.84E2,5.15E2,1.38E2,2.17E2,2.52E2],"tree_param":{"num_deleted":"0","num_feature":"5","num_nodes":"23","size_leaf_vector":"1"}},{"base_weights":[-9.1190925E-3,8.19513E-1,-4.635028E0,2.9546866E0,4.9361467E-1,-3.3042808E0,-7.286799E0,1.5767434E-1,-2.5252955E-2,8.0296993E-1,-5.1322377E-1,-2.7026634E0,-2.330822E-1,-3.2265645E-1,-6.6703975E-1,1.16265096E-1,-1.9464636E-1,4.564331E-2,3.547817E-2,-8.9360505E-2,-6.266461E-3,-1.6200262E-1,-7.771188E-2],"categories":[],"categories_nodes":[],"categories_segments":[],"categories_sizes":[],"default_left":[0,0,0,0,0,0,0,0,0,0,0,0,0,0,0,0,0,0,0,0,0,0,0],"id":32,"left_children":[1,3,5,7,9,11,13,-1,15,17,19,21,-1,-1,-1,-1,-1,-1,-1,-1,-1,-1,-1],"loss_changes":[1.5125227E4,2.323525E3,2.0322441E3,3.2775464E2,9.070073E2,3.0474902E2,5.995869E2,0E0,3.8330518E2,2.040747E1,3.4359412E2,1.7604785E2,0E0,0E0,0E0,0E0,0E0,0E0,0E0,0E0,0E0,0E0,0E0],"parents":[2147483647,0,0,1,1,2,2,3,3,4,4,5,5,6,6,8,8,9,9,10,10,11,11],"right_children":[2,4,6,8,10,12,14,-1,16,18,20,22,-1,-1,-1,-1,-1,-1,-1,-1,-1,-1,-1],"split_conditions":[1.1931E0,4.923E-1,3.6018E0,6.216362E2,2.8739E0,2.791E0,1.37305E1,1.5767434E-1,1.033E-1,1.0017E0,8.842E-1,5.39E0,-2.330822E-1,-3.2265645E-1,-6.6703975E-1,1.16265096E-1,-1.9464636E-1,4.564331E-2,3.547817E-2,-8.9360505E-2,-6.266461E-3,-1.6200262E-1,-7.771188E-2],"split_indices":[4,4,4,2,2,4,4,0,4,4,4,3,0,0,0,0,0,0,0,0,0,0,0],"split_type":[0,0,0,0,0,0,0,0,0,0,0,0,0,0,0,0,0,0,0,0,0,0,0],"sum_hessian":[3.939E3,3.343E3,5.96E2,4.39E2,2.904E3,4.02E2,1.94E2,4.05E2,3.4E1,2.222E3,6.82E2,2.9E2,1.12E2,1.8E2,1.4E1,2.2E1,1.2E1,8.71E2,1.351E3,1.53E2,5.29E2,1.86E2,1.04E2],"tree_param":{"num_deleted":"0","num_feature":"5","num_nodes":"23","size_leaf_vector":"1"}},{"base_weights":[-4.2806406E-2,-5.5949264E0,1.1042155E0,-5.275175E0,-3.9020917E-1,4.907163E-1,2.6056747E0,-2.877642E-1,-4.356865E0,-9.58735E-1,7.2588116E-1,1.9327657E0,3.377122E0,-2.3012513E-1,-1.6094662E-1,-9.884584E-2,-3.1424776E-2,1.4915735E-2,5.1044498E-2,8.779405E-2,1.2112724E-1,1.3909535E-1,1.8413636E-1],"categories":[],"categories_nodes":[],"categories_segments":[],"categories_sizes":[],"default_left":[0,0,0,0,0,0,0,0,0,0,0,0,0,0,0,0,0,0,0,0,0,0,0],"id":33,"left_children":[1,3,5,7,-1,9,11,-1,13,15,17,19,21,-1,-1,-1,-1,-1,-1,-1,-1,-1,-1],"loss_changes":[2.538315E4,3.646543E2,3.0384768E3,2.3194336E2,0E0,8.0322E2,4.7444434E2,0E0,3.277295E1,1.0626926E2,2.6504065E2,2.574231E1,5.197168E1,0E0,0E0,0E0,0E0,0E0,0E0,0E0,0E0,0E0,0E0],"parents":[2147483647,0,0,1,1,2,2,3,3,5,5,6,6,8,8,9,9,10,10,11,11,12,12],"right_children":[2,4,6,8,-1,10,12,-1,14,16,18,20,22,-1,-1,-1,-1,-1,-1,-1,-1,-1,-1],"split_conditions":[2.90697E1,5.5318E0,7.48573E1,1.7103E0,-3.9020917E-1,6.00882E1,8.22844E1,-2.877642E-1,1.01992E1,4.37121E1,6.77039E1,1.9136E0,9.79405E1,-2.3012513E-1,-1.6094662E-1,-9.884584E-2,-3.1424776E-2,1.4915735E-2,5.1044498E-2,8.779405E-2,1.2112724E-1,1.3909535E-1,1.8413636E-1],"split_indices":[0,4,0,0,0,0,0,0,0,0,0,2,0,0,0,0,0,0,0,0,0,0,0],"split_type":[0,0,0,0,0,0,0,0,0,0,0,0,0,0,0,0,0,0,0,0,0,0,0],"sum_hessian":[3.979E3,6.79E2,3.3E3,6.07E2,7.2E1,2.346E3,9.54E2,3.63E2,2.44E2,3.26E2,2.02E3,5.16E2,4.38E2,1.8E2,6.4E1,7.2E1,2.54E2,8.59E2,1.161E3,4.14E2,1.02E2,1.86E2,2.52E2],"tree_param":{"num_deleted":"0","num_feature":"5","num_nodes":"23","size_leaf_vector":"1"}},{"base_weights":[-4.7846545E-2,-5.182026E0,1.1525202E0,-4.929458E0,-6.3999027E-1,7.019669E-1,2.9241812E0,-5.423405E0,-2.8362067E0,3.6097515E-2,1.0974894E0,2.349716E0,3.5444741E0,-2.840125E-1,-2.2725153E-1,-1.6795622E-1,-1.0136562E-1,-7.6800017E-3,3.277331E-2,4.7022197E-2,8.992318E-2,1.03868075E-1,1.2985438E-1,1.6440591E-1,2.3554799E-1],"categories":[],"categories_nodes":[],"categories_segments":[],"categories_sizes":[],"default_left":[0,0,0,0,0,0,0,0,0,0,0,0,0,0,0,0,0,0,0,0,0,0,0,0,0],"id":34,"left_children":[1,3,5,7,-1,9,11,13,15,17,19,21,23,-1,-1,-1,-1,-1,-1,-1,-1,-1,-1,-1,-1],"loss_changes":[2.4471574E4,1.2649863E3,2.5619048E3,7.0626953E2,0E0,6.76806E2,2.0334424E2,7.3009766E1,4.1659058E1,1.1666889E2,1.6122485E2,4.8133545E0,2.2650146E1,0E0,0E0,0E0,0E0,0E0,0E0,0E0,0E0,0E0,0E0,0E0,0E0],"parents":[2147483647,0,0,1,1,2,2,3,3,5,5,6,6,7,7,8,8,9,9,10,10,11,11,12,12],"right_children":[2,4,6,8,-1,10,12,14,16,18,20,22,24,-1,-1,-1,-1,-1,-1,-1,-1,-1,-1,-1,-1],"split_conditions":[4.37121E1,1.37305E1,7.82108E1,8.5993E0,-6.3999027E-1,6.69416E1,9.63894E1,1.7103E0,2.90697E1,1.74501E1,2.7849E0,2.5266E0,2.395E-1,-2.840125E-1,-2.2725153E-1,-1.6795622E-1,-1.0136562E-1,-7.6800017E-3,3.277331E-2,4.7022197E-2,8.992318E-2,1.03868075E-1,1.2985438E-1,1.6440591E-1,2.3554799E-1],"split_indices":[0,4,0,0,0,0,0,0,0,2,2,2,4,0,0,0,0,0,0,0,0,0,0,0,0],"split_type":[0,0,0,0,0,0,0,0,0,0,0,0,0,0,0,0,0,0,0,0,0,0,0,0,0],"sum_hessian":[3.964E3,7.49E2,3.215E3,7.31E2,1.8E1,2.567E3,6.48E2,5.87E2,1.44E2,9.58E2,1.609E3,3.45E2,3.03E2,3.96E2,1.91E2,7.6E1,6.8E1,7.36E2,2.22E2,1.353E3,2.56E2,2.04E2,1.41E2,2.71E2,3.2E1],"tree_param":{"num_deleted":"0","num_feature":"5","num_nodes":"25","size_leaf_vector":"1"}},{"base_weights":[-7.829372E-2,5.8010244E-1,-4.3832273E0,2.366269E0,3.103486E-1,-3.5074897E0,-6.9096355E0,2.5878007E0,-2.9123776E-2,6.780963E-1,-7.8504556E-1,-2.7370179E0,-4.4339037E0,-3.015186E-1,-5.204764E-1,1.0936024E-1,1.446615E-1,9.571108E-2,-1.6924895E-1,3.9734427E-2,2.9011331E-2,-1.4358017E-1,-3.359546E-2,-7.3456705E-2,-1.4738102E-1,-1.9682208E-1,-3.0842763E-1],"categories":[],"categories_nodes":[],"categories_segments":[],"categories_sizes":[],"default_left":[0,0,0,0,0,0,0,0,0,0,0,0,0,0,0,0,0,0,0,0,0,0,0,0,0,0,0],"id":35,"left_children":[1,3,5,7,9,11,13,15,17,19,21,23,25,-1,-1,-1,-1,-1,-1,-1,-1,-1,-1,-1,-1,-1,-1],"loss_changes":[1.1205771E4,1.6498054E3,1.0766875E3,2.3881421E2,1.203645E3,2.4105273E2,1.5456836E2,3.0293457E1,3.0182443E2,2.394165E1,1.5739124E2,5.6621216E1,5.2757812E1,0E0,0E0,0E0,0E0,0E0,0E0,0E0,0E0,0E0,0E0,0E0,0E0,0E0,0E0],"parents":[2147483647,0,0,1,1,2,2,3,3,4,4,5,5,6,6,7,7,8,8,9,9,10,10,11,11,12,12],"right_children":[2,4,6,8,10,12,14,16,18,20,22,24,26,-1,-1,-1,-1,-1,-1,-1,-1,-1,-1,-1,-1,-1,-1],"split_conditions":[1.7036E0,4.923E-1,4.3354E0,6.216362E2,2.8739E0,2.791E0,1.37305E1,9.10571E1,1.033E-1,1.0037E0,6.3249E0,2.28669E1,9.135395E2,-3.015186E-1,-5.204764E-1,1.0936024E-1,1.446615E-1,9.571108E-2,-1.6924895E-1,3.9734427E-2,2.9011331E-2,-1.4358017E-1,-3.359546E-2,-7.3456705E-2,-1.4738102E-1,-1.9682208E-1,-3.0842763E-1],"split_indices":[4,4,4,2,2,4,4,2,4,4,2,2,2,0,0,0,0,0,0,0,0,0,0,0,0,0,0],"split_type":[0,0,0,0,0,0,0,0,0,0,0,0,0,0,0,0,0,0,0,0,0,0,0,0,0,0,0],"sum_hessian":[3.947E3,3.426E3,5.21E2,4.46E2,2.98E3,3.93E2,1.28E2,4.08E2,3.8E1,2.232E3,7.48E2,2.22E2,1.71E2,1.13E2,1.5E1,2.12E2,1.96E2,2.5E1,1.3E1,8.98E2,1.334E3,3E1,7.18E2,4.2E1,1.8E2,1.47E2,2.4E1],"tree_param":{"num_deleted":"0","num_feature":"5","num_nodes":"27","size_leaf_vector":"1"}},{"base_weights":[-7.588234E-2,-5.017521E0,1.0031377E0,-4.833616E0,-5.427473E-1,3.8597602E-1,2.1908624E0,-2.6049715E-1,-3.8468351E0,-8.6264086E-1,5.926049E-1,1.7820457E0,3.124702E0,-2.037906E-1,-1.4433454E-1,-7.7961706E-2,-2.6221486E-2,2.00444E-2,7.127361E-2,7.873645E-2,1.1164435E-1,1.4529192E-1,2.279499E-1],"categories":[],"categories_nodes":[],"categories_segments":[],"categories_sizes":[],"default_left":[0,0,0,0,0,0,0,0,0,0,0,0,0,0,0,0,0,0,0,0,0,0,0],"id":36,"left_children":[1,3,5,7,-1,9,11,-1,13,15,17,19,21,-1,-1,-1,-1,-1,-1,-1,-1,-1,-1],"loss_changes":[2.1166973E4,6.0233203E2,2.3855298E3,2.4460742E2,0E0,5.560515E2,4.058081E2,0E0,2.0645508E1,6.9964615E1,2.9058405E2,5.685034E1,4.0046875E1,0E0,0E0,0E0,0E0,0E0,0E0,0E0,0E0,0E0,0E0],"parents":[2147483647,0,0,1,1,2,2,3,3,5,5,6,6,8,8,9,9,10,10,11,11,12,12],"right_children":[2,4,6,8,-1,10,12,-1,14,16,18,20,22,-1,-1,-1,-1,-1,-1,-1,-1,-1,-1],"split_conditions":[2.90697E1,1.37305E1,7.36681E1,2.9067E0,-5.427473E-1,5.98031E1,9.48329E1,-2.6049715E-1,1.01992E1,4.58363E1,2.7849E0,2.5266E0,2.769E-1,-2.037906E-1,-1.4433454E-1,-7.7961706E-2,-2.6221486E-2,2.00444E-2,7.127361E-2,7.873645E-2,1.1164435E-1,1.4529192E-1,2.279499E-1],"split_indices":[0,4,0,0,0,0,0,0,0,0,2,2,4,0,0,0,0,0,0,0,0,0,0],"split_type":[0,0,0,0,0,0,0,0,0,0,0,0,0,0,0,0,0,0,0,0,0,0,0],"sum_hessian":[3.963E3,7.08E2,3.255E3,6.93E2,1.5E1,2.145E3,1.11E3,4.63E2,2.3E2,3.03E2,1.842E3,7.79E2,3.31E2,1.65E2,6.5E1,9.1E1,2.12E2,1.518E3,3.24E2,5.77E2,2.02E2,3.06E2,2.5E1],"tree_param":{"num_deleted":"0","num_feature":"5","num_nodes":"23","size_leaf_vector":"1"}},{"base_weights":[-5.623295E-3,-4.60519E0,9.784726E-1,-4.397656E0,-5.2906305E-1,3.8123563E-1,2.1263442E0,-2.3959282E-1,-3.135596E0,-4.049193E-1,6.468629E-1,1.746595E0,3.105996E0,-1.748005E-1,-1.0887544E-1,-4.940774E-2,-5.3087403E-3,1.0955439E-1,2.9723268E-2,7.2751686E-2,1.0560696E-1,1.4324127E-1,2.151045E-1],"categories":[],"categories_nodes":[],"categories_segments":[],"categories_sizes":[],"default_left":[0,0,0,0,0,0,0,0,0,0,0,0,0,0,0,0,0,0,0,0,0,0,0],"id":37,"left_children":[1,3,5,7,-1,9,11,-1,13,15,17,19,21,-1,-1,-1,-1,-1,-1,-1,-1,-1,-1],"loss_changes":[1.7937656E4,7.273535E2,2.2350977E3,3.5105273E2,0E0,4.501795E2,3.9656592E2,0E0,4.7457275E1,9.662398E1,1.04720276E2,7.6053955E1,3.230249E1,0E0,0E0,0E0,0E0,0E0,0E0,0E0,0E0,0E0,0E0],"parents":[2147483647,0,0,1,1,2,2,3,3,5,5,6,6,8,8,9,9,10,10,11,11,12,12],"right_children":[2,4,6,8,-1,10,12,-1,14,16,18,20,22,-1,-1,-1,-1,-1,-1,-1,-1,-1,-1],"split_conditions":[3.45334E1,1.37305E1,7.36681E1,4.852E0,-5.2906305E-1,6.32487E1,9.63894E1,-2.3959282E-1,2.06746E1,5.7149E1,8.833E-1,7.86293E1,2.395E-1,-1.748005E-1,-1.0887544E-1,-4.940774E-2,-5.3087403E-3,1.0955439E-1,2.9723268E-2,7.2751686E-2,1.0560696E-1,1.4324127E-1,2.151045E-1],"split_indices":[0,4,0,0,0,0,0,0,0,0,4,0,4,0,0,0,0,0,0,0,0,0,0],"split_type":[0,0,0,0,0,0,0,0,0,0,0,0,0,0,0,0,0,0,0,0,0,0,0],"sum_hessian":[3.956E3,6.95E2,3.261E3,6.78E2,1.7E1,2.148E3,1.113E3,4.87E2,1.91E2,5.42E2,1.606E3,8.09E2,3.04E2,1.25E2,6.6E1,1.77E2,3.65E2,3.8E1,1.568E3,4.93E2,3.16E2,2.73E2,3.1E1],"tree_param":{"num_deleted":"0","num_feature":"5","num_nodes":"23","size_leaf_vector":"1"}},{"base_weights":[1.95639E-3,-4.327401E0,9.5691574E-1,-4.000874E0,-7.3732924E0,4.094547E-1,2.0646305E0,-4.3879023E0,-9.973154E-2,-2.88124E-1,-4.9284297E-1,2.3968853E-2,8.2058865E-1,1.5290157E0,2.679714E0,-2.4843481E-1,-1.9552813E-1,-7.361346E-3,3.1843364E-2,3.355476E-2,7.795476E-2,6.811091E-2,1.0497825E-1,1.1239819E-1,1.5317394E-1],"categories":[],"categories_nodes":[],"categories_segments":[],"categories_sizes":[],"default_left":[0,0,0,0,0,0,0,0,0,0,0,0,0,0,0,0,0,0,0,0,0,0,0,0,0],"id":38,"left_children":[1,3,5,7,9,11,13,15,-1,-1,-1,17,19,21,23,-1,-1,-1,-1,-1,-1,-1,-1,-1,-1],"loss_changes":[1.6665068E4,6.2272363E2,1.999738E3,4.7789746E2,6.45188E1,3.5087228E2,3.4538086E2,8.247949E1,0E0,0E0,0E0,1.242492E2,1.0983038E2,4.1670776E1,6.1631104E1,0E0,0E0,0E0,0E0,0E0,0E0,0E0,0E0,0E0,0E0],"parents":[2147483647,0,0,1,1,2,2,3,3,4,4,5,5,6,6,7,7,11,11,12,12,13,13,14,14],"right_children":[2,4,6,8,10,12,14,16,-1,-1,-1,18,20,22,24,-1,-1,-1,-1,-1,-1,-1,-1,-1,-1],"split_conditions":[4.37121E1,6.1794E0,7.42078E1,1.35962E1,1.37305E1,6.77039E1,8.16515E1,1.2243E0,-9.973154E-2,-2.88124E-1,-4.9284297E-1,1.87645E1,1.9136E0,1.9136E0,9.95537E1,-2.4843481E-1,-1.9552813E-1,-7.361346E-3,3.1843364E-2,3.355476E-2,7.795476E-2,6.811091E-2,1.0497825E-1,1.1239819E-1,1.5317394E-1],"split_indices":[0,4,0,0,4,0,0,4,0,0,0,2,2,2,0,0,0,0,0,0,0,0,0,0,0],"split_type":[0,0,0,0,0,0,0,0,0,0,0,0,0,0,0,0,0,0,0,0,0,0,0,0,0],"sum_hessian":[4.024E3,7.25E2,3.299E3,6.62E2,6.3E1,2.211E3,1.088E3,5.5E2,1.12E2,4.7E1,1.6E1,1.143E3,1.068E3,5.88E2,5E2,1.98E2,3.52E2,8.96E2,2.47E2,9.09E2,1.59E2,4.83E2,1.05E2,2.72E2,2.28E2],"tree_param":{"num_deleted":"0","num_feature":"5","num_nodes":"25","size_leaf_vector":"1"}},{"base_weights":[-3.4883242E-2,-4.3822055E0,8.4582883E-1,-4.146145E0,-5.0695217E-1,3.260441E-1,1.9165713E0,-4.5769973E0,-3.2561753E0,-5.156815E-1,5.560043E-1,1.40511E0,2.4801993E0,-2.1240667E-1,-2.6885152E-1,-1.7028208E-1,-1.1187367E-1,-6.773614E-2,-1.3526538E-2,2.0632459E-2,6.230263E-2,6.2062923E-2,9.477612E-2,1.0256767E-1,1.3933402E-1],"categories":[],"categories_nodes":[],"categories_segments":[],"categories_sizes":[],"default_left":[0,0,0,0,0,0,0,0,0,0,0,0,0,0,0,0,0,0,0,0,0,0,0,0,0],"id":39,"left_children":[1,3,5,7,-1,9,11,13,15,17,19,21,23,-1,-1,-1,-1,-1,-1,-1,-1,-1,-1,-1,-1],"loss_changes":[1.5260561E4,7.9046094E2,1.8424712E3,1.9833594E2,0E0,4.3368695E2,2.9996118E2,1.8499023E1,1.7625244E1,9.8442215E1,1.6883496E2,3.4788208E1,5.0507812E1,0E0,0E0,0E0,0E0,0E0,0E0,0E0,0E0,0E0,0E0,0E0,0E0],"parents":[2147483647,0,0,1,1,2,2,3,3,5,5,6,6,7,7,8,8,9,9,10,10,11,11,12,12],"right_children":[2,4,6,8,-1,10,12,14,16,18,20,22,24,-1,-1,-1,-1,-1,-1,-1,-1,-1,-1,-1,-1],"split_conditions":[2.90697E1,1.37305E1,7.39413E1,2.5617E0,-5.0695217E-1,6.2195E1,8.07655E1,4.3354E0,1.35962E1,4.58363E1,1.9136E0,1.9136E0,9.79405E1,-2.1240667E-1,-2.6885152E-1,-1.7028208E-1,-1.1187367E-1,-6.773614E-2,-1.3526538E-2,2.0632459E-2,6.230263E-2,6.2062923E-2,9.477612E-2,1.0256767E-1,1.3933402E-1],"split_indices":[0,4,0,0,0,0,0,4,0,0,2,2,0,0,0,0,0,0,0,0,0,0,0,0,0],"split_type":[0,0,0,0,0,0,0,0,0,0,0,0,0,0,0,0,0,0,0,0,0,0,0,0,0],"sum_hessian":[3.979E3,6.68E2,3.311E3,6.48E2,2E1,2.232E3,1.079E3,4.27E2,2.21E2,4.78E2,1.754E3,5.72E2,5.07E2,3.45E2,8.2E1,1.76E2,4.5E1,1.01E2,3.77E2,1.475E3,2.79E2,4.57E2,1.15E2,2.49E2,2.58E2],"tree_param":{"num_deleted":"0","num_feature":"5","num_nodes":"25","size_leaf_vector":"1"}},{"base_weights":[-3.0663205E-2,-4.159402E0,8.077875E-1,-3.9506898E0,-4.7201946E-1,2.799612E-1,1.7689316E0,-2.1581745E-1,-3.2866342E0,-5.823843E-1,4.9441046E-1,1.278976E0,2.3526695E0,-1.6657817E-1,-1.0698115E-1,-6.726552E-2,-1.5698977E-2,1.6920764E-2,6.205533E-2,5.4077227E-2,8.442812E-2,1.2364097E-1,7.760379E-2],"categories":[],"categories_nodes":[],"categories_segments":[],"categories_sizes":[],"default_left":[0,0,0,0,0,0,0,0,0,0,0,0,0,0,0,0,0,0,0,0,0,0,0],"id":40,"left_children":[1,3,5,7,-1,9,11,-1,13,15,17,19,21,-1,-1,-1,-1,-1,-1,-1,-1,-1,-1],"loss_changes":[1.3770132E4,6.3019336E2,1.6756648E3,1.3804395E2,0E0,3.9644937E2,3.246045E2,0E0,3.9645996E0,8.676303E1,1.964047E2,4.416797E1,5.1746094E1,0E0,0E0,0E0,0E0,0E0,0E0,0E0,0E0,0E0,0E0],"parents":[2147483647,0,0,1,1,2,2,3,3,5,5,6,6,8,8,9,9,10,10,11,11,12,12],"right_children":[2,4,6,8,-1,10,12,-1,14,16,18,20,22,-1,-1,-1,-1,-1,-1,-1,-1,-1,-1],"split_conditions":[2.90697E1,1.37305E1,7.31979E1,1.2678E0,-4.7201946E-1,6.13706E1,1.9136E0,-2.1581745E-1,2.06746E1,4.58363E1,2.7849E0,7.86293E1,4.054831E2,-1.6657817E-1,-1.0698115E-1,-6.726552E-2,-1.5698977E-2,1.6920764E-2,6.205533E-2,5.4077227E-2,8.442812E-2,1.2364097E-1,7.760379E-2],"split_indices":[0,4,0,0,0,0,2,0,0,0,2,0,2,0,0,0,0,0,0,0,0,0,0],"split_type":[0,0,0,0,0,0,0,0,0,0,0,0,0,0,0,0,0,0,0,0,0,0,0],"sum_hessian":[3.971E3,6.68E2,3.303E3,6.49E2,1.9E1,2.135E3,1.168E3,3.81E2,2.68E2,4.24E2,1.711E3,6.41E2,5.27E2,2.4E2,2.8E1,1.03E2,3.21E2,1.434E3,2.77E2,4.62E2,1.79E2,4.31E2,9.6E1],"tree_param":{"num_deleted":"0","num_feature":"5","num_nodes":"23","size_leaf_vector":"1"}},{"base_weights":[-4.1168723E-2,-3.8925097E0,7.841428E-1,-3.712267E0,-4.6773908E-1,2.0333634E-1,1.5440197E0,-4.2144947E0,-3.0184317E0,-4.7106886E-1,3.8249275E-1,1.1479914E0,2.1781552E0,-1.9562046E-1,-2.5248247E-1,-1.5657744E-1,-8.263744E-2,1.8384298E-2,-3.237067E-2,1.15594305E-2,3.2290507E-2,4.7946803E-2,6.4060435E-2,8.980149E-2,1.2573807E-1],"categories":[],"categories_nodes":[],"categories_segments":[],"categories_sizes":[],"default_left":[0,0,0,0,0,0,0,0,0,0,0,0,0,0,0,0,0,0,0,0,0,0,0,0,0],"id":41,"left_children":[1,3,5,7,-1,9,11,13,15,17,19,21,23,-1,-1,-1,-1,-1,-1,-1,-1,-1,-1,-1,-1],"loss_changes":[1.2525948E4,5.814365E2,1.4312288E3,1.9282715E2,0E0,2.2335E2,3.4427808E2,1.4484375E1,4.6193848E1,6.203669E1,5.8346115E1,1.8865234E1,5.5274902E1,0E0,0E0,0E0,0E0,0E0,0E0,0E0,0E0,0E0,0E0,0E0,0E0],"parents":[2147483647,0,0,1,1,2,2,3,3,5,5,6,6,7,7,8,8,9,9,10,10,11,11,12,12],"right_children":[2,4,6,8,-1,10,12,14,16,18,20,22,24,-1,-1,-1,-1,-1,-1,-1,-1,-1,-1,-1,-1],"split_conditions":[3.14845E1,1.37305E1,7.17691E1,1.3877E0,-4.6773908E-1,6.13706E1,7.95707E1,4.3354E0,2.5732E1,8.842E-1,6.87776E1,7.47426E1,9.71952E1,-1.9562046E-1,-2.5248247E-1,-1.5657744E-1,-8.263744E-2,1.8384298E-2,-3.237067E-2,1.15594305E-2,3.2290507E-2,4.7946803E-2,6.4060435E-2,8.980149E-2,1.2573807E-1],"split_indices":[0,4,0,0,0,0,0,4,0,4,0,0,0,0,0,0,0,0,0,0,0,0,0,0,0],"split_type":[0,0,0,0,0,0,0,0,0,0,0,0,0,0,0,0,0,0,0,0,0,0,0,0,0],"sum_hessian":[3.934E3,6.92E2,3.242E3,6.76E2,1.6E1,1.84E3,1.402E3,3.82E2,2.94E2,3.85E2,1.455E3,8.69E2,5.33E2,3.17E2,6.5E1,2.58E2,3.6E1,6.9E1,3.16E2,9.49E2,5.06E2,4.19E2,4.5E2,2.85E2,2.48E2],"tree_param":{"num_deleted":"0","num_feature":"5","num_nodes":"25","size_leaf_vector":"1"}},{"base_weights":[-5.0001234E-2,-3.7313364E0,7.414432E-1,-3.581303E0,-4.5758116E-1,2.1687853E-1,1.546607E0,-3.9026637E0,-2.8563044E0,-4.871663E-1,4.131516E-1,1.1414655E0,2.1691318E0,-1.8295425E-1,-2.4516255E-1,-1.4465508E-1,-7.184454E-2,-5.468269E-2,-1.24450885E-2,9.114724E-2,1.846568E-2,4.906137E-2,6.658935E-2,9.179549E-2,1.2584479E-1],"categories":[],"categories_nodes":[],"categories_segments":[],"categories_sizes":[],"default_left":[0,0,0,0,0,0,0,0,0,0,0,0,0,0,0,0,0,0,0,0,0,0,0,0,0],"id":42,"left_children":[1,3,5,7,-1,9,11,13,15,17,19,21,23,-1,-1,-1,-1,-1,-1,-1,-1,-1,-1,-1,-1],"loss_changes":[1.1665158E4,4.765664E2,1.3906711E3,1.23521484E2,0E0,2.7698376E2,3.191394E2,3.0867188E1,1.1156494E1,6.293946E1,8.321304E1,1.9613403E1,4.3437744E1,0E0,0E0,0E0,0E0,0E0,0E0,0E0,0E0,0E0,0E0,0E0,0E0],"parents":[2147483647,0,0,1,1,2,2,3,3,5,5,6,6,7,7,8,8,9,9,10,10,11,11,12,12],"right_children":[2,4,6,8,-1,10,12,14,16,18,20,22,24,-1,-1,-1,-1,-1,-1,-1,-1,-1,-1,-1,-1],"split_conditions":[2.90697E1,1.37305E1,7.23533E1,2.9067E0,-4.5758116E-1,6.13706E1,8.07655E1,5.0305E0,2.5732E1,4.80016E1,8.603E-1,7.6228E1,9.95537E1,-1.8295425E-1,-2.4516255E-1,-1.4465508E-1,-7.184454E-2,-5.468269E-2,-1.24450885E-2,9.114724E-2,1.846568E-2,4.906137E-2,6.658935E-2,9.179549E-2,1.2584479E-1],"split_indices":[0,4,0,0,0,0,0,4,0,0,4,0,0,0,0,0,0,0,0,0,0,0,0,0,0],"split_type":[0,0,0,0,0,0,0,0,0,0,0,0,0,0,0,0,0,0,0,0,0,0,0,0,0],"sum_hessian":[3.997E3,7.05E2,3.292E3,6.92E2,1.3E1,1.996E3,1.296E3,4.69E2,2.23E2,4.34E2,1.562E3,7.91E2,5.05E2,4.13E2,5.6E1,2.07E2,1.6E1,1.15E2,3.19E2,3.6E1,1.526E3,4.81E2,3.1E2,2.94E2,2.11E2],"tree_param":{"num_deleted":"0","num_feature":"5","num_nodes":"25","size_leaf_vector":"1"}},{"base_weights":[-3.4002308E-2,-3.4572122E0,7.2126067E-1,-3.2889483E0,-4.7110355E-1,2.789291E-1,1.5810742E0,-3.533225E0,-2.0873914E0,-1.3965166E-1,5.7395244E-1,1.2889284E0,2.3633165E0,-1.6563287E-1,-2.2343092E-1,-1.12170614E-1,-6.471672E-2,-3.6260407E-2,1.3452575E-3,2.2366503E-2,5.83974E-2,5.31091E-2,7.753379E-2,1.0611999E-1,1.7724517E-1],"categories":[],"categories_nodes":[],"categories_segments":[],"categories_sizes":[],"default_left":[0,0,0,0,0,0,0,0,0,0,0,0,0,0,0,0,0,0,0,0,0,0,0,0,0],"id":43,"left_children":[1,3,5,7,-1,9,11,13,15,17,19,21,23,-1,-1,-1,-1,-1,-1,-1,-1,-1,-1,-1,-1],"loss_changes":[1.0276498E4,6.3037695E2,1.2369397E3,1.8126025E2,0E0,2.6633966E2,2.4206274E2,4.5649414E1,8.446838E0,8.914109E1,9.070883E1,4.292163E1,4.930078E1,0E0,0E0,0E0,0E0,0E0,0E0,0E0,0E0,0E0,0E0,0E0,0E0],"parents":[2147483647,0,0,1,1,2,2,3,3,5,5,6,6,7,7,8,8,9,9,10,10,11,11,12,12],"right_children":[2,4,6,8,-1,10,12,14,16,18,20,22,24,-1,-1,-1,-1,-1,-1,-1,-1,-1,-1,-1,-1],"split_conditions":[3.45334E1,1.37305E1,7.3785E1,7.7057E0,-4.7110355E-1,6.58816E1,9.63894E1,5.0305E0,2.90697E1,5.7149E1,2.7155E0,7.86293E1,2.395E-1,-1.6563287E-1,-2.2343092E-1,-1.12170614E-1,-6.471672E-2,-3.6260407E-2,1.3452575E-3,2.2366503E-2,5.83974E-2,5.31091E-2,7.753379E-2,1.0611999E-1,1.7724517E-1],"split_indices":[0,4,0,0,0,0,0,4,0,0,2,0,4,0,0,0,0,0,0,0,0,0,0,0,0],"split_type":[0,0,0,0,0,0,0,0,0,0,0,0,0,0,0,0,0,0,0,0,0,0,0,0,0],"sum_hessian":[3.968E3,7.15E2,3.253E3,7.01E2,1.4E1,2.151E3,1.102E3,5.77E2,1.24E2,8.9E2,1.261E3,8.09E2,2.93E2,5.07E2,7E1,9.4E1,3E1,1.92E2,6.98E2,1.06E3,2.01E2,4.76E2,3.33E2,2.59E2,3.4E1],"tree_param":{"num_deleted":"0","num_feature":"5","num_nodes":"25","size_leaf_vector":"1"}},{"base_weights":[-2.246862E-3,-3.1789067E0,7.2498566E-1,-3.0373597E0,-4.0246984E-1,2.959224E-1,1.44239E0,-3.4837496E0,-1.8815037E0,-4.4178165E-2,5.564324E-1,1.0912997E0,1.9820349E0,-1.9619296E-1,-1.5751259E-1,-1.1367359E-1,-6.613205E-2,3.669581E-2,-5.81965E-3,2.6346868E-2,1.0916011E-1,4.7895063E-2,6.301825E-2,8.825725E-2,1.21579036E-1],"categories":[],"categories_nodes":[],"categories_segments":[],"categories_sizes":[],"default_left":[0,0,0,0,0,0,0,0,0,0,0,0,0,0,0,0,0,0,0,0,0,0,0,0,0],"id":44,"left_children":[1,3,5,7,-1,9,11,13,15,17,19,21,23,-1,-1,-1,-1,-1,-1,-1,-1,-1,-1,-1,-1],"loss_changes":[9.219651E3,4.4013574E2,9.9809375E2,3.531753E2,0E0,1.8052379E2,2.2258203E2,3.026709E1,3.7672913E1,5.2115814E1,3.651004E1,1.2282043E1,2.8442871E1,0E0,0E0,0E0,0E0,0E0,0E0,0E0,0E0,0E0,0E0,0E0,0E0],"parents":[2147483647,0,0,1,1,2,2,3,3,5,5,6,6,7,7,8,8,9,9,10,10,11,11,12,12],"right_children":[2,4,6,8,-1,10,12,14,16,18,20,22,24,-1,-1,-1,-1,-1,-1,-1,-1,-1,-1,-1,-1],"split_conditions":[4.37121E1,1.37305E1,7.31111E1,5.956E0,-4.0246984E-1,6.64367E1,8.22844E1,1.2243E0,2.5732E1,8.842E-1,1.2243E0,7.72407E1,2.138E-1,-1.9619296E-1,-1.5751259E-1,-1.1367359E-1,-6.613205E-2,3.669581E-2,-5.81965E-3,2.6346868E-2,1.0916011E-1,4.7895063E-2,6.301825E-2,8.825725E-2,1.21579036E-1],"split_indices":[0,4,0,0,0,0,0,4,0,4,4,0,4,0,0,0,0,0,0,0,0,0,0,0,0],"split_type":[0,0,0,0,0,0,0,0,0,0,0,0,0,0,0,0,0,0,0,0,0,0,0,0,0],"sum_hessian":[3.984E3,7.4E2,3.244E3,7.25E2,1.5E1,2.033E3,1.211E3,5.18E2,2.07E2,8.83E2,1.15E3,7.4E2,4.71E2,1.71E2,3.47E2,1.09E2,9.8E1,7.3E1,8.1E2,1.14E3,1E1,4.68E2,2.72E2,3.51E2,1.2E2],"tree_param":{"num_deleted":"0","num_feature":"5","num_nodes":"25","size_leaf_vector":"1"}},{"base_weights":[1.1759728E-2,2.9810795E-1,-3.3009064E0,1.4454367E0,1.3989815E-1,-2.748281E0,-5.4236445E0,1.5342633E0,1.0154394E-1,3.1992424E-1,-5.5606484E-1,-2.5360065E0,-2.834749E-1,-2.1876994E-1,-3.6493814E-1,6.886557E-2,9.044608E-2,5.064439E-2,-8.99313E-2,1.7540341E-2,-6.5573245E-2,-1.6964251E-2,-6.0569152E-2,-1.0632087E-1,-1.533395E-1],"categories":[],"categories_nodes":[],"categories_segments":[],"categories_sizes":[],"default_left":[0,0,0,0,0,0,0,0,0,0,0,0,0,0,0,0,0,0,0,0,0,0,0,0,0],"id":45,"left_children":[1,3,5,7,9,11,13,15,17,19,21,23,-1,-1,-1,-1,-1,-1,-1,-1,-1,-1,-1,-1,-1],"loss_changes":[3.8084763E3,6.7006055E2,3.232588E2,5.284027E1,4.079848E2,1.1598755E2,8.069824E0,8.285889E0,6.2670116E1,1.5704666E2,9.3962204E1,3.1060791E1,0E0,0E0,0E0,0E0,0E0,0E0,0E0,0E0,0E0,0E0,0E0,0E0,0E0],"parents":[2147483647,0,0,1,1,2,2,3,3,4,4,5,5,6,6,7,7,8,8,9,9,10,10,11,11],"right_children":[2,4,6,8,10,12,14,16,18,20,22,24,-1,-1,-1,-1,-1,-1,-1,-1,-1,-1,-1,-1,-1],"split_conditions":[2.4461E0,4.923E-1,6.1794E0,6.216362E2,4.5647E1,1.4843767E3,1.37305E1,1.6E-1,1.033E-1,1.8422E0,1.1888E0,3.9666E0,-2.834749E-1,-2.1876994E-1,-3.6493814E-1,6.886557E-2,9.044608E-2,5.064439E-2,-8.99313E-2,1.7540341E-2,-6.5573245E-2,-1.6964251E-2,-6.0569152E-2,-1.0632087E-1,-1.533395E-1],"split_indices":[4,4,4,2,2,2,4,4,4,4,4,4,0,0,0,0,0,0,0,0,0,0,0,0,0],"split_type":[0,0,0,0,0,0,0,0,0,0,0,0,0,0,0,0,0,0,0,0,0,0,0,0,0],"sum_hessian":[4.008E3,3.692E3,3.16E2,4.44E2,3.248E3,2.57E2,5.9E1,4.16E2,2.8E1,2.582E3,6.66E2,2.46E2,1.1E1,4.7E1,1.2E1,3.01E2,1.15E2,2E1,8E0,2.529E3,5.3E1,5.11E2,1.55E2,1.59E2,8.7E1],"tree_param":{"num_deleted":"0","num_feature":"5","num_nodes":"25","size_leaf_vector":"1"}},{"base_weights":[-2.0549359E-2,-3.1022542E0,6.172574E-1,-2.9105272E0,-3.8659132E-1,1.20071545E-1,1.2415714E0,-3.1714616E0,-2.1071687E0,-4.5943853E-1,3.20703E-1,8.7523603E-1,1.7692688E0,-1.8426375E-1,-1.4118424E-1,-1.1722354E-1,-8.487659E-2,-4.339485E-2,-1.3106829E-2,8.54605E-3,5.1045436E-2,3.771865E-2,6.5636255E-2,9.2014454E-2,3.345458E-2],"categories":[],"categories_nodes":[],"categories_segments":[],"categories_sizes":[],"default_left":[0,0,0,0,0,0,0,0,0,0,0,0,0,0,0,0,0,0,0,0,0,0,0,0,0],"id":46,"left_children":[1,3,5,7,-1,9,11,13,15,17,19,21,23,-1,-1,-1,-1,-1,-1,-1,-1,-1,-1,-1,-1],"loss_changes":[7.822467E3,5.4274316E2,1.0229829E3,1.1554248E2,0E0,2.1437196E2,2.7713037E2,4.8335938E1,3.8846436E0,3.7853516E1,1.4352878E2,3.985852E1,6.040576E1,0E0,0E0,0E0,0E0,0E0,0E0,0E0,0E0,0E0,0E0,0E0,0E0],"parents":[2147483647,0,0,1,1,2,2,3,3,5,5,6,6,7,7,8,8,9,9,10,10,11,11,12,12],"right_children":[2,4,6,8,-1,10,12,14,16,18,20,22,24,-1,-1,-1,-1,-1,-1,-1,-1,-1,-1,-1,-1],"split_conditions":[2.90697E1,1.37305E1,7.15019E1,4.2068E0,-3.8659132E-1,6.2195E1,1.9136E0,1.2243E0,8.5993E0,5.18008E1,2.7155E0,7.89378E1,8.331963E2,-1.8426375E-1,-1.4118424E-1,-1.1722354E-1,-8.487659E-2,-4.339485E-2,-1.3106829E-2,8.54605E-3,5.1045436E-2,3.771865E-2,6.5636255E-2,9.2014454E-2,3.345458E-2],"split_indices":[0,4,0,0,0,0,2,4,0,0,2,0,2,0,0,0,0,0,0,0,0,0,0,0,0],"split_type":[0,0,0,0,0,0,0,0,0,0,0,0,0,0,0,0,0,0,0,0,0,0,0,0,0],"sum_hessian":[3.973E3,6.79E2,3.294E3,6.58E2,2.1E1,1.836E3,1.458E3,4.89E2,1.69E2,4.71E2,1.365E3,8.66E2,5.92E2,1.56E2,3.33E2,8.8E1,8.1E1,1.44E2,3.27E2,1.136E3,2.29E2,7.07E2,1.59E2,5.4E2,5.2E1],"tree_param":{"num_deleted":"0","num_feature":"5","num_nodes":"25","size_leaf_vector":"1"}},{"base_weights":[2.0288904E-3,-2.982528E0,5.856794E-1,-2.7483308E0,-2.4334416E-1,1.3281442E-1,1.2310666E0,-2.6023757E0,-2.554827E-1,-3.585269E-1,3.3910978E-1,8.685929E-1,1.7310406E0,-1.5985003E-1,-1.0936849E-1,-4.163689E-2,-8.619532E-3,1.0580156E-2,4.8880216E-2,3.7018772E-2,6.227569E-2,8.803572E-2,3.1313575E-3],"categories":[],"categories_nodes":[],"categories_segments":[],"categories_sizes":[],"default_left":[0,0,0,0,0,0,0,0,0,0,0,0,0,0,0,0,0,0,0,0,0,0,0],"id":47,"left_children":[1,3,5,7,-1,9,11,13,-1,15,17,19,21,-1,-1,-1,-1,-1,-1,-1,-1,-1,-1],"loss_changes":[6.8629946E3,2.4901562E2,9.6257654E2,1.6126855E2,0E0,1.971038E2,2.4095532E2,1.1188257E2,0E0,5.0902397E1,1.1035234E2,3.3405457E1,5.3807983E1,0E0,0E0,0E0,0E0,0E0,0E0,0E0,0E0,0E0,0E0],"parents":[2147483647,0,0,1,1,2,2,3,3,5,5,6,6,7,7,9,9,10,10,11,11,12,12],"right_children":[2,4,6,8,-1,10,12,14,-1,16,18,20,22,-1,-1,-1,-1,-1,-1,-1,-1,-1,-1],"split_conditions":[2.90697E1,6.1794E0,7.21619E1,1.4843767E3,-2.4334416E-1,6.32487E1,1.9136E0,1.2243E0,-2.554827E-1,5.18008E1,2.7849E0,7.89378E1,1.3301777E3,-1.5985003E-1,-1.0936849E-1,-4.163689E-2,-8.619532E-3,1.0580156E-2,4.8880216E-2,3.7018772E-2,6.227569E-2,8.803572E-2,3.1313575E-3],"split_indices":[0,4,0,2,0,0,2,4,0,0,2,0,2,0,0,0,0,0,0,0,0,0,0],"split_type":[0,0,0,0,0,0,0,0,0,0,0,0,0,0,0,0,0,0,0,0,0,0,0],"sum_hessian":[3.933E3,6.41E2,3.292E3,5.8E2,6.1E1,1.937E3,1.355E3,5.54E2,2.6E1,5.72E2,1.365E3,7.91E2,5.64E2,1.96E2,3.58E2,1.53E2,4.19E2,1.151E3,2.14E2,6.19E2,1.72E2,5.45E2,1.9E1],"tree_param":{"num_deleted":"0","num_feature":"5","num_nodes":"23","size_leaf_vector":"1"}},{"base_weights":[-1.5924081E-2,2.5195006E-1,-3.0852227E0,1.2103033E0,1.091244E-1,-2.6148686E0,-6.660896E0,1.3129909E0,4.267427E-2,3.1975853E-1,-4.1247416E-1,-2.419916E0,-2.6929435E-1,-3.707907E-1,-1.3004753E-1,5.579015E-2,7.4967936E-2,4.1813876E-2,-7.401715E-2,1.9262357E-2,9.056831E-3,-1.0951619E-2,-4.623672E-2,-1.00316755E-1,-1.6122665E-1],"categories":[],"categories_nodes":[],"categories_segments":[],"categories_sizes":[],"default_left":[0,0,0,0,0,0,0,0,0,0,0,0,0,0,0,0,0,0,0,0,0,0,0,0,0],"id":48,"left_children":[1,3,5,7,9,11,13,15,17,19,21,23,-1,-1,-1,-1,-1,-1,-1,-1,-1,-1,-1,-1,-1],"loss_changes":[3.2310012E3,4.942517E2,4.703806E2,5.5943726E1,3.4646973E2,1.1262451E2,5.1922607E1,1.0236084E1,5.6075E1,2.1550354E1,9.008089E1,6.5941895E1,0E0,0E0,0E0,0E0,0E0,0E0,0E0,0E0,0E0,0E0,0E0,0E0,0E0],"parents":[2147483647,0,0,1,1,2,2,3,3,4,4,5,5,6,6,7,7,8,8,9,9,10,10,11,11],"right_children":[2,4,6,8,10,12,14,16,18,20,22,24,-1,-1,-1,-1,-1,-1,-1,-1,-1,-1,-1,-1,-1],"split_conditions":[2.5941E0,5.475E-1,1.02803E1,6.216362E2,2.8739E0,1.4843767E3,6.82281E1,1.033E-1,1.033E-1,1.0888E0,1.1931E0,4.4983E0,-2.6929435E-1,-3.707907E-1,-1.3004753E-1,5.579015E-2,7.4967936E-2,4.1813876E-2,-7.401715E-2,1.9262357E-2,9.056831E-3,-1.0951619E-2,-4.623672E-2,-1.00316755E-1,-1.6122665E-1],"split_indices":[4,4,4,2,2,2,2,4,4,4,4,4,0,0,0,0,0,0,0,0,0,0,0,0,0],"split_type":[0,0,0,0,0,0,0,0,0,0,0,0,0,0,0,0,0,0,0,0,0,0,0,0,0],"sum_hessian":[3.923E3,3.611E3,3.12E2,4.65E2,3.146E3,2.81E2,3.1E1,4.27E2,3.8E1,2.242E3,9.04E2,2.69E2,1.2E1,2.3E1,8E0,2.42E2,1.85E2,2.6E1,1.2E1,1.464E3,7.78E2,6.68E2,2.36E2,1.94E2,7.5E1],"tree_param":{"num_deleted":"0","num_feature":"5","num_nodes":"25","size_leaf_vector":"1"}},{"base_weights":[-1.4001452E-3,-2.7035422E0,5.5983627E-1,-2.4809744E0,-4.6142144E0,1.4167887E-1,1.1152996E0,-2.9325285E0,-1.9191059E0,-1.8122269E-1,-3.177764E-1,-3.6236852E-1,2.7549165E-1,9.2442435E-1,1.8168123E0,-1.7167915E-1,-1.2441032E-1,-1.24129355E-1,-7.8333154E-2,1.8670144E-2,-2.626278E-2,1.2501736E-2,1.0731738E-1,3.7488375E-2,5.582367E-2,8.066935E-2,1.51884E-1],"categories":[],"categories_nodes":[],"categories_segments":[],"categories_sizes":[],"default_left":[0,0,0,0,0,0,0,0,0,0,0,0,0,0,0,0,0,0,0,0,0,0,0,0,0,0,0],"id":49,"left_children":[1,3,5,7,9,11,13,15,17,-1,-1,19,21,23,25,-1,-1,-1,-1,-1,-1,-1,-1,-1,-1,-1,-1],"loss_changes":[6.1236494E3,2.5576514E2,7.760132E2,1.4022559E2,3.5548096E1,1.2926443E2,1.863678E2,4.6554443E1,4.3468018E1,0E0,0E0,5.1777832E1,6.0059174E1,3.5747253E1,5.1049866E1,0E0,0E0,0E0,0E0,0E0,0E0,0E0,0E0,0E0,0E0,0E0,0E0],"parents":[2147483647,0,0,1,1,2,2,3,3,4,4,5,5,6,6,7,7,8,8,11,11,12,12,13,13,14,14],"right_children":[2,4,6,8,10,12,14,16,18,-1,-1,20,22,24,26,-1,-1,-1,-1,-1,-1,-1,-1,-1,-1,-1,-1],"split_conditions":[3.45334E1,6.1794E0,7.17691E1,1.036E0,1.37305E1,6.13706E1,9.63894E1,1.2243E0,1.2243E0,-1.8122269E-1,-3.177764E-1,8.833E-1,1.4023E0,7.66438E1,2.769E-1,-1.7167915E-1,-1.2441032E-1,-1.24129355E-1,-7.8333154E-2,1.8670144E-2,-2.626278E-2,1.2501736E-2,1.0731738E-1,3.7488375E-2,5.582367E-2,8.066935E-2,1.51884E-1],"split_indices":[0,4,0,0,4,0,0,4,4,0,0,4,4,0,4,0,0,0,0,0,0,0,0,0,0,0,0],"split_type":[0,0,0,0,0,0,0,0,0,0,0,0,0,0,0,0,0,0,0,0,0,0,0,0,0,0,0],"sum_hessian":[4.031E3,6.91E2,3.34E3,6.26E2,6.5E1,1.908E3,1.432E3,3.39E2,2.87E2,5E1,1.5E1,3.99E2,1.509E3,1.132E3,3E2,1.32E2,2.07E2,9.3E1,1.94E2,7.4E1,3.25E2,1.496E3,1.3E1,6.46E2,4.86E2,2.7E2,3E1],"tree_param":{"num_deleted":"0","num_feature":"5","num_nodes":"27","size_leaf_vector":"1"}},{"base_weights":[-1.12710325E-2,-2.6923516E0,5.174902E-1,-3.0888877E0,-2.1605458E0,7.9968415E-2,1.0182297E0,-3.0092616E0,-2.3715587E-1,-2.256672E0,-6.401649E-2,-5.61243E-1,1.9510905E-1,7.234099E-1,1.4863648E0,-1.6715226E-1,-1.3026653E-1,-1.0629821E-1,-1.7594409E-1,-5.4005176E-2,-1.5018428E-2,2.50353E-3,4.1382845E-2,3.072592E-2,5.4980505E-2,7.958114E-2,3.3302553E-2],"categories":[],"categories_nodes":[],"categories_segments":[],"categories_sizes":[],"default_left":[0,0,0,0,0,0,0,0,0,0,0,0,0,0,0,0,0,0,0,0,0,0,0,0,0,0,0],"id":50,"left_children":[1,3,5,7,9,11,13,15,-1,17,-1,19,21,23,25,-1,-1,-1,-1,-1,-1,-1,-1,-1,-1,-1,-1],"loss_changes":[5.640633E3,1.1513916E2,7.2780994E2,5.202637E-1,1.3919189E1,1.3159628E2,2.1009802E2,1.949121E1,0E0,6.3242188E0,0E0,3.6073967E1,1.4039447E2,3.4948944E1,5.899756E1,0E0,0E0,0E0,0E0,0E0,0E0,0E0,0E0,0E0,0E0,0E0,0E0],"parents":[2147483647,0,0,1,1,2,2,3,3,4,4,5,5,6,6,7,7,9,9,11,11,12,12,13,13,14,14],"right_children":[2,4,6,8,10,12,14,16,-1,18,-1,20,22,24,26,-1,-1,-1,-1,-1,-1,-1,-1,-1,-1,-1,-1],"split_conditions":[2.90697E1,1.1718E0,7.11744E1,2.1787615E3,2.06746E1,5.91363E1,1.9136E0,9.32825E1,-2.3715587E-1,1.4843767E3,-6.401649E-2,1.9136E0,2.8739E0,7.86293E1,4.849204E2,-1.6715226E-1,-1.3026653E-1,-1.0629821E-1,-1.7594409E-1,-5.4005176E-2,-1.5018428E-2,2.50353E-3,4.1382845E-2,3.072592E-2,5.4980505E-2,7.958114E-2,3.3302553E-2],"split_indices":[0,0,0,2,0,0,2,2,0,2,0,2,2,0,2,0,0,0,0,0,0,0,0,0,0,0,0],"split_type":[0,0,0,0,0,0,0,0,0,0,0,0,0,0,0,0,0,0,0,0,0,0,0,0,0,0,0],"sum_hessian":[3.972E3,6.52E2,3.32E3,3.64E2,2.88E2,1.774E3,1.546E3,3.57E2,7E0,2.54E2,3.4E1,2.68E2,1.506E3,9.54E2,5.92E2,1.59E2,1.98E2,2.45E2,9E0,8.3E1,1.85E2,1.234E3,2.72E2,7.69E2,1.85E2,5.07E2,8.5E1],"tree_param":{"num_deleted":"0","num_feature":"5","num_nodes":"27","size_leaf_vector":"1"}},{"base_weights":[-5.5718482E-3,2.2762957E-1,-2.52842E0,1.0030099E0,1.11950174E-1,-2.033352E0,-1.8136345E-1,1.0660821E0,7.598173E-2,2.49512E-1,-4.3228528E-1,-1.7568823E0,-2.4773833E-1,6.068518E-2,4.4918187E-2,3.5169598E-2,-5.895117E-2,1.3671489E-2,-4.1856013E-2,-1.6408352E-2,-7.41568E-2,-5.5872835E-2,-8.950724E-2],"categories":[],"categories_nodes":[],"categories_segments":[],"categories_sizes":[],"default_left":[0,0,0,0,0,0,0,0,0,0,0,0,0,0,0,0,0,0,0,0,0,0,0],"id":51,"left_children":[1,3,5,7,9,11,-1,13,15,17,19,21,-1,-1,-1,-1,-1,-1,-1,-1,-1,-1,-1],"loss_changes":[2.3114927E3,3.2217368E2,1.6432153E2,2.6968689E1,2.3495537E2,1.687987E2,0E0,7.256592E0,3.0123814E1,7.847443E1,6.556747E1,1.4382935E0,0E0,0E0,0E0,0E0,0E0,0E0,0E0,0E0,0E0,0E0,0E0],"parents":[2147483647,0,0,1,1,2,2,3,3,4,4,5,5,7,7,8,8,9,9,10,10,11,11],"right_children":[2,4,6,8,10,12,-1,14,16,18,20,22,-1,-1,-1,-1,-1,-1,-1,-1,-1,-1,-1],"split_conditions":[2.5941E0,5.475E-1,5.0305E0,6.216362E2,5.09253E1,1.4843767E3,-1.8136345E-1,5.47666E1,1.033E-1,1.538E0,1.4843767E3,2.791E0,-2.4773833E-1,6.068518E-2,4.4918187E-2,3.5169598E-2,-5.895117E-2,1.3671489E-2,-4.1856013E-2,-1.6408352E-2,-7.41568E-2,-5.5872835E-2,-8.950724E-2],"split_indices":[4,4,4,2,2,2,0,2,4,4,2,4,0,0,0,0,0,0,0,0,0,0,0],"split_type":[0,0,0,0,0,0,0,0,0,0,0,0,0,0,0,0,0,0,0,0,0,0,0],"sum_hessian":[3.922E3,3.593E3,3.29E2,4.63E2,3.13E3,2.37E2,9.2E1,4.33E2,3E1,2.5E3,6.3E2,2.22E2,1.5E1,1.96E2,2.37E2,2.1E1,9E0,2.44E3,6E1,5.81E2,4.9E1,2.6E1,1.96E2],"tree_param":{"num_deleted":"0","num_feature":"5","num_nodes":"23","size_leaf_vector":"1"}},{"base_weights":[-1.7159821E-2,2.0622039E-1,-2.4861214E0,9.856356E-1,8.9758E-2,-2.1999269E0,-3.404782E-1,1.0587518E0,6.2398612E-3,2.5231192E-1,-3.0621612E-1,-2.0575151E0,-2.2185957E-1,4.381688E-2,6.216745E-2,3.6972545E-2,-6.4284824E-2,1.5175737E-2,6.575955E-3,-2.2102606E-2,1.198286E-2,-7.965238E-2,-1.4486392E-1],"categories":[],"categories_nodes":[],"categories_segments":[],"categories_sizes":[],"default_left":[0,0,0,0,0,0,0,0,0,0,0,0,0,0,0,0,0,0,0,0,0,0,0],"id":52,"left_children":[1,3,5,7,9,11,-1,13,15,17,19,21,-1,-1,-1,-1,-1,-1,-1,-1,-1,-1,-1],"loss_changes":[2.1965447E3,3.3121323E2,3.664248E2,3.3928253E1,2.0504495E2,7.1581055E1,0E0,1.1281403E1,3.8976624E1,1.4849487E1,7.316289E1,1.0156177E2,0E0,0E0,0E0,0E0,0E0,0E0,0E0,0E0,0E0,0E0,0E0],"parents":[2147483647,0,0,1,1,2,2,3,3,4,4,5,5,7,7,8,8,9,9,10,10,11,11],"right_children":[2,4,6,8,10,12,-1,14,16,18,20,22,-1,-1,-1,-1,-1,-1,-1,-1,-1,-1,-1],"split_conditions":[2.5941E0,5.475E-1,1.37305E1,6.216362E2,2.7849E0,1.4843767E3,-3.404782E-1,1.033E-1,1.033E-1,1.0959E0,6.96E0,4.4983E0,-2.2185957E-1,4.381688E-2,6.216745E-2,3.6972545E-2,-6.4284824E-2,1.5175737E-2,6.575955E-3,-2.2102606E-2,1.198286E-2,-7.965238E-2,-1.4486392E-1],"split_indices":[4,4,4,2,2,2,0,4,4,4,3,4,0,0,0,0,0,0,0,0,0,0,0],"split_type":[0,0,0,0,0,0,0,0,0,0,0,0,0,0,0,0,0,0,0,0,0,0,0],"sum_hessian":[3.976E3,3.649E3,3.27E2,4.71E2,3.178E3,3.12E2,1.5E1,4.38E2,3.3E1,2.254E3,9.24E2,3E2,1.2E1,2.5E2,1.88E2,2.2E1,1.1E1,1.528E3,7.26E2,7.34E2,1.9E2,2.07E2,9.3E1],"tree_param":{"num_deleted":"0","num_feature":"5","num_nodes":"23","size_leaf_vector":"1"}},{"base_weights":[-1.5813664E-3,2.0285186E-1,-2.3049595E0,9.737387E-1,9.220268E-2,-2.08547E0,-2.833376E-1,1.0501419E0,-9.593305E-3,1.6490768E-1,-6.975112E-1,-1.6543012E0,-1.3560799E-1,5.237733E-2,2.6808131E-2,2.7775634E-2,-5.600133E-2,9.251015E-3,-6.1462168E-2,-2.9622048E-2,-6.942741E-2,-7.398607E-2,-1.9037963E-1],"categories":[],"categories_nodes":[],"categories_segments":[],"categories_sizes":[],"default_left":[0,0,0,0,0,0,0,0,0,0,0,0,0,0,0,0,0,0,0,0,0,0,0],"id":53,"left_children":[1,3,5,7,9,11,-1,13,15,17,19,21,-1,-1,-1,-1,-1,-1,-1,-1,-1,-1,-1],"loss_changes":[1.87411E3,3.1146927E2,2.0425891E2,3.4500275E1,1.8414102E2,7.3806885E1,0E0,9.5098877E-1,2.5809433E1,9.622511E1,1.5497192E1,4.6009216E1,0E0,0E0,0E0,0E0,0E0,0E0,0E0,0E0,0E0,0E0,0E0],"parents":[2147483647,0,0,1,1,2,2,3,3,4,4,5,5,7,7,8,8,9,9,10,10,11,11],"right_children":[2,4,6,8,10,12,-1,14,16,18,20,22,-1,-1,-1,-1,-1,-1,-1,-1,-1,-1,-1],"split_conditions":[2.5941E0,5.475E-1,1.37305E1,6.216362E2,1.1931E0,4.3354E0,-2.833376E-1,4.923E-1,1.033E-1,1.4843767E3,3.096125E2,1.4843767E3,-1.3560799E-1,5.237733E-2,2.6808131E-2,2.7775634E-2,-5.600133E-2,9.251015E-3,-6.1462168E-2,-2.9622048E-2,-6.942741E-2,-7.398607E-2,-1.9037963E-1],"split_indices":[4,4,4,2,4,4,0,4,4,2,2,2,0,0,0,0,0,0,0,0,0,0,0],"split_type":[0,0,0,0,0,0,0,0,0,0,0,0,0,0,0,0,0,0,0,0,0,0,0],"sum_hessian":[3.973E3,3.652E3,3.21E2,4.55E2,3.197E3,3.07E2,1.4E1,4.22E2,3.3E1,2.93E3,2.67E2,1.94E2,1.13E2,4.07E2,1.5E1,2.3E1,1E1,2.886E3,4.4E1,2.41E2,2.6E1,1.87E2,7E0],"tree_param":{"num_deleted":"0","num_feature":"5","num_nodes":"23","size_leaf_vector":"1"}},{"base_weights":[-1.8662134E-2,-2.3768783E0,4.60257E-1,-2.2720797E0,-2.696395E-1,7.276949E-2,9.307525E-1,-2.969179E0,-1.9117109E0,-5.6903243E-1,1.6689798E-1,6.699765E-1,1.311473E0,-1.496817E-1,-5.4625623E-2,-8.8274494E-2,-2.2599614E-1,-6.024092E-2,-1.3130513E-2,5.7423716E-5,4.4503517E-2,2.7275251E-2,4.872394E-2,6.661459E-2,-1.7326692E-2],"categories":[],"categories_nodes":[],"categories_segments":[],"categories_sizes":[],"default_left":[0,0,0,0,0,0,0,0,0,0,0,0,0,0,0,0,0,0,0,0,0,0,0,0,0],"id":54,"left_children":[1,3,5,7,-1,9,11,13,15,17,19,21,23,-1,-1,-1,-1,-1,-1,-1,-1,-1,-1,-1,-1],"loss_changes":[4.478967E3,1.7453271E2,6.007227E2,1.4451294E2,0E0,1.097504E2,1.4470923E2,1.7063232E1,1.1135657E2,4.484784E1,1.9330183E2,3.1084747E1,4.3423584E1,0E0,0E0,0E0,0E0,0E0,0E0,0E0,0E0,0E0,0E0,0E0,0E0],"parents":[2147483647,0,0,1,1,2,2,3,3,5,5,6,6,7,7,8,8,9,9,10,10,11,11,12,12],"right_children":[2,4,6,8,-1,10,12,14,16,18,20,22,24,-1,-1,-1,-1,-1,-1,-1,-1,-1,-1,-1,-1],"split_conditions":[2.90697E1,1.37305E1,7.13387E1,1.2243E0,-2.696395E-1,5.81535E1,1.9136E0,9.8E0,2.1787615E3,1.9136E0,2.7849E0,7.80241E1,1.4843767E3,-1.496817E-1,-5.4625623E-2,-8.8274494E-2,-2.2599614E-1,-6.024092E-2,-1.3130513E-2,5.7423716E-5,4.4503517E-2,2.7275251E-2,4.872394E-2,6.661459E-2,-1.7326692E-2],"split_indices":[0,4,0,4,0,0,2,3,2,2,2,0,2,0,0,0,0,0,0,0,0,0,0,0,0],"split_type":[0,0,0,0,0,0,0,0,0,0,0,0,0,0,0,0,0,0,0,0,0,0,0,0,0],"sum_hessian":[3.959E3,6.66E2,3.293E3,6.5E2,1.6E1,1.808E3,1.485E3,2.13E2,4.37E2,2.29E2,1.579E3,8.87E2,5.98E2,2.03E2,1E1,4.24E2,1.3E1,6.9E1,1.6E2,1.292E3,2.87E2,6.58E2,2.29E2,5.84E2,1.4E1],"tree_param":{"num_deleted":"0","num_feature":"5","num_nodes":"25","size_leaf_vector":"1"}},{"base_weights":[-1.1342487E-2,-2.1193233E0,4.7073004E-1,-2.6567836E0,-1.618472E0,5.5742E-2,8.361871E-1,-1.062956E-1,-2.8471775E0,-1.7827784E0,-9.843467E-1,-1.1536534E-1,6.0454834E-1,5.9258E-1,1.239194E0,-2.0466614E-1,-1.2083785E-1,-8.392197E-2,-1.4450921E-1,-2.9115546E-2,-7.527861E-2,-4.2451143E-2,-5.89146E-4,3.67115E-2,-3.9069634E-2,2.3718445E-2,4.4604458E-2,6.440711E-2,5.2223164E-3],"categories":[],"categories_nodes":[],"categories_segments":[],"categories_sizes":[],"default_left":[0,0,0,0,0,0,0,0,0,0,0,0,0,0,0,0,0,0,0,0,0,0,0,0,0,0,0,0,0],"id":55,"left_children":[1,3,5,7,9,11,13,-1,15,17,19,21,23,25,27,-1,-1,-1,-1,-1,-1,-1,-1,-1,-1,-1,-1,-1,-1],"loss_changes":[3.993517E3,1.820044E2,4.848966E2,1.1643555E1,3.426819E1,1.412433E2,1.6437415E2,0E0,8.839441E1,9.954224E0,1.5559761E1,8.857003E1,7.261084E1,3.55E1,4.945819E1,0E0,0E0,0E0,0E0,0E0,0E0,0E0,0E0,0E0,0E0,0E0,0E0,0E0,0E0],"parents":[2147483647,0,0,1,1,2,2,3,3,4,4,5,5,6,6,8,8,9,9,10,10,11,11,12,12,13,13,14,14],"right_children":[2,4,6,8,10,12,14,-1,16,18,20,22,24,26,28,-1,-1,-1,-1,-1,-1,-1,-1,-1,-1,-1,-1,-1,-1],"split_conditions":[4.37121E1,5.524E-1,6.99606E1,5.47666E1,2.5732E1,2.7155E0,1.9136E0,-1.062956E-1,8.23498E1,1.4843767E3,1.785E1,6.06087E1,9.908246E2,7.72407E1,1.2371227E3,-2.0466614E-1,-1.2083785E-1,-8.392197E-2,-1.4450921E-1,-2.9115546E-2,-7.527861E-2,-4.2451143E-2,-5.89146E-4,3.67115E-2,-3.9069634E-2,2.3718445E-2,4.4604458E-2,6.440711E-2,5.2223164E-3],"split_indices":[0,0,0,2,0,2,2,0,2,2,3,0,2,0,2,0,0,0,0,0,0,0,0,0,0,0,0,0,0],"split_type":[0,0,0,0,0,0,0,0,0,0,0,0,0,0,0,0,0,0,0,0,0,0,0,0,0,0,0,0,0],"sum_hessian":[3.923E3,7.28E2,3.195E3,3.44E2,3.84E2,1.498E3,1.697E3,1.07E2,2.37E2,3E2,8.4E1,1.144E3,3.54E2,1.063E3,6.34E2,4.7E1,1.9E2,2.89E2,1.1E1,5.3E1,3.1E1,1.36E2,1.008E3,3.23E2,3.1E1,7.92E2,2.71E2,5.97E2,3.7E1],"tree_param":{"num_deleted":"0","num_feature":"5","num_nodes":"29","size_leaf_vector":"1"}},{"base_weights":[-2.0884497E-2,-1.9978478E0,4.2797863E-1,-1.8978764E0,-2.7033123E-1,5.3768046E-2,8.024239E-1,-2.3239424E0,-1.4285492E0,-1.3821657E-1,2.1548784E-1,6.797629E-1,1.4650756E0,-1.4119E-1,-9.829215E-2,-9.743812E-2,-5.7895813E-2,-9.911912E-3,2.6166717E-2,9.626056E-3,8.8570714E-2,2.7837234E-2,4.2716753E-2,6.316348E-2,1.22911915E-1],"categories":[],"categories_nodes":[],"categories_segments":[],"categories_sizes":[],"default_left":[0,0,0,0,0,0,0,0,0,0,0,0,0,0,0,0,0,0,0,0,0,0,0,0,0],"id":56,"left_children":[1,3,5,7,-1,9,11,13,15,17,19,21,23,-1,-1,-1,-1,-1,-1,-1,-1,-1,-1,-1,-1],"loss_changes":[3.4934573E3,2.1839575E2,4.494038E2,1.3115625E2,0E0,5.004261E1,1.2685571E2,4.5797607E1,4.0371582E1,3.15444E1,2.6364319E1,2.7483826E1,3.5348755E1,0E0,0E0,0E0,0E0,0E0,0E0,0E0,0E0,0E0,0E0,0E0,0E0],"parents":[2147483647,0,0,1,1,2,2,3,3,5,5,6,6,7,7,8,8,9,9,10,10,11,11,12,12],"right_children":[2,4,6,8,-1,10,12,14,16,18,20,22,24,-1,-1,-1,-1,-1,-1,-1,-1,-1,-1,-1,-1],"split_conditions":[4.37121E1,1.37305E1,7.04547E1,1.3877E0,-2.7033123E-1,6.53272E1,9.89982E1,1.2243E0,1.2243E0,1.1931E0,1.2243E0,7.68241E1,2.138E-1,-1.4119E-1,-9.829215E-2,-9.743812E-2,-5.7895813E-2,-9.911912E-3,2.6166717E-2,9.626056E-3,8.8570714E-2,2.7837234E-2,4.2716753E-2,6.316348E-2,1.22911915E-1],"split_indices":[0,4,0,0,0,0,0,4,4,4,4,0,4,0,0,0,0,0,0,0,0,0,0,0,0],"split_type":[0,0,0,0,0,0,0,0,0,0,0,0,0,0,0,0,0,0,0,0,0,0,0,0,0],"sum_hessian":[3.93E3,7.25E2,3.205E3,7.1E2,1.5E1,1.605E3,1.6E3,3.65E2,3.45E2,7.34E2,8.71E2,1.356E3,2.44E2,1.27E2,2.38E2,1.01E2,2.44E2,6.73E2,6.1E1,8.64E2,7E0,8.52E2,5.04E2,2.14E2,3E1],"tree_param":{"num_deleted":"0","num_feature":"5","num_nodes":"25","size_leaf_vector":"1"}},{"base_weights":[3.5672144E-3,-1.965221E0,4.0849134E-1,-2.5405552E0,-1.6665095E0,-2.9322768E-2,7.335638E-1,-1.961519E0,-2.908313E0,-1.3344429E0,-2.8774607E0,-1.790956E-1,3.5938784E-1,4.9348336E-1,1.1588168E0,-2.0062034E-1,-7.9131626E-2,-1.526202E-1,-6.840207E-2,-3.232323E-2,-7.3219605E-2,-1.4418423E-1,-3.0592905E-2,-3.9366648E-2,-2.4469178E-3,-2.5540432E-2,3.5092097E-2,1.8520199E-2,3.669055E-2,6.124223E-2,-3.1134067E-4],"categories":[],"categories_nodes":[],"categories_segments":[],"categories_sizes":[],"default_left":[0,0,0,0,0,0,0,0,0,0,0,0,0,0,0,0,0,0,0,0,0,0,0,0,0,0,0,0,0,0,0],"id":57,"left_children":[1,3,5,7,9,11,13,15,17,19,21,23,25,27,29,-1,-1,-1,-1,-1,-1,-1,-1,-1,-1,-1,-1,-1,-1,-1,-1],"loss_changes":[3.0771206E3,9.8497314E1,4.557229E2,2.6778564E1,1.6500916E2,7.982755E1,1.8558917E2,4.8758575E1,2.1953735E1,3.3337646E1,4.40094E0,7.92955E1,1.1968767E2,3.387195E1,6.5666016E1,0E0,0E0,0E0,0E0,0E0,0E0,0E0,0E0,0E0,0E0,0E0,0E0,0E0,0E0,0E0,0E0],"parents":[2147483647,0,0,1,1,2,2,3,3,4,4,5,5,6,6,7,7,8,8,9,9,10,10,11,11,12,12,13,13,14,14],"right_children":[2,4,6,8,10,12,14,16,18,20,22,24,26,28,30,-1,-1,-1,-1,-1,-1,-1,-1,-1,-1,-1,-1,-1,-1,-1,-1],"split_conditions":[3.14845E1,1.2243E0,6.91016E1,8.833E-1,5.0305E0,2.7155E0,1.9136E0,1.033E-1,1.35962E1,1.8923E0,1.01992E1,6.08903E1,5.18008E1,7.57877E1,9.908246E2,-2.0062034E-1,-7.9131626E-2,-1.526202E-1,-6.840207E-2,-3.232323E-2,-7.3219605E-2,-1.4418423E-1,-3.0592905E-2,-3.9366648E-2,-2.4469178E-3,-2.5540432E-2,3.5092097E-2,1.8520199E-2,3.669055E-2,6.124223E-2,-3.1134067E-4],"split_indices":[0,4,0,4,4,2,2,4,0,4,0,0,0,0,2,0,0,0,0,0,0,0,0,0,0,0,0,0,0,0,0],"split_type":[0,0,0,0,0,0,0,0,0,0,0,0,0,0,0,0,0,0,0,0,0,0,0,0,0,0,0,0,0,0,0],"sum_hessian":[3.853E3,6.55E2,3.198E3,2.15E2,4.4E2,1.364E3,1.834E3,9.2E1,1.23E2,3.51E2,8.9E1,9.86E2,3.78E2,1.177E3,6.57E2,8E0,8.4E1,1.06E2,1.7E1,6.8E1,2.83E2,8.6E1,3E0,1.67E2,8.19E2,1.08E2,2.7E2,8.09E2,3.68E2,6.12E2,4.5E1],"tree_param":{"num_deleted":"0","num_feature":"5","num_nodes":"31","size_leaf_vector":"1"}},{"base_weights":[-3.280227E-2,-1.9174837E0,3.7777254E-1,-1.7764984E0,-4.3374014E0,-8.482146E-3,7.228581E-1,-2.3801055E0,-1.4546156E0,-2.7237427E-1,-1.13784045E-1,-5.677368E-1,7.504485E-2,5.0144583E-1,1.1251048E0,-2.0282274E-1,-1.104667E-1,-6.670991E-2,-1.9365475E-1,-6.1823197E-2,-1.6983403E-2,-3.9464086E-3,3.60561E-2,2.0593856E-2,4.0145952E-2,6.1155554E-2,2.2396004E-2],"categories":[],"categories_nodes":[],"categories_segments":[],"categories_sizes":[],"default_left":[0,0,0,0,0,0,0,0,0,0,0,0,0,0,0,0,0,0,0,0,0,0,0,0,0,0,0],"id":58,"left_children":[1,3,5,7,9,11,13,15,17,-1,-1,19,21,23,25,-1,-1,-1,-1,-1,-1,-1,-1,-1,-1,-1,-1],"loss_changes":[3.0516501E3,2.1402808E2,4.3169165E2,1.1865112E2,4.4091736E1,7.169549E1,1.5035858E2,2.2133911E1,9.187787E1,0E0,0E0,2.904274E1,1.3648114E2,2.7755524E1,4.5497803E1,0E0,0E0,0E0,0E0,0E0,0E0,0E0,0E0,0E0,0E0,0E0,0E0],"parents":[2147483647,0,0,1,1,2,2,3,3,4,4,5,5,6,6,7,7,8,8,11,11,12,12,13,13,14,14],"right_children":[2,4,6,8,10,12,14,16,18,-1,-1,20,22,24,26,-1,-1,-1,-1,-1,-1,-1,-1,-1,-1,-1,-1],"split_conditions":[2.90697E1,1.02803E1,6.9882E1,1.2243E0,9.3E-1,5.7149E1,2.2436E0,1.033E-1,2.1787615E3,-2.7237427E-1,-1.13784045E-1,1.9136E0,1.9136E0,7.80241E1,4.849204E2,-2.0282274E-1,-1.104667E-1,-6.670991E-2,-1.9365475E-1,-6.1823197E-2,-1.6983403E-2,-3.9464086E-3,3.60561E-2,2.0593856E-2,4.0145952E-2,6.1155554E-2,2.2396004E-2],"split_indices":[0,4,0,4,3,0,2,4,2,0,0,2,2,0,2,0,0,0,0,0,0,0,0,0,0,0,0],"split_type":[0,0,0,0,0,0,0,0,0,0,0,0,0,0,0,0,0,0,0,0,0,0,0,0,0,0,0],"sum_hessian":[3.937E3,7.02E2,3.235E3,6.69E2,3.3E1,1.528E3,1.707E3,2.25E2,4.44E2,1.7E1,1.6E1,1.96E2,1.332E3,1.106E3,6.01E2,9E0,2.16E2,4.32E2,1.2E1,4.4E1,1.52E2,1.08E3,2.52E2,8.81E2,2.25E2,5.09E2,9.2E1],"tree_param":{"num_deleted":"0","num_feature":"5","num_nodes":"27","size_leaf_vector":"1"}},{"base_weights":[-1.634277E-2,-1.8241283E0,3.5892665E-1,-2.0907035E0,-1.3053621E0,7.5833395E-4,6.7124665E-1,-1.9951156E0,-4.420324E0,-1.7671858E0,-1.0589252E0,-1.0474602E-1,3.5430345E-1,4.739275E-1,1.0095112E0,-1.2461741E-1,-8.2690515E-2,-2.3505624E-1,-3.9867964E-2,-9.833902E-2,-4.8499975E-2,-2.0928234E-2,-6.4466916E-2,-2.5677556E-2,1.7568074E-3,-2.7779115E-2,3.477314E-2,2.0180382E-2,4.020066E-2,5.1463265E-2,-3.840627E-2],"categories":[],"categories_nodes":[],"categories_segments":[],"categories_sizes":[],"default_left":[0,0,0,0,0,0,0,0,0,0,0,0,0,0,0,0,0,0,0,0,0,0,0,0,0,0,0,0,0,0,0],"id":59,"left_children":[1,3,5,7,9,11,13,15,17,19,21,23,25,27,29,-1,-1,-1,-1,-1,-1,-1,-1,-1,-1,-1,-1,-1,-1,-1,-1],"loss_changes":[2.6537976E3,8.352588E1,3.6235736E2,6.714551E1,2.0521637E1,5.6548096E1,1.13821106E2,5.7570312E1,5.0597534E0,7.118561E0,2.4011215E1,6.842007E1,1.14069786E2,2.2928497E1,4.3597107E1,0E0,0E0,0E0,0E0,0E0,0E0,0E0,0E0,0E0,0E0,0E0,0E0,0E0,0E0,0E0,0E0],"parents":[2147483647,0,0,1,1,2,2,3,3,4,4,5,5,6,6,7,7,8,8,9,9,10,10,11,11,12,12,13,13,14,14],"right_children":[2,4,6,8,10,12,14,16,18,20,22,24,26,28,30,-1,-1,-1,-1,-1,-1,-1,-1,-1,-1,-1,-1,-1,-1,-1,-1],"split_conditions":[2.90697E1,2.1464E0,6.97913E1,1.37305E1,1.1931E0,1.74501E1,1.9136E0,1.2243E0,7.53E0,5.39E0,2.1454E0,6.26861E1,5.00687E1,7.89378E1,2.1787615E3,-1.2461741E-1,-8.2690515E-2,-2.3505624E-1,-3.9867964E-2,-9.833902E-2,-4.8499975E-2,-2.0928234E-2,-6.4466916E-2,-2.5677556E-2,1.7568074E-3,-2.7779115E-2,3.477314E-2,2.0180382E-2,4.020066E-2,5.1463265E-2,-3.840627E-2],"split_indices":[0,0,0,4,4,2,2,4,3,3,4,0,0,0,2,0,0,0,0,0,0,0,0,0,0,0,0,0,0,0,0],"split_type":[0,0,0,0,0,0,0,0,0,0,0,0,0,0,0,0,0,0,0,0,0,0,0,0,0,0,0,0,0,0,0],"sum_hessian":[3.905E3,6.69E2,3.236E3,4.35E2,2.34E2,1.509E3,1.727E3,4.24E2,1.1E1,7.4E1,1.6E2,1.164E3,3.45E2,1.096E3,6.31E2,1.48E2,2.76E2,9E0,2E0,5.3E1,2.1E1,4.8E1,1.12E2,2.91E2,8.73E2,9.5E1,2.5E2,9.3E2,1.66E2,6.2E2,1.1E1],"tree_param":{"num_deleted":"0","num_feature":"5","num_nodes":"31","size_leaf_vector":"1"}},{"base_weights":[2.8240323E-2,1.5919864E-1,-1.7078388E0,6.1456156E-1,8.679448E-2,-1.5054948E0,-4.5187874E0,6.722926E-1,-2.1520305E-2,1.0854557E-1,-1.2037667E0,-1.3845476E0,-1.7086568E-1,-2.3727906E-1,-3.9471388E-2,4.0250156E-2,2.6546799E-2,2.1407908E-2,-3.3293746E-2,7.889964E-3,-1.7922074E-2,-1.9054769E-2,-7.8929804E-2,-4.8677884E-2,-1.0252724E-1],"categories":[],"categories_nodes":[],"categories_segments":[],"categories_sizes":[],"default_left":[0,0,0,0,0,0,0,0,0,0,0,0,0,0,0,0,0,0,0,0,0,0,0,0,0],"id":60,"left_children":[1,3,5,7,9,11,13,15,17,19,21,23,-1,-1,-1,-1,-1,-1,-1,-1,-1,-1,-1,-1,-1],"loss_changes":[9.251955E2,1.2454164E2,1.3881042E2,1.9102188E1,9.217418E1,4.78833E1,6.1108093E0,7.645218E0,1.4896686E1,7.886078E1,1.5588043E1,6.5075806E1,0E0,0E0,0E0,0E0,0E0,0E0,0E0,0E0,0E0,0E0,0E0,0E0,0E0],"parents":[2147483647,0,0,1,1,2,2,3,3,4,4,5,5,6,6,7,7,8,8,9,9,10,10,11,11],"right_children":[2,4,6,8,10,12,14,16,18,20,22,24,-1,-1,-1,-1,-1,