{"learner":{"attributes":{"scikit_learn":"{\"_estimator_type\": \"regressor\"}"},"feature_names":["lead_time_estimado_dias","monto_total","cantidad_lineas","cantidad_total_unidades","mes_pedido"],"feature_types":["float","float","int","int","int"],"gradient_booster":{"model":{"cats":{"enc":[],"feature_segments":[],"sorted_idx":[]},"gbtree_model_param":{"num_parallel_tree":"1","num_trees":"280"},"iteration_indptr":[0,1,2,3,4,5,6,7,8,9,10,11,12,13,14,15,16,17,18,19,20,21,22,23,24,25,26,27,28,29,30,31,32,33,34,35,36,37,38,39,40,41,42,43,44,45,46,47,48,49,50,51,52,53,54,55,56,57,58,59,60,61,62,63,64,65,66,67,68,69,70,71,72,73,74,75,76,77,78,79,80,81,82,83,84,85,86,87,88,89,90,91,92,93,94,95,96,97,98,99,100,101,102,103,104,105,106,107,108,109,110,111,112,113,114,115,116,117,118,119,120,121,122,123,124,125,126,127,128,129,130,131,132,133,134,135,136,137,138,139,140,141,142,143,144,145,146,147,148,149,150,151,152,153,154,155,156,157,158,159,160,161,162,163,164,165,166,167,168,169,170,171,172,173,174,175,176,177,178,179,180,181,182,183,184,185,186,187,188,189,190,191,192,193,194,195,196,197,198,199,200,201,202,203,204,205,206,207,208,209,210,211,212,213,214,215,216,217,218,219,220,221,222,223,224,225,226,227,228,229,230,231,232,233,234,235,236,237,238,239,240,241,242,243,244,245,246,247,248,249,250,251,252,253,254,255,256,257,258,259,260,261,262,263,264,265,266,267,268,269,270,271,272,273,274,275,276,277,278,279,280],"tree_info":[0,0,0,0,0,0,0,0,0,0,0,0,0,0,0,0,0,0,0,0,0,0,0,0,0,0,0,0,0,0,0,0,0,0,0,0,0,0,0,0,0,0,0,0,0,0,0,0,0,0,0,0,0,0,0,0,0,0,0,0,0,0,0,0,0,0,0,0,0,0,0,0,0,0,0,0,0,0,0,0,0,0,0,0,0,0,0,0,0,0,0,0,0,0,0,0,0,0,0,0,0,0,0,0,0,0,0,0,0,0,0,0,0,0,0,0,0,0,0,0,0,0,0,0,0,0,0,0,0,0,0,0,0,0,0,0,0,0,0,0,0,0,0,0,0,0,0,0,0,0,0,0,0,0,0,0,0,0,0,0,0,0,0,0,0,0,0,0,0,0,0,0,0,0,0,0,0,0,0,0,0,0,0,0,0,0,0,0,0,0,0,0,0,0,0,0,0,0,0,0,0,0,0,0,0,0,0,0,0,0,0,0,0,0,0,0,0,0,0,0,0,0,0,0,0,0,0,0,0,0,0,0,0,0,0,0,0,0,0,0,0,0,0,0,0,0,0,0,0,0,0,0,0,0,0,0,0,0,0,0,0,0,0,0,0,0,0,0,0,0,0,0,0,0,0,0,0,0,0,0],"trees":[{"base_weights":[4.3864017E-3,-1.615144E-2,1.2296309E-1,-2.0914988E-3,3.2844578E-3,1.8344516E-3,1.0703341E-2],"categories":[],"categories_nodes":[],"categories_segments":[],"categories_sizes":[],"default_left":[0,0,0,0,0,0,0],"id":0,"left_children":[1,3,5,-1,-1,-1,-1],"loss_changes":[7.3736677E0,3.682758E0,2.4673562E0,0E0,0E0,0E0,0E0],"parents":[2147483647,0,0,1,1,2,2],"right_children":[2,4,6,-1,-1,-1,-1],"split_conditions":[3E1,3.58E3,1.38197E3,-2.0914988E-3,3.2844578E-3,1.8344516E-3,1.0703341E-2],"split_indices":[3,1,1,0,0,0,0],"split_type":[0,0,0,0,0,0,0],"sum_hessian":[3.026E3,2.58E3,4.46E2,2.029E3,5.51E2,1.78E2,2.68E2],"tree_param":{"num_deleted":"0","num_feature":"5","num_nodes":"7","size_leaf_vector":"1"}},{"base_weights":[3.8254166E-3,-3.5676935E-1,2.6285356E-1,-3.474665E-2,-1.2980983E-2,8.423063E-3,3.2716807E-2],"categories":[],"categories_nodes":[],"categories_segments":[],"categories_sizes":[],"default_left":[0,0,0,0,0,0,0],"id":1,"left_children":[1,3,5,-1,-1,-1,-1],"loss_changes":[2.8264145E2,4.041957E1,6.2067818E1,0E0,0E0,0E0,0E0],"parents":[2147483647,0,0,1,1,2,2],"right_children":[2,4,6,-1,-1,-1,-1],"split_conditions":[6.2E0,4.1E0,9.9E0,-3.474665E-2,-1.2980983E-2,8.423063E-3,3.2716807E-2],"split_indices":[0,0,0,0,0,0,0],"split_type":[0,0,0,0,0,0,0],"sum_hessian":[3.024E3,1.264E3,1.76E3,4.54E2,8.1E2,1.26E3,5E2],"tree_param":{"num_deleted":"0","num_feature":"5","num_nodes":"7","size_leaf_vector":"1"}},{"base_weights":[6.0028825E-3,-1.1284827E-2,9.216231E-2,8.634735E-4,-2.2800488E-3,5.072939E-3,1.52601795E-2],"categories":[],"categories_nodes":[],"categories_segments":[],"categories_sizes":[],"default_left":[0,0,0,0,0,0,0],"id":2,"left_children":[1,3,5,-1,-1,-1,-1],"loss_changes":[4.6080613E0,1.8681009E0,4.3539286E-1,0E0,0E0,0E0,0E0],"parents":[2147483647,0,0,1,1,2,2],"right_children":[2,4,6,-1,-1,-1,-1],"split_conditions":[8E0,6E0,2.3E1,8.634735E-4,-2.2800488E-3,5.072939E-3,1.52601795E-2],"split_indices":[2,4,2,0,0,0,0],"split_type":[0,0,0,0,0,0,0],"sum_hessian":[3.092E3,2.576E3,5.16E2,1.329E3,1.247E3,5.02E2,1.4E1],"tree_param":{"num_deleted":"0","num_feature":"5","num_nodes":"7","size_leaf_vector":"1"}},{"base_weights":[6.142177E-4,-2.6628776E-2,6.519617E-2,-7.63705E-3,-6.818481E-4,-1.337642E-4,5.903164E-3],"categories":[],"categories_nodes":[],"categories_segments":[],"categories_sizes":[],"default_left":[0,0,0,0,0,0,0],"id":3,"left_children":[1,3,5,-1,-1,-1,-1],"loss_changes":[5.40839E0,3.366475E0,2.213536E0,0E0,0E0,0E0,0E0],"parents":[2147483647,0,0,1,1,2,2],"right_children":[2,4,6,-1,-1,-1,-1],"split_conditions":[6E0,6.2518E2,1.18569E3,-7.63705E-3,-6.818481E-4,-1.337642E-4,5.903164E-3],"split_indices":[2,1,1,0,0,0,0],"split_type":[0,0,0,0,0,0,0],"sum_hessian":[3.072E3,2.161E3,9.11E2,2.7E2,1.891E3,3.17E2,5.94E2],"tree_param":{"num_deleted":"0","num_feature":"5","num_nodes":"7","size_leaf_vector":"1"}},{"base_weights":[-1.9618694E-3,-5.7403494E-2,2.7788933E-2,-9.275373E-3,-2.0735655E-3,3.2410352E-4,6.1409E-3],"categories":[],"categories_nodes":[],"categories_segments":[],"categories_sizes":[],"default_left":[0,0,0,0,0,0,0],"id":4,"left_children":[1,3,5,-1,-1,-1,-1],"loss_changes":[5.1247334E0,2.403871E0,3.481114E0,0E0,0E0,0E0,0E0],"parents":[2147483647,0,0,1,1,2,2],"right_children":[2,4,6,-1,-1,-1,-1],"split_conditions":[1.24831E3,4E0,7E0,-9.275373E-3,-2.0735655E-3,3.2410352E-4,6.1409E-3],"split_indices":[1,3,2,0,0,0,0],"split_type":[0,0,0,0,0,0,0],"sum_hessian":[3.105E3,1.084E3,2.021E3,1.91E2,8.93E2,1.571E3,4.5E2],"tree_param":{"num_deleted":"0","num_feature":"5","num_nodes":"7","size_leaf_vector":"1"}},{"base_weights":[-4.1970564E-3,-3.204869E-1,2.6109934E-1,-3.2269984E-2,-1.1059565E-2,8.971854E-3,3.160522E-2],"categories":[],"categories_nodes":[],"categories_segments":[],"categories_sizes":[],"default_left":[0,0,0,0,0,0,0],"id":5,"left_children":[1,3,5,-1,-1,-1,-1],"loss_changes":[2.5550742E2,4.218927E1,4.9782898E1,0E0,0E0,0E0,0E0],"parents":[2147483647,0,0,1,1,2,2],"right_children":[2,4,6,-1,-1,-1,-1],"split_conditions":[6.5E0,4.2E0,1.01E1,-3.2269984E-2,-1.1059565E-2,8.971854E-3,3.160522E-2],"split_indices":[0,0,0,0,0,0,0],"split_type":[0,0,0,0,0,0,0],"sum_hessian":[3.043E3,1.388E3,1.655E3,4.99E2,8.89E2,1.198E3,4.57E2],"tree_param":{"num_deleted":"0","num_feature":"5","num_nodes":"7","size_leaf_vector":"1"}},{"base_weights":[2.0908464E-3,-1.4686817E-2,8.310537E-2,-1.778938E-3,3.4995347E-3,5.242932E-4,7.921838E-3],"categories":[],"categories_nodes":[],"categories_segments":[],"categories_sizes":[],"default_left":[0,0,0,0,0,0,0],"id":6,"left_children":[1,3,5,-1,-1,-1,-1],"loss_changes":[4.214847E0,3.0314684E0,2.0745995E0,0E0,0E0,0E0,0E0],"parents":[2147483647,0,0,1,1,2,2],"right_children":[2,4,6,-1,-1,-1,-1],"split_conditions":[4.1345E3,8E0,3E0,-1.778938E-3,3.4995347E-3,5.242932E-4,7.921838E-3],"split_indices":[1,2,2,0,0,0,0],"split_type":[0,0,0,0,0,0,0],"sum_hessian":[3.099E3,2.568E3,5.31E2,2.12E3,4.48E2,2.21E2,3.1E2],"tree_param":{"num_deleted":"0","num_feature":"5","num_nodes":"7","size_leaf_vector":"1"}},{"base_weights":[-2.487411E-4,-3.0962154E-1,2.4086973E-1,-3.6968246E-2,-1.3124489E-2,8.764555E-3,3.235827E-2],"categories":[],"categories_nodes":[],"categories_segments":[],"categories_sizes":[],"default_left":[0,0,0,0,0,0,0],"id":7,"left_children":[1,3,5,-1,-1,-1,-1],"loss_changes":[2.3042546E2,3.6981384E1,4.9287315E1,0E0,0E0,0E0,0E0],"parents":[2147483647,0,0,1,1,2,2],"right_children":[2,4,6,-1,-1,-1,-1],"split_conditions":[6.3E0,3.6E0,1.06E1,-3.6968246E-2,-1.3124489E-2,8.764555E-3,3.235827E-2],"split_indices":[0,0,0,0,0,0,0],"split_type":[0,0,0,0,0,0,0],"sum_hessian":[3.087E3,1.352E3,1.735E3,2.79E2,1.073E3,1.347E3,3.88E2],"tree_param":{"num_deleted":"0","num_feature":"5","num_nodes":"7","size_leaf_vector":"1"}},{"base_weights":[3.676325E-3,-2.594953E-1,2.5588012E-1,-2.597849E-2,-7.156595E-3,1.0523532E-2,3.267617E-2],"categories":[],"categories_nodes":[],"categories_segments":[],"categories_sizes":[],"default_left":[0,0,0,0,0,0,0],"id":8,"left_children":[1,3,5,-1,-1,-1,-1],"loss_changes":[2.0276918E2,3.7934586E1,3.573436E1,0E0,0E0,0E0,0E0],"parents":[2147483647,0,0,1,1,2,2],"right_children":[2,4,6,-1,-1,-1,-1],"split_conditions":[6.9E0,4.6E0,1.12E1,-2.597849E-2,-7.156595E-3,1.0523532E-2,3.267617E-2],"split_indices":[0,0,0,0,0,0,0],"split_type":[0,0,0,0,0,0,0],"sum_hessian":[3.053E3,1.494E3,1.559E3,6.33E2,8.61E2,1.25E3,3.09E2],"tree_param":{"num_deleted":"0","num_feature":"5","num_nodes":"7","size_leaf_vector":"1"}},{"base_weights":[-1.3905861E-3,-2.5759786E-2,4.7012065E-2,-3.605085E-4,-4.6055727E-3,3.7524197E-3,1.312373E-4],"categories":[],"categories_nodes":[],"categories_segments":[],"categories_sizes":[],"default_left":[0,0,0,0,0,0,0],"id":9,"left_children":[1,3,5,-1,-1,-1,-1],"loss_changes":[3.5645828E0,2.0919285E0,7.830534E-1,0E0,0E0,0E0,0E0],"parents":[2147483647,0,0,1,1,2,2],"right_children":[2,4,6,-1,-1,-1,-1],"split_conditions":[1.8E1,8E0,8E0,-3.605085E-4,-4.6055727E-3,3.7524197E-3,1.312373E-4],"split_indices":[3,4,4,0,0,0,0],"split_type":[0,0,0,0,0,0,0],"sum_hessian":[3.02E3,2.009E3,1.011E3,1.469E3,5.4E2,7.29E2,2.82E2],"tree_param":{"num_deleted":"0","num_feature":"5","num_nodes":"7","size_leaf_vector":"1"}},{"base_weights":[1.816166E-3,-2.6096862E-2,5.855605E-2,-4.8040238E-4,-4.532683E-3,2.7913211E-3,7.268466E-3],"categories":[],"categories_nodes":[],"categories_segments":[],"categories_sizes":[],"default_left":[0,0,0,0,0,0,0],"id":10,"left_children":[1,3,5,-1,-1,-1,-1],"loss_changes":[4.832063E0,1.8835596E0,7.060435E-1,0E0,0E0,0E0,0E0],"parents":[2147483647,0,0,1,1,2,2],"right_children":[2,4,6,-1,-1,-1,-1],"split_conditions":[1.8E1,8E0,4.9E1,-4.8040238E-4,-4.532683E-3,2.7913211E-3,7.268466E-3],"split_indices":[3,4,3,0,0,0,0],"split_type":[0,0,0,0,0,0,0],"sum_hessian":[3.049E3,2.044E3,1.005E3,1.519E3,5.25E2,8.66E2,1.39E2],"tree_param":{"num_deleted":"0","num_feature":"5","num_nodes":"7","size_leaf_vector":"1"}},{"base_weights":[7.125924E-4,-2.929256E-1,2.0484656E-1,-3.0460807E-2,-1.1862967E-2,4.707902E-3,2.4038859E-2],"categories":[],"categories_nodes":[],"categories_segments":[],"categories_sizes":[],"default_left":[0,0,0,0,0,0,0],"id":11,"left_children":[1,3,5,-1,-1,-1,-1],"loss_changes":[1.8168283E2,2.5415817E1,4.5942917E1,0E0,0E0,0E0,0E0],"parents":[2147483647,0,0,1,1,2,2],"right_children":[2,4,6,-1,-1,-1,-1],"split_conditions":[6E0,3.8E0,9.1E0,-3.0460807E-2,-1.1862967E-2,4.707902E-3,2.4038859E-2],"split_indices":[0,0,0,0,0,0,0],"split_type":[0,0,0,0,0,0,0],"sum_hessian":[3.029E3,1.242E3,1.787E3,3.48E2,8.94E2,1.118E3,6.69E2],"tree_param":{"num_deleted":"0","num_feature":"5","num_nodes":"7","size_leaf_vector":"1"}},{"base_weights":[7.1986753E-4,-1.4671648E-2,7.576302E-2,-3.0573132E-3,3.3861E-4,2.7032406E-3,9.064004E-3],"categories":[],"categories_nodes":[],"categories_segments":[],"categories_sizes":[],"default_left":[0,0,0,0,0,0,0],"id":12,"left_children":[1,3,5,-1,-1,-1,-1],"loss_changes":[3.6036434E0,1.99964E0,1.2365124E0,0E0,0E0,0E0,0E0],"parents":[2147483647,0,0,1,1,2,2],"right_children":[2,4,6,-1,-1,-1,-1],"split_conditions":[2.8E1,1.24831E3,3.16386E3,-3.0573132E-3,3.3861E-4,2.7032406E-3,9.064004E-3],"split_indices":[3,1,1,0,0,0,0],"split_type":[0,0,0,0,0,0,0],"sum_hessian":[3.118E3,2.588E3,5.3E2,9.1E2,1.678E3,3.88E2,1.42E2],"tree_param":{"num_deleted":"0","num_feature":"5","num_nodes":"7","size_leaf_vector":"1"}},{"base_weights":[1.4762336E-4,-2.1206503E-1,2.4528457E-1,-2.4381503E-2,-6.1666695E-3,9.858395E-3,2.8974468E-2],"categories":[],"categories_nodes":[],"categories_segments":[],"categories_sizes":[],"default_left":[0,0,0,0,0,0,0],"id":13,"left_children":[1,3,5,-1,-1,-1,-1],"loss_changes":[1.5897667E2,3.5809654E1,2.7114922E1,0E0,0E0,0E0,0E0],"parents":[2147483647,0,0,1,1,2,2],"right_children":[2,4,6,-1,-1,-1,-1],"split_conditions":[7.2E0,4.4E0,1.11E1,-2.4381503E-2,-6.1666695E-3,9.858395E-3,2.8974468E-2],"split_indices":[0,0,0,0,0,0,0],"split_type":[0,0,0,0,0,0,0],"sum_hessian":[3.054E3,1.637E3,1.417E3,5.57E2,1.08E3,1.088E3,3.29E2],"tree_param":{"num_deleted":"0","num_feature":"5","num_nodes":"7","size_leaf_vector":"1"}},{"base_weights":[1.334356E-3,-2.2678381E-1,2.1168548E-1,-2.5535516E-2,-8.368717E-3,6.3435636E-3,2.3049533E-2],"categories":[],"categories_nodes":[],"categories_segments":[],"categories_sizes":[],"default_left":[0,0,0,0,0,0,0],"id":14,"left_children":[1,3,5,-1,-1,-1,-1],"loss_changes":[1.4803348E2,2.5948746E1,3.0252426E1,0E0,0E0,0E0,0E0],"parents":[2147483647,0,0,1,1,2,2],"right_children":[2,4,6,-1,-1,-1,-1],"split_conditions":[6.7E0,4E0,9.6E0,-2.5535516E-2,-8.368717E-3,6.3435636E-3,2.3049533E-2],"split_indices":[0,0,0,0,0,0,0],"split_type":[0,0,0,0,0,0,0],"sum_hessian":[3.083E3,1.479E3,1.604E3,4.18E2,1.061E3,1.028E3,5.76E2],"tree_param":{"num_deleted":"0","num_feature":"5","num_nodes":"7","size_leaf_vector":"1"}},{"base_weights":[4.859567E-4,-3.774363E-2,2.1274865E-2,-5.6490325E-3,-1.4507194E-3,-2.4040035E-4,4.269721E-3],"categories":[],"categories_nodes":[],"categories_segments":[],"categories_sizes":[],"default_left":[0,0,0,0,0,0,0],"id":15,"left_children":[1,3,5,-1,-1,-1,-1],"loss_changes":[2.4232054E0,8.148143E-1,2.6028144E0,0E0,0E0,0E0,0E0],"parents":[2147483647,0,0,1,1,2,2],"right_children":[2,4,6,-1,-1,-1,-1],"split_conditions":[1.24831E3,4E0,1.8E1,-5.6490325E-3,-1.4507194E-3,-2.4040035E-4,4.269721E-3],"split_indices":[1,3,3,0,0,0,0],"split_type":[0,0,0,0,0,0,0],"sum_hessian":[3.047E3,1.073E3,1.974E3,1.91E2,8.82E2,1.326E3,6.48E2],"tree_param":{"num_deleted":"0","num_feature":"5","num_nodes":"7","size_leaf_vector":"1"}},{"base_weights":[-2.1595522E-3,-4.9205303E-2,1.5402076E-2,-3.7503084E-3,5.162722E-5,-1.8128552E-3,1.9443147E-3],"categories":[],"categories_nodes":[],"categories_segments":[],"categories_sizes":[],"default_left":[0,0,0,0,0,0,0],"id":16,"left_children":[1,3,5,-1,-1,-1,-1],"loss_changes":[2.538018E0,6.2992597E-1,1.8632896E0,0E0,0E0,0E0,0E0],"parents":[2147483647,0,0,1,1,2,2],"right_children":[2,4,6,-1,-1,-1,-1],"split_conditions":[1.0201E3,7E0,6E0,-3.7503084E-3,5.162722E-5,-1.8128552E-3,1.9443147E-3],"split_indices":[1,2,3,0,0,0,0],"split_type":[0,0,0,0,0,0,0],"sum_hessian":[3.07E3,8.34E2,2.236E3,6.41E2,1.93E2,6.22E2,1.614E3],"tree_param":{"num_deleted":"0","num_feature":"5","num_nodes":"7","size_leaf_vector":"1"}},{"base_weights":[1.2320031E-3,-2.5791773E-1,1.6263284E-1,-3.1026542E-2,-1.1798351E-2,2.992681E-3,1.8632406E-2],"categories":[],"categories_nodes":[],"categories_segments":[],"categories_sizes":[],"default_left":[0,0,0,0,0,0,0],"id":17,"left_children":[1,3,5,-1,-1,-1,-1],"loss_changes":[1.2794887E2,1.7807144E1,3.2863834E1,0E0,0E0,0E0,0E0],"parents":[2147483647,0,0,1,1,2,2],"right_children":[2,4,6,-1,-1,-1,-1],"split_conditions":[5.8E0,3.3E0,8.7E0,-3.1026542E-2,-1.1798351E-2,2.992681E-3,1.8632406E-2],"split_indices":[0,0,0,0,0,0,0],"split_type":[0,0,0,0,0,0,0],"sum_hessian":[3.057E3,1.173E3,1.884E3,1.97E2,9.76E2,1.102E3,7.82E2],"tree_param":{"num_deleted":"0","num_feature":"5","num_nodes":"7","size_leaf_vector":"1"}},{"base_weights":[-4.1238376E-4,-2.4144737E-1,1.5699315E-1,-2.8390931E-2,-1.0843469E-2,3.2403152E-3,1.8315015E-2],"categories":[],"categories_nodes":[],"categories_segments":[],"categories_sizes":[],"default_left":[0,0,0,0,0,0,0],"id":18,"left_children":[1,3,5,-1,-1,-1,-1],"loss_changes":[1.1659033E2,1.6460907E1,2.9569065E1,0E0,0E0,0E0,0E0],"parents":[2147483647,0,0,1,1,2,2],"right_children":[2,4,6,-1,-1,-1,-1],"split_conditions":[5.9E0,3.4E0,8.9E0,-2.8390931E-2,-1.0843469E-2,3.2403152E-3,1.8315015E-2],"split_indices":[0,0,0,0,0,0,0],"split_type":[0,0,0,0,0,0,0],"sum_hessian":[3.071E3,1.213E3,1.858E3,2.23E2,9.9E2,1.129E3,7.29E2],"tree_param":{"num_deleted":"0","num_feature":"5","num_nodes":"7","size_leaf_vector":"1"}},{"base_weights":[-1.6752757E-3,-4.195034E-2,1.41588785E-2,-1.6282653E-3,-4.907647E-3,1.6284701E-3,-1.2374927E-3],"categories":[],"categories_nodes":[],"categories_segments":[],"categories_sizes":[],"default_left":[0,0,0,0,0,0,0],"id":19,"left_children":[1,3,5,-1,-1,-1,-1],"loss_changes":[1.9660519E0,5.127796E-1,1.0764062E0,0E0,0E0,0E0,0E0],"parents":[2147483647,0,0,1,1,2,2],"right_children":[2,4,6,-1,-1,-1,-1],"split_conditions":[6E0,8E0,8E0,-1.6282653E-3,-4.907647E-3,1.6284701E-3,-1.2374927E-3],"split_indices":[3,4,4,0,0,0,0],"split_type":[0,0,0,0,0,0,0],"sum_hessian":[3.081E3,8.69E2,2.212E3,6.53E2,2.16E2,1.593E3,6.19E2],"tree_param":{"num_deleted":"0","num_feature":"5","num_nodes":"7","size_leaf_vector":"1"}},{"base_weights":[9.896826E-4,-1.7633967E-1,1.8807513E-1,-1.9230442E-2,-4.5585893E-3,7.850064E-3,2.5781069E-2],"categories":[],"categories_nodes":[],"categories_segments":[],"categories_sizes":[],"default_left":[0,0,0,0,0,0,0],"id":20,"left_children":[1,3,5,-1,-1,-1,-1],"loss_changes":[9.9129105E1,2.3056469E1,1.9697277E1,0E0,0E0,0E0,0E0],"parents":[2147483647,0,0,1,1,2,2],"right_children":[2,4,6,-1,-1,-1,-1],"split_conditions":[7.1E0,4.6E0,1.19E1,-1.9230442E-2,-4.5585893E-3,7.850064E-3,2.5781069E-2],"split_indices":[0,0,0,0,0,0,0],"split_type":[0,0,0,0,0,0,0],"sum_hessian":[2.986E3,1.533E3,1.453E3,5.98E2,9.35E2,1.201E3,2.52E2],"tree_param":{"num_deleted":"0","num_feature":"5","num_nodes":"7","size_leaf_vector":"1"}},{"base_weights":[3.845985E-3,-3.8631808E-2,2.6609818E-2,-3.2828073E-3,8.3139905E-4,9.0365956E-4,5.385009E-3],"categories":[],"categories_nodes":[],"categories_segments":[],"categories_sizes":[],"default_left":[0,0,0,0,0,0,0],"id":21,"left_children":[1,3,5,-1,-1,-1,-1],"loss_changes":[2.995695E0,1.008107E0,1.472058E0,0E0,0E0,0E0,0E0],"parents":[2147483647,0,0,1,1,2,2],"right_children":[2,4,6,-1,-1,-1,-1],"split_conditions":[1.24831E3,2.3E1,3E1,-3.2828073E-3,8.3139905E-4,9.0365956E-4,5.385009E-3],"split_indices":[1,3,3,0,0,0,0],"split_type":[0,0,0,0,0,0,0],"sum_hessian":[3.096E3,1.08E3,2.016E3,8.1E2,2.7E2,1.725E3,2.91E2],"tree_param":{"num_deleted":"0","num_feature":"5","num_nodes":"7","size_leaf_vector":"1"}},{"base_weights":[9.2724233E-4,-2.2988321E-1,1.3076513E-1,-2.9780114E-2,-1.08161485E-2,1.4277243E-3,1.5390821E-2],"categories":[],"categories_nodes":[],"categories_segments":[],"categories_sizes":[],"default_left":[0,0,0,0,0,0,0],"id":22,"left_children":[1,3,5,-1,-1,-1,-1],"loss_changes":[9.023356E1,1.3444389E1,2.7231148E1,0E0,0E0,0E0,0E0],"parents":[2147483647,0,0,1,1,2,2],"right_children":[2,4,6,-1,-1,-1,-1],"split_conditions":[5.6E0,3.1E0,8.4E0,-2.9780114E-2,-1.08161485E-2,1.4277243E-3,1.5390821E-2],"split_indices":[0,0,0,0,0,0,0],"split_type":[0,0,0,0,0,0,0],"sum_hessian":[3.009E3,1.083E3,1.926E3,1.47E2,9.36E2,1.071E3,8.55E2],"tree_param":{"num_deleted":"0","num_feature":"5","num_nodes":"7","size_leaf_vector":"1"}},{"base_weights":[-8.4869127E-4,-1.4486875E-1,1.8783784E-1,-1.6885739E-2,-3.0667738E-3,8.041341E-3,2.547401E-2],"categories":[],"categories_nodes":[],"categories_segments":[],"categories_sizes":[],"default_left":[0,0,0,0,0,0,0],"id":23,"left_children":[1,3,5,-1,-1,-1,-1],"loss_changes":[8.299141E1,2.3086658E1,1.6391632E1,0E0,0E0,0E0,0E0],"parents":[2147483647,0,0,1,1,2,2],"right_children":[2,4,6,-1,-1,-1,-1],"split_conditions":[7.4E0,4.7E0,1.24E1,-1.6885739E-2,-3.0667738E-3,8.041341E-3,2.547401E-2],"split_indices":[0,0,0,0,0,0,0],"split_type":[0,0,0,0,0,0,0],"sum_hessian":[3.052E3,1.731E3,1.321E3,6.74E2,1.057E3,1.101E3,2.2E2],"tree_param":{"num_deleted":"0","num_feature":"5","num_nodes":"7","size_leaf_vector":"1"}},{"base_weights":[5.7096314E-4,-2.0155008E-1,1.21082164E-1,-2.5494318E-2,-9.245105E-3,4.486252E-3,2.2738047E-2],"categories":[],"categories_nodes":[],"categories_segments":[],"categories_sizes":[],"default_left":[0,0,0,0,0,0,0],"id":24,"left_children":[1,3,5,-1,-1,-1,-1],"loss_changes":[7.43402E1,1.1500122E1,2.2668901E1,0E0,0E0,0E0,0E0],"parents":[2147483647,0,0,1,1,2,2],"right_children":[2,4,6,-1,-1,-1,-1],"split_conditions":[5.7E0,3.2E0,1.18E1,-2.5494318E-2,-9.245105E-3,4.486252E-3,2.2738047E-2],"split_indices":[0,0,0,0,0,0,0],"split_type":[0,0,0,0,0,0,0],"sum_hessian":[3.05E3,1.139E3,1.911E3,1.75E2,9.64E2,1.642E3,2.69E2],"tree_param":{"num_deleted":"0","num_feature":"5","num_nodes":"7","size_leaf_vector":"1"}},{"base_weights":[3.4915651E-3,-1.2186909E-2,5.7613507E-2,2.9018393E-4,-3.4134958E-3,2.3239718E-3,6.973957E-3],"categories":[],"categories_nodes":[],"categories_segments":[],"categories_sizes":[],"default_left":[0,0,0,0,0,0,0],"id":25,"left_children":[1,3,5,-1,-1,-1,-1],"loss_changes":[2.6142347E0,1.898574E0,7.571745E-1,0E0,0E0,0E0,0E0],"parents":[2147483647,0,0,1,1,2,2],"right_children":[2,4,6,-1,-1,-1,-1],"split_conditions":[7E0,8E0,1.3E1,2.9018393E-4,-3.4134958E-3,2.3239718E-3,6.973957E-3],"split_indices":[2,4,2,0,0,0,0],"split_type":[0,0,0,0,0,0,0],"sum_hessian":[3.079E3,2.388E3,6.91E2,1.743E3,6.45E2,5.38E2,1.53E2],"tree_param":{"num_deleted":"0","num_feature":"5","num_nodes":"7","size_leaf_vector":"1"}},{"base_weights":[1.2947283E-3,-2.1884913E-2,3.0656915E-2,-2.6982944E-3,-7.6166056E-5,-1.0835512E-3,2.8587368E-3],"categories":[],"categories_nodes":[],"categories_segments":[],"categories_sizes":[],"default_left":[0,0,0,0,0,0,0],"id":26,"left_children":[1,3,5,-1,-1,-1,-1],"loss_changes":[2.1166718E0,8.7097955E-1,1.238852E0,0E0,0E0,0E0,0E0],"parents":[2147483647,0,0,1,1,2,2],"right_children":[2,4,6,-1,-1,-1,-1],"split_conditions":[2.02337E3,1E1,6E0,-2.6982944E-3,-7.6166056E-5,-1.0835512E-3,2.8587368E-3],"split_indices":[1,3,3,0,0,0,0],"split_type":[0,0,0,0,0,0,0],"sum_hessian":[3.108E3,1.737E3,1.371E3,7.95E2,9.42E2,3.72E2,9.99E2],"tree_param":{"num_deleted":"0","num_feature":"5","num_nodes":"7","size_leaf_vector":"1"}},{"base_weights":[-3.7810623E-3,-1.22739874E-1,1.7916778E-1,-1.4607543E-2,-2.348456E-3,8.282258E-3,2.5935125E-2],"categories":[],"categories_nodes":[],"categories_segments":[],"categories_sizes":[],"default_left":[0,0,0,0,0,0,0],"id":27,"left_children":[1,3,5,-1,-1,-1,-1],"loss_changes":[6.70532E1,1.9639025E1,1.193013E1,0E0,0E0,0E0,0E0],"parents":[2147483647,0,0,1,1,2,2],"right_children":[2,4,6,-1,-1,-1,-1],"split_conditions":[7.6E0,4.8E0,1.32E1,-1.4607543E-2,-2.348456E-3,8.282258E-3,2.5935125E-2],"split_indices":[0,0,0,0,0,0,0],"split_type":[0,0,0,0,0,0,0],"sum_hessian":[3.079E3,1.866E3,1.213E3,7.32E2,1.134E3,1.065E3,1.48E2],"tree_param":{"num_deleted":"0","num_feature":"5","num_nodes":"7","size_leaf_vector":"1"}},{"base_weights":[-1.4281976E-3,-1.5000123E-1,1.316481E-1,-1.9872278E-2,-6.002584E-3,4.644431E-3,1.8333033E-2],"categories":[],"categories_nodes":[],"categories_segments":[],"categories_sizes":[],"default_left":[0,0,0,0,0,0,0],"id":28,"left_children":[1,3,5,-1,-1,-1,-1],"loss_changes":[6.0006626E1,1.2844868E1,1.5186893E1,0E0,0E0,0E0,0E0],"parents":[2147483647,0,0,1,1,2,2],"right_children":[2,4,6,-1,-1,-1,-1],"split_conditions":[6.6E0,3.6E0,1.09E1,-1.9872278E-2,-6.002584E-3,4.644431E-3,1.8333033E-2],"split_indices":[0,0,0,0,0,0,0],"split_type":[0,0,0,0,0,0,0],"sum_hessian":[3.033E3,1.433E3,1.6E3,2.83E2,1.15E3,1.246E3,3.54E2],"tree_param":{"num_deleted":"0","num_feature":"5","num_nodes":"7","size_leaf_vector":"1"}},{"base_weights":[-1.9435557E-3,-1.9607921E-1,8.5089974E-2,-2.6092479E-2,-9.383558E-3,2.3893901E-4,1.1231391E-2],"categories":[],"categories_nodes":[],"categories_segments":[],"categories_sizes":[],"default_left":[0,0,0,0,0,0,0],"id":29,"left_children":[1,3,5,-1,-1,-1,-1],"loss_changes":[5.2074223E1,8.378193E0,1.8505337E1,0E0,0E0,0E0,0E0],"parents":[2147483647,0,0,1,1,2,2],"right_children":[2,4,6,-1,-1,-1,-1],"split_conditions":[5.3E0,2.8E0,8.2E0,-2.6092479E-2,-9.383558E-3,2.3893901E-4,1.1231391E-2],"split_indices":[0,0,0,0,0,0,0],"split_type":[0,0,0,0,0,0,0],"sum_hessian":[3.08E3,9.53E2,2.127E3,1.16E2,8.37E2,1.213E3,9.14E2],"tree_param":{"num_deleted":"0","num_feature":"5","num_nodes":"7","size_leaf_vector":"1"}},{"base_weights":[2.0993694E-3,-8.73007E-3,5.5655997E-2,2.2866644E-4,-2.5886777E-3,2.4417504E-3,4.98376E-3],"categories":[],"categories_nodes":[],"categories_segments":[],"categories_sizes":[],"default_left":[0,0,0,0,0,0,0],"id":30,"left_children":[1,3,5,-1,-1,-1,-1],"loss_changes":[1.7827897E0,1.1524998E0,2.0886838E-1,0E0,0E0,0E0,0E0],"parents":[2147483647,0,0,1,1,2,2],"right_children":[2,4,6,-1,-1,-1,-1],"split_conditions":[8E0,8E0,1.3E1,2.2866644E-4,-2.5886777E-3,2.4417504E-3,4.98376E-3],"split_indices":[2,4,2,0,0,0,0],"split_type":[0,0,0,0,0,0,0],"sum_hessian":[3.072E3,2.556E3,5.16E2,1.887E3,6.69E2,3.54E2,1.62E2],"tree_param":{"num_deleted":"0","num_feature":"5","num_nodes":"7","size_leaf_vector":"1"}},{"base_weights":[-1.2607578E-3,-1.0596179E-1,1.4865878E-1,-1.2332067E-2,-1.8970697E-3,6.4460835E-3,2.083373E-2],"categories":[],"categories_nodes":[],"categories_segments":[],"categories_sizes":[],"default_left":[0,0,0,0,0,0,0],"id":31,"left_children":[1,3,5,-1,-1,-1,-1],"loss_changes":[4.7906483E1,1.3900169E1,9.9487095E0,0E0,0E0,0E0,0E0],"parents":[2147483647,0,0,1,1,2,2],"right_children":[2,4,6,-1,-1,-1,-1],"split_conditions":[7.5E0,4.8E0,1.26E1,-1.2332067E-2,-1.8970697E-3,6.4460835E-3,2.083373E-2],"split_indices":[0,0,0,0,0,0,0],"split_type":[0,0,0,0,0,0,0],"sum_hessian":[3.05E3,1.796E3,1.254E3,7.37E2,1.059E3,1.061E3,1.93E2],"tree_param":{"num_deleted":"0","num_feature":"5","num_nodes":"7","size_leaf_vector":"1"}},{"base_weights":[-2.0891496E-3,-3.7567716E-2,1.0715125E-2,-7.674571E-4,-3.7100108E-3,1.5682996E-3,-8.5757615E-4],"categories":[],"categories_nodes":[],"categories_segments":[],"categories_sizes":[],"default_left":[0,0,0,0,0,0,0],"id":32,"left_children":[1,3,5,-1,-1,-1,-1],"loss_changes":[1.3841313E0,5.122397E-1,9.1975033E-1,0E0,0E0,0E0,0E0],"parents":[2147483647,0,0,1,1,2,2],"right_children":[2,4,6,-1,-1,-1,-1],"split_conditions":[6E0,6E0,7E0,-7.674571E-4,-3.7100108E-3,1.5682996E-3,-8.5757615E-4],"split_indices":[3,4,4,0,0,0,0],"split_type":[0,0,0,0,0,0,0],"sum_hessian":[3.045E3,8.07E2,2.238E3,4.17E2,3.9E2,1.368E3,8.7E2],"tree_param":{"num_deleted":"0","num_feature":"5","num_nodes":"7","size_leaf_vector":"1"}},{"base_weights":[8.922289E-4,-9.4595505E-3,5.241145E-2,4.5069828E-4,-2.3006662E-3,3.8087002E-3,1.0243824E-3],"categories":[],"categories_nodes":[],"categories_segments":[],"categories_sizes":[],"default_left":[0,0,0,0,0,0,0],"id":33,"left_children":[1,3,5,-1,-1,-1,-1],"loss_changes":[1.6639072E0,1.3379335E0,2.3274302E-1,0E0,0E0,0E0,0E0],"parents":[2147483647,0,0,1,1,2,2],"right_children":[2,4,6,-1,-1,-1,-1],"split_conditions":[8E0,7E0,8E0,4.5069828E-4,-2.3006662E-3,3.8087002E-3,1.0243824E-3],"split_indices":[2,4,4,0,0,0,0],"split_type":[0,0,0,0,0,0,0],"sum_hessian":[3.118E3,2.597E3,5.21E2,1.651E3,9.46E2,3.8E2,1.41E2],"tree_param":{"num_deleted":"0","num_feature":"5","num_nodes":"7","size_leaf_vector":"1"}},{"base_weights":[-6.535732E-4,-1.2073496E-2,3.82244E-2,1.9789039E-4,-2.2370324E-3,3.0571043E-3,6.521842E-5],"categories":[],"categories_nodes":[],"categories_segments":[],"categories_sizes":[],"default_left":[0,0,0,0,0,0,0],"id":34,"left_children":[1,3,5,-1,-1,-1,-1],"loss_changes":[1.3590509E0,9.609608E-1,3.6516392E-1,0E0,0E0,0E0,0E0],"parents":[2147483647,0,0,1,1,2,2],"right_children":[2,4,6,-1,-1,-1,-1],"split_conditions":[7E0,7E0,8E0,1.9789039E-4,-2.2370324E-3,3.0571043E-3,6.521842E-5],"split_indices":[2,4,4,0,0,0,0],"split_type":[0,0,0,0,0,0,0],"sum_hessian":[3.059E3,2.365E3,6.94E2,1.489E3,8.76E2,5.02E2,1.92E2],"tree_param":{"num_deleted":"0","num_feature":"5","num_nodes":"7","size_leaf_vector":"1"}},{"base_weights":[3.6117968E-3,-8.516311E-3,5.6969076E-2,2.1660785E-4,-2.3325481E-3,1.8359438E-3,5.650601E-3],"categories":[],"categories_nodes":[],"categories_segments":[],"categories_sizes":[],"default_left":[0,0,0,0,0,0,0],"id":35,"left_children":[1,3,5,-1,-1,-1,-1],"loss_changes":[1.9742098E0,9.5631826E-1,5.7141495E-1,0E0,0E0,0E0,0E0],"parents":[2147483647,0,0,1,1,2,2],"right_children":[2,4,6,-1,-1,-1,-1],"split_conditions":[3.92128E3,8E0,5E0,2.1660785E-4,-2.3325481E-3,1.8359438E-3,5.650601E-3],"split_indices":[1,4,2,0,0,0,0],"split_type":[0,0,0,0,0,0,0],"sum_hessian":[3.049E3,2.485E3,5.64E2,1.79E3,6.95E2,3.45E2,2.19E2],"tree_param":{"num_deleted":"0","num_feature":"5","num_nodes":"7","size_leaf_vector":"1"}},{"base_weights":[3.014933E-4,-2.6111588E-2,1.8240636E-2,-1.9940413E-3,-5.058438E-4,1.8554763E-3,-1.4503807E-4],"categories":[],"categories_nodes":[],"categories_segments":[],"categories_sizes":[],"default_left":[0,0,0,0,0,0,0],"id":36,"left_children":[1,3,5,-1,-1,-1,-1],"loss_changes":[1.4409136E0,1.7259431E-1,5.088482E-1,0E0,0E0,0E0,0E0],"parents":[2147483647,0,0,1,1,2,2],"right_children":[2,4,6,-1,-1,-1,-1],"split_conditions":[9E0,6E0,7E0,-1.9940413E-3,-5.058438E-4,1.8554763E-3,-1.4503807E-4],"split_indices":[3,3,4,0,0,0,0],"split_type":[0,0,0,0,0,0,0],"sum_hessian":[3.039E3,1.229E3,1.81E3,8.4E2,3.89E2,1.094E3,7.16E2],"tree_param":{"num_deleted":"0","num_feature":"5","num_nodes":"7","size_leaf_vector":"1"}},{"base_weights":[-1.8310996E-3,-2.6837189E-2,2.612632E-2,-5.119599E-4,-2.7026313E-3,-6.3260476E-4,2.3145452E-3],"categories":[],"categories_nodes":[],"categories_segments":[],"categories_sizes":[],"default_left":[0,0,0,0,0,0,0],"id":37,"left_children":[1,3,5,-1,-1,-1,-1],"loss_changes":[2.1336727E0,5.6634164E-1,7.214493E-1,0E0,0E0,0E0,0E0],"parents":[2147483647,0,0,1,1,2,2],"right_children":[2,4,6,-1,-1,-1,-1],"split_conditions":[1.87385E3,6E0,6E0,-5.119599E-4,-2.7026313E-3,-6.3260476E-4,2.3145452E-3],"split_indices":[1,4,3,0,0,0,0],"split_type":[0,0,0,0,0,0,0],"sum_hessian":[3.05E3,1.61E3,1.44E3,8.36E2,7.74E2,3.86E2,1.054E3],"tree_param":{"num_deleted":"0","num_feature":"5","num_nodes":"7","size_leaf_vector":"1"}},{"base_weights":[-1.853393E-3,-1.6883846E-1,7.9909824E-2,-2.4245791E-2,-8.02496E-3,1.5939648E-3,1.2863483E-2],"categories":[],"categories_nodes":[],"categories_segments":[],"categories_sizes":[],"default_left":[0,0,0,0,0,0,0],"id":38,"left_children":[1,3,5,-1,-1,-1,-1],"loss_changes":[4.2201996E1,7.7919655E0,1.53295355E1,0E0,0E0,0E0,0E0],"parents":[2147483647,0,0,1,1,2,2],"right_children":[2,4,6,-1,-1,-1,-1],"split_conditions":[5.4E0,2.8E0,9.5E0,-2.4245791E-2,-8.02496E-3,1.5939648E-3,1.2863483E-2],"split_indices":[0,0,0,0,0,0,0],"split_type":[0,0,0,0,0,0,0],"sum_hessian":[3.089E3,1.015E3,2.074E3,1.13E2,9.02E2,1.51E3,5.64E2],"tree_param":{"num_deleted":"0","num_feature":"5","num_nodes":"7","size_leaf_vector":"1"}},{"base_weights":[4.489297E-5,-8.398915E-2,1.5220623E-1,-1.04346825E-2,-8.483774E-4,7.1274983E-3,2.0847261E-2],"categories":[],"categories_nodes":[],"categories_segments":[],"categories_sizes":[],"default_left":[0,0,0,0,0,0,0],"id":39,"left_children":[1,3,5,-1,-1,-1,-1],"loss_changes":[3.8922806E1,1.2911133E1,6.633381E0,0E0,0E0,0E0,0E0],"parents":[2147483647,0,0,1,1,2,2],"right_children":[2,4,6,-1,-1,-1,-1],"split_conditions":[7.9E0,5.1E0,1.36E1,-1.04346825E-2,-8.483774E-4,7.1274983E-3,2.0847261E-2],"split_indices":[0,0,0,0,0,0,0],"split_type":[0,0,0,0,0,0,0],"sum_hessian":[3.042E3,1.96E3,1.082E3,8.28E2,1.132E3,9.45E2,1.37E2],"tree_param":{"num_deleted":"0","num_feature":"5","num_nodes":"7","size_leaf_vector":"1"}},{"base_weights":[-2.1136221E-3,-3.3383425E-2,1.4417311E-2,-3.0088993E-3,-7.0845877E-4,1.7275881E-3,-6.840178E-4],"categories":[],"categories_nodes":[],"categories_segments":[],"categories_sizes":[],"default_left":[0,0,0,0,0,0,0],"id":40,"left_children":[1,3,5,-1,-1,-1,-1],"loss_changes":[1.5874227E0,4.0944946E-1,7.978239E-1,0E0,0E0,0E0,0E0],"parents":[2147483647,0,0,1,1,2,2],"right_children":[2,4,6,-1,-1,-1,-1],"split_conditions":[1.24831E3,4E0,7E0,-3.0088993E-3,-7.0845877E-4,1.7275881E-3,-6.840178E-4],"split_indices":[1,2,4,0,0,0,0],"split_type":[0,0,0,0,0,0,0],"sum_hessian":[3.069E3,1.061E3,2.008E3,5.71E2,4.9E2,1.27E3,7.38E2],"tree_param":{"num_deleted":"0","num_feature":"5","num_nodes":"7","size_leaf_vector":"1"}},{"base_weights":[-2.1708522E-3,-9.082066E-2,1.1831431E-1,-1.5001103E-2,-3.2536548E-3,5.537331E-3,1.996519E-2],"categories":[],"categories_nodes":[],"categories_segments":[],"categories_sizes":[],"default_left":[0,0,0,0,0,0,0],"id":41,"left_children":[1,3,5,-1,-1,-1,-1],"loss_changes":[3.2278008E1,1.0134507E1,6.684038E0,0E0,0E0,0E0,0E0],"parents":[2147483647,0,0,1,1,2,2],"right_children":[2,4,6,-1,-1,-1,-1],"split_conditions":[7.4E0,3.7E0,1.36E1,-1.5001103E-2,-3.2536548E-3,5.537331E-3,1.996519E-2],"split_indices":[0,0,0,0,0,0,0],"split_type":[0,0,0,0,0,0,0],"sum_hessian":[3.02E3,1.74E3,1.28E3,3.02E2,1.438E3,1.16E3,1.2E2],"tree_param":{"num_deleted":"0","num_feature":"5","num_nodes":"7","size_leaf_vector":"1"}},{"base_weights":[-7.4473146E-4,-1.3186781E-1,7.565967E-2,-2.5301265E-2,-6.5100132E-3,2.1807014E-3,1.2380997E-2],"categories":[],"categories_nodes":[],"categories_segments":[],"categories_sizes":[],"default_left":[0,0,0,0,0,0,0],"id":42,"left_children":[1,3,5,-1,-1,-1,-1],"loss_changes":[3.0776423E1,6.882677E0,1.0137227E1,0E0,0E0,0E0,0E0],"parents":[2147483647,0,0,1,1,2,2],"right_children":[2,4,6,-1,-1,-1,-1],"split_conditions":[5.6E0,2.5E0,1.03E1,-2.5301265E-2,-6.5100132E-3,2.1807014E-3,1.2380997E-2],"split_indices":[0,0,0,0,0,0,0],"split_type":[0,0,0,0,0,0,0],"sum_hessian":[3.07E3,1.13E3,1.94E3,7E1,1.06E3,1.516E3,4.24E2],"tree_param":{"num_deleted":"0","num_feature":"5","num_nodes":"7","size_leaf_vector":"1"}},{"base_weights":[-1.6764434E-3,-2.1605039E-2,1.4835803E-2,-5.701571E-4,-2.4121213E-3,1.5908134E-3,-3.3053543E-4],"categories":[],"categories_nodes":[],"categories_segments":[],"categories_sizes":[],"default_left":[0,0,0,0,0,0,0],"id":43,"left_children":[1,3,5,-1,-1,-1,-1],"loss_changes":[1.0000228E0,3.2110965E-1,4.2345592E-1,0E0,0E0,0E0,0E0],"parents":[2147483647,0,0,1,1,2,2],"right_children":[2,4,6,-1,-1,-1,-1],"split_conditions":[1E1,7E0,7E0,-5.701571E-4,-2.4121213E-3,1.5908134E-3,-3.3053543E-4],"split_indices":[3,4,4,0,0,0,0],"split_type":[0,0,0,0,0,0,0],"sum_hessian":[3.037E3,1.376E3,1.661E3,8.61E2,5.15E2,1.034E3,6.27E2],"tree_param":{"num_deleted":"0","num_feature":"5","num_nodes":"7","size_leaf_vector":"1"}},{"base_weights":[-1.4183687E-3,-6.971483E-2,1.2978064E-1,-1.059588E-2,-1.467296E-3,6.2192813E-3,2.0215055E-2],"categories":[],"categories_nodes":[],"categories_segments":[],"categories_sizes":[],"default_left":[0,0,0,0,0,0,0],"id":44,"left_children":[1,3,5,-1,-1,-1,-1],"loss_changes":[2.7168106E1,9.936596E0,5.181425E0,0E0,0E0,0E0,0E0],"parents":[2147483647,0,0,1,1,2,2],"right_children":[2,4,6,-1,-1,-1,-1],"split_conditions":[7.9E0,4.4E0,1.46E1,-1.059588E-2,-1.467296E-3,6.2192813E-3,2.0215055E-2],"split_indices":[0,0,0,0,0,0,0],"split_type":[0,0,0,0,0,0,0],"sum_hessian":[3.03E3,1.993E3,1.037E3,5.67E2,1.426E3,9.38E2,9.9E1],"tree_param":{"num_deleted":"0","num_feature":"5","num_nodes":"7","size_leaf_vector":"1"}},{"base_weights":[6.0356484E-4,-1.2543109E-2,2.2733469E-2,1.7111698E-4,-1.71148E-3,1.9736558E-3,-3.6853814E-4],"categories":[],"categories_nodes":[],"categories_segments":[],"categories_sizes":[],"default_left":[0,0,0,0,0,0,0],"id":45,"left_children":[1,3,5,-1,-1,-1,-1],"loss_changes":[9.0480083E-1,5.068545E-1,3.734808E-1,0E0,0E0,0E0,0E0],"parents":[2147483647,0,0,1,1,2,2],"right_children":[2,4,6,-1,-1,-1,-1],"split_conditions":[5E0,6E0,8E0,1.7111698E-4,-1.71148E-3,1.9736558E-3,-3.6853814E-4],"split_indices":[2,4,4,0,0,0,0],"split_type":[0,0,0,0,0,0,0],"sum_hessian":[3.108E3,1.95E3,1.158E3,1.015E3,9.35E2,8.38E2,3.2E2],"tree_param":{"num_deleted":"0","num_feature":"5","num_nodes":"7","size_leaf_vector":"1"}},{"base_weights":[-1.7208894E-3,-6.323202E-2,1.2551534E-1,-1.2093513E-2,-1.8849781E-3,6.09012E-3,1.793334E-2],"categories":[],"categories_nodes":[],"categories_segments":[],"categories_sizes":[],"default_left":[0,0,0,0,0,0,0],"id":46,"left_children":[1,3,5,-1,-1,-1,-1],"loss_changes":[2.3847288E1,9.1420965E0,3.786871E0,0E0,0E0,0E0,0E0],"parents":[2147483647,0,0,1,1,2,2],"right_children":[2,4,6,-1,-1,-1,-1],"split_conditions":[8E0,3.8E0,1.44E1,-1.2093513E-2,-1.8849781E-3,6.09012E-3,1.793334E-2],"split_indices":[0,0,0,0,0,0,0],"split_type":[0,0,0,0,0,0,0],"sum_hessian":[3.045E3,2.053E3,9.92E2,3.62E2,1.691E3,8.9E2,1.02E2],"tree_param":{"num_deleted":"0","num_feature":"5","num_nodes":"7","size_leaf_vector":"1"}},{"base_weights":[-1.9138887E-3,-9.36951E-2,7.540023E-2,-1.7576858E-2,-4.2621302E-3,3.11615E-3,1.3099422E-2],"categories":[],"categories_nodes":[],"categories_segments":[],"categories_sizes":[],"default_left":[0,0,0,0,0,0,0],"id":47,"left_children":[1,3,5,-1,-1,-1,-1],"loss_changes":[2.1479513E1,5.9110537E0,5.3768444E0,0E0,0E0,0E0,0E0],"parents":[2147483647,0,0,1,1,2,2],"right_children":[2,4,6,-1,-1,-1,-1],"split_conditions":[6.5E0,3E0,1.23E1,-1.7576858E-2,-4.2621302E-3,3.11615E-3,1.3099422E-2],"split_indices":[0,0,0,0,0,0,0],"split_type":[0,0,0,0,0,0,0],"sum_hessian":[3.025E3,1.383E3,1.642E3,1.24E2,1.259E3,1.432E3,2.1E2],"tree_param":{"num_deleted":"0","num_feature":"5","num_nodes":"7","size_leaf_vector":"1"}},{"base_weights":[-1.5546835E-4,-1.8466754E-2,2.4835346E-2,-2.6907478E-3,-4.2536424E-4,5.373225E-4,2.9388666E-3],"categories":[],"categories_nodes":[],"categories_segments":[],"categories_sizes":[],"default_left":[0,0,0,0,0,0,0],"id":48,"left_children":[1,3,5,-1,-1,-1,-1],"loss_changes":[1.3884016E0,5.406726E-1,5.1132107E-1,0E0,0E0,0E0,0E0],"parents":[2147483647,0,0,1,1,2,2],"right_children":[2,4,6,-1,-1,-1,-1],"split_conditions":[2.09953E3,7.439E2,5E0,-2.6907478E-3,-4.2536424E-4,5.373225E-4,2.9388666E-3],"split_indices":[1,1,2,0,0,0,0],"split_type":[0,0,0,0,0,0,0],"sum_hessian":[3.032E3,1.75E3,1.282E3,5.03E2,1.247E3,7.96E2,4.86E2],"tree_param":{"num_deleted":"0","num_feature":"5","num_nodes":"7","size_leaf_vector":"1"}},{"base_weights":[4.5436045E-5,-1.2791519E-1,5.2873198E-2,-2.1035574E-2,-6.312619E-3,7.999584E-4,8.547597E-3],"categories":[],"categories_nodes":[],"categories_segments":[],"categories_sizes":[],"default_left":[0,0,0,0,0,0,0],"id":49,"left_children":[1,3,5,-1,-1,-1,-1],"loss_changes":[2.0820415E1,4.093051E0,7.989358E0,0E0,0E0,0E0,0E0],"parents":[2147483647,0,0,1,1,2,2],"right_children":[2,4,6,-1,-1,-1,-1],"split_conditions":[5.2E0,2.6E0,9.2E0,-2.1035574E-2,-6.312619E-3,7.999584E-4,8.547597E-3],"split_indices":[0,0,0,0,0,0,0],"split_type":[0,0,0,0,0,0,0],"sum_hessian":[3.078E3,8.99E2,2.179E3,6.9E1,8.3E2,1.537E3,6.42E2],"tree_param":{"num_deleted":"0","num_feature":"5","num_nodes":"7","size_leaf_vector":"1"}},{"base_weights":[-7.875471E-6,-1.113608E-1,5.5668592E-2,-1.9429848E-2,-5.525412E-3,1.5392044E-3,1.0103672E-2],"categories":[],"categories_nodes":[],"categories_segments":[],"categories_sizes":[],"default_left":[0,0,0,0,0,0,0],"id":50,"left_children":[1,3,5,-1,-1,-1,-1],"loss_changes":[1.8971197E1,3.7380018E0,7.014973E0,0E0,0E0,0E0,0E0],"parents":[2147483647,0,0,1,1,2,2],"right_children":[2,4,6,-1,-1,-1,-1],"split_conditions":[5.4E0,2.6E0,1.06E1,-1.9429848E-2,-5.525412E-3,1.5392044E-3,1.0103672E-2],"split_indices":[0,0,0,0,0,0,0],"split_type":[0,0,0,0,0,0,0],"sum_hessian":[3.058E3,1.019E3,2.039E3,7E1,9.49E2,1.633E3,4.06E2],"tree_param":{"num_deleted":"0","num_feature":"5","num_nodes":"7","size_leaf_vector":"1"}},{"base_weights":[1.1585566E-3,-1.5030671E-2,1.5838495E-2,-3.2695377E-4,-1.8694121E-3,6.32863E-4,4.2684497E-3],"categories":[],"categories_nodes":[],"categories_segments":[],"categories_sizes":[],"default_left":[0,0,0,0,0,0,0],"id":51,"left_children":[1,3,5,-1,-1,-1,-1],"loss_changes":[7.2461617E-1,2.3226753E-1,4.5679572E-1,0E0,0E0,0E0,0E0],"parents":[2147483647,0,0,1,1,2,2],"right_children":[2,4,6,-1,-1,-1,-1],"split_conditions":[1.1E1,7E0,1.4E1,-3.2695377E-4,-1.8694121E-3,6.32863E-4,4.2684497E-3],"split_indices":[3,4,2,0,0,0,0],"split_type":[0,0,0,0,0,0,0],"sum_hessian":[3.047E3,1.449E3,1.598E3,9.33E2,5.16E2,1.471E3,1.27E2],"tree_param":{"num_deleted":"0","num_feature":"5","num_nodes":"7","size_leaf_vector":"1"}},{"base_weights":[-1.7005659E-3,-2.001953E-2,2.0563014E-2,-2.014506E-3,-1.8763103E-4,3.3774227E-4,2.6183776E-3],"categories":[],"categories_nodes":[],"categories_segments":[],"categories_sizes":[],"default_left":[0,0,0,0,0,0,0],"id":52,"left_children":[1,3,5,-1,-1,-1,-1],"loss_changes":[1.2549452E0,4.1121477E-1,4.985605E-1,0E0,0E0,0E0,0E0],"parents":[2147483647,0,0,1,1,2,2],"right_children":[2,4,6,-1,-1,-1,-1],"split_conditions":[2.02337E3,4E0,5E0,-2.014506E-3,-1.8763103E-4,3.3774227E-4,2.6183776E-3],"split_indices":[1,2,2,0,0,0,0],"split_type":[0,0,0,0,0,0,0],"sum_hessian":[3.075E3,1.687E3,1.388E3,9.05E2,7.82E2,8.64E2,5.24E2],"tree_param":{"num_deleted":"0","num_feature":"5","num_nodes":"7","size_leaf_vector":"1"}},{"base_weights":[2.2455268E-4,-1.764306E-2,1.4795348E-2,-4.392643E-4,-2.137864E-3,1.383213E-3,-5.306249E-4],"categories":[],"categories_nodes":[],"categories_segments":[],"categories_sizes":[],"default_left":[0,0,0,0,0,0,0],"id":53,"left_children":[1,3,5,-1,-1,-1,-1],"loss_changes":[7.99261E-1,2.6464683E-1,3.600212E-1,0E0,0E0,0E0,0E0],"parents":[2147483647,0,0,1,1,2,2],"right_children":[2,4,6,-1,-1,-1,-1],"split_conditions":[1E1,7E0,8E0,-4.392643E-4,-2.137864E-3,1.383213E-3,-5.306249E-4],"split_indices":[3,4,4,0,0,0,0],"split_type":[0,0,0,0,0,0,0],"sum_hessian":[3.068E3,1.378E3,1.69E3,9E2,4.78E2,1.231E3,4.59E2],"tree_param":{"num_deleted":"0","num_feature":"5","num_nodes":"7","size_leaf_vector":"1"}},{"base_weights":[2.5731523E-3,-5.090846E-2,1.0205858E-1,-9.179141E-3,-1.2866447E-3,4.834129E-3,1.6069094E-2],"categories":[],"categories_nodes":[],"categories_segments":[],"categories_sizes":[],"default_left":[0,0,0,0,0,0,0],"id":54,"left_children":[1,3,5,-1,-1,-1,-1],"loss_changes":[1.6222511E1,6.0849805E0,3.5281143E0,0E0,0E0,0E0,0E0],"parents":[2147483647,0,0,1,1,2,2],"right_children":[2,4,6,-1,-1,-1,-1],"split_conditions":[7.9E0,4E0,1.46E1,-9.179141E-3,-1.2866447E-3,4.834129E-3,1.6069094E-2],"split_indices":[0,0,0,0,0,0,0],"split_type":[0,0,0,0,0,0,0],"sum_hessian":[3.047E3,1.982E3,1.065E3,4.22E2,1.56E3,9.6E2,1.05E2],"tree_param":{"num_deleted":"0","num_feature":"5","num_nodes":"7","size_leaf_vector":"1"}},{"base_weights":[-8.8356656E-4,-1.8279048E-2,2.2168793E-2,-1.294672E-3,3.5249763E-3,7.2323356E-4,2.5765293E-3],"categories":[],"categories_nodes":[],"categories_segments":[],"categories_sizes":[],"default_left":[0,0,0,0,0,0,0],"id":55,"left_children":[1,3,5,-1,-1,-1,-1],"loss_changes":[1.215857E0,5.324568E-1,2.7966833E-1,0E0,0E0,0E0,0E0],"parents":[2147483647,0,0,1,1,2,2],"right_children":[2,4,6,-1,-1,-1,-1],"split_conditions":[2.04675E3,4.9E1,4.7781E3,-1.294672E-3,3.5249763E-3,7.2323356E-4,2.5765293E-3],"split_indices":[1,3,1,0,0,0,0],"split_type":[0,0,0,0,0,0,0],"sum_hessian":[3.03E3,1.727E3,1.303E3,1.646E3,8.1E1,9.03E2,4E2],"tree_param":{"num_deleted":"0","num_feature":"5","num_nodes":"7","size_leaf_vector":"1"}},{"base_weights":[-1.3214273E-3,-2.7399302E-2,1.2119963E-2,-3.8387375E-3,-1.1240272E-3,-7.2639703E-4,1.2539014E-3],"categories":[],"categories_nodes":[],"categories_segments":[],"categories_sizes":[],"default_left":[0,0,0,0,0,0,0],"id":56,"left_children":[1,3,5,-1,-1,-1,-1],"loss_changes":[1.0687257E0,3.2263708E-1,4.6326315E-1,0E0,0E0,0E0,0E0],"parents":[2147483647,0,0,1,1,2,2],"right_children":[2,4,6,-1,-1,-1,-1],"split_conditions":[1.21613E3,4.2941E2,6E0,-3.8387375E-3,-1.1240272E-3,-7.2639703E-4,1.2539014E-3],"split_indices":[1,1,3,0,0,0,0],"split_type":[0,0,0,0,0,0,0],"sum_hessian":[3.047E3,1.036E3,2.011E3,1.8E2,8.56E2,5.55E2,1.456E3],"tree_param":{"num_deleted":"0","num_feature":"5","num_nodes":"7","size_leaf_vector":"1"}},{"base_weights":[1.1171602E-3,-6.590825E-2,7.672986E-2,-1.5226899E-2,-2.9567746E-3,3.5643647E-3,1.616241E-2],"categories":[],"categories_nodes":[],"categories_segments":[],"categories_sizes":[],"default_left":[0,0,0,0,0,0,0],"id":57,"left_children":[1,3,5,-1,-1,-1,-1],"loss_changes":[1.5067071E1,4.671168E0,4.361026E0,0E0,0E0,0E0,0E0],"parents":[2147483647,0,0,1,1,2,2],"right_children":[2,4,6,-1,-1,-1,-1],"split_conditions":[7.2E0,2.8E0,1.48E1,-1.5226899E-2,-2.9567746E-3,3.5643647E-3,1.616241E-2],"split_indices":[0,0,0,0,0,0,0],"split_type":[0,0,0,0,0,0,0],"sum_hessian":[2.971E3,1.575E3,1.396E3,1.13E2,1.462E3,1.296E3,1E2],"tree_param":{"num_deleted":"0","num_feature":"5","num_nodes":"7","size_leaf_vector":"1"}},{"base_weights":[3.8208527E-4,-1.0323425E-1,4.3151814E-2,-1.7757535E-2,-5.1266025E-3,3.0536056E-4,6.2305983E-3],"categories":[],"categories_nodes":[],"categories_segments":[],"categories_sizes":[],"default_left":[0,0,0,0,0,0,0],"id":58,"left_children":[1,3,5,-1,-1,-1,-1],"loss_changes":[1.3529828E1,2.7325182E0,5.212274E0,0E0,0E0,0E0,0E0],"parents":[2147483647,0,0,1,1,2,2],"right_children":[2,4,6,-1,-1,-1,-1],"split_conditions":[5.2E0,2.3E0,8.6E0,-1.7757535E-2,-5.1266025E-3,3.0536056E-4,6.2305983E-3],"split_indices":[0,0,0,0,0,0,0],"split_type":[0,0,0,0,0,0,0],"sum_hessian":[3.051E3,8.91E2,2.16E3,6.2E1,8.29E2,1.354E3,8.06E2],"tree_param":{"num_deleted":"0","num_feature":"5","num_nodes":"7","size_leaf_vector":"1"}},{"base_weights":[1.0228567E-3,-9.286034E-2,4.2937715E-2,-1.7221158E-2,-4.516456E-3,1.5103307E-3,1.0402808E-2],"categories":[],"categories_nodes":[],"categories_segments":[],"categories_sizes":[],"default_left":[0,0,0,0,0,0,0],"id":59,"left_children":[1,3,5,-1,-1,-1,-1],"loss_changes":[1.1907666E1,2.8987188E0,4.8241315E0,0E0,0E0,0E0,0E0],"parents":[2147483647,0,0,1,1,2,2],"right_children":[2,4,6,-1,-1,-1,-1],"split_conditions":[5.3E0,2.4E0,1.23E1,-1.7221158E-2,-4.516456E-3,1.5103307E-3,1.0402808E-2],"split_indices":[0,0,0,0,0,0,0],"split_type":[0,0,0,0,0,0,0],"sum_hessian":[3.024E3,9.33E2,2.091E3,6.5E1,8.68E2,1.858E3,2.33E2],"tree_param":{"num_deleted":"0","num_feature":"5","num_nodes":"7","size_leaf_vector":"1"}},{"base_weights":[-1.3565525E-3,-1.6635783E-2,1.7889852E-2,-3.7377307E-4,-1.9140299E-3,-2.351349E-4,1.5341422E-3],"categories":[],"categories_nodes":[],"categories_segments":[],"categories_sizes":[],"default_left":[0,0,0,0,0,0,0],"id":60,"left_children":[1,3,5,-1,-1,-1,-1],"loss_changes":[9.189732E-1,2.8784606E-1,2.547155E-1,0E0,0E0,0E0,0E0],"parents":[2147483647,0,0,1,1,2,2],"right_children":[2,4,6,-1,-1,-1,-1],"split_conditions":[2.04675E3,7E0,6E0,-3.7377307E-4,-1.9140299E-3,-2.351349E-4,1.5341422E-3],"split_indices":[1,4,3,0,0,0,0],"split_type":[0,0,0,0,0,0,0],"sum_hessian":[3.123E3,1.741E3,1.382E3,1.067E3,6.74E2,3.83E2,9.99E2],"tree_param":{"num_deleted":"0","num_feature":"5","num_nodes":"7","size_leaf_vector":"1"}},{"base_weights":[6.3981896E-4,-4.4770863E-2,8.091441E-2,-9.284098E-3,-1.5981685E-3,3.816903E-3,1.3335143E-2],"categories":[],"categories_nodes":[],"categories_segments":[],"categories_sizes":[],"default_left":[0,0,0,0,0,0,0],"id":61,"left_children":[1,3,5,-1,-1,-1,-1],"loss_changes":[1.1078117E1,3.8532643E0,2.4983306E0,0E0,0E0,0E0,0E0],"parents":[2147483647,0,0,1,1,2,2],"right_children":[2,4,6,-1,-1,-1,-1],"split_conditions":[7.8E0,3.5E0,1.44E1,-9.284098E-3,-1.5981685E-3,3.816903E-3,1.3335143E-2],"split_indices":[0,0,0,0,0,0,0],"split_type":[0,0,0,0,0,0,0],"sum_hessian":[3.037E3,1.94E3,1.097E3,2.55E2,1.685E3,9.94E2,1.03E2],"tree_param":{"num_deleted":"0","num_feature":"5","num_nodes":"7","size_leaf_vector":"1"}},{"base_weights":[-4.984158E-4,-1.9130012E-2,1.177833E-2,-5.109167E-4,-2.1655837E-3,5.276743E-4,4.8569483E-3],"categories":[],"categories_nodes":[],"categories_segments":[],"categories_sizes":[],"default_left":[0,0,0,0,0,0,0],"id":62,"left_children":[1,3,5,-1,-1,-1,-1],"loss_changes":[7.008418E-1,2.266872E-1,3.6033264E-1,0E0,0E0,0E0,0E0],"parents":[2147483647,0,0,1,1,2,2],"right_children":[2,4,6,-1,-1,-1,-1],"split_conditions":[9E0,7E0,1.7E1,-5.109167E-4,-2.1655837E-3,5.276743E-4,4.8569483E-3],"split_indices":[3,4,2,0,0,0,0],"split_type":[0,0,0,0,0,0,0],"sum_hessian":[3.062E3,1.216E3,1.846E3,7.72E2,4.44E2,1.779E3,6.7E1],"tree_param":{"num_deleted":"0","num_feature":"5","num_nodes":"7","size_leaf_vector":"1"}},{"base_weights":[7.4878865E-4,-3.650978E-2,8.729866E-2,-6.581419E-3,-6.209713E-4,4.454806E-3,2.1275444E-2],"categories":[],"categories_nodes":[],"categories_segments":[],"categories_sizes":[],"default_left":[0,0,0,0,0,0,0],"id":63,"left_children":[1,3,5,-1,-1,-1,-1],"loss_changes":[9.654787E0,4.128261E0,2.7106452E0,0E0,0E0,0E0,0E0],"parents":[2147483647,0,0,1,1,2,2],"right_children":[2,4,6,-1,-1,-1,-1],"split_conditions":[8.2E0,4.3E0,1.63E1,-6.581419E-3,-6.209713E-4,4.454806E-3,2.1275444E-2],"split_indices":[0,0,0,0,0,0,0],"split_type":[0,0,0,0,0,0,0],"sum_hessian":[2.992E3,2.092E3,9E2,5.29E2,1.563E3,8.67E2,3.3E1],"tree_param":{"num_deleted":"0","num_feature":"5","num_nodes":"7","size_leaf_vector":"1"}},{"base_weights":[-9.599713E-4,-3.2520104E-2,7.03531E-3,-2.934916E-3,-1.4947064E-3,4.881176E-5,2.157196E-3],"categories":[],"categories_nodes":[],"categories_segments":[],"categories_sizes":[],"default_left":[0,0,0,0,0,0,0],"id":64,"left_children":[1,3,5,-1,-1,-1,-1],"loss_changes":[7.8523415E-1,7.592344E-2,4.606487E-1,0E0,0E0,0E0,0E0],"parents":[2147483647,0,0,1,1,2,2],"right_children":[2,4,6,-1,-1,-1,-1],"split_conditions":[8.0721E2,4.1586E2,4.5227E3,-2.934916E-3,-1.4947064E-3,4.881176E-5,2.157196E-3],"split_indices":[1,1,1,0,0,0,0],"split_type":[0,0,0,0,0,0,0],"sum_hessian":[3.11E3,6.28E2,2.482E3,1.74E2,4.54E2,2.057E3,4.25E2],"tree_param":{"num_deleted":"0","num_feature":"5","num_nodes":"7","size_leaf_vector":"1"}},{"base_weights":[-1.6719619E-3,8.144764E-3,-1.8758493E-2,-1.8993499E-4,1.6534264E-3,-1.5294288E-3,1.7208835E-3],"categories":[],"categories_nodes":[],"categories_segments":[],"categories_sizes":[],"default_left":[0,0,0,0,0,0,0],"id":65,"left_children":[1,3,5,-1,-1,-1,-1],"loss_changes":[5.0704426E-1,4.4195047E-1,3.9721903E-1,0E0,0E0,0E0,0E0],"parents":[2147483647,0,0,1,1,2,2],"right_children":[2,4,6,-1,-1,-1,-1],"split_conditions":[7E0,5E0,1.2E1,-1.8993499E-4,1.6534264E-3,-1.5294288E-3,1.7208835E-3],"split_indices":[4,2,4,0,0,0,0],"split_type":[0,0,0,0,0,0,0],"sum_hessian":[3.021E3,1.919E3,1.102E3,1.227E3,6.92E2,9.55E2,1.47E2],"tree_param":{"num_deleted":"0","num_feature":"5","num_nodes":"7","size_leaf_vector":"1"}},{"base_weights":[-5.96417E-4,-7.45392E-2,4.040749E-2,-1.44859385E-2,-3.6244467E-3,1.7920447E-3,1.271916E-2],"categories":[],"categories_nodes":[],"categories_segments":[],"categories_sizes":[],"default_left":[0,0,0,0,0,0,0],"id":66,"left_children":[1,3,5,-1,-1,-1,-1],"loss_changes":[9.20496E0,2.322948E0,3.3564925E0,0E0,0E0,0E0,0E0],"parents":[2147483647,0,0,1,1,2,2],"right_children":[2,4,6,-1,-1,-1,-1],"split_conditions":[5.5E0,2.6E0,1.46E1,-1.44859385E-2,-3.6244467E-3,1.7920447E-3,1.271916E-2],"split_indices":[0,0,0,0,0,0,0],"split_type":[0,0,0,0,0,0,0],"sum_hessian":[3.034E3,1.082E3,1.952E3,7.1E1,1.011E3,1.852E3,1E2],"tree_param":{"num_deleted":"0","num_feature":"5","num_nodes":"7","size_leaf_vector":"1"}},{"base_weights":[-2.126766E-4,-9.565328E-3,2.8384658E-2,-8.01366E-4,1.7465855E-3,9.237218E-4,2.9080396E-3],"categories":[],"categories_nodes":[],"categories_segments":[],"categories_sizes":[],"default_left":[0,0,0,0,0,0,0],"id":67,"left_children":[1,3,5,-1,-1,-1,-1],"loss_changes":[8.0960816E-1,3.7578607E-1,2.0010012E-1,0E0,0E0,0E0,0E0],"parents":[2147483647,0,0,1,1,2,2],"right_children":[2,4,6,-1,-1,-1,-1],"split_conditions":[3.30162E3,1E1,5E0,-8.01366E-4,1.7465855E-3,9.237218E-4,2.9080396E-3],"split_indices":[1,2,2,0,0,0,0],"split_type":[0,0,0,0,0,0,0],"sum_hessian":[3.025E3,2.28E3,7.45E2,2.063E3,2.17E2,4.71E2,2.74E2],"tree_param":{"num_deleted":"0","num_feature":"5","num_nodes":"7","size_leaf_vector":"1"}},{"base_weights":[-8.6577155E-4,-3.476047E-2,7.844362E-2,-8.231523E-3,-1.1544293E-3,4.09704E-3,1.8246235E-2],"categories":[],"categories_nodes":[],"categories_segments":[],"categories_sizes":[],"default_left":[0,0,0,0,0,0,0],"id":68,"left_children":[1,3,5,-1,-1,-1,-1],"loss_changes":[8.268842E0,3.4281921E0,1.7549596E0,0E0,0E0,0E0,0E0],"parents":[2147483647,0,0,1,1,2,2],"right_children":[2,4,6,-1,-1,-1,-1],"split_conditions":[8.2E0,3.5E0,1.63E1,-8.231523E-3,-1.1544293E-3,4.09704E-3,1.8246235E-2],"split_indices":[0,0,0,0,0,0,0],"split_type":[0,0,0,0,0,0,0],"sum_hessian":[3.074E3,2.154E3,9.2E2,2.65E2,1.889E3,8.9E2,3E1],"tree_param":{"num_deleted":"0","num_feature":"5","num_nodes":"7","size_leaf_vector":"1"}},{"base_weights":[-2.7968868E-4,-3.2999206E-2,7.770273E-2,-4.916489E-3,-3.1055172E-4,4.021598E-3,2.0030526E-2],"categories":[],"categories_nodes":[],"categories_segments":[],"categories_sizes":[],"default_left":[0,0,0,0,0,0,0],"id":69,"left_children":[1,3,5,-1,-1,-1,-1],"loss_changes":[7.881741E0,3.0861142E0,2.107133E0,0E0,0E0,0E0,0E0],"parents":[2147483647,0,0,1,1,2,2],"right_children":[2,4,6,-1,-1,-1,-1],"split_conditions":[8.3E0,4.9E0,1.66E1,-4.916489E-3,-3.1055172E-4,4.021598E-3,2.0030526E-2],"split_indices":[0,0,0,0,0,0,0],"split_type":[0,0,0,0,0,0,0],"sum_hessian":[3.087E3,2.175E3,9.12E2,7.62E2,1.413E3,8.84E2,2.8E1],"tree_param":{"num_deleted":"0","num_feature":"5","num_nodes":"7","size_leaf_vector":"1"}},{"base_weights":[-8.557282E-4,-3.6606137E-2,5.7133373E-2,-8.9671435E-3,-1.4781087E-3,2.510183E-3,9.486821E-3],"categories":[],"categories_nodes":[],"categories_segments":[],"categories_sizes":[],"default_left":[0,0,0,0,0,0,0],"id":70,"left_children":[1,3,5,-1,-1,-1,-1],"loss_changes":[6.414295E0,2.5227149E0,1.7495627E0,0E0,0E0,0E0,0E0],"parents":[2147483647,0,0,1,1,2,2],"right_children":[2,4,6,-1,-1,-1,-1],"split_conditions":[7.7E0,3.2E0,1.34E1,-8.9671435E-3,-1.4781087E-3,2.510183E-3,9.486821E-3],"split_indices":[0,0,0,0,0,0,0],"split_type":[0,0,0,0,0,0,0],"sum_hessian":[3.092E3,1.913E3,1.179E3,1.67E2,1.746E3,1.041E3,1.38E2],"tree_param":{"num_deleted":"0","num_feature":"5","num_nodes":"7","size_leaf_vector":"1"}},{"base_weights":[5.780688E-4,-6.895957E-2,2.9831342E-2,-1.2464236E-2,-3.3253708E-3,1.2250249E-3,1.0406301E-2],"categories":[],"categories_nodes":[],"categories_segments":[],"categories_sizes":[],"default_left":[0,0,0,0,0,0,0],"id":71,"left_children":[1,3,5,-1,-1,-1,-1],"loss_changes":[6.2307887E0,1.5588403E0,2.8261547E0,0E0,0E0,0E0,0E0],"parents":[2147483647,0,0,1,1,2,2],"right_children":[2,4,6,-1,-1,-1,-1],"split_conditions":[5.2E0,2.6E0,1.44E1,-1.2464236E-2,-3.3253708E-3,1.2250249E-3,1.0406301E-2],"split_indices":[0,0,0,0,0,0,0],"split_type":[0,0,0,0,0,0,0],"sum_hessian":[3.061E3,9.06E2,2.155E3,6.8E1,8.38E2,2.035E3,1.2E2],"tree_param":{"num_deleted":"0","num_feature":"5","num_nodes":"7","size_leaf_vector":"1"}},{"base_weights":[-1.0480592E-3,-6.6518605E-2,2.6734235E-2,-1.213221E-2,-3.1962052E-3,4.5337298E-4,5.343455E-3],"categories":[],"categories_nodes":[],"categories_segments":[],"categories_sizes":[],"default_left":[0,0,0,0,0,0,0],"id":72,"left_children":[1,3,5,-1,-1,-1,-1],"loss_changes":[5.598601E0,1.5117626E0,2.6563058E0,0E0,0E0,0E0,0E0],"parents":[2147483647,0,0,1,1,2,2],"right_children":[2,4,6,-1,-1,-1,-1],"split_conditions":[5.2E0,2.4E0,1.01E1,-1.213221E-2,-3.1962052E-3,4.5337298E-4,5.343455E-3],"split_indices":[0,0,0,0,0,0,0],"split_type":[0,0,0,0,0,0,0],"sum_hessian":[3.076E3,9.16E2,2.16E3,6.9E1,8.47E2,1.672E3,4.88E2],"tree_param":{"num_deleted":"0","num_feature":"5","num_nodes":"7","size_leaf_vector":"1"}},{"base_weights":[2.328645E-4,-6.1823092E-2,2.5379613E-2,-8.958042E-3,-2.7458163E-3,8.6742215E-4,7.152521E-3],"categories":[],"categories_nodes":[],"categories_segments":[],"categories_sizes":[],"default_left":[0,0,0,0,0,0,0],"id":73,"left_children":[1,3,5,-1,-1,-1,-1],"loss_changes":[4.69713E0,1.1682456E0,2.18721E0,0E0,0E0,0E0,0E0],"parents":[2147483647,0,0,1,1,2,2],"right_children":[2,4,6,-1,-1,-1,-1],"split_conditions":[5.2E0,2.9E0,1.26E1,-8.958042E-3,-2.7458163E-3,8.6742215E-4,7.152521E-3],"split_indices":[0,0,0,0,0,0,0],"split_type":[0,0,0,0,0,0,0],"sum_hessian":[3.008E3,8.67E2,2.141E3,1.19E2,7.48E2,1.933E3,2.08E2],"tree_param":{"num_deleted":"0","num_feature":"5","num_nodes":"7","size_leaf_vector":"1"}},{"base_weights":[4.7618634E-4,-1.4954078E-2,1.6122157E-2,-1.9311402E-3,-3.160543E-4,5.082361E-4,2.1131856E-3],"categories":[],"categories_nodes":[],"categories_segments":[],"categories_sizes":[],"default_left":[0,0,0,0,0,0,0],"id":74,"left_children":[1,3,5,-1,-1,-1,-1],"loss_changes":[7.293338E-1,2.62956E-1,2.2306842E-1,0E0,0E0,0E0,0E0],"parents":[2147483647,0,0,1,1,2,2],"right_children":[2,4,6,-1,-1,-1,-1],"split_conditions":[1.76551E3,7.3393E2,4.68999E3,-1.9311402E-3,-3.160543E-4,5.082361E-4,2.1131856E-3],"split_indices":[1,1,1,0,0,0,0],"split_type":[0,0,0,0,0,0,0],"sum_hessian":[3.019E3,1.52E3,1.499E3,5.23E2,9.97E2,1.096E3,4.03E2],"tree_param":{"num_deleted":"0","num_feature":"5","num_nodes":"7","size_leaf_vector":"1"}},{"base_weights":[-7.8863326E-7,-3.7267983E-2,3.8729325E-2,-8.4932875E-3,-1.6809468E-3,2.0428458E-3,1.6152982E-2],"categories":[],"categories_nodes":[],"categories_segments":[],"categories_sizes":[],"default_left":[0,0,0,0,0,0,0],"id":75,"left_children":[1,3,5,-1,-1,-1,-1],"loss_changes":[4.4239063E0,1.4271567E0,1.322571E0,0E0,0E0,0E0,0E0],"parents":[2147483647,0,0,1,1,2,2],"right_children":[2,4,6,-1,-1,-1,-1],"split_conditions":[7E0,2.9E0,1.65E1,-8.4932875E-3,-1.6809468E-3,2.0428458E-3,1.6152982E-2],"split_indices":[0,0,0,0,0,0,0],"split_type":[0,0,0,0,0,0,0],"sum_hessian":[3.063E3,1.561E3,1.502E3,1.12E2,1.449E3,1.48E3,2.2E1],"tree_param":{"num_deleted":"0","num_feature":"5","num_nodes":"7","size_leaf_vector":"1"}},{"base_weights":[-5.0635677E-4,-2.9956471E-2,4.691761E-2,-9.354832E-3,-1.3952719E-3,2.420987E-3,1.7707132E-2],"categories":[],"categories_nodes":[],"categories_segments":[],"categories_sizes":[],"default_left":[0,0,0,0,0,0,0],"id":76,"left_children":[1,3,5,-1,-1,-1,-1],"loss_changes":[4.247195E0,1.4749042E0,1.6106296E0,0E0,0E0,0E0,0E0],"parents":[2147483647,0,0,1,1,2,2],"right_children":[2,4,6,-1,-1,-1,-1],"split_conditions":[7.7E0,2.7E0,1.88E1,-9.354832E-3,-1.3952719E-3,2.420987E-3,1.7707132E-2],"split_indices":[0,0,0,0,0,0,0],"split_type":[0,0,0,0,0,0,0],"sum_hessian":[3.039E3,1.875E3,1.164E3,8.2E1,1.793E3,1.141E3,2.3E1],"tree_param":{"num_deleted":"0","num_feature":"5","num_nodes":"7","size_leaf_vector":"1"}},{"base_weights":[-4.9296974E-5,-1.1997209E-2,1.5406953E-2,3.488488E-5,-1.5419985E-3,6.6520006E-4,2.3962928E-3],"categories":[],"categories_nodes":[],"categories_segments":[],"categories_sizes":[],"default_left":[0,0,0,0,0,0,0],"id":77,"left_children":[1,3,5,-1,-1,-1,-1],"loss_changes":[5.6545943E-1,3.1381047E-1,1.3681248E-1,0E0,0E0,0E0,0E0],"parents":[2147483647,0,0,1,1,2,2],"right_children":[2,4,6,-1,-1,-1,-1],"split_conditions":[2.04675E3,6E0,3.1E1,3.488488E-5,-1.5419985E-3,6.6520006E-4,2.3962928E-3],"split_indices":[1,4,3,0,0,0,0],"split_type":[0,0,0,0,0,0,0],"sum_hessian":[3.06E3,1.726E3,1.334E3,9.22E2,8.04E2,1.155E3,1.79E2],"tree_param":{"num_deleted":"0","num_feature":"5","num_nodes":"7","size_leaf_vector":"1"}},{"base_weights":[-4.6808005E-4,-2.223876E-2,5.4420505E-2,-4.515857E-3,-4.7970365E-4,2.7895079E-3,1.3938193E-2],"categories":[],"categories_nodes":[],"categories_segments":[],"categories_sizes":[],"default_left":[0,0,0,0,0,0,0],"id":78,"left_children":[1,3,5,-1,-1,-1,-1],"loss_changes":[3.673328E0,1.7008448E0,1.054378E0,0E0,0E0,0E0,0E0],"parents":[2147483647,0,0,1,1,2,2],"right_children":[2,4,6,-1,-1,-1,-1],"split_conditions":[8.3E0,4E0,1.64E1,-4.515857E-3,-4.7970365E-4,2.7895079E-3,1.3938193E-2],"split_indices":[0,0,0,0,0,0,0],"split_type":[0,0,0,0,0,0,0],"sum_hessian":[3.072E3,2.2E3,8.72E2,4.45E2,1.755E3,8.43E2,2.9E1],"tree_param":{"num_deleted":"0","num_feature":"5","num_nodes":"7","size_leaf_vector":"1"}},{"base_weights":[-1.051568E-3,-4.0600628E-2,2.6551401E-2,-1.0036204E-2,-1.9509103E-3,8.4157084E-4,5.0815362E-3],"categories":[],"categories_nodes":[],"categories_segments":[],"categories_sizes":[],"default_left":[0,0,0,0,0,0,0],"id":79,"left_children":[1,3,5,-1,-1,-1,-1],"loss_changes":[3.3994513E0,1.1999981E0,1.3452516E0,0E0,0E0,0E0,0E0],"parents":[2147483647,0,0,1,1,2,2],"right_children":[2,4,6,-1,-1,-1,-1],"split_conditions":[6E0,2.3E0,1.13E1,-1.0036204E-2,-1.9509103E-3,8.4157084E-4,5.0815362E-3],"split_indices":[0,0,0,0,0,0,0],"split_type":[0,0,0,0,0,0,0],"sum_hessian":[3.112E3,1.279E3,1.833E3,6.5E1,1.214E3,1.528E3,3.05E2],"tree_param":{"num_deleted":"0","num_feature":"5","num_nodes":"7","size_leaf_vector":"1"}},{"base_weights":[8.6022564E-4,-1.1275123E-2,1.3282424E-2,-1.3663804E-3,1.1302048E-4,4.054106E-4,1.6645078E-3],"categories":[],"categories_nodes":[],"categories_segments":[],"categories_sizes":[],"default_left":[0,0,0,0,0,0,0],"id":80,"left_children":[1,3,5,-1,-1,-1,-1],"loss_changes":[4.6369895E-1,2.4959463E-1,1.465629E-1,0E0,0E0,0E0,0E0],"parents":[2147483647,0,0,1,1,2,2],"right_children":[2,4,6,-1,-1,-1,-1],"split_conditions":[1.76551E3,4E0,4.5227E3,-1.3663804E-3,1.1302048E-4,4.054106E-4,1.6645078E-3],"split_indices":[1,2,1,0,0,0,0],"split_type":[0,0,0,0,0,0,0],"sum_hessian":[3.074E3,1.555E3,1.519E3,8.1E2,7.45E2,1.074E3,4.45E2],"tree_param":{"num_deleted":"0","num_feature":"5","num_nodes":"7","size_leaf_vector":"1"}},{"base_weights":[6.537675E-4,-4.9948703E-2,1.9439464E-2,-8.761982E-3,-2.439211E-3,2.3318609E-4,3.6132203E-3],"categories":[],"categories_nodes":[],"categories_segments":[],"categories_sizes":[],"default_left":[0,0,0,0,0,0,0],"id":81,"left_children":[1,3,5,-1,-1,-1,-1],"loss_changes":[2.8651369E0,6.601186E-1,1.441613E0,0E0,0E0,0E0,0E0],"parents":[2147483647,0,0,1,1,2,2],"right_children":[2,4,6,-1,-1,-1,-1],"split_conditions":[5.1E0,2.6E0,9.4E0,-8.761982E-3,-2.439211E-3,2.3318609E-4,3.6132203E-3],"split_indices":[0,0,0,0,0,0,0],"split_type":[0,0,0,0,0,0,0],"sum_hessian":[3.012E3,8.15E2,2.197E3,6E1,7.55E2,1.612E3,5.85E2],"tree_param":{"num_deleted":"0","num_feature":"5","num_nodes":"7","size_leaf_vector":"1"}},{"base_weights":[1.7594395E-3,-6.8518543E-3,1.659862E-2,-1.308857E-4,-1.5138045E-3,1.670967E-3,-2.1924413E-4],"categories":[],"categories_nodes":[],"categories_segments":[],"categories_sizes":[],"default_left":[0,0,0,0,0,0,0],"id":82,"left_children":[1,3,5,-1,-1,-1,-1],"loss_changes":[3.9254007E-1,1.7097355E-1,2.7644166E-1,0E0,0E0,0E0,0E0],"parents":[2147483647,0,0,1,1,2,2],"right_children":[2,4,6,-1,-1,-1,-1],"split_conditions":[5E0,9E0,7E0,-1.308857E-4,-1.5138045E-3,1.670967E-3,-2.1924413E-4],"split_indices":[2,4,4,0,0,0,0],"split_type":[0,0,0,0,0,0,0],"sum_hessian":[3.07E3,1.943E3,1.127E3,1.566E3,3.77E2,7.08E2,4.19E2],"tree_param":{"num_deleted":"0","num_feature":"5","num_nodes":"7","size_leaf_vector":"1"}},{"base_weights":[1.4497928E-3,-1.2535957E-2,1.0612064E-2,-2.6132888E-4,-1.5987019E-3,5.0390366E-4,4.907272E-3],"categories":[],"categories_nodes":[],"categories_segments":[],"categories_sizes":[],"default_left":[0,0,0,0,0,0,0],"id":83,"left_children":[1,3,5,-1,-1,-1,-1],"loss_changes":[3.8135317E-1,1.409234E-1,2.604934E-1,0E0,0E0,0E0,0E0],"parents":[2147483647,0,0,1,1,2,2],"right_children":[2,4,6,-1,-1,-1,-1],"split_conditions":[3E0,7E0,1.8E1,-2.6132888E-4,-1.5987019E-3,5.0390366E-4,4.907272E-3],"split_indices":[2,4,2,0,0,0,0],"split_type":[0,0,0,0,0,0,0],"sum_hessian":[2.974E3,1.177E3,1.797E3,7.64E2,4.13E2,1.751E3,4.6E1],"tree_param":{"num_deleted":"0","num_feature":"5","num_nodes":"7","size_leaf_vector":"1"}},{"base_weights":[-5.455505E-4,-2.0204062E-2,4.4281445E-2,-5.2144523E-3,-6.9477526E-4,2.3326215E-3,1.5365514E-2],"categories":[],"categories_nodes":[],"categories_segments":[],"categories_sizes":[],"default_left":[0,0,0,0,0,0,0],"id":84,"left_children":[1,3,5,-1,-1,-1,-1],"loss_changes":[2.7230203E0,1.2315466E0,8.7868E-1,0E0,0E0,0E0,0E0],"parents":[2147483647,0,0,1,1,2,2],"right_children":[2,4,6,-1,-1,-1,-1],"split_conditions":[8.2E0,3.4E0,1.88E1,-5.2144523E-3,-6.9477526E-4,2.3326215E-3,1.5365514E-2],"split_indices":[0,0,0,0,0,0,0],"split_type":[0,0,0,0,0,0,0],"sum_hessian":[3.088E3,2.147E3,9.41E2,2.29E2,1.918E3,9.24E2,1.7E1],"tree_param":{"num_deleted":"0","num_feature":"5","num_nodes":"7","size_leaf_vector":"1"}},{"base_weights":[1.1430987E-3,-1.6582211E-2,4.7858622E-2,-3.219304E-3,-1.5501156E-4,2.466898E-3,1.4757179E-2],"categories":[],"categories_nodes":[],"categories_segments":[],"categories_sizes":[],"default_left":[0,0,0,0,0,0,0],"id":85,"left_children":[1,3,5,-1,-1,-1,-1],"loss_changes":[2.519713E0,1.1851615E0,9.478923E-1,0E0,0E0,0E0,0E0],"parents":[2147483647,0,0,1,1,2,2],"right_children":[2,4,6,-1,-1,-1,-1],"split_conditions":[8.6E0,4.5E0,1.88E1,-3.219304E-3,-1.5501156E-4,2.466898E-3,1.4757179E-2],"split_indices":[0,0,0,0,0,0,0],"split_type":[0,0,0,0,0,0,0],"sum_hessian":[3.041E3,2.205E3,8.36E2,5.84E2,1.621E3,8.15E2,2.1E1],"tree_param":{"num_deleted":"0","num_feature":"5","num_nodes":"7","size_leaf_vector":"1"}},{"base_weights":[-3.622024E-5,-4.329257E-2,1.6091662E-2,-7.6266625E-3,-2.1328796E-3,1.8258064E-4,3.0140728E-3],"categories":[],"categories_nodes":[],"categories_segments":[],"categories_sizes":[],"default_left":[0,0,0,0,0,0,0],"id":86,"left_children":[1,3,5,-1,-1,-1,-1],"loss_changes":[2.165453E0,4.9207628E-1,1.0419939E0,0E0,0E0,0E0,0E0],"parents":[2147483647,0,0,1,1,2,2],"right_children":[2,4,6,-1,-1,-1,-1],"split_conditions":[5E0,2.4E0,9.4E0,-7.6266625E-3,-2.1328796E-3,1.8258064E-4,3.0140728E-3],"split_indices":[0,0,0,0,0,0,0],"split_type":[0,0,0,0,0,0,0],"sum_hessian":[3.102E3,8.42E2,2.26E3,5.9E1,7.83E2,1.657E3,6.03E2],"tree_param":{"num_deleted":"0","num_feature":"5","num_nodes":"7","size_leaf_vector":"1"}},{"base_weights":[-7.0960836E-5,-1.217525E-2,1.3727297E-2,-1.4366165E-3,4.571405E-5,5.706233E-4,2.5900367E-3],"categories":[],"categories_nodes":[],"categories_segments":[],"categories_sizes":[],"default_left":[0,0,0,0,0,0,0],"id":87,"left_children":[1,3,5,-1,-1,-1,-1],"loss_changes":[5.0823617E-1,2.613842E-1,1.7171699E-1,0E0,0E0,0E0,0E0],"parents":[2147483647,0,0,1,1,2,2],"right_children":[2,4,6,-1,-1,-1,-1],"split_conditions":[1.95947E3,1.1E1,7.74401E3,-1.4366165E-3,4.571405E-5,5.706233E-4,2.5900367E-3],"split_indices":[1,3,1,0,0,0,0],"split_type":[0,0,0,0,0,0,0],"sum_hessian":[3.041E3,1.62E3,1.421E3,8.26E2,7.94E2,1.26E3,1.61E2],"tree_param":{"num_deleted":"0","num_feature":"5","num_nodes":"7","size_leaf_vector":"1"}},{"base_weights":[1.184195E-3,-1.4924227E-2,3.851158E-2,-4.897928E-3,-5.361038E-4,1.8559722E-3,1.125343E-2],"categories":[],"categories_nodes":[],"categories_segments":[],"categories_sizes":[],"default_left":[0,0,0,0,0,0,0],"id":88,"left_children":[1,3,5,-1,-1,-1,-1],"loss_changes":[1.8290833E0,8.4058094E-1,9.4314003E-1,0E0,0E0,0E0,0E0],"parents":[2147483647,0,0,1,1,2,2],"right_children":[2,4,6,-1,-1,-1,-1],"split_conditions":[8.2E0,3.2E0,1.6E1,-4.897928E-3,-5.361038E-4,1.8559722E-3,1.125343E-2],"split_indices":[0,0,0,0,0,0,0],"split_type":[0,0,0,0,0,0,0],"sum_hessian":[3.04E3,2.124E3,9.16E2,1.62E2,1.962E3,8.79E2,3.7E1],"tree_param":{"num_deleted":"0","num_feature":"5","num_nodes":"7","size_leaf_vector":"1"}},{"base_weights":[-1.3472163E-3,-2.698623E-2,5.5475114E-3,-3.4377002E-3,-1.3306566E-3,8.368109E-4,-5.309871E-4],"categories":[],"categories_nodes":[],"categories_segments":[],"categories_sizes":[],"default_left":[0,0,0,0,0,0,0],"id":89,"left_children":[1,3,5,-1,-1,-1,-1],"loss_changes":[5.371891E-1,8.4675044E-2,3.0853814E-1,0E0,0E0,0E0,0E0],"parents":[2147483647,0,0,1,1,2,2],"right_children":[2,4,6,-1,-1,-1,-1],"split_conditions":[8.507E2,3.0122E2,7E0,-3.4377002E-3,-1.3306566E-3,8.368109E-4,-5.309871E-4],"split_indices":[1,1,4,0,0,0,0],"split_type":[0,0,0,0,0,0,0],"sum_hessian":[3.037E3,6.43E2,2.394E3,7.3E1,5.7E2,1.496E3,8.98E2],"tree_param":{"num_deleted":"0","num_feature":"5","num_nodes":"7","size_leaf_vector":"1"}},{"base_weights":[-3.9852902E-4,-2.3018E-2,2.4161803E-2,-6.9809137E-3,-1.0659068E-3,1.105807E-3,7.704608E-3],"categories":[],"categories_nodes":[],"categories_segments":[],"categories_sizes":[],"default_left":[0,0,0,0,0,0,0],"id":90,"left_children":[1,3,5,-1,-1,-1,-1],"loss_changes":[1.6882919E0,7.241803E-1,8.167288E-1,0E0,0E0,0E0,0E0],"parents":[2147483647,0,0,1,1,2,2],"right_children":[2,4,6,-1,-1,-1,-1],"split_conditions":[7.1E0,2.6E0,1.55E1,-6.9809137E-3,-1.0659068E-3,1.105807E-3,7.704608E-3],"split_indices":[0,0,0,0,0,0,0],"split_type":[0,0,0,0,0,0,0],"sum_hessian":[3.037E3,1.581E3,1.456E3,7.3E1,1.508E3,1.39E3,6.6E1],"tree_param":{"num_deleted":"0","num_feature":"5","num_nodes":"7","size_leaf_vector":"1"}},{"base_weights":[-7.9515085E-5,-3.796325E-2,1.3722856E-2,-7.478157E-3,-1.8054841E-3,4.1897697E-4,3.8415473E-3],"categories":[],"categories_nodes":[],"categories_segments":[],"categories_sizes":[],"default_left":[0,0,0,0,0,0,0],"id":91,"left_children":[1,3,5,-1,-1,-1,-1],"loss_changes":[1.5801576E0,5.0726664E-1,7.5471497E-1,0E0,0E0,0E0,0E0],"parents":[2147483647,0,0,1,1,2,2],"right_children":[2,4,6,-1,-1,-1,-1],"split_conditions":[5.1E0,2.2E0,1.18E1,-7.478157E-3,-1.8054841E-3,4.1897697E-4,3.8415473E-3],"split_indices":[0,0,0,0,0,0,0],"split_type":[0,0,0,0,0,0,0],"sum_hessian":[3.02E3,8.06E2,2.214E3,5.7E1,7.49E2,1.968E3,2.46E2],"tree_param":{"num_deleted":"0","num_feature":"5","num_nodes":"7","size_leaf_vector":"1"}},{"base_weights":[-7.384551E-4,-2.2270916E-2,2.2584027E-2,-6.524836E-3,-1.0781339E-3,1.1614338E-3,1.1637038E-2],"categories":[],"categories_nodes":[],"categories_segments":[],"categories_sizes":[],"default_left":[0,0,0,0,0,0,0],"id":92,"left_children":[1,3,5,-1,-1,-1,-1],"loss_changes":[1.548254E0,5.4279006E-1,6.978747E-1,0E0,0E0,0E0,0E0],"parents":[2147483647,0,0,1,1,2,2],"right_children":[2,4,6,-1,-1,-1,-1],"split_conditions":[7.1E0,2.3E0,1.88E1,-6.524836E-3,-1.0781339E-3,1.1614338E-3,1.1637038E-2],"split_indices":[0,0,0,0,0,0,0],"split_type":[0,0,0,0,0,0,0],"sum_hessian":[3.081E3,1.602E3,1.479E3,6.4E1,1.538E3,1.458E3,2.1E1],"tree_param":{"num_deleted":"0","num_feature":"5","num_nodes":"7","size_leaf_vector":"1"}},{"base_weights":[1.5912553E-4,-1.3098631E-2,3.7608E-2,-3.8995936E-3,-4.1719252E-4,1.8920851E-3,9.999386E-3],"categories":[],"categories_nodes":[],"categories_segments":[],"categories_sizes":[],"default_left":[0,0,0,0,0,0,0],"id":93,"left_children":[1,3,5,-1,-1,-1,-1],"loss_changes":[1.5381162E0,7.3086333E-1,5.561807E-1,0E0,0E0,0E0,0E0],"parents":[2147483647,0,0,1,1,2,2],"right_children":[2,4,6,-1,-1,-1,-1],"split_conditions":[8.6E0,3.4E0,1.64E1,-3.8995936E-3,-4.1719252E-4,1.8920851E-3,9.999386E-3],"split_indices":[0,0,0,0,0,0,0],"split_type":[0,0,0,0,0,0,0],"sum_hessian":[3.096E3,2.287E3,8.09E2,2.27E2,2.06E3,7.8E2,2.9E1],"tree_param":{"num_deleted":"0","num_feature":"5","num_nodes":"7","size_leaf_vector":"1"}},{"base_weights":[-6.8702524E-5,-6.6149947E-3,1.7623847E-2,-4.7333143E-4,4.940288E-3,7.990732E-4,3.0398883E-3],"categories":[],"categories_nodes":[],"categories_segments":[],"categories_sizes":[],"default_left":[0,0,0,0,0,0,0],"id":94,"left_children":[1,3,5,-1,-1,-1,-1],"loss_changes":[3.5336944E-1,3.0475754E-1,1.1093187E-1,0E0,0E0,0E0,0E0],"parents":[2147483647,0,0,1,1,2,2],"right_children":[2,4,6,-1,-1,-1,-1],"split_conditions":[3.0517E3,1.9E1,9.79806E3,-4.7333143E-4,4.940288E-3,7.990732E-4,3.0398883E-3],"split_indices":[1,2,1,0,0,0,0],"split_type":[0,0,0,0,0,0,0],"sum_hessian":[3.049E3,2.226E3,8.23E2,2.191E3,3.5E1,7.4E2,8.3E1],"tree_param":{"num_deleted":"0","num_feature":"5","num_nodes":"7","size_leaf_vector":"1"}},{"base_weights":[4.360081E-5,-1.0780824E-2,1.0968689E-2,-7.61631E-4,2.7214736E-3,1.080916E-3,-1.2072724E-4],"categories":[],"categories_nodes":[],"categories_segments":[],"categories_sizes":[],"default_left":[0,0,0,0,0,0,0],"id":95,"left_children":[1,3,5,-1,-1,-1,-1],"loss_changes":[3.576116E-1,1.9862066E-1,1.4825372E-1,0E0,0E0,0E0,0E0],"parents":[2147483647,0,0,1,1,2,2],"right_children":[2,4,6,-1,-1,-1,-1],"split_conditions":[1.76551E3,1.4E1,7E0,-7.61631E-4,2.7214736E-3,1.080916E-3,-1.2072724E-4],"split_indices":[1,2,4,0,0,0,0],"split_type":[0,0,0,0,0,0,0],"sum_hessian":[3.022E3,1.518E3,1.504E3,1.461E3,5.7E1,9.52E2,5.52E2],"tree_param":{"num_deleted":"0","num_feature":"5","num_nodes":"7","size_leaf_vector":"1"}},{"base_weights":[-2.8093072E-4,-3.398147E-2,1.1872995E-2,-5.7733315E-3,-1.6054522E-3,2.999809E-4,3.1455786E-3],"categories":[],"categories_nodes":[],"categories_segments":[],"categories_sizes":[],"default_left":[0,0,0,0,0,0,0],"id":96,"left_children":[1,3,5,-1,-1,-1,-1],"loss_changes":[1.2517126E0,3.376925E-1,6.352614E-1,0E0,0E0,0E0,0E0],"parents":[2147483647,0,0,1,1,2,2],"right_children":[2,4,6,-1,-1,-1,-1],"split_conditions":[5E0,2.6E0,1.11E1,-5.7733315E-3,-1.6054522E-3,2.999809E-4,3.1455786E-3],"split_indices":[0,0,0,0,0,0,0],"split_type":[0,0,0,0,0,0,0],"sum_hessian":[3.054E3,8.09E2,2.245E3,7.2E1,7.37E2,1.936E3,3.09E2],"tree_param":{"num_deleted":"0","num_feature":"5","num_nodes":"7","size_leaf_vector":"1"}},{"base_weights":[-1.7218386E-3,-3.25114E-2,9.835295E-3,-6.81104E-3,-1.62464E-3,3.7962635E-4,5.335203E-3],"categories":[],"categories_nodes":[],"categories_segments":[],"categories_sizes":[],"default_left":[0,0,0,0,0,0,0],"id":97,"left_children":[1,3,5,-1,-1,-1,-1],"loss_changes":[1.0991509E0,3.2836097E-1,6.0962856E-1,0E0,0E0,0E0,0E0],"parents":[2147483647,0,0,1,1,2,2],"right_children":[2,4,6,-1,-1,-1,-1],"split_conditions":[5.1E0,2.1E0,1.51E1,-6.81104E-3,-1.62464E-3,3.7962635E-4,5.335203E-3],"split_indices":[0,0,0,0,0,0,0],"split_type":[0,0,0,0,0,0,0],"sum_hessian":[3.087E3,8.42E2,2.245E3,4.3E1,7.99E2,2.158E3,8.7E1],"tree_param":{"num_deleted":"0","num_feature":"5","num_nodes":"7","size_leaf_vector":"1"}},{"base_weights":[-1.2902057E-4,-1.0951967E-2,3.3973645E-2,-2.9073514E-3,-3.2408838E-4,1.7562374E-3,1.050391E-2],"categories":[],"categories_nodes":[],"categories_segments":[],"categories_sizes":[],"default_left":[0,0,0,0,0,0,0],"id":98,"left_children":[1,3,5,-1,-1,-1,-1],"loss_changes":[1.1368041E0,4.902975E-1,4.1485548E-1,0E0,0E0,0E0,0E0],"parents":[2147483647,0,0,1,1,2,2],"right_children":[2,4,6,-1,-1,-1,-1],"split_conditions":[8.9E0,3.6E0,1.88E1,-2.9073514E-3,-3.2408838E-4,1.7562374E-3,1.050391E-2],"split_indices":[0,0,0,0,0,0,0],"split_type":[0,0,0,0,0,0,0],"sum_hessian":[3.078E3,2.337E3,7.41E2,2.84E2,2.053E3,7.23E2,1.8E1],"tree_param":{"num_deleted":"0","num_feature":"5","num_nodes":"7","size_leaf_vector":"1"}},{"base_weights":[1.158112E-3,-8.266867E-3,1.4372903E-2,-1.1264501E-3,1.297754E-4,1.2040744E-3,-1.960735E-4],"categories":[],"categories_nodes":[],"categories_segments":[],"categories_sizes":[],"default_left":[0,0,0,0,0,0,0],"id":99,"left_children":[1,3,5,-1,-1,-1,-1],"loss_changes":[3.8086548E-1,2.0669906E-1,1.4138138E-1,0E0,0E0,0E0,0E0],"parents":[2147483647,0,0,1,1,2,2],"right_children":[2,4,6,-1,-1,-1,-1],"split_conditions":[2.21762E3,1.1E1,8E0,-1.1264501E-3,1.297754E-4,1.2040744E-3,-1.960735E-4],"split_indices":[1,3,4,0,0,0,0],"split_type":[0,0,0,0,0,0,0],"sum_hessian":[3.056E3,1.784E3,1.272E3,8.69E2,9.15E2,9.4E2,3.32E2],"tree_param":{"num_deleted":"0","num_feature":"5","num_nodes":"7","size_leaf_vector":"1"}},{"base_weights":[-3.941839E-4,-1.8575972E-2,4.9387985E-3,-5.219628E-4,-2.115053E-3,1.3903988E-4,2.530894E-3],"categories":[],"categories_nodes":[],"categories_segments":[],"categories_sizes":[],"default_left":[0,0,0,0,0,0,0],"id":100,"left_children":[1,3,5,-1,-1,-1,-1],"loss_changes":[2.9970792E-1,1.189623E-1,2.3468214E-1,0E0,0E0,0E0,0E0],"parents":[2147483647,0,0,1,1,2,2],"right_children":[2,4,6,-1,-1,-1,-1],"split_conditions":[2E0,7E0,1.2E1,-5.219628E-4,-2.115053E-3,1.3903988E-4,2.530894E-3],"split_indices":[2,4,4,0,0,0,0],"split_type":[0,0,0,0,0,0,0],"sum_hessian":[3.089E3,7E2,2.389E3,4.54E2,2.46E2,2.241E3,1.48E2],"tree_param":{"num_deleted":"0","num_feature":"5","num_nodes":"7","size_leaf_vector":"1"}},{"base_weights":[-6.540464E-4,-2.2407802E-2,1.5143694E-2,-5.1294533E-3,-1.085843E-3,7.4717397E-4,9.983994E-3],"categories":[],"categories_nodes":[],"categories_segments":[],"categories_sizes":[],"default_left":[0,0,0,0,0,0,0],"id":101,"left_children":[1,3,5,-1,-1,-1,-1],"loss_changes":[1.046441E0,3.1723315E-1,6.415515E-1,0E0,0E0,0E0,0E0],"parents":[2147483647,0,0,1,1,2,2],"right_children":[2,4,6,-1,-1,-1,-1],"split_conditions":[6.1E0,2.3E0,1.81E1,-5.1294533E-3,-1.085843E-3,7.4717397E-4,9.983994E-3],"split_indices":[0,0,0,0,0,0,0],"split_type":[0,0,0,0,0,0,0],"sum_hessian":[3.043E3,1.28E3,1.763E3,6.9E1,1.211E3,1.738E3,2.5E1],"tree_param":{"num_deleted":"0","num_feature":"5","num_nodes":"7","size_leaf_vector":"1"}},{"base_weights":[-6.268496E-4,-2.0573275E-2,4.8315558E-3,-2.5243005E-3,-7.596106E-4,8.88261E-4,-3.520803E-4],"categories":[],"categories_nodes":[],"categories_segments":[],"categories_sizes":[],"default_left":[0,0,0,0,0,0,0],"id":102,"left_children":[1,3,5,-1,-1,-1,-1],"loss_changes":[3.3140808E-1,1.1153707E-1,2.6987618E-1,0E0,0E0,0E0,0E0],"parents":[2147483647,0,0,1,1,2,2],"right_children":[2,4,6,-1,-1,-1,-1],"split_conditions":[8.7448E2,4.1586E2,6E0,-2.5243005E-3,-7.596106E-4,8.88261E-4,-3.520803E-4],"split_indices":[1,1,4,0,0,0,0],"split_type":[0,0,0,0,0,0,0],"sum_hessian":[3.042E3,6.53E2,2.389E3,1.62E2,4.91E2,1.221E3,1.168E3],"tree_param":{"num_deleted":"0","num_feature":"5","num_nodes":"7","size_leaf_vector":"1"}},{"base_weights":[6.534317E-4,-2.3045158E-2,1.2417818E-2,-5.346383E-3,-1.0734298E-3,5.298932E-4,4.3494264E-3],"categories":[],"categories_nodes":[],"categories_segments":[],"categories_sizes":[],"default_left":[0,0,0,0,0,0,0],"id":103,"left_children":[1,3,5,-1,-1,-1,-1],"loss_changes":[8.765526E-1,3.3094543E-1,4.3488473E-1,0E0,0E0,0E0,0E0],"parents":[2147483647,0,0,1,1,2,2],"right_children":[2,4,6,-1,-1,-1,-1],"split_conditions":[5.4E0,2.2E0,1.44E1,-5.346383E-3,-1.0734298E-3,5.298932E-4,4.3494264E-3],"split_indices":[0,0,0,0,0,0,0],"split_type":[0,0,0,0,0,0,0],"sum_hessian":[3.142E3,1.042E3,2.1E3,6.5E1,9.77E2,1.994E3,1.06E2],"tree_param":{"num_deleted":"0","num_feature":"5","num_nodes":"7","size_leaf_vector":"1"}},{"base_weights":[7.372914E-5,-1.5397847E-3,6.0398057E-2,-7.527885E-4,3.073826E-4,2.7557078E-3,6.428196E-3],"categories":[],"categories_nodes":[],"categories_segments":[],"categories_sizes":[],"default_left":[0,0,0,0,0,0,0],"id":104,"left_children":[1,3,5,-1,-1,-1,-1],"loss_changes":[2.989088E-1,2.3135497E-1,4.724613E-2,0E0,0E0,0E0,0E0],"parents":[2147483647,0,0,1,1,2,2],"right_children":[2,4,6,-1,-1,-1,-1],"split_conditions":[5.8E1,8E0,2.2E1,-7.527885E-4,3.073826E-4,2.7557078E-3,6.428196E-3],"split_indices":[3,3,2,0,0,0,0],"split_type":[0,0,0,0,0,0,0],"sum_hessian":[3.069E3,2.99E3,7.9E1,1.12E3,1.87E3,6.4E1,1.5E1],"tree_param":{"num_deleted":"0","num_feature":"5","num_nodes":"7","size_leaf_vector":"1"}},{"base_weights":[-1.263711E-3,-2.9172793E-2,7.353534E-3,-5.9889713E-3,-1.4694375E-3,7.499369E-5,2.0473828E-3],"categories":[],"categories_nodes":[],"categories_segments":[],"categories_sizes":[],"default_left":[0,0,0,0,0,0,0],"id":105,"left_children":[1,3,5,-1,-1,-1,-1],"loss_changes":[7.380667E-1,2.0974743E-1,3.9456993E-1,0E0,0E0,0E0,0E0],"parents":[2147483647,0,0,1,1,2,2],"right_children":[2,4,6,-1,-1,-1,-1],"split_conditions":[4.8E0,2.1E0,1.04E1,-5.9889713E-3,-1.4694375E-3,7.499369E-5,2.0473828E-3],"split_indices":[0,0,0,0,0,0,0],"split_type":[0,0,0,0,0,0,0],"sum_hessian":[3.067E3,7.23E2,2.344E3,3.6E1,6.87E2,1.924E3,4.2E2],"tree_param":{"num_deleted":"0","num_feature":"5","num_nodes":"7","size_leaf_vector":"1"}},{"base_weights":[-6.1481324E-4,-1.2315978E-2,2.0223739E-2,-3.4206924E-3,-5.140623E-4,1.0246105E-3,8.658383E-3],"categories":[],"categories_nodes":[],"categories_segments":[],"categories_sizes":[],"default_left":[0,0,0,0,0,0,0],"id":106,"left_children":[1,3,5,-1,-1,-1,-1],"loss_changes":[7.363879E-1,3.1352502E-1,3.684286E-1,0E0,0E0,0E0,0E0],"parents":[2147483647,0,0,1,1,2,2],"right_children":[2,4,6,-1,-1,-1,-1],"split_conditions":[7.8E0,3.1E0,1.88E1,-3.4206924E-3,-5.140623E-4,1.0246105E-3,8.658383E-3],"split_indices":[0,0,0,0,0,0,0],"split_type":[0,0,0,0,0,0,0],"sum_hessian":[3.018E3,1.933E3,1.085E3,1.35E2,1.798E3,1.064E3,2.1E1],"tree_param":{"num_deleted":"0","num_feature":"5","num_nodes":"7","size_leaf_vector":"1"}},{"base_weights":[-1.7047905E-5,-2.7721362E-2,8.498241E-3,-4.9978932E-3,-1.4214957E-3,2.9350657E-4,2.7420695E-3],"categories":[],"categories_nodes":[],"categories_segments":[],"categories_sizes":[],"default_left":[0,0,0,0,0,0,0],"id":107,"left_children":[1,3,5,-1,-1,-1,-1],"loss_changes":[7.2046953E-1,1.3776445E-1,3.1164408E-1,0E0,0E0,0E0,0E0],"parents":[2147483647,0,0,1,1,2,2],"right_children":[2,4,6,-1,-1,-1,-1],"split_conditions":[4.8E0,2.1E0,1.26E1,-4.9978932E-3,-1.4214957E-3,2.9350657E-4,2.7420695E-3],"split_indices":[0,0,0,0,0,0,0],"split_type":[0,0,0,0,0,0,0],"sum_hessian":[3.052E3,7.17E2,2.335E3,3.8E1,6.79E2,2.143E3,1.92E2],"tree_param":{"num_deleted":"0","num_feature":"5","num_nodes":"7","size_leaf_vector":"1"}},{"base_weights":[2.9198296E-4,-9.372944E-3,2.310551E-2,-2.4503174E-3,-3.0285274E-4,1.1573465E-3,8.148325E-3],"categories":[],"categories_nodes":[],"categories_segments":[],"categories_sizes":[],"default_left":[0,0,0,0,0,0,0],"id":108,"left_children":[1,3,5,-1,-1,-1,-1],"loss_changes":[6.824159E-1,2.964024E-1,3.4851938E-1,0E0,0E0,0E0,0E0],"parents":[2147483647,0,0,1,1,2,2],"right_children":[2,4,6,-1,-1,-1,-1],"split_conditions":[8.2E0,3.4E0,1.88E1,-2.4503174E-3,-3.0285274E-4,1.1573465E-3,8.148325E-3],"split_indices":[0,0,0,0,0,0,0],"split_type":[0,0,0,0,0,0,0],"sum_hessian":[3.093E3,2.173E3,9.2E2,2.46E2,1.927E3,8.96E2,2.4E1],"tree_param":{"num_deleted":"0","num_feature":"5","num_nodes":"7","size_leaf_vector":"1"}},{"base_weights":[7.5546163E-4,-2.2589177E-2,9.338018E-3,-4.948538E-3,-1.104365E-3,4.3155652E-4,6.696491E-3],"categories":[],"categories_nodes":[],"categories_segments":[],"categories_sizes":[],"default_left":[0,0,0,0,0,0,0],"id":109,"left_children":[1,3,5,-1,-1,-1,-1],"loss_changes":[6.066906E-1,1.8397701E-1,4.5259362E-1,0E0,0E0,0E0,0E0],"parents":[2147483647,0,0,1,1,2,2],"right_children":[2,4,6,-1,-1,-1,-1],"split_conditions":[5E0,2.1E0,1.6E1,-4.948538E-3,-1.104365E-3,4.3155652E-4,6.696491E-3],"split_indices":[0,0,0,0,0,0,0],"split_type":[0,0,0,0,0,0,0],"sum_hessian":[3.026E3,8.13E2,2.213E3,4.4E1,7.69E2,2.174E3,3.9E1],"tree_param":{"num_deleted":"0","num_feature":"5","num_nodes":"7","size_leaf_vector":"1"}},{"base_weights":[-6.688447E-4,-7.1466425E-3,2.2845985E-2,-1.6232484E-3,-1.3372528E-4,1.0157054E-3,4.0040137E-3],"categories":[],"categories_nodes":[],"categories_segments":[],"categories_sizes":[],"default_left":[0,0,0,0,0,0,0],"id":110,"left_children":[1,3,5,-1,-1,-1,-1],"loss_changes":[4.6688494E-1,2.4108145E-1,1.6365251E-1,0E0,0E0,0E0,0E0],"parents":[2147483647,0,0,1,1,2,2],"right_children":[2,4,6,-1,-1,-1,-1],"split_conditions":[9.1E0,4.1E0,1.54E1,-1.6232484E-3,-1.3372528E-4,1.0157054E-3,4.0040137E-3],"split_indices":[0,0,0,0,0,0,0],"split_type":[0,0,0,0,0,0,0],"sum_hessian":[3.063E3,2.402E3,6.61E2,4.56E2,1.946E3,5.92E2,6.9E1],"tree_param":{"num_deleted":"0","num_feature":"5","num_nodes":"7","size_leaf_vector":"1"}},{"base_weights":[1.5291659E-4,-6.01704E-3,2.5106486E-2,-7.135648E-4,6.1173155E-4,1.2894889E-3,6.5648146E-3],"categories":[],"categories_nodes":[],"categories_segments":[],"categories_sizes":[],"default_left":[0,0,0,0,0,0,0],"id":111,"left_children":[1,3,5,-1,-1,-1,-1],"loss_changes":[4.721999E-1,2.5210515E-1,1.574373E-1,0E0,0E0,0E0,0E0],"parents":[2147483647,0,0,1,1,2,2],"right_children":[2,4,6,-1,-1,-1,-1],"split_conditions":[9.4E0,3.0517E3,1.84E1,-7.135648E-4,6.1173155E-4,1.2894889E-3,6.5648146E-3],"split_indices":[0,1,0,0,0,0,0],"split_type":[0,0,0,0,0,0,0],"sum_hessian":[3.065E3,2.458E3,6.07E2,1.786E3,6.72E2,5.88E2,1.9E1],"tree_param":{"num_deleted":"0","num_feature":"5","num_nodes":"7","size_leaf_vector":"1"}},{"base_weights":[1.8708734E-4,-2.3314865E-2,4.6427073E-3,-2.6388203E-3,-1.0201718E-3,1.424152E-4,2.725748E-3],"categories":[],"categories_nodes":[],"categories_segments":[],"categories_sizes":[],"default_left":[0,0,0,0,0,0,0],"id":112,"left_children":[1,3,5,-1,-1,-1,-1],"loss_changes":[3.206432E-1,6.1561733E-2,2.3834258E-1,0E0,0E0,0E0,0E0],"parents":[2147483647,0,0,1,1,2,2],"right_children":[2,4,6,-1,-1,-1,-1],"split_conditions":[7.1238E2,2E0,1.2E1,-2.6388203E-3,-1.0201718E-3,1.424152E-4,2.725748E-3],"split_indices":[1,2,4,0,0,0,0],"split_type":[0,0,0,0,0,0,0],"sum_hessian":[3.06E3,4.87E2,2.573E3,1.01E2,3.86E2,2.446E3,1.27E2],"tree_param":{"num_deleted":"0","num_feature":"5","num_nodes":"7","size_leaf_vector":"1"}},{"base_weights":[6.9093273E-4,-2.4961892E-3,4.914172E-2,-6.620852E-4,4.6431812E-4,2.4285545E-3,6.6234935E-3],"categories":[],"categories_nodes":[],"categories_segments":[],"categories_sizes":[],"default_left":[0,0,0,0,0,0,0],"id":113,"left_children":[1,3,5,-1,-1,-1,-1],"loss_changes":[4.6785653E-1,2.63063E-1,8.585453E-2,0E0,0E0,0E0,0E0],"parents":[2147483647,0,0,1,1,2,2],"right_children":[2,4,6,-1,-1,-1,-1],"split_conditions":[1.28E1,7E0,1.95E1,-6.620852E-4,4.6431812E-4,2.4285545E-3,6.6234935E-3],"split_indices":[0,0,0,0,0,0,0],"split_type":[0,0,0,0,0,0,0],"sum_hessian":[3.028E3,2.842E3,1.86E2,1.539E3,1.303E3,1.68E2,1.8E1],"tree_param":{"num_deleted":"0","num_feature":"5","num_nodes":"7","size_leaf_vector":"1"}},{"base_weights":[3.9101276E-4,-5.3210016E-3,2.1823725E-2,-4.703243E-4,1.8245929E-3,1.0855146E-3,5.901393E-3],"categories":[],"categories_nodes":[],"categories_segments":[],"categories_sizes":[],"default_left":[0,0,0,0,0,0,0],"id":114,"left_children":[1,3,5,-1,-1,-1,-1],"loss_changes":[3.7583527E-1,2.4311462E-1,1.6320258E-1,0E0,0E0,0E0,0E0],"parents":[2147483647,0,0,1,1,2,2],"right_children":[2,4,6,-1,-1,-1,-1],"split_conditions":[9.3E0,6.72328E3,1.84E1,-4.703243E-4,1.8245929E-3,1.0855146E-3,5.901393E-3],"split_indices":[0,1,0,0,0,0,0],"split_type":[0,0,0,0,0,0,0],"sum_hessian":[3.068E3,2.423E3,6.45E2,2.255E3,1.68E2,6.21E2,2.4E1],"tree_param":{"num_deleted":"0","num_feature":"5","num_nodes":"7","size_leaf_vector":"1"}},{"base_weights":[-1.3832118E-3,-8.916123E-3,1.4602306E-2,-3.0215564E-3,-3.9881957E-4,7.123044E-4,5.0560357E-3],"categories":[],"categories_nodes":[],"categories_segments":[],"categories_sizes":[],"default_left":[0,0,0,0,0,0,0],"id":115,"left_children":[1,3,5,-1,-1,-1,-1],"loss_changes":[3.639114E-1,1.8293728E-1,1.6604407E-1,0E0,0E0,0E0,0E0],"parents":[2147483647,0,0,1,1,2,2],"right_children":[2,4,6,-1,-1,-1,-1],"split_conditions":[8E0,2.7E0,1.62E1,-3.0215564E-3,-3.9881957E-4,7.123044E-4,5.0560357E-3],"split_indices":[0,0,0,0,0,0,0],"split_type":[0,0,0,0,0,0,0],"sum_hessian":[3.02E3,2.053E3,9.67E2,9.4E1,1.959E3,9.37E2,3E1],"tree_param":{"num_deleted":"0","num_feature":"5","num_nodes":"7","size_leaf_vector":"1"}},{"base_weights":[2.4728207E-3,-1.3396427E-2,9.870757E-3,-2.1391538E-4,-1.3987178E-3,2.8036971E-5,1.1867761E-3],"categories":[],"categories_nodes":[],"categories_segments":[],"categories_sizes":[],"default_left":[0,0,0,0,0,0,0],"id":116,"left_children":[1,3,5,-1,-1,-1,-1],"loss_changes":[3.621929E-1,1.0083009E-1,2.067637E-1,0E0,0E0,0E0,0E0],"parents":[2147483647,0,0,1,1,2,2],"right_children":[2,4,6,-1,-1,-1,-1],"split_conditions":[5.4E0,6E0,1.85687E3,-2.1391538E-4,-1.3987178E-3,2.8036971E-5,1.1867761E-3],"split_indices":[0,4,1,0,0,0,0],"split_type":[0,0,0,0,0,0,0],"sum_hessian":[3.083E3,9.8E2,2.103E3,5.11E2,4.69E2,1.109E3,9.94E2],"tree_param":{"num_deleted":"0","num_feature":"5","num_nodes":"7","size_leaf_vector":"1"}},{"base_weights":[1.1759369E-3,-4.8333276E-3,1.6362766E-2,-8.948761E-4,3.7111324E-4,6.8929174E-4,2.1728629E-3],"categories":[],"categories_nodes":[],"categories_segments":[],"categories_sizes":[],"default_left":[0,0,0,0,0,0,0],"id":117,"left_children":[1,3,5,-1,-1,-1,-1],"loss_changes":[2.8134754E-1,2.597353E-1,8.2579404E-2,0E0,0E0,0E0,0E0],"parents":[2147483647,0,0,1,1,2,2],"right_children":[2,4,6,-1,-1,-1,-1],"split_conditions":[2.95043E3,4E0,7.74401E3,-8.948761E-4,3.7111324E-4,6.8929174E-4,2.1728629E-3],"split_indices":[1,2,1,0,0,0,0],"split_type":[0,0,0,0,0,0,0],"sum_hessian":[3.081E3,2.208E3,8.73E2,1.139E3,1.069E3,7.18E2,1.55E2],"tree_param":{"num_deleted":"0","num_feature":"5","num_nodes":"7","size_leaf_vector":"1"}},{"base_weights":[7.270745E-4,-1.3640288E-3,4.940214E-2,-1.4311591E-3,1.4074107E-4,2.1426668E-3,5.9090955E-3],"categories":[],"categories_nodes":[],"categories_segments":[],"categories_sizes":[],"default_left":[0,0,0,0,0,0,0],"id":118,"left_children":[1,3,5,-1,-1,-1,-1],"loss_changes":[3.0888185E-1,2.5453004E-1,7.85096E-2,0E0,0E0,0E0,0E0],"parents":[2147483647,0,0,1,1,2,2],"right_children":[2,4,6,-1,-1,-1,-1],"split_conditions":[1.41E1,4E0,1.88E1,-1.4311591E-3,1.4074107E-4,2.1426668E-3,5.9090955E-3],"split_indices":[0,0,0,0,0,0,0],"split_type":[0,0,0,0,0,0,0],"sum_hessian":[3.033E3,2.909E3,1.24E2,4.07E2,2.502E3,1.01E2,2.3E1],"tree_param":{"num_deleted":"0","num_feature":"5","num_nodes":"7","size_leaf_vector":"1"}},{"base_weights":[3.649933E-4,-6.1256806E-3,1.5188646E-2,-4.3277834E-3,-2.7463184E-4,-4.2752574E-5,1.4933755E-3],"categories":[],"categories_nodes":[],"categories_segments":[],"categories_sizes":[],"default_left":[0,0,0,0,0,0,0],"id":119,"left_children":[1,3,5,-1,-1,-1,-1],"loss_changes":[2.982649E-1,2.0788486E-1,1.5635243E-1,0E0,0E0,0E0,0E0],"parents":[2147483647,0,0,1,1,2,2],"right_children":[2,4,6,-1,-1,-1,-1],"split_conditions":[8.2E0,2.1E0,3E0,-4.3277834E-3,-2.7463184E-4,-4.2752574E-5,1.4933755E-3],"split_indices":[0,0,2,0,0,0,0],"split_type":[0,0,0,0,0,0,0],"sum_hessian":[3.098E3,2.155E3,9.43E2,4.3E1,2.112E3,3.73E2,5.7E2],"tree_param":{"num_deleted":"0","num_feature":"5","num_nodes":"7","size_leaf_vector":"1"}},{"base_weights":[4.8190686E-5,-1.358171E-2,6.8133734E-3,-2.2745754E-3,-5.344589E-4,2.4158074E-4,2.2566437E-3],"categories":[],"categories_nodes":[],"categories_segments":[],"categories_sizes":[],"default_left":[0,0,0,0,0,0,0],"id":120,"left_children":[1,3,5,-1,-1,-1,-1],"loss_changes":[2.8354228E-1,1.1421955E-1,1.7487064E-1,0E0,0E0,0E0,0E0],"parents":[2147483647,0,0,1,1,2,2],"right_children":[2,4,6,-1,-1,-1,-1],"split_conditions":[5.4E0,3.1E0,1.32E1,-2.2745754E-3,-5.344589E-4,2.4158074E-4,2.2566437E-3],"split_indices":[0,0,0,0,0,0,0],"split_type":[0,0,0,0,0,0,0],"sum_hessian":[3.073E3,1.019E3,2.054E3,1.5E2,8.69E2,1.896E3,1.58E2],"tree_param":{"num_deleted":"0","num_feature":"5","num_nodes":"7","size_leaf_vector":"1"}},{"base_weights":[5.3130316E-5,-2.8033077E-3,2.7369466E-2,-2.2021185E-4,4.318844E-3,1.1313187E-3,3.182412E-3],"categories":[],"categories_nodes":[],"categories_segments":[],"categories_sizes":[],"default_left":[0,0,0,0,0,0,0],"id":121,"left_children":[1,3,5,-1,-1,-1,-1],"loss_changes":[2.4149355E-1,2.090929E-1,6.2482372E-2,0E0,0E0,0E0,0E0],"parents":[2147483647,0,0,1,1,2,2],"right_children":[2,4,6,-1,-1,-1,-1],"split_conditions":[1.16E1,6.8E1,3.47744E3,-2.2021185E-4,4.318844E-3,1.1313187E-3,3.182412E-3],"split_indices":[0,3,1,0,0,0,0],"split_type":[0,0,0,0,0,0,0],"sum_hessian":[3.093E3,2.801E3,2.92E2,2.767E3,3.4E1,2.27E2,6.5E1],"tree_param":{"num_deleted":"0","num_feature":"5","num_nodes":"7","size_leaf_vector":"1"}},{"base_weights":[6.690471E-4,-7.4206707E-3,1.03078745E-2,-6.043526E-4,1.0978179E-3,-1.0014625E-3,8.2131877E-4],"categories":[],"categories_nodes":[],"categories_segments":[],"categories_sizes":[],"default_left":[0,0,0,0,0,0,0],"id":122,"left_children":[1,3,5,-1,-1,-1,-1],"loss_changes":[2.3462647E-1,1.2617502E-1,1.4228103E-1,0E0,0E0,0E0,0E0],"parents":[2147483647,0,0,1,1,2,2],"right_children":[2,4,6,-1,-1,-1,-1],"split_conditions":[1.3E1,1.14E1,3.8E0,-6.043526E-4,1.0978179E-3,-1.0014625E-3,8.2131877E-4],"split_indices":[3,0,0,0,0,0,0],"split_type":[0,0,0,0,0,0,0],"sum_hessian":[3.007E3,1.635E3,1.372E3,1.471E3,1.64E2,1.65E2,1.207E3],"tree_param":{"num_deleted":"0","num_feature":"5","num_nodes":"7","size_leaf_vector":"1"}},{"base_weights":[-2.8424937E-4,6.605808E-3,-1.1851602E-2,2.3825272E-4,2.61688E-3,-1.1202374E-3,2.0559605E-3],"categories":[],"categories_nodes":[],"categories_segments":[],"categories_sizes":[],"default_left":[0,0,0,0,0,0,0],"id":123,"left_children":[1,3,5,-1,-1,-1,-1],"loss_changes":[2.4467675E-1,1.8543777E-1,3.9696765E-1,0E0,0E0,0E0,0E0],"parents":[2147483647,0,0,1,1,2,2],"right_children":[2,4,6,-1,-1,-1,-1],"split_conditions":[7E0,1.2E1,1.2E1,2.3825272E-4,2.61688E-3,-1.1202374E-3,2.0559605E-3],"split_indices":[4,2,4,0,0,0,0],"split_type":[0,0,0,0,0,0,0],"sum_hessian":[3.068E3,1.923E3,1.145E3,1.805E3,1.18E2,9.91E2,1.54E2],"tree_param":{"num_deleted":"0","num_feature":"5","num_nodes":"7","size_leaf_vector":"1"}},{"base_weights":[4.2372086E-4,-6.565332E-3,1.3414201E-2,-1.8702945E-5,-9.972224E-4,-6.19786E-4,1.067501E-3],"categories":[],"categories_nodes":[],"categories_segments":[],"categories_sizes":[],"default_left":[0,0,0,0,0,0,0],"id":124,"left_children":[1,3,5,-1,-1,-1,-1],"loss_changes":[2.7745506E-1,1.3056871E-1,1.255355E-1,0E0,0E0,0E0,0E0],"parents":[2147483647,0,0,1,1,2,2],"right_children":[2,4,6,-1,-1,-1,-1],"split_conditions":[2.50146E3,7E0,4.1E0,-1.8702945E-5,-9.972224E-4,-6.19786E-4,1.067501E-3],"split_indices":[1,4,0,0,0,0,0],"split_type":[0,0,0,0,0,0,0],"sum_hessian":[3.054E3,1.986E3,1.068E3,1.247E3,7.39E2,1.8E2,8.88E2],"tree_param":{"num_deleted":"0","num_feature":"5","num_nodes":"7","size_leaf_vector":"1"}},{"base_weights":[-5.123775E-4,-1.6981566E-2,4.077834E-3,-2.2844432E-3,-7.216816E-4,4.996224E-4,-7.133087E-4],"categories":[],"categories_nodes":[],"categories_segments":[],"categories_sizes":[],"default_left":[0,0,0,0,0,0,0],"id":125,"left_children":[1,3,5,-1,-1,-1,-1],"loss_changes":[2.3237899E-1,6.8047985E-2,1.7580801E-1,0E0,0E0,0E0,0E0],"parents":[2147483647,0,0,1,1,2,2],"right_children":[2,4,6,-1,-1,-1,-1],"split_conditions":[8.507E2,4E0,9E0,-2.2844432E-3,-7.216816E-4,4.996224E-4,-7.133087E-4],"split_indices":[1,3,4,0,0,0,0],"split_type":[0,0,0,0,0,0,0],"sum_hessian":[3.072E3,6.69E2,2.403E3,1.14E2,5.55E2,1.885E3,5.18E2],"tree_param":{"num_deleted":"0","num_feature":"5","num_nodes":"7","size_leaf_vector":"1"}},{"base_weights":[-4.8631112E-4,-1.0378112E-2,6.611683E-3,-3.905519E-3,-5.0260714E-4,3.162598E-4,3.8895186E-3],"categories":[],"categories_nodes":[],"categories_segments":[],"categories_sizes":[],"default_left":[0,0,0,0,0,0,0],"id":126,"left_children":[1,3,5,-1,-1,-1,-1],"loss_changes":[2.173044E-1,1.285066E-1,1.2863214E-1,0E0,0E0,0E0,0E0],"parents":[2147483647,0,0,1,1,2,2],"right_children":[2,4,6,-1,-1,-1,-1],"split_conditions":[6.1E0,2.1E0,1.63E1,-3.905519E-3,-5.0260714E-4,3.162598E-4,3.8895186E-3],"split_indices":[0,0,0,0,0,0,0],"split_type":[0,0,0,0,0,0,0],"sum_hessian":[3.093E3,1.292E3,1.801E3,3.8E1,1.254E3,1.767E3,3.4E1],"tree_param":{"num_deleted":"0","num_feature":"5","num_nodes":"7","size_leaf_vector":"1"}},{"base_weights":[-2.541826E-4,-1.6596004E-2,4.407067E-3,-1.963512E-3,-6.601478E-4,1.9048034E-4,4.308767E-3],"categories":[],"categories_nodes":[],"categories_segments":[],"categories_sizes":[],"default_left":[0,0,0,0,0,0,0],"id":127,"left_children":[1,3,5,-1,-1,-1,-1],"loss_changes":[2.2996417E-1,5.9980527E-2,1.8616796E-1,0E0,0E0,0E0,0E0],"parents":[2147483647,0,0,1,1,2,2],"right_children":[2,4,6,-1,-1,-1,-1],"split_conditions":[2E0,4.8E0,1.9E1,-1.963512E-3,-6.601478E-4,1.9048034E-4,4.308767E-3],"split_indices":[2,0,2,0,0,0,0],"split_type":[0,0,0,0,0,0,0],"sum_hessian":[3.017E3,6.69E2,2.348E3,1.57E2,5.12E2,2.311E3,3.7E1],"tree_param":{"num_deleted":"0","num_feature":"5","num_nodes":"7","size_leaf_vector":"1"}},{"base_weights":[3.9911206E-4,-3.0641334E-2,3.0918752E-3,-3.0989568E-3,-1.4150403E-3,6.92884E-5,2.641568E-3],"categories":[],"categories_nodes":[],"categories_segments":[],"categories_sizes":[],"default_left":[0,0,0,0,0,0,0],"id":128,"left_children":[1,3,5,-1,-1,-1,-1],"loss_changes":[2.5444257E-1,3.3609033E-2,2.2492898E-1,0E0,0E0,0E0,0E0],"parents":[2147483647,0,0,1,1,2,2],"right_children":[2,4,6,-1,-1,-1,-1],"split_conditions":[5.031E2,2.5808E2,5E1,-3.0989568E-3,-1.4150403E-3,6.92884E-5,2.641568E-3],"split_indices":[1,1,3,0,0,0,0],"split_type":[0,0,0,0,0,0,0],"sum_hessian":[3.042E3,2.42E2,2.8E3,5.2E1,1.9E2,2.68E3,1.2E2],"tree_param":{"num_deleted":"0","num_feature":"5","num_nodes":"7","size_leaf_vector":"1"}},{"base_weights":[-9.932038E-4,6.8560853E-3,-9.541421E-3,-2.53187E-4,8.586341E-4,-8.236466E-4,1.6058626E-3],"categories":[],"categories_nodes":[],"categories_segments":[],"categories_sizes":[],"default_left":[0,0,0,0,0,0,0],"id":129,"left_children":[1,3,5,-1,-1,-1,-1],"loss_changes":[2.0759776E-1,1.4194456E-1,2.5134933E-1,0E0,0E0,0E0,0E0],"parents":[2147483647,0,0,1,1,2,2],"right_children":[2,4,6,-1,-1,-1,-1],"split_conditions":[6E0,6.1E0,1.2E1,-2.53187E-4,8.586341E-4,-8.236466E-4,1.6058626E-3],"split_indices":[4,0,4,0,0,0,0],"split_type":[0,0,0,0,0,0,0],"sum_hessian":[3.092E3,1.612E3,1.48E3,6.65E2,9.47E2,1.318E3,1.62E2],"tree_param":{"num_deleted":"0","num_feature":"5","num_nodes":"7","size_leaf_vector":"1"}},{"base_weights":[-6.3228176E-4,-5.0971545E-3,1.30115505E-2,-3.8800464E-4,1.911846E-3,6.205792E-4,2.6622526E-3],"categories":[],"categories_nodes":[],"categories_segments":[],"categories_sizes":[],"default_left":[0,0,0,0,0,0,0],"id":130,"left_children":[1,3,5,-1,-1,-1,-1],"loss_changes":[1.8653625E-1,1.3573784E-1,5.804442E-2,0E0,0E0,0E0,0E0],"parents":[2147483647,0,0,1,1,2,2],"right_children":[2,4,6,-1,-1,-1,-1],"split_conditions":[3.30162E3,1.4E1,1.206853E4,-3.8800464E-4,1.911846E-3,6.205792E-4,2.6622526E-3],"split_indices":[1,2,1,0,0,0,0],"split_type":[0,0,0,0,0,0,0],"sum_hessian":[3.06E3,2.306E3,7.54E2,2.216E3,9E1,7.04E2,5E1],"tree_param":{"num_deleted":"0","num_feature":"5","num_nodes":"7","size_leaf_vector":"1"}},{"base_weights":[1.0418739E-4,-1.6383074E-3,3.0095587E-2,1.924429E-4,-1.6019727E-3,5.770943E-4,2.2787615E-3],"categories":[],"categories_nodes":[],"categories_segments":[],"categories_sizes":[],"default_left":[0,0,0,0,0,0,0],"id":131,"left_children":[1,3,5,-1,-1,-1,-1],"loss_changes":[1.5703791E-1,3.6194143E-1,2.9463992E-2,0E0,0E0,0E0,0E0],"parents":[2147483647,0,0,1,1,2,2],"right_children":[2,4,6,-1,-1,-1,-1],"split_conditions":[1.2E1,9E0,1.09753E3,1.924429E-4,-1.6019727E-3,5.770943E-4,2.2787615E-3],"split_indices":[4,4,1,0,0,0,0],"split_type":[0,0,0,0,0,0,0],"sum_hessian":[3.003E3,2.839E3,1.64E2,2.384E3,4.55E2,5.1E1,1.13E2],"tree_param":{"num_deleted":"0","num_feature":"5","num_nodes":"7","size_leaf_vector":"1"}},{"base_weights":[-5.7718164E-4,7.130412E-3,-8.717219E-3,3.0560078E-4,3.2745462E-3,-7.251642E-4,1.3171466E-3],"categories":[],"categories_nodes":[],"categories_segments":[],"categories_sizes":[],"default_left":[0,0,0,0,0,0,0],"id":132,"left_children":[1,3,5,-1,-1,-1,-1],"loss_changes":[1.906666E-1,1.4449744E-1,1.7180198E-1,0E0,0E0,0E0,0E0],"parents":[2147483647,0,0,1,1,2,2],"right_children":[2,4,6,-1,-1,-1,-1],"split_conditions":[6E0,1.5E1,1.2E1,3.0560078E-4,3.2745462E-3,-7.251642E-4,1.3171466E-3],"split_indices":[4,2,4,0,0,0,0],"split_type":[0,0,0,0,0,0,0],"sum_hessian":[3.037E3,1.56E3,1.477E3,1.503E3,5.7E1,1.321E3,1.56E2],"tree_param":{"num_deleted":"0","num_feature":"5","num_nodes":"7","size_leaf_vector":"1"}},{"base_weights":[-6.407001E-4,-1.9082136E-2,3.872306E-3,-4.7709183E-3,-1.0053917E-3,-2.5475395E-4,7.4518536E-4],"categories":[],"categories_nodes":[],"categories_segments":[],"categories_sizes":[],"default_left":[0,0,0,0,0,0,0],"id":133,"left_children":[1,3,5,-1,-1,-1,-1],"loss_changes":[2.5441352E-1,6.8418235E-2,1.8006116E-1,0E0,0E0,0E0,0E0],"parents":[2147483647,0,0,1,1,2,2],"right_children":[2,4,6,-1,-1,-1,-1],"split_conditions":[4.5E0,2E0,4E0,-4.7709183E-3,-1.0053917E-3,-2.5475395E-4,7.4518536E-4],"split_indices":[0,0,2,0,0,0,0],"split_type":[0,0,0,0,0,0,0],"sum_hessian":[3.055E3,6E2,2.455E3,1.6E1,5.84E2,1.275E3,1.18E3],"tree_param":{"num_deleted":"0","num_feature":"5","num_nodes":"7","size_leaf_vector":"1"}},{"base_weights":[-2.874006E-4,-1.3700366E-2,3.6553717E-3,-9.4248983E-4,3.930911E-4,-5.397208E-5,1.0998171E-3],"categories":[],"categories_nodes":[],"categories_segments":[],"categories_sizes":[],"default_left":[0,0,0,0,0,0,0],"id":134,"left_children":[1,3,5,-1,-1,-1,-1],"loss_changes":[1.6155863E-1,3.4857243E-2,1.6429156E-1,0E0,0E0,0E0,0E0],"parents":[2147483647,0,0,1,1,2,2],"right_children":[2,4,6,-1,-1,-1,-1],"split_conditions":[2E0,1.13E1,9E0,-9.4248983E-4,3.930911E-4,-5.397208E-5,1.0998171E-3],"split_indices":[2,0,0,0,0,0,0],"split_type":[0,0,0,0,0,0,0],"sum_hessian":[3.053E3,6.93E2,2.36E3,6.19E2,7.4E1,1.814E3,5.46E2],"tree_param":{"num_deleted":"0","num_feature":"5","num_nodes":"7","size_leaf_vector":"1"}},{"base_weights":[-2.9426665E-4,-1.3727543E-3,4.2951237E-2,-1.7246409E-4,1.5739524E-3,1.7625103E-3,5.3153937E-3],"categories":[],"categories_nodes":[],"categories_segments":[],"categories_sizes":[],"default_left":[0,0,0,0,0,0,0],"id":135,"left_children":[1,3,5,-1,-1,-1,-1],"loss_changes":[1.418438E-1,1.3316791E-1,4.2658955E-2,0E0,0E0,0E0,0E0],"parents":[2147483647,0,0,1,1,2,2],"right_children":[2,4,6,-1,-1,-1,-1],"split_conditions":[1.53E1,1.2E1,1.95E1,